34 128
0 -0.20421524252539716 -0.16905545135336972 0.2045685544979204 -0.21162422382605067 0.07576746758070982 -0.30769876769488597 -0.085116667481903 0.19318424254273522 0.1980152049985026 -0.20649805470765686 0.19365843401860275 -0.25134898665293076 0.11880349798127048 -0.16392526005196428 -0.13098781476085272 -0.37172112848113087 -0.23463882207486567 0.20982435815852396 0.23920075849596395 -0.21550434286756007 0.14744322087556694 -0.1354388846786726 -0.15783597017461848 -0.17190587650543748 0.24125106587140335 -0.05485517551333129 0.3444891572983698 -0.08148368210692268 0.2510366103730182 0.2286393689640304 -0.13132914804381735 -0.3128722014905131 -0.022970227134750672 0.26352265439277267 0.008174766241957346 -0.18473110282577482 0.1607949246338093 -0.15849565804492324 0.04041857857357183 -0.0782184137927008 -0.07296437052901751 -0.33891814875851417 -0.12948082796012622 -0.09301841689535847 0.0594693262543486 0.11459954644473413 0.1480309964919415 -0.017576721506799856 0.036867860656143114 0.09648527329291527 0.09084328776335554 -0.26824244720425866 0.08212791922594734 -0.37160447816518055 -0.3162555310500573 0.23781376828482761 -0.15622415401025638 -0.06456535080786488 -0.26798862024022946 0.10736166460208324 -0.1462355900140248 0.16909961877750712 0.2852493463060063 -0.027553395329241545 0.1829992418103211 -0.16418131287476834 -0.21013677633474948 -0.012139929618858493 -0.19607706038920722 -0.18105657979831732 -0.3880750768944248 -0.23447140324047996 -0.27882437121196774 -0.10661993440681981 0.05513120256745337 -0.1271641235283084 -0.17315790590976718 -0.03359256707189792 0.20941999664733046 0.26109013955337307 -0.20295755116411662 -0.2893991236294698 -0.023997161048038205 0.001810708476308179 -0.24164237258209287 -0.12455333964257996 0.04397006054949433 -0.28969759467081024 -0.06526853847887432 -0.2765825083357944 -0.2769862331075082 -0.1557243011889832 -0.09878843506515231 0.2587839705094699 -0.3676562396694154 0.3245015102834255 0.35704191347687886 0.33079589143460814 -0.2872740421602442 -0.21465972691223922 -0.04946642844706053 0.3268677108769064 -0.20285279174673965 0.24300771010920258 -0.18739535680086028 0.009609091434797445 0.12086412602577251 -0.16435734617352066 -0.3148131787256232 -0.002379372172938032 -0.07321619374552321 0.27010621299396637 -0.17625945081038052 -0.23963387069521866 0.21408925724429406 0.20554307697221363 0.3350403755667677 0.15929775909234534 -0.145641887066849 0.14201685104412745 0.4176302783286801 0.2715906422308072 0.08669581891952956 0.25653841950944845 0.2219369162056071 0.28878600053568665 0.19053041758668918 -0.22977885190750003
1 -0.17227170394631522 -0.1360450474673316 0.1872207158366168 -0.19543411908053918 0.09334854294565337 -0.26285848316243504 -0.06948494093921266 0.17272654317052158 0.18965384168685376 -0.18417156039770646 0.17776770457123342 -0.22328526672124838 0.11620835709149523 -0.12837270736484543 -0.11600979191161084 -0.31223099905530793 -0.2066662819408138 0.18019561917268992 0.20637394603303116 -0.16320610119630025 0.12779924578107152 -0.13417049994544658 -0.10231458588708389 -0.15324833249809985 0.20029264697995622 -0.012857843907659074 0.2937521701539047 -0.04688882693053484 0.2342456232952289 0.19157849362872836 -0.12945645584936877 -0.263783438936168 0.019370465600559588 0.22478815946924005 -0.011585121137658055 -0.14068935249023307 0.10916112553588983 -0.15541151371234438 0.05465817916450964 -0.021822720246249875 -0.03338719090502703 -0.2941252139978073 -0.09214088937933754 -0.09051539644421633 0.05247942157563232 0.07332102907352561 0.14061237461436676 -0.024849968254808327 0.02545214166600335 0.06064678684485474 0.07159683770634927 -0.2366617980863881 0.05721337587823411 -0.3115618492077014 -0.27687512734997033 0.20723284766318503 -0.13473957533511294 -0.07605288051447252 -0.22507563756922658 0.12139090486870834 -0.13192705002703176 0.10029559075163458 0.25579154271630217 -0.021217302100118015 0.15628634835080987 -0.08878278835498593 -0.14794358370637822 -0.046882911338426037 -0.16738660266322095 -0.137240001828485 -0.3287902030490397 -0.2037905022089323 -0.23358185728554903 -0.09446636156179612 0.05824990767708984 -0.10483504861907837 -0.172453468417814 0.009555235266551812 0.17643887118236556 0.2271858503676233 -0.1853970070688615 -0.2463281557575596 -0.03638687857337832 0.015116562468617919 -0.21651739508150022 -0.11511739130752334 0.045495194679472176 -0.25058126879499637 -0.06727900922032756 -0.2500256230206814 -0.24382221917167513 -0.14075030852087922 -0.08488741062820047 0.23346251927863346 -0.31268951750637103 0.2710541829205375 0.30047727054334783 0.2792185319510871 -0.2520186734541036 -0.19026974562995208 -0.012259781075161597 0.2808512373459517 -0.14865680908904802 0.1983547424650786 -0.1647948628765604 -0.005345930882445376 0.0757474226887986 -0.1463091510948814 -0.27046763439464916 0.019559484520384935 -0.04909419827872281 0.2337247074063576 -0.16842699041101306 -0.2013565830529555 0.1931709092295686 0.16895974146833323 0.27831315222897846 0.14937257933317252 -0.11269076147747287 0.12239805942849309 0.35149553689855684 0.23724874613056754 0.07562902214978125 0.21729576693880973 0.18094686791612966 0.24898911485076594 0.1447888410541227 -0.19497359575472206
2 -0.1727778027189947 -0.1314495156000317 0.21213698312171617 -0.20622991349002479 0.10582973726742474 -0.28623095086793127 -0.06742152128982233 0.17230744846028875 0.23796405172298207 -0.19675958034159421 0.20210338426153493 -0.25063292104854407 0.1467141371987338 -0.08179946174509063 -0.11231646400005263 -0.3340354836646363 -0.22632018212780727 0.17985008419844536 0.23371127158564603 -0.10906756342957194 0.12591289431955469 -0.1722369513532979 -0.03228745300360115 -0.18999528587945852 0.21133805543289963 0.06299238543878118 0.3261866804344533 0.0038054841579365133 0.2814396792358111 0.21776514955015738 -0.1619889761802076 -0.281630182498827 0.05995672924587355 0.23804403322141737 -0.024427308730341022 -0.10728276127109856 0.03500570370962903 -0.20517517404591717 0.08627109569719221 0.05033018505800367 0.04198383841900337 -0.3121113623924481 -0.05954316392884505 -0.12965420935131433 0.07772820592411246 0.02677406171992816 0.16456165209318618 -0.07057925967396464 0.03597348629416271 0.029706729786773193 0.06318483399079744 -0.2658450081103219 0.018764420155732705 -0.34444740356370457 -0.301896062596343 0.20882710131115942 -0.16740740622854336 -0.10801034255123794 -0.24370986391957966 0.18581342729868872 -0.12078551920954445 -0.03276039739883843 0.271021702942886 0.018662701491284878 0.16452058461292027 0.0012623318133415586 -0.03650887178050812 -0.10989566347965961 -0.17643856001361888 -0.10725801831327957 -0.3573827211368139 -0.20261236618218656 -0.27035619503094255 -0.09950430174922888 0.09120037082023545 -0.07454230101285006 -0.21853848601150197 0.08083103798394975 0.19478508976680908 0.2480184729355939 -0.2208190039161013 -0.27585726569487085 -0.0558128210239277 -0.022756821816495028 -0.23304684805122827 -0.15235238701872456 0.0675126918217126 -0.2694628393291019 -0.07672912320257783 -0.2901802482343211 -0.26471119503806706 -0.16669066954798079 -0.08899172747883416 0.26623121555812307 -0.34714151906353996 0.3070114232368994 0.3258801896371511 0.3091374187147079 -0.27192128477823707 -0.21901743055670636 0.04777914592483053 0.3110657966264686 -0.10520650339220632 0.1517776366509354 -0.1751953262685957 -0.08553065956191629 -0.005905408609548019 -0.17340231449437382 -0.2880633347132425 0.023874505958412316 -0.002144328876689682 0.26347623121019265 -0.20970164673232275 -0.2188568219095317 0.20933209465775998 0.13860782859818715 0.3045434588651051 0.18991983476942975 -0.07130749371880862 0.1288847800758292 0.38788850957728394 0.25891969346284105 0.08542984356650048 0.23074791702686476 0.20290063886651127 0.2641830838093027 0.12940063031053173 -0.19030975504665065
3 -0.15444594753620272 -0.13136324291218154 0.1747784430334828 -0.17832141388651407 0.08598525223834529 -0.23351986382563725 -0.05857549381101326 0.1681163938082793 0.17805936029664796 -0.17334480776732683 0.16603635476126216 -0.2001370743180097 0.10822153748737601 -0.11533067962192038 -0.10911210797285967 -0.2822954188864716 -0.18578406529046196 0.1674961137684885 0.1866532989309194 -0.14057897708768585 0.12151919966144226 -0.13487060204555903 -0.08433788804101296 -0.14550006391143258 0.1840779393881374 0.0011361248873243618 0.25947450310585873 -0.03707485504332425 0.21300888566564932 0.1776689961923253 -0.11992224133384323 -0.23575321822014955 0.023893194174545943 0.2025577846986394 -0.01246209754557784 -0.12546620193206637 0.0863111065677097 -0.14988440025687705 0.055015084597870835 -0.009033848171254487 -0.015294589695214458 -0.2619612708341911 -0.08510880228222986 -0.08572204819867095 0.052707121174671155 0.0644152080223128 0.13154538106531707 -0.03172864894337055 0.023946363638337236 0.05126110938910168 0.06176266998469596 -0.20829593447239533 0.043752186088408265 -0.2734727880047798 -0.24649074526627707 0.189104052469889 -0.13016450589720907 -0.07019629860949289 -0.20560278658321632 0.11965972124052168 -0.11577096069346973 0.07453001547496554 0.22790786093308474 -0.009839261932356692 0.14517001077927374 -0.07060907230601061 -0.1164779642224887 -0.05934352734513124 -0.16066101494750104 -0.12243105658345393 -0.29536527387452 -0.18868512889161065 -0.21780010235282393 -0.09521336184575843 0.05967161416911878 -0.09596747513134073 -0.1648386701067396 0.02141645942700254 0.16212999306893594 0.20564480785862582 -0.16851799307385443 -0.22697144053666293 -0.03775939870242032 0.0008469917087591767 -0.19855516196295261 -0.11059178366595965 0.0416949463242285 -0.22334100844396967 -0.06099062021536563 -0.22788370468793867 -0.2180148193123596 -0.13423196690517356 -0.07445893123481374 0.21026267760044848 -0.2621689106312819 0.24738008960157115 0.2719028609078331 0.25008575560848717 -0.22515332299744187 -0.17758051875848718 0.0025533665596981035 0.25681459514825233 -0.13668867414983887 0.17187805905707587 -0.14879301451321006 -0.018504715946242145 0.056964813177648274 -0.13773060859171168 -0.24702178566714636 0.016768153412845026 -0.0461811771957628 0.21411547799577435 -0.1541112009834454 -0.18958684600381542 0.17669689081326614 0.1526326643490741 0.2502727430293218 0.1469557529835612 -0.096289612691625 0.11508065580784328 0.31173135882574177 0.22004537668562613 0.07218595517580664 0.19347545576014408 0.1731979588827597 0.2289051117270295 0.13758643962167869 -0.18181754011639256
4 -0.14157124862825246 -0.12372651592413408 0.1350010818538319 -0.13836646412991316 0.03193357109542174 -0.20320526496129054 -0.06343759762499668 0.12007284307896253 0.11287089681158877 -0.13834926824568552 0.12287245651038327 -0.1594035196586145 0.07943138299476958 -0.10943315193627927 -0.0847315162931284 -0.24692977185334425 -0.15756201431113526 0.14341708078645862 0.15941909536002058 -0.16507613483842454 0.09913874056805212 -0.08105853399613029 -0.11921711009674754 -0.10648207691466897 0.17194434631735261 -0.05277610370342146 0.22443036323592658 -0.059517491453624095 0.14401787912847402 0.15639695747587032 -0.07532452663205927 -0.21113111369136575 -0.03274055879293911 0.17528913959113324 0.010073381230856757 -0.13890851059191706 0.11777880701924506 -0.08641680944331695 0.021329228105164088 -0.0735469747832359 -0.05643588096875376 -0.21969076419832875 -0.09456786413248158 -0.05517201911357062 0.04010065918426956 0.08661219512939392 0.08656738504253254 -0.011855833720735367 0.0320145106104346 0.07056344747350926 0.06674728265787336 -0.17543145452094644 0.05746273703924717 -0.24219753694154134 -0.1979774480434616 0.16394252068841073 -0.1057642594222347 -0.033684371739614014 -0.18231607864110028 0.039230600103414406 -0.09751467053379613 0.1245008777224136 0.19937120020837512 -0.012808636322153824 0.13425651000054867 -0.1301822955420872 -0.14453190730028434 0.015137818379796945 -0.13507564845134185 -0.13497988617136145 -0.2530709363805096 -0.15594397178060349 -0.17887373083961142 -0.06283103487581297 0.037721052034442 -0.08650706515988148 -0.08551584804539406 -0.03252118703724726 0.144224240611764 0.17298707004596883 -0.13142998475248951 -0.19065725554774324 -0.0016632252631994778 -0.012271542130453663 -0.15727225622616497 -0.0836541154583887 0.02761550193731998 -0.19502395325302885 -0.034044396879687855 -0.16880161277552283 -0.17701035257085682 -0.10546646882691756 -0.0678546846636879 0.1629063137914921 -0.24120647100791315 0.21248676847448958 0.23835982132145353 0.21739280154663848 -0.18906103720814482 -0.14191131754249312 -0.03958098723225038 0.21562624086989063 -0.16029241416889778 0.18185910074422323 -0.1265722651810938 0.005338653390948709 0.08396819237028358 -0.11148343486826881 -0.20445916535206818 -0.01242005821724407 -0.044184604935839894 0.17587814807269384 -0.10803798621437412 -0.16067570444188525 0.1457755685010045 0.14291212804413939 0.21952025064751893 0.09798849716014431 -0.10582464811737542 0.10124992998985519 0.27261029841931955 0.1810241136532346 0.06301068248142744 0.17503118095557507 0.15169335705304773 0.1874305026975776 0.13856948875651115 -0.15764091322381385
5 -0.16650974486706785 -0.14200525252533083 0.14565531061151393 -0.14923447750279958 0.03788045505215732 -0.21464603355177056 -0.07679049626926804 0.13237985095730878 0.12289844399638265 -0.15105900202613687 0.133229831979196 -0.174057770601993 0.09025499107578637 -0.13536385011885305 -0.10079305470949433 -0.25853055358767146 -0.16980843518074507 0.16103862538825722 0.17268572348649758 -0.1945910854323513 0.11821911972904625 -0.09369843409785093 -0.1481567181188452 -0.1235053593658593 0.19175258450605873 -0.06782977949353114 0.2387533273762731 -0.07752734893339855 0.15272747885099774 0.1733375461616716 -0.08381084930716076 -0.22917706139411836 -0.045226911296467276 0.19353247971294749 0.01593668769353278 -0.16327023538409918 0.1445584640172342 -0.09453111922328088 0.020338249313239284 -0.09822445679160424 -0.07308747566060703 -0.23234193207597706 -0.11569815796062939 -0.06788155673444494 0.05207421354846286 0.1097605153528199 0.09624881751299187 -0.012561313168035363 0.04088400425397142 0.09116322412794588 0.08277190654905452 -0.18707222454282393 0.07437813169066636 -0.25129607378100044 -0.20889820273528398 0.1836691053506995 -0.12070232839372005 -0.036447525292832794 -0.19408720411919297 0.03740715566863724 -0.11254984561734499 0.1608594426111029 0.21092043533962385 -0.019287333141059338 0.1539832824026896 -0.1657918639342683 -0.18157546180228556 0.022289570398959437 -0.15591789428243433 -0.1572283351184484 -0.25814113110185877 -0.17040391969686827 -0.19109889715587136 -0.07477708961684029 0.04240527027740043 -0.10680056583940521 -0.08891035068912033 -0.04598530657538638 0.1615164523707202 0.18633937408599044 -0.14382936110829575 -0.20300783424282623 0.0011105853206923475 -0.013314598737681024 -0.17330482277366357 -0.09635732292593621 0.030199687074689334 -0.21324620022904336 -0.04513105863415921 -0.18441441370054262 -0.19153944556643265 -0.1182709696704575 -0.0859144079123984 0.1773362202060296 -0.25134749214509455 0.22476705580951722 0.24868392560598163 0.23024319629504839 -0.2079157210140706 -0.15422552987973945 -0.05287677401471655 0.23383053242577315 -0.18852084150435863 0.2080687636175903 -0.1484253647031046 0.00538424031942366 0.11232222564615289 -0.12708635336623178 -0.21561934965183255 -0.017099363451876574 -0.05626649797582387 0.18918448570219668 -0.11611843847288456 -0.1807580626740589 0.16057276635041712 0.1673597809350252 0.2339644727132361 0.1072495046934676 -0.1309217725235104 0.11399350702947988 0.2778605180555295 0.19082583079655055 0.0769670044830411 0.1921598082382711 0.16742020911386304 0.20554153556634291 0.16626747944499265 -0.17641545722633675
6 -0.1599735273581138 -0.13707456624303707 0.14681181657208353 -0.15094560634889667 0.03866738016885006 -0.2187351683814177 -0.0732858264621173 0.13235339524871875 0.12340643781559413 -0.15003940972817445 0.13338419525495182 -0.1750468854389227 0.08914401097128455 -0.12831730938456504 -0.10018006351693497 -0.25869106431965516 -0.171841820177231 0.1609286977743349 0.17464924520261965 -0.18478684196903114 0.11134920348401348 -0.09080369188748381 -0.13939364774124513 -0.11980146263963301 0.18969979232664352 -0.06166688135670257 0.23966178179852743 -0.07121848874374324 0.1560981449595206 0.17156162755796384 -0.08539007615989384 -0.22884451124587746 -0.03974813453470884 0.19414507654742758 0.012756147144670356 -0.15661988871263044 0.1365970720441923 -0.096505165575634 0.023505796604704084 -0.08790981136878845 -0.06774742089248798 -0.23423020916746348 -0.1085942115422541 -0.06495281748045802 0.047895341229386705 0.09890722909584022 0.09934787614469272 -0.013706926019920459 0.038425592306369674 0.08360670238382512 0.0768906404761862 -0.18627918121873774 0.06755709386250976 -0.2532092271055816 -0.20969434767843764 0.18145709667021787 -0.11658095447379524 -0.03860421634678755 -0.19529091099118365 0.038181873039893344 -0.10777518878126453 0.15006441686079658 0.21267277429799292 -0.01737383726745409 0.15268803911207524 -0.1515954631867764 -0.1689548870663377 0.016012460971288785 -0.15025523351417655 -0.15196841951283066 -0.26354790439968817 -0.17041593504744248 -0.1935452158358506 -0.07219465930982866 0.04102183945698865 -0.100171692613653 -0.09403246227025827 -0.03904916694859619 0.1569893810093637 0.18696282188601576 -0.14267979675643597 -0.20543704779288893 -0.0018251973681330173 -0.013046973774815939 -0.1715154671138727 -0.09443176527912138 0.03217891087570828 -0.2119452319589184 -0.04116673967742805 -0.18197870429352445 -0.192842681073313 -0.1159740559407972 -0.08121235456815487 0.17646857663769586 -0.2531836956982358 0.22284277182550322 0.2502203516696506 0.2280791060847774 -0.20545653241552708 -0.15068894933987054 -0.049835247780104314 0.23253189465521554 -0.17943094656486808 0.20036130025085888 -0.14552720982210562 0.005841458336068225 0.10276596266755544 -0.12440905686307664 -0.21689814770170646 -0.014103825756593885 -0.05353407239482302 0.19039102198165858 -0.11980726142816024 -0.17950630963329572 0.158496655921201 0.16344678349237585 0.2342451973694866 0.10965730398263862 -0.12530644568599197 0.11382435359781641 0.2840335128334457 0.19297232547851503 0.07152875043908517 0.19051022434360332 0.16637824855253625 0.20466796060480652 0.15944596857074977 -0.17485724748322667
7 -0.1514752528203691 -0.12155123694155398 0.16375244639295342 -0.1639431930351808 0.0780994432733049 -0.2208799316891527 -0.05966671799165117 0.1565067584529909 0.16962197674641893 -0.16473017334757248 0.15865929613561372 -0.18927685106565978 0.1022496829998973 -0.10999580209941517 -0.10561652858363411 -0.26876249517208833 -0.17515613707018138 0.15662770633074732 0.17874832481150218 -0.1394902725221301 0.11710742890767761 -0.12679868345842993 -0.08555819953701385 -0.13645390631278656 0.17689176266877635 -0.000898415806208425 0.2530825651574082 -0.0350869904785054 0.20033473714185182 0.17288774635856866 -0.1117362488267999 -0.22685175796495807 0.02218735688116163 0.19624365952198425 -0.008836718903271727 -0.12283477021378962 0.08876927482838845 -0.13995838670577104 0.04778555410783111 -0.01157345242191707 -0.017243001628166554 -0.2500014665228312 -0.08346501049109245 -0.08288701474689604 0.054285461511818046 0.06273172126304655 0.12636417363865404 -0.027898091630460774 0.021870592610679227 0.0511177665625668 0.060265038008616115 -0.20639192441823306 0.046789679453480934 -0.2664448645982854 -0.23588215186853526 0.17748622127665428 -0.12694021966312244 -0.06993051550940987 -0.19204911624753285 0.11427496713992144 -0.11190867651647908 0.07421211234380504 0.21535463601097185 -0.01287829746966885 0.13789533591600692 -0.06825018090794668 -0.11365993831364447 -0.05081957735716569 -0.14459078151309332 -0.11101897519829246 -0.2685479383071859 -0.16220676706765003 -0.19442501823525954 -0.08327801838518113 0.05142651169186878 -0.08405056075360133 -0.14732916963872886 0.011364208472747673 0.1473601521599798 0.18379948623506306 -0.1532829735053166 -0.2088663989891053 -0.032140814939922574 -0.0006593183434858917 -0.18913809296161926 -0.10830472966188079 0.04305275257433231 -0.21661557494857192 -0.0607780704829557 -0.21887352609398203 -0.20663404043077396 -0.12808564354292132 -0.07418791228928223 0.20319318348623455 -0.26519055411198655 0.23234697681411934 0.2555227734860278 0.2366152029527248 -0.215958238802913 -0.16464470161467482 0.0011055179184010883 0.24220546792749784 -0.1254886301960921 0.16629043781081435 -0.14647393758171073 -0.018360621131851093 0.05458777751396895 -0.13009412685233487 -0.2323498829795031 0.010687427420802063 -0.037684742848982086 0.2043354416439114 -0.15003433844357705 -0.1777921420049168 0.16556167375957198 0.14676738050690116 0.24078791041663034 0.13797163761328246 -0.09230422430902017 0.10645699227357336 0.29926241882338694 0.20209415406947806 0.06722735996511649 0.19021233262715875 0.16405839284363238 0.217279962170695 0.1247779991397344 -0.17252402288284865
8 -0.1403237149661073 -0.1027503419613375 0.1730800124038924 -0.1663246000913659 0.08346574190182963 -0.2340166749242037 -0.059222833743728956 0.13852207033635552 0.19174733295854318 -0.15517228652615944 0.16017280169236608 -0.20470272951831647 0.12247491127132554 -0.05631782144676989 -0.08671369448190301 -0.26789970404196495 -0.1854675270459287 0.14301594728367126 0.18963257644276926 -0.08133470219758536 0.10351403556423305 -0.14201865959143847 -0.019236739048564735 -0.1579597641043344 0.16674820080578276 0.057406591836354534 0.2643824540895994 0.007697258896910163 0.22787860694462878 0.17572053061331613 -0.1318806686176747 -0.2264528588844998 0.05042215805513965 0.188168171980885 -0.019350024551405318 -0.08616490934029616 0.021511711029975872 -0.1720073102043606 0.07393039307645982 0.04676943693910529 0.03909190562377361 -0.24951389456090195 -0.041951283195535954 -0.10898622570999765 0.06643565392436937 0.021410803072445486 0.14061590494959522 -0.06170664210277375 0.03286752915201114 0.020187512069497367 0.0538697634010025 -0.21650995894742875 0.012164210769603173 -0.28223668190547807 -0.23636902380620287 0.16881276165646655 -0.13859572590616917 -0.09620402506085175 -0.19822910983550468 0.15445636968142723 -0.10088599177609367 -0.0465241434848324 0.21707200383727396 0.01763125822070722 0.13039017343611425 0.004849594263957742 -0.01769856539122642 -0.0907088168637596 -0.11328353910670363 -0.07868138390579182 -0.2902579892651351 -0.16191753405087805 -0.22182814387585129 -0.08045492395184954 0.07386835303336506 -0.060160128941131985 -0.17470361323916164 0.07640956402302702 0.15687168561163534 0.20224407075976183 -0.18622450934444765 -0.22352581898129092 -0.03714041685663308 -0.0165591368133527 -0.18955994027928103 -0.12422156537424503 0.05465747375428523 -0.21636479992950652 -0.06123211990293261 -0.23349230901462192 -0.21530941861257816 -0.13470783790457394 -0.07032195372993348 0.21518295717704822 -0.2831444469737375 0.2532719605143701 0.26339198899799915 0.25136596115828025 -0.2150636732476736 -0.18092354032090555 0.04864968439444501 0.2441124432048381 -0.08120506422613784 0.1125696841203796 -0.13510543246559342 -0.07511784736723169 -0.009953926771822528 -0.14334754750295037 -0.22576968291115973 0.01486160788892162 0.008908707921452305 0.21088886102055857 -0.16974391951891837 -0.16612150884831522 0.16895656202742232 0.10032379574610203 0.24059845218751452 0.15955668321463576 -0.050274340813747424 0.10697630258683673 0.31433078001067505 0.20990722433682382 0.07250465030257763 0.18745284755704142 0.1664701321579136 0.2129765125645132 0.0980057205320505 -0.14687566002147898
9 -0.10406151409975596 -0.07865021578963725 0.140120357741701 -0.13539491992068736 0.06891496141850822 -0.18566380446641645 -0.041686912348135825 0.10824585203701081 0.15635889992851654 -0.12906065487627427 0.13178305430842058 -0.1669695854754791 0.09773814963147241 -0.03710645892520454 -0.06956339572043792 -0.21766805030204142 -0.14845507872801325 0.11001410271857963 0.15272531321074487 -0.053561773383587585 0.0823045116422337 -0.11881422102071239 -0.0032001263634503074 -0.12562371159126293 0.13728718684666186 0.056139324700797584 0.21804463712407215 0.015714634689769996 0.18875409145523558 0.14002497793953173 -0.10858430821076623 -0.18136893188800682 0.04636631697492704 0.1536178159993744 -0.020190586772103176 -0.059013937664337476 0.003025652302195065 -0.13762125764127084 0.05945997544774107 0.04157558367729492 0.038852376114388645 -0.20308039523978683 -0.027940208511450255 -0.08852194859134678 0.053591403668288046 0.010718128922684277 0.11627857327329426 -0.053932855198823945 0.02122553870413661 0.015416159634933119 0.03852950741164307 -0.17859801081306237 0.0025167511562334236 -0.2314710820197723 -0.2017507271634433 0.13345169418298383 -0.11366085166582296 -0.07191581089378515 -0.1602495135762151 0.12881523371628198 -0.07688823132664575 -0.05011171385465813 0.1792617538591785 0.017248269294729567 0.103418953566377 0.017979159582175542 0.0036312288815258547 -0.07881210187618595 -0.11180777710437247 -0.06089212916931538 -0.23890112917781334 -0.12934707393296002 -0.17716275051947236 -0.05881197598749252 0.06164361207325404 -0.03990843353864057 -0.14704757233512855 0.0646802666780543 0.12317476985791675 0.15854722312314362 -0.148107216932124 -0.18180130413676748 -0.03364462165220387 -0.01606673593258092 -0.14850813751158942 -0.09989310452080956 0.04627056724721913 -0.17725213147567784 -0.051453326060817574 -0.19601233560552503 -0.17746431184539427 -0.10665751927181956 -0.05466639405081276 0.17354089190875327 -0.23070615886040016 0.20340105915196302 0.21494503870239803 0.2048372356937619 -0.17737621841037216 -0.14165018109141989 0.043763324780222226 0.20590735780672842 -0.0555044940455218 0.08468355762937103 -0.10919980865824937 -0.0698215688436902 -0.01948473624912267 -0.11887200107290562 -0.18687120304961943 0.013311654247804441 0.006936195744138574 0.1774250296900559 -0.14145971429400392 -0.14063422629900288 0.13748923251918804 0.08283170776242668 0.20190229967451204 0.12913743297335709 -0.0366425573075633 0.08314727188791812 0.25588450031857013 0.16927537797319198 0.05437103088426932 0.1528882642698589 0.135577605145308 0.18084834048828488 0.07304273043674159 -0.11498471237872021
10 -0.15634353242232835 -0.13378741334341893 0.14415807496272187 -0.14485444340178014 0.040701608696301884 -0.20264652900145463 -0.07108085718015696 0.12792161529898483 0.12301792565002205 -0.14775090291630769 0.1298457669189074 -0.16420541112866716 0.09119187339436051 -0.12134682784593237 -0.09805073483412463 -0.24237012195952942 -0.1640686854449976 0.15361882806679952 0.16632502697886753 -0.1777691884374957 0.11284235457918894 -0.09467004555044814 -0.13176023009313445 -0.12141101330965004 0.17880813105440882 -0.05048378407409977 0.2228002708967034 -0.0656381885687306 0.1495260275790089 0.1617798091926188 -0.0844822174596104 -0.21436169134649566 -0.029056479851350278 0.1832554732411065 0.009806829251012348 -0.15209624313509254 0.1282728084543524 -0.09699110095869033 0.026062960172294588 -0.07610550663323515 -0.055728346139919546 -0.21987466954763463 -0.10668961007304567 -0.06773448133449246 0.053591875718216844 0.09730483214217882 0.09874042703649837 -0.01900591483858526 0.036545007463587055 0.08154774974280933 0.07751158814186976 -0.1793419487844302 0.06462013972344621 -0.2350619633644078 -0.19892911826738688 0.1746376214918212 -0.11460204471308616 -0.042293080220340444 -0.18710851547304766 0.04868967217401803 -0.10737190799862932 0.12817089430922998 0.19930656337825164 -0.0142886788423073 0.14721260152500346 -0.13963387009390046 -0.1604565594657328 0.00774866930958062 -0.14544556697182795 -0.1475433737186991 -0.2432142406922678 -0.16429026041547481 -0.18263549727873307 -0.07654376667585207 0.04828175913392313 -0.0955688789561675 -0.09416255198835585 -0.02952078995063071 0.15147169741050232 0.17976929443504394 -0.1388030013140967 -0.19200380551142274 -0.004600783942357059 -0.012979226744824518 -0.16676548652304946 -0.0973898810385864 0.033015162580820615 -0.19838759670578224 -0.04304494444800479 -0.1753371546548145 -0.18428189868200404 -0.11378549855048017 -0.08181910916262398 0.1715657572247538 -0.23552837288445608 0.2082479476517736 0.2340499517878946 0.21678022151993923 -0.19200516458540892 -0.147156998591496 -0.03988750158013545 0.21911447756834093 -0.17466990083038605 0.1942828512960787 -0.13967940524486724 -0.006425023413864231 0.0927112030001158 -0.12365587655731468 -0.20390866344671082 -0.013358652303411246 -0.046465591444880466 0.17765984366903012 -0.11842506395599929 -0.1726103351428224 0.1522603261762769 0.15896764977316022 0.2218315557985777 0.1089737688002143 -0.11668412714467788 0.10941926976918434 0.2611973254255717 0.18228453564524513 0.07219669856321442 0.1783917394259125 0.162046456391872 0.19287158711714042 0.15462002779849152 -0.16843839101891744
11 -0.10556681692239786 -0.07909071697702032 0.10480808545602577 -0.10600688825159194 0.04081627572781349 -0.15110795034400976 -0.04268857162363633 0.09674588651313673 0.1009032298845499 -0.1027718372957824 0.10336476621080687 -0.12590183873852895 0.06232725564858224 -0.0751261932640842 -0.06278986873818235 -0.17603766361539597 -0.1192269502944801 0.10701039294261304 0.12040666006670565 -0.09954183937221936 0.0764696179869989 -0.07100634518891026 -0.057735001730945146 -0.09270820306640615 0.12057471676915327 -0.008825729194855155 0.1654529626062131 -0.025005792162451822 0.128521160344245 0.11814228693872564 -0.07329668308560323 -0.15220753279908078 -0.00027486244905824313 0.13428042134019952 0.0035266587801601273 -0.0813545691960276 0.06529820237441541 -0.0873506930304056 0.02327417539937686 -0.018337257329854827 -0.02081346941802545 -0.16441103610070906 -0.059406276151958315 -0.05464557847521156 0.029335955036338193 0.049147875340293 0.07988049717109108 -0.016767902989955154 0.020710035309944516 0.040690911215483114 0.04125558568174914 -0.1310860447182583 0.030667215032836335 -0.179425884383732 -0.15294404321664776 0.11796433957338397 -0.08328980956157404 -0.03936224623840988 -0.13167172523542958 0.06477322196752384 -0.07094081936122398 0.052527834444488955 0.14494575972455032 -0.008787338457661303 0.09330918587782466 -0.061168222670252737 -0.08369544182951312 -0.018007643316833515 -0.09811756935163937 -0.08098853026131883 -0.18570232634282535 -0.11655818933933197 -0.14157507044275064 -0.05417752052391645 0.02946084356515204 -0.05575601040403763 -0.09278968017859823 -0.0025438919552443545 0.10665685356289839 0.1278392255734701 -0.10116011885012284 -0.1408763398415064 -0.015616670035778563 -0.0029671860712111447 -0.12421796914877051 -0.06203232785208 0.028208891816936175 -0.14303458150236645 -0.037182423479041986 -0.13776504567389364 -0.137418973669442 -0.07811812181563443 -0.04840279794619933 0.12601136388782067 -0.1738872031161603 0.15597105080109253 0.16787189623350218 0.1608253727315556 -0.14446593460106993 -0.11179470295101977 -0.010091427256267105 0.16212784690132023 -0.08982169732182707 0.11902750334826516 -0.09353690561263689 -0.0074647697061181 0.04068279884382002 -0.08697043213961561 -0.15580643172915679 -0.001163686602262666 -0.02181536766184306 0.1342714585615996 -0.09319555191355548 -0.12223810192693572 0.10963744531384384 0.09578978920725847 0.16645858003615951 0.08613213334285069 -0.06285956073997091 0.06868236424332598 0.19823009687200907 0.13696058542880063 0.040840335809486046 0.1318685649174286 0.11450261065406027 0.14230901667718202 0.09188901958740359 -0.11538865319832001
12 -0.12038145496041283 -0.10260144008449089 0.1324109189122761 -0.13454333589959847 0.058163308487676126 -0.1801035900936456 -0.04425662231655868 0.12984081264163433 0.13451864167276095 -0.13385819262386478 0.12262187945917316 -0.15352318356549305 0.08247082919955805 -0.09152034695398702 -0.08052403048009102 -0.220978851449104 -0.14612005997368954 0.13229581754676287 0.14135244344255174 -0.11193394752850876 0.09376235195617663 -0.100606596521673 -0.06974100775946186 -0.10701693250015952 0.14160357736571513 -0.007056079708262662 0.19820534405517554 -0.030687520802635055 0.156951790710055 0.1400361978793756 -0.09075517280505828 -0.1829857755219236 0.008838547115306421 0.15792794693999668 -0.008175611369883252 -0.10144619499696143 0.0716910829139309 -0.11054814959694947 0.04153414950776785 -0.011935778025632175 -0.017230597499413323 -0.20533882923773364 -0.06604884391778133 -0.06174007995279544 0.03842374190155362 0.05009104585380398 0.09798387826032554 -0.023829699412078034 0.018640148247667184 0.0411989253442026 0.0499530095466185 -0.15920098750504275 0.03307468207012395 -0.2123056048961782 -0.19111709957487769 0.14692305492877114 -0.09559708284252427 -0.05238230892569812 -0.1615349371768809 0.08689918987294208 -0.0877374884122113 0.060622992987751576 0.1709638325028545 -0.008123396195347752 0.11003217310979324 -0.06217099945970348 -0.09353174130611969 -0.034570736374160374 -0.12249481348785828 -0.09884138975022437 -0.22890440772177442 -0.14844122983914293 -0.171570747855401 -0.07356378780971361 0.0467793324085376 -0.07724305789789472 -0.12522868476156754 0.010890733457159244 0.12889882143757608 0.15640428352013813 -0.1300166252601854 -0.17120403034268405 -0.028820926744131482 -0.002876957479168789 -0.1496750713992536 -0.07981965346600382 0.03132177925857291 -0.17525267070420653 -0.042689155866018534 -0.1724024700179767 -0.16618546334399958 -0.10407826552101587 -0.056963960296298174 0.16362764446483483 -0.21762216005677723 0.19322640512841197 0.21203750474848773 0.1940667800882185 -0.17075908610205723 -0.1373222300830025 -0.005340432513414365 0.19764962301490976 -0.11379730507700522 0.13580178327773107 -0.11447677033595192 -0.010660956854367958 0.04964907648760913 -0.10099848764952246 -0.19319995195759154 0.009832876113755454 -0.037468242184717795 0.16805841019807694 -0.11589815574382954 -0.14562843240955103 0.13186147799532716 0.12462294938492438 0.19118868909151931 0.10826258326472146 -0.0797146112377256 0.09080435009121289 0.24379435868565966 0.16791881678154616 0.052798740594104394 0.15392311004762207 0.1375144927467036 0.17153114147447626 0.11113562839608694 -0.14046623021256013
13 -0.1388820222569889 -0.11513301611812243 0.16330126071412307 -0.1636203835325611 0.08189523836502671 -0.21830375773847074 -0.05394585774901518 0.14632477079523803 0.16892564895677553 -0.15919673381570434 0.15151400587679761 -0.1923097937331275 0.10367192289379691 -0.09177192162893785 -0.09525187562432742 -0.2612527532728921 -0.17397916771659439 0.14804847536939605 0.1747910277755872 -0.1184533382694054 0.10855098823943815 -0.12365679784167573 -0.06269482277549676 -0.13905511929701733 0.16773403396945963 0.012739244963614817 0.24630064397419948 -0.021561728681173745 0.20383710621688805 0.1643608801938029 -0.11539488653275498 -0.21968583167543254 0.02546763280697928 0.189796093512001 -0.012948304400323858 -0.10975268108910252 0.0676747811861057 -0.14724029138137168 0.056743568837587584 0.005330858928194779 -0.005427306242619321 -0.24501998068463535 -0.06903593109942115 -0.08240154012575575 0.04889628579812711 0.04914728590013302 0.12686428586672233 -0.03447592767898338 0.02362124836252095 0.04240126142157187 0.05605253130908602 -0.20266669397139714 0.036261294214999164 -0.25890008880161397 -0.23390188275692292 0.16995932341066414 -0.12142511344263163 -0.07379207507243869 -0.18860557255395383 0.1268625659012073 -0.10769264232917201 0.03743824747913326 0.21058599747683518 -0.007283860817504785 0.13137495894205606 -0.048187909887589406 -0.08607479444556243 -0.06059790186284968 -0.14337232499111605 -0.10583487439906038 -0.27615460913992385 -0.1672622228230018 -0.2046113023936193 -0.08478998204624212 0.05728558588231917 -0.07876981634889738 -0.1586293006012582 0.03362015376669512 0.15364541605753332 0.19251047118336592 -0.16420405005667946 -0.21057691079982543 -0.0371511675345999 0.0015928238587460946 -0.1827928869373193 -0.10585718681869508 0.04457062754527815 -0.21047699610472634 -0.05687785913494242 -0.21398171533557866 -0.2055935706016524 -0.1250362864028871 -0.07056040969636487 0.19959661073017698 -0.26051083572686684 0.23230830218274398 0.2511443504532241 0.23446639663497068 -0.21018676407451853 -0.16644722400571013 0.010445775192206177 0.23890759190042946 -0.11233378465216488 0.15051094184296396 -0.13716717391559233 -0.028407733186359134 0.0378691946852624 -0.13331568625676404 -0.22717929671515635 0.016111201477727086 -0.029168003102147486 0.20482519881031006 -0.15085060054149008 -0.16958261506960792 0.1666677091581686 0.12888203327679848 0.23430032004725385 0.1410185663572986 -0.08135913563442695 0.10774336074453865 0.29204512471395777 0.20107142885017465 0.06546192443043561 0.18361512498628293 0.15656731108422872 0.21030647492492482 0.11647273026531624 -0.16061096329191102
14 -0.10663540944901148 -0.07929660267575675 0.14450780901153545 -0.13821359091966692 0.07448292624461203 -0.18770679647380265 -0.041600110152591 0.1016382856762908 0.16965259841149538 -0.12294749503942089 0.1318376042438507 -0.17621976635060288 0.10288274597480135 -0.01565090480058822 -0.06056801465451227 -0.20657699319857803 -0.14890153204683268 0.10406370209212586 0.15097436415269258 -0.04234331609407089 0.07864560848276973 -0.12635659230882373 0.018196991310991346 -0.13857875449482168 0.1300147980448722 0.07211077617315409 0.2065153214781946 0.02625673081438011 0.19742319188546129 0.1384990158683785 -0.11277637116167151 -0.18047089658154972 0.049945648515433885 0.14973066707058308 -0.017894652198343654 -0.05200820772204196 -0.01743335175680769 -0.1507974741881986 0.06798573693967483 0.060576873697960776 0.0542173011564348 -0.1945337083249819 -0.013993886335127376 -0.09875684560056144 0.0580828831737156 -0.002998763384146263 0.1272729180906617 -0.06550583289217726 0.026550742554043456 -0.0028448260425045025 0.036810302622288675 -0.1835185201567649 -0.0032553080791915268 -0.22573834211389837 -0.1956146705362737 0.12801386250213992 -0.11808502565427981 -0.08861231051081195 -0.1563196224435305 0.14954737791624076 -0.07499981751957796 -0.089377744381415 0.17445361881523413 0.020764937621815575 0.09822549788079601 0.035201539719349896 0.03547587853726461 -0.09066421613874061 -0.09966708811324658 -0.03792779277418965 -0.22641472580350472 -0.1154627988907046 -0.17597755914611013 -0.05586954887451556 0.0705731641570945 -0.03143796102618204 -0.15139223640772947 0.09204336512417208 0.1322879677809237 0.16185120470487088 -0.15920421733633763 -0.18094452470665714 -0.029844152609300914 -0.020030409686162636 -0.1511812104536101 -0.1105566995612449 0.04936954658566601 -0.17619108870355163 -0.051838939307378235 -0.19507534306800203 -0.17613686670131537 -0.11719711465974281 -0.05907897484211371 0.17813355963964383 -0.2221676698181737 0.2034121617226578 0.19898537103119035 0.19577348461123067 -0.17390384650186735 -0.1561551103791368 0.06330091238036702 0.1927363687837541 -0.048037399439775356 0.06505839089471584 -0.1078757117046237 -0.08544372160996888 -0.03128163148546877 -0.12241350635087564 -0.1788119041479715 0.011689385250600766 0.02988794052981191 0.1755976098781726 -0.15198512737672043 -0.1299389518143356 0.14371020438456736 0.06268970840347633 0.19109022683206292 0.14156718897704196 -0.02128610144924322 0.08249804030338583 0.2401965741136899 0.17227925453522536 0.05826841653057943 0.15592465509766126 0.13705023455647686 0.1700316527655338 0.06852490643397177 -0.10556180979441977
15 -0.11990853005355706 -0.0860092661196805 0.15945879973232843 -0.15232918117577104 0.08122184567690341 -0.2061837780037742 -0.050927446017873024 0.11370529502057344 0.18522956000183616 -0.14292140711585297 0.1502370806193485 -0.19012500163200913 0.11730983270256667 -0.01915797910499979 -0.07198494828082405 -0.23473446190759 -0.17028873331693894 0.11871846227886992 0.1727620761275904 -0.04370360260067028 0.08568452485922447 -0.14011081795834254 0.0190683726449579 -0.15625378933108205 0.14811814469146034 0.08203483278304526 0.23579358358209948 0.032181327048364045 0.2127113503374064 0.1603845330107412 -0.1314668328186812 -0.19967288062190156 0.05781585000846384 0.1664562264365911 -0.023972399750856268 -0.05964250685465831 -0.015877675940525734 -0.1681416975668304 0.08358775943210013 0.0687554495932328 0.06037662642254347 -0.21904456162684183 -0.024258047660296347 -0.1055853022096983 0.06560847668428345 0.0027010887573763105 0.1322906843074465 -0.07162408249455066 0.02942127475325637 0.0035938967615555587 0.04649336619271508 -0.203090425697107 -0.0024905423960180214 -0.24318136041655108 -0.21705113918474084 0.14542374729157959 -0.13725117642924578 -0.1001500750135537 -0.1716192646744105 0.1631098901160902 -0.08701326305935096 -0.10207460059468941 0.19376313489348573 0.022852328410660528 0.11525879186299992 0.037090656367908356 0.0339396370443525 -0.09876962857794909 -0.11573920098269415 -0.04679631226700061 -0.25310576382066174 -0.1391632230140696 -0.20394726554337758 -0.06642492162664133 0.07703682345443541 -0.040688240836576885 -0.1648063709374422 0.10315651988398307 0.14043711340722057 0.17545012472754273 -0.18035530393716886 -0.1980899316673198 -0.0358590271937659 -0.020060927386076594 -0.16843376229881726 -0.11764587218094034 0.056979012127647714 -0.19207955407485414 -0.05900622815017499 -0.21463360104733714 -0.19701974171569897 -0.13402416304439937 -0.06623208304125172 0.1976915181923162 -0.24342373524517352 0.2271748367860748 0.22490632292732815 0.222069613608658 -0.1866086769037179 -0.17013940402865865 0.0711417795823831 0.2164633630100807 -0.048887689586259886 0.07731950523808444 -0.11715596170047662 -0.09823389462409339 -0.03692845072143 -0.1447540858587218 -0.1961597189115976 0.019141867811652 0.02527109237836739 0.19734325323722887 -0.1647878235365342 -0.14841194649228495 0.1568821745748256 0.07264975670606208 0.20941594386257867 0.15739198547181996 -0.026939583001326695 0.10245920059987511 0.2750132406160799 0.19212853526345725 0.0641747847238729 0.177664438112125 0.156500332452374 0.19373589412211584 0.07989131747275559 -0.12427749770452737
16 -0.143533978848572 -0.12395569582137113 0.126443996012393 -0.1306673410679277 0.0317337975970737 -0.18625966770569324 -0.06637572763312864 0.11169593326543821 0.1075553524630563 -0.1290461604578434 0.11927681919475447 -0.15159152190887462 0.07972360104594992 -0.10887330107835586 -0.08736789994719799 -0.223239362473268 -0.15014264337214922 0.1396765193023999 0.1526177449469559 -0.16323263888131756 0.09613423554752691 -0.0798839601209332 -0.11745456876011694 -0.1093534002186884 0.16640401544467334 -0.04296865842702472 0.2075250542075129 -0.05960336841946433 0.13143196910071797 0.153039947038689 -0.07779459802808827 -0.19853048257217482 -0.03316908799586758 0.16936705919502648 0.012170984314185163 -0.1389659371526012 0.11127081864800395 -0.08691539335416114 0.023154909632926823 -0.0739529909491051 -0.04857518016110529 -0.2031666914996483 -0.09231350295071251 -0.06217574028904642 0.04803235733750763 0.08316103017403033 0.08529969693645366 -0.019601747085164916 0.036153634928847087 0.07389017456061968 0.06682980431903805 -0.16350190086555905 0.0542674646272258 -0.22049286568717377 -0.18150521460667748 0.15729442652379175 -0.10906012979201299 -0.03725536265272037 -0.16784679276094502 0.035385351257525226 -0.09970417389727236 0.1127874912595949 0.18549838208375727 -0.009476558620650869 0.13705442108371593 -0.13069196003081482 -0.138159761319238 0.012222715590481825 -0.13271226659321822 -0.12969485587179047 -0.22427495819847448 -0.1474133243326845 -0.16496166670042525 -0.06360622332752167 0.040942952866774206 -0.08797891864502268 -0.06142523278384684 -0.026831356332518902 0.13824239788498202 0.16351499139786743 -0.12416885735987226 -0.17676930000520014 -0.0018578532126822121 -0.017640555049559976 -0.15205432201360936 -0.08722112165262166 0.03141063645451661 -0.18623729447009554 -0.03698065072682428 -0.15766578877207776 -0.16771672774942864 -0.10151798679390325 -0.07256560336406545 0.15075022604698474 -0.22313143644500538 0.1977059739820487 0.2152933773673407 0.20152448454924562 -0.17727064710395551 -0.1318404656787072 -0.036722267077557165 0.20462355274788602 -0.15988558335951975 0.17222731612805342 -0.12968850411643545 -0.005591789707919893 0.08257003481753374 -0.11166759465130206 -0.1875823725924937 -0.013858329362639008 -0.03634793587510346 0.1615981876083812 -0.10380413068480362 -0.15701413741239276 0.1376076664109253 0.13982320051956923 0.20365869309390194 0.09655139616293625 -0.10952147927916968 0.10227921341888546 0.24389350959485237 0.16748355790580238 0.06567294555499993 0.16853591425918446 0.14661967533028275 0.17836288324103103 0.14076407713480815 -0.1504398945866525
17 -0.12376202809385436 -0.1048567040559072 0.13211861116454596 -0.14194120683765227 0.06742354312130203 -0.18350151640652196 -0.05459128921194331 0.1270460476066567 0.13649773854560024 -0.1355755823900259 0.12851369905786655 -0.1599860976921459 0.085439729209245 -0.09141777123687406 -0.08859009067646216 -0.21090440188595347 -0.14827820580829001 0.13403939645170393 0.15078440168775137 -0.12041554854457413 0.09530024440774573 -0.09640853210753668 -0.06989991466683587 -0.1155154592631172 0.14106271520428226 -0.0006610509394163252 0.19540355152132047 -0.03216140833905848 0.16515551271783144 0.14174301589589425 -0.09976957574330667 -0.1797364705247078 0.017928871374639794 0.1584901918948605 -0.010425297500822559 -0.10440135095658792 0.0763156856853233 -0.11374584881707982 0.044287643883664636 -0.008718856450365603 -0.01585730069269242 -0.20182204464813955 -0.06579503334823365 -0.06804339910351545 0.04539951784376131 0.04990505863711269 0.10561319422928037 -0.02353291523215274 0.025157562307879855 0.044787299941420874 0.0547454499226463 -0.16630737522769526 0.03661840976463967 -0.2094812816775082 -0.19132699223918484 0.1461196315608746 -0.09907777620668559 -0.06015386786985975 -0.15832860624965442 0.092734752257365 -0.09847466640305415 0.06130246951891186 0.17277682629226349 -0.0058645662752827305 0.11404938428380079 -0.06164079622985102 -0.10043235099328615 -0.0395925038400091 -0.12412418474402202 -0.1039616602851004 -0.2218225575925385 -0.14393169792174526 -0.16426377250464338 -0.06975037865302387 0.04936074672659607 -0.07849048796361863 -0.128326967104808 0.012744082174258058 0.12986923655978702 0.15953202738337957 -0.13068812701868876 -0.17123902293819734 -0.02943219744784388 0.004110387684765243 -0.15069198234366388 -0.08702431634578026 0.03859922734592958 -0.1739115620327958 -0.049358133979240486 -0.16837824808280138 -0.168944775661552 -0.10446224175996044 -0.06803484803728263 0.16457306717836054 -0.20596477616053938 0.19014773438858903 0.20629107294871574 0.19220276330518 -0.17617403450885713 -0.13809066169506093 -0.0007995823412434403 0.19439904314894155 -0.10830209379150303 0.14374074092577274 -0.12211818457098299 -0.012427751733925503 0.04797831292862016 -0.11020935678529793 -0.19027863221863062 0.012769369268148197 -0.027767964533326975 0.16245837148969644 -0.12006051839014849 -0.14755559579822414 0.14114146721469997 0.12306247979038878 0.19522303839115032 0.10830962578048592 -0.08246433055961841 0.0922771731729378 0.2305402927902687 0.16841267700808463 0.05798164677709416 0.1470671486880355 0.11232155845009217 0.17474671653840249 0.10816584480495488 -0.13884125446691364
18 -0.10492660410795235 -0.07573636582573236 0.1459885309291729 -0.1371410426249395 0.07244906345850936 -0.18058088336330774 -0.043109961786601855 0.10067395274011014 0.16428677284616322 -0.12544012059232224 0.13400431783655858 -0.1720503410440166 0.10366717969070226 -0.013301133388578025 -0.06277151690043828 -0.2034214925409407 -0.14527890404386698 0.10480181580675521 0.15225186734629936 -0.0360211762517636 0.07467096948643046 -0.12744452323531372 0.023078385029736092 -0.13963355571051855 0.132387633276907 0.07700421395860545 0.20568620886020691 0.035193905969939966 0.19406004610690838 0.13944065908952602 -0.11360806311783486 -0.17586394007515005 0.056313397559593366 0.14366390204080176 -0.023274044936888585 -0.045034898862872 -0.02028304446361157 -0.15661278056812614 0.07768710194813441 0.0656161015216503 0.06268054644298846 -0.1929688968492718 -0.01129875334871223 -0.09701960774554504 0.05805694408360358 -0.00465723073120627 0.1252828318328029 -0.06303103050378338 0.028288912961541176 -0.0037398836788053156 0.03742610090165859 -0.18191354994031678 -0.010764554404390704 -0.2186264541337156 -0.19134438210934784 0.1241015274326436 -0.11959208102743885 -0.09003855583575707 -0.15455395579971545 0.14519824947618176 -0.07282702979956866 -0.10322976223937433 0.16970250752667695 0.02403285700690489 0.09867201579485685 0.04739742938497072 0.04026879922860801 -0.0953437316882499 -0.09732130265822936 -0.03840911786575378 -0.2256719754567548 -0.11780744073650772 -0.17489933382921372 -0.05482307878809751 0.06764770006605102 -0.032276077812302066 -0.14992223693114948 0.09810599548228184 0.1261809077171974 0.15847985205267942 -0.15922727108626095 -0.17751638380865165 -0.033380522809699845 -0.01776772852742834 -0.1511294267178491 -0.10321754298529676 0.05206247583524778 -0.17088098303904692 -0.0501705487928071 -0.19207140806728273 -0.17484238691927154 -0.11848191563261663 -0.05410131722345441 0.1747990492588645 -0.22072310950546586 0.20443087602367135 0.2016336026843875 0.19626631665962585 -0.1687933663521176 -0.15150824656657827 0.06988367129489857 0.1922303029431857 -0.04157559133299464 0.06043765260101869 -0.10558231950944034 -0.09180065468828703 -0.039983497355438255 -0.12419530735082002 -0.17392607127128382 0.014146285692044654 0.03089902595312883 0.17230872139890188 -0.15191827799930988 -0.12731573295679674 0.14026467665887257 0.05927992470345248 0.1864858177976253 0.14378523074312383 -0.022090900441604354 0.08330981930882203 0.2372100254487348 0.16726749863221702 0.05812474099298185 0.15901355166543205 0.13453126293734247 0.17103413198211703 0.06186006973621887 -0.1055469882543561
19 -0.13804348619983203 -0.10209405034451773 0.15395689980812274 -0.16023262025181775 0.07820140427107163 -0.20750688382490973 -0.05436468364976762 0.13762485073016278 0.1597754781257307 -0.14624601120134328 0.15065070667994696 -0.18491575511108152 0.09995700421229649 -0.07585612665113557 -0.09047871162214473 -0.24265064686949528 -0.16807150155898426 0.13485687939517316 0.16445711473199306 -0.1069786263033654 0.0982710816680574 -0.12137745400575965 -0.050359649202479234 -0.13573921596526337 0.15829846679141354 0.016211737593582815 0.23263815274535046 -0.015782256461808232 0.19781381694904768 0.1512811932538916 -0.11729864245846006 -0.20094524688439527 0.024614520604292867 0.17745397385761258 -0.014985795979906279 -0.1005385248323482 0.05805333282386474 -0.1465073147322855 0.05744323767439985 0.012879330372109638 0.002786181663123977 -0.22643048448922615 -0.058963148909756125 -0.0893076734167142 0.0514027903211169 0.04693722967910469 0.12585218789732017 -0.043647931588981115 0.02397004712538545 0.03127623170819693 0.056563895527318414 -0.19122930294966647 0.029369361995757216 -0.24632283237907066 -0.21806967637074814 0.16029010619572745 -0.12016643688478612 -0.07586433590165671 -0.17878281249481043 0.12212349278796601 -0.10380722403178166 0.016180083186439174 0.202288091924715 -0.006393762896933742 0.12353358009941685 -0.03889409823666146 -0.07457623216771499 -0.06019124837572528 -0.1292780509951014 -0.09568965896064309 -0.25669489378929683 -0.16099364858261914 -0.18879645411790713 -0.07942046538971578 0.05516581962050026 -0.07371125161049903 -0.1486338087152922 0.03559264343975833 0.1411601268120435 0.18294842903939557 -0.16200232923964586 -0.1942037417052156 -0.03037039831604436 0.0024840338439328833 -0.17155124773244515 -0.1047024808589684 0.04043340385208159 -0.1913944909534725 -0.05892421323163712 -0.20327552309493566 -0.1938658581557254 -0.1160921200788375 -0.06931472855394091 0.1888358647306164 -0.24694325424867042 0.2161206720867072 0.23469522006265275 0.22325080989861742 -0.19881567686039742 -0.1627206726054062 0.014252590363407083 0.21617341095024037 -0.1015159924003356 0.13914907007969937 -0.12899304881980175 -0.03596475155217427 0.03024697759819789 -0.12526171734870056 -0.2104031995782721 0.013738383249618338 -0.014697878236222919 0.18675752770012496 -0.14711605775764725 -0.16145128001462433 0.1575382693282421 0.12492035744655366 0.22111977744355127 0.13804150791196917 -0.06722319489357233 0.10425116497992204 0.27281899627880385 0.18809737856095674 0.06408867130240736 0.17983690091448992 0.149786796393991 0.19404242029333926 0.10726306397204957 -0.14989066249728267
20 -0.11269223009741719 -0.07424877259918852 0.14801395372078432 -0.1426290984412809 0.07646577226396346 -0.19069099727369548 -0.04593456904591391 0.10323710447689227 0.1763097560705039 -0.13152667525813475 0.1358561087223065 -0.1811201791980546 0.11168461294302617 -0.022916846154524755 -0.06298103572881097 -0.22122214421822747 -0.15591278438793096 0.11150754828465573 0.15869709149559794 -0.039107668208923856 0.08485830454905521 -0.1326228417600116 0.017481942485979046 -0.13897586204400347 0.13730870817903734 0.07553119719630978 0.22264968549504066 0.026991479378846068 0.20274821118399358 0.14994973316816926 -0.12270907143426175 -0.18699479490948945 0.0563618631503828 0.15166495492607607 -0.026255879797354324 -0.05676513886471956 -0.016911783862512693 -0.15946914455686415 0.07373298303670058 0.06251722655639774 0.05645722414668535 -0.2053612250248966 -0.017805421141551307 -0.09382810446261564 0.05637393785237012 -0.0013773394402389607 0.12883983423359366 -0.06307051727301051 0.026665699378838153 -0.001599257722544124 0.035839912322478726 -0.18569433258611587 -0.008228027727422026 -0.23628718073916222 -0.20185276180263723 0.13654054578046976 -0.12717483270496804 -0.0915688106361126 -0.15839415477903968 0.1529888585012068 -0.07958812692219575 -0.09238977274004155 0.1794912370421388 0.0231930969615095 0.10225145942314516 0.03595600345283514 0.034657302184986465 -0.0959368656792325 -0.10480993817256269 -0.043842096386584074 -0.2384475566536542 -0.12412888727695362 -0.18914879713241853 -0.059634738492209946 0.06822029246312786 -0.03430070751499684 -0.15784871475488005 0.09278526922273217 0.13534357433280844 0.16925160112955648 -0.16719785518981442 -0.18800703654808262 -0.0376865740702784 -0.02187621928695814 -0.15544429585107164 -0.107684133925466 0.05523750074023629 -0.18059660215434864 -0.0554704437008251 -0.20357249444313202 -0.17831145225645953 -0.11626124022044536 -0.05433052505413422 0.18695739496196195 -0.2314762431583297 0.21389975916177217 0.21157796466095774 0.20797709919416896 -0.17861412734332513 -0.16135151245824697 0.06234641988550848 0.2076785248224928 -0.04347661383129093 0.07038823278259686 -0.10976794531746266 -0.08639518475179576 -0.037081265036730135 -0.13136232915288198 -0.18091031590735593 0.011966559051734167 0.026860323904820675 0.18355687467260146 -0.15668966173072021 -0.13543163231705008 0.14386259966426201 0.06472290252579138 0.19994199795300013 0.14602123835170483 -0.025132224425479178 0.09386269847247823 0.25905795857944913 0.18056369979762701 0.06494561586407883 0.16632786824679557 0.14556770441912256 0.17676795048480493 0.07429486266370358 -0.11633419099566197
21 -0.12429123989579421 -0.10086031673449784 0.1268621529352724 -0.13233373895970363 0.063450217405243 -0.17858678634210862 -0.051762674384610546 0.12037099454606238 0.13186666966413343 -0.12896133971703924 0.11915462303492516 -0.15180243171729577 0.08175463274831767 -0.09317733307789045 -0.08419538181538239 -0.2138804429296662 -0.1387490351217833 0.12600758557971162 0.14494687596851505 -0.11541511073178759 0.09143406874763148 -0.08788203384562213 -0.07930508053003385 -0.1112697981390543 0.1396747923742594 -0.0055625464568019745 0.2018632348126404 -0.030568438299626532 0.156536694385467 0.13308326832632073 -0.0894598235644172 -0.18469353205350386 0.008306543593393641 0.15925220915606544 -0.006548948985745959 -0.10449447781550557 0.079193928901562 -0.10513750094096606 0.03839402736976191 -0.016134621408672924 -0.020860878423188737 -0.20015608510597127 -0.06831897838279107 -0.06820363105001429 0.04261491600828641 0.05068768458809499 0.09629795115643533 -0.016450439805817844 0.020382470167314513 0.04397118786712009 0.0513236288052638 -0.16219986656204416 0.04220348095158561 -0.20829106776653142 -0.19106445305266617 0.14086648008317215 -0.10035521722316945 -0.05028219291926774 -0.15583343078075626 0.08481448345022902 -0.09296633106899926 0.06579298130614519 0.1739688324147162 -0.009294183882697836 0.11690848917190522 -0.06320105327437178 -0.10781489635386764 -0.030341328701968654 -0.12039607906374028 -0.10142111923638343 -0.21910827320422244 -0.14566279369922183 -0.16568339798771248 -0.06920662067486423 0.04328506109776299 -0.07172047058273348 -0.11827686117889857 0.002265675714781295 0.127045976986827 0.15708168283859258 -0.12906025383222877 -0.1730217086316438 -0.028526202617199622 0.004160336268089465 -0.1462230029511923 -0.08510032392248945 0.03893214609674404 -0.1689601226430851 -0.050194793576483994 -0.16728238596469577 -0.16755124530409315 -0.10357725527439392 -0.06227078619522511 0.15570694893035963 -0.20831528362979995 0.18261230213302776 0.2029433660774423 0.1908827334422772 -0.17617345569987322 -0.13077432059105415 -0.013124884429338278 0.18738733366262597 -0.11087321321981725 0.14200843167424015 -0.11661065181299378 -0.009193752559125187 0.05143408875008423 -0.10033170106188403 -0.17966616231791438 0.012514098814483855 -0.03478788585307443 0.15614109592168904 -0.11098343784915472 -0.1415599398227147 0.12394995184722046 0.1194578765310663 0.18514146972043788 0.09851920325643652 -0.08214204652532789 0.08606862125053207 0.23547029403670675 0.156522630577036 0.057943178284723444 0.14838726839377797 0.12623117446939525 0.1650417624439992 0.1092151034728855 -0.13736191760086539
22 -0.11195083089703253 -0.08343049066403005 0.15136391120437065 -0.14194539673715323 0.07575602547059408 -0.18597026554015425 -0.04614099097375069 0.10544984236390363 0.17352755280369891 -0.12889908150773913 0.13822882806830833 -0.17452732411849667 0.1149355542838004 -0.01737552187917509 -0.06729689980881426 -0.21009686251349954 -0.1559412686716134 0.11248137954747059 0.15517771917583237 -0.045308886871347855 0.0855113475994867 -0.1317383928187507 0.017623990494157332 -0.14418810292310572 0.13446577944112686 0.07834759539794181 0.2122714344410263 0.03228004364152781 0.19842339321997948 0.1418227949581431 -0.12280564888447486 -0.17507408709349623 0.05177006635817974 0.14926785659296168 -0.024031409521067828 -0.05971493360483026 -0.01681399475910615 -0.15875540157332318 0.07895640868863213 0.06906178998867445 0.05801634826375005 -0.19376741618434284 -0.017888825157816438 -0.09576151758164472 0.05687004701196572 -0.001863085700194593 0.12225510388865295 -0.0676569379318664 0.024366636423496308 0.003483016151730552 0.04228054133164581 -0.1828226469161012 -0.008866376542246653 -0.22456721183156939 -0.19673314802086744 0.12652480000081817 -0.1254645570581242 -0.09385212052522098 -0.16150692152522814 0.15340089496532472 -0.07464334183745933 -0.09579716181809406 0.17121970430610856 0.025969246299303878 0.10398616488934301 0.03752553129612009 0.03636235778762636 -0.09274948081183233 -0.11212028556756691 -0.04182395669353828 -0.2245918426698376 -0.12293846835482258 -0.1804669083360237 -0.06503581883396188 0.07015528704263699 -0.03595098785664368 -0.1539055961102303 0.0978865120609804 0.13410600975524284 0.16297363230041623 -0.1623399924837115 -0.1768366134919243 -0.03730060504350145 -0.026037006573728677 -0.15633457709965345 -0.11152983574649598 0.05574533208642215 -0.1710576832872534 -0.05551729917541711 -0.19197609610265784 -0.1717462669394882 -0.12103579182290788 -0.061694654123461395 0.18123362607146945 -0.22308977883925538 0.20580283184769174 0.2012213972355612 0.19931036957483836 -0.16785212391766766 -0.14032255331386384 0.057047084817400104 0.18071326707646465 -0.035506411188711874 0.05426102259210066 -0.0947548544234371 -0.08269689392655988 -0.036126315250492404 -0.11701575568172984 -0.1590351627271587 0.01700471630068102 0.02495840048061667 0.1576207346190739 -0.151083886671817 -0.1374256078400575 0.14672361784623603 0.07083432668245294 0.1897148491941367 0.14757113353192416 -0.03011899813030221 0.09095541239565014 0.23894890442483224 0.15873583992404197 0.05167507714550031 0.15904091460189757 0.13959389052954188 0.17355739754892285 0.07368699008846341 -0.11168385627182462
23 -0.11732238866650509 -0.08049322333514322 0.17813276931138816 -0.16047252139691157 0.07545139463921213 -0.22519741478598682 -0.04588570309038967 0.10867471760105796 0.21718798321537075 -0.14781032386520193 0.16555074446863524 -0.20653842764523683 0.13923082239416387 0.006412170494858344 -0.06232510928976055 -0.24840049229129008 -0.1759488856774833 0.11431638358624809 0.1926240451358539 -0.007622983159948582 0.08345722359795935 -0.1576155402457542 0.054674296108932735 -0.17665781012086787 0.14983504180947851 0.11654802426520265 0.2539558876692368 0.05320999295128387 0.24721884757013335 0.17251870778430065 -0.1515376850901312 -0.20995372237186424 0.07919581580978523 0.1875134946375012 -0.0349046348413332 -0.03681105498893418 -0.05744878477051288 -0.20000654987155178 0.09189569466753279 0.11381629869732425 0.10414640473716275 -0.22619445238833638 -0.003996690011311409 -0.13305457731106315 0.07955942114939038 -0.027663772877788116 0.15953579464464535 -0.1010401675509008 0.042878006946511865 -0.019938888784419927 0.031174177045874767 -0.22103604390481124 -0.031133035200498167 -0.27696502333582007 -0.2383008938861078 0.14718371249610127 -0.15741707019496792 -0.11721739542899197 -0.19388627531513702 0.19623483487138219 -0.07837272690006356 -0.17138438276044682 0.21465304883428546 0.05390186477006125 0.12656457198112347 0.09319143106213322 0.10506767661184532 -0.13436226358719505 -0.1256296375956216 -0.03083482107628024 -0.2714569759031969 -0.12927284167090655 -0.22441462956660088 -0.06792664786932773 0.10171154846464635 -0.015780369933147898 -0.1922650425077957 0.1338545518155397 0.14895658151941107 0.18627568901082606 -0.19222785479990265 -0.21003610484254162 -0.041960938002784005 -0.05107290222099499 -0.17503918537006669 -0.13701199548722964 0.07078849916391051 -0.19185453498311467 -0.05868770790073102 -0.247746645437578 -0.21403628939849753 -0.14170925674858376 -0.07365882553163303 0.23095893893821728 -0.27584278484321784 0.25866469673600445 0.25293460079179625 0.2493184126728101 -0.2097162877967974 -0.18913180333960353 0.09444862753843762 0.24380364699125204 -0.0296353314132282 0.05529491396654396 -0.13377618596650614 -0.1426275258916954 -0.09096117578451213 -0.15089107093472676 -0.21012602267943664 0.015258367678794769 0.06476500095767816 0.20936714791908181 -0.19018641151166707 -0.1580797820347249 0.1668923772474311 0.05318132187263787 0.22959553907921107 0.17207168562408137 -0.001748305217119053 0.09194366075873035 0.2961482281825445 0.20398713949491118 0.07499654231612664 0.18768578165700647 0.17555904151044086 0.20168800592804914 0.06712787855488997 -0.11575812714456447
24 -0.1106353469634492 -0.07954321759032841 0.15305662510668902 -0.14243906442105456 0.06225525580269399 -0.19782976434600935 -0.042738730936503204 0.09687348353173567 0.1863257695274892 -0.1259772800684782 0.14803880526180127 -0.17618637180182323 0.1172328533346651 -0.016766190822113836 -0.058948127306654566 -0.21973467825909884 -0.15327257790023802 0.10241922127320303 0.17191864317083094 -0.026348284427898997 0.06583080399860924 -0.13225171666064597 0.023751410686574784 -0.15222741798300626 0.13489904969959554 0.0844261438909395 0.21698060898748459 0.027284719423491442 0.2080521823202379 0.15779200708469696 -0.1352327568428026 -0.1826693798938487 0.053591285562561125 0.16586605642851535 -0.021310241261265763 -0.04634493475277812 -0.02570872071948316 -0.1699944344724986 0.07370287645033816 0.07991994740459545 0.07778135620912002 -0.19526242938564833 -0.01565251289007415 -0.12189627896186866 0.07421612220556463 -0.015213851666974717 0.1372965983486256 -0.08927326691763303 0.04516313884068905 -0.006068687827681533 0.03184921316247615 -0.18932453811011174 -0.018187913280014525 -0.23689933394573762 -0.19581793480040294 0.1272153170875714 -0.132842271559046 -0.09658750922052248 -0.16530480971405412 0.1630597079613099 -0.06522373272618004 -0.11697455841369588 0.18229382963438223 0.05117866555106982 0.11627790846460814 0.05982556525578746 0.05735327234421994 -0.1050656638994076 -0.12129428029703142 -0.04977366311773537 -0.2243141729448283 -0.11722991432270094 -0.18928524934305696 -0.06471711104659626 0.09070673782916779 -0.015469333932715264 -0.16607501315590728 0.09323109587792017 0.13860043940760547 0.16997793448147808 -0.1653536728098541 -0.18499871747022756 -0.04263024409675762 -0.05693362184011564 -0.15247354622332537 -0.1329492191904579 0.0656947799657534 -0.17370791995207793 -0.055870747673468446 -0.20967561931637 -0.18648708352062224 -0.12403316647848125 -0.07203502676159437 0.20029448852268095 -0.23369356014138895 0.21738574174372857 0.21448910815836938 0.22075322618619983 -0.1850195241595508 -0.1638425830463807 0.057472688595769865 0.20608195902062576 -0.03990005020056569 0.062470365598110686 -0.12734176231521846 -0.11416458728671021 -0.0645319273863074 -0.1257110845679781 -0.18058357368540456 0.010845510591851671 0.04497466945936536 0.17216549160349923 -0.16230469760470914 -0.1562306450462964 0.1377691974891515 0.05829620807066051 0.20333009034475666 0.1396082119572897 -0.012842223549343544 0.07852393302785347 0.24862898103379394 0.17526553690954141 0.07251331116242733 0.1581437941994971 0.1519213734880351 0.16601751384701185 0.07127162846618233 -0.10792361270996322
25 -0.1219415140741727 -0.08676082126481167 0.16522555241214534 -0.1550428515418176 0.06935269982417705 -0.21119650368497608 -0.049846397922575766 0.10833149567537856 0.20149703234042377 -0.14080594119912984 0.16232964597654512 -0.19249227179965064 0.12839592115749604 -0.019745725449613394 -0.06497133934261741 -0.24059865785190257 -0.16411396197247966 0.11361697752242533 0.1866430585860403 -0.02620749199882945 0.07506881068836779 -0.14597088245891093 0.02595135045621219 -0.1674551333790049 0.1479603662664663 0.09365681496738064 0.23683497690342523 0.029972799004134888 0.22790128138298096 0.1710195498116338 -0.14662065632524207 -0.2000295307929116 0.06020042172801421 0.17951737018963482 -0.027458197402886242 -0.05131841571516462 -0.028386145455846456 -0.18404152704839383 0.08047846964345677 0.09297066872238648 0.08655153054665844 -0.2127479500399909 -0.019601331027698666 -0.1310476411458252 0.08284841859000236 -0.018840068842586127 0.1526361436863634 -0.09895762780846248 0.049249035208909796 -0.0081435915862326 0.038621193600526384 -0.20585163501312959 -0.017189474495075976 -0.2569606469643864 -0.21688428649712832 0.14134460521129966 -0.14527496361790238 -0.10328638028896407 -0.18087016485296378 0.1752519322629284 -0.07191562546966114 -0.13188733138226483 0.1991947849926065 0.05547100126873002 0.12356684703169134 0.06914300279577429 0.06710032851209236 -0.11846892800148384 -0.13318501256525783 -0.05013390192049626 -0.2474328085420117 -0.12689528503104952 -0.2103210326202024 -0.07029055797614417 0.09831934141443759 -0.018065189767235406 -0.18173295583099836 0.10437953419697095 0.15114333234954122 0.1826725418132677 -0.17910700041611063 -0.20064019579941808 -0.050725799427519216 -0.06306630154393868 -0.16949316049900381 -0.1435650450865569 0.07287415468860703 -0.17733698233503023 -0.060695098956879315 -0.23135258820453408 -0.20463612344926047 -0.1374317010600769 -0.07938316884176337 0.21892663622335132 -0.25802845273404457 0.23959958152976701 0.2385217229743814 0.23757312061632682 -0.20122933912379679 -0.17626962224698883 0.06584365582905512 0.22438333553275625 -0.043571100211483436 0.06548794891991 -0.13809675985752 -0.12874441698227448 -0.07375138245291528 -0.13823405639584577 -0.20260989197075038 0.01317289816936841 0.047688669174446564 0.19122092953987208 -0.17844157632720106 -0.16612437986098527 0.1597676747243536 0.06582096805118937 0.22036607187514817 0.15368298032979977 -0.013588483410287292 0.08918427485874833 0.27933207177975433 0.19490213520039326 0.08017365786912128 0.17415951913152436 0.1729397731109571 0.18773720548549366 0.08222862805111636 -0.11807459975324286
26 -0.09178160689537648 -0.06932093498427733 0.1372213743332078 -0.12704769558044435 0.058458149646070566 -0.16942621082709722 -0.03528967566256674 0.09344868437634893 0.15297953116248514 -0.11579004747194066 0.12057267383111832 -0.15452335893414096 0.10019753478127827 -0.004408417229939615 -0.060681160850021 -0.19026695704298968 -0.13903790143170752 0.09675864796492754 0.14119307652266522 -0.024758164377253557 0.07007896923043871 -0.11903045170119321 0.018703018735792953 -0.12745928381028415 0.11802761051257592 0.07036998518279174 0.19185093306868076 0.03158292480103419 0.18123425883298167 0.12596061611481651 -0.1105191176726946 -0.16203779877690866 0.054865135995783756 0.13673392798270062 -0.02250976289537545 -0.03960388951438227 -0.018915177377004565 -0.14751605202613122 0.06893296812974163 0.06730980450121361 0.05912269002397973 -0.17363616754748448 -0.011130394143393731 -0.09073265766705059 0.05426786919251558 0.00013241063183535057 0.11910081922948182 -0.06221769185503462 0.02844156453046635 -0.006224236358731524 0.03277795213333614 -0.16516148814653478 -0.011146675777771028 -0.21244547301675087 -0.18065308380831385 0.11871404096006967 -0.11142544783273209 -0.08256100699270193 -0.14733683621301943 0.14113576088239577 -0.07164905416989865 -0.09748705682665815 0.1641236357322028 0.02018172408080799 0.09815219390767896 0.03653466019595753 0.03750159340518365 -0.08790846538674384 -0.0955610858309028 -0.03625474660750599 -0.20920488370359996 -0.11151091480133202 -0.1658443433970283 -0.05919958097912166 0.06262552418060792 -0.02685485189203945 -0.14271275312117557 0.08725161372613725 0.1129375210041256 0.1442153459784055 -0.15024888061804498 -0.16515088164278174 -0.02405112333457172 -0.015891304201688106 -0.13875384954477013 -0.09910018603631424 0.04834092359686789 -0.15599245060660086 -0.04482242489789103 -0.18071775591996217 -0.15928278425881237 -0.10286911150526654 -0.045041617667519865 0.1641388682106662 -0.20428958203643335 0.19596543998383106 0.19211947319147393 0.18435459240163657 -0.15296151798134155 -0.13899612751986637 0.06226069974852913 0.18354562466650703 -0.04170870939797862 0.062197496286154494 -0.09518529997659349 -0.08211659719780576 -0.03672225351564025 -0.12231298292957644 -0.16175093528494466 0.007821611119259424 0.0347385499772635 0.159765000182905 -0.13744646755768478 -0.11719426933467612 0.1343678023153353 0.061326164952308644 0.17636223884748306 0.13037865432499937 -0.016435785198191766 0.0775215981655046 0.22486316609226278 0.15677947166596484 0.05430137504641814 0.15006208336757348 0.13352085425626486 0.15835767364975312 0.06078390838940642 -0.09492336514373362
27 -0.1212143600936929 -0.08779838923808994 0.17138979010475733 -0.159133110860783 0.07304792033251875 -0.21271977125757596 -0.04254699400068351 0.10652277224535323 0.20431414323724192 -0.14838793961940921 0.16382906314347462 -0.19986595824471465 0.13111183715478256 -0.022999277454866403 -0.07007578725517993 -0.25133911341093873 -0.17456634161247284 0.1192241245494355 0.18760616833850285 -0.03313921290383412 0.0816252884161715 -0.15034956094961968 0.024470601278389473 -0.16439703148551132 0.15421572015803386 0.08645228849110655 0.24989191018394225 0.03486562517878167 0.2327136643128598 0.17303434792833117 -0.14522895210848796 -0.20592732681201975 0.06510494889613942 0.18354283716678996 -0.028456682254518723 -0.05169237573429878 -0.02273805692150632 -0.18704237588673459 0.07834113037520854 0.08429698437651077 0.07653944377560112 -0.22486194167064044 -0.02177065145448416 -0.12543113927219468 0.07426299918424593 -0.005939076040448734 0.1504001771844333 -0.08970563470000642 0.03795849215819463 -0.004435564328454722 0.035816862973977674 -0.2122731700218383 -0.017335776634923562 -0.26865113327396906 -0.23419592883301743 0.15165814053875012 -0.1436587213702635 -0.10651620092297648 -0.18830633253771498 0.17772751598438735 -0.0774831626969161 -0.11696677292514247 0.21190664826410976 0.045543037838755525 0.12654163984059436 0.05340848923555628 0.05786371965548943 -0.11195630160573417 -0.13167957289641727 -0.054509542793089796 -0.2703948159008617 -0.1374287982578985 -0.21560121375732347 -0.06889536856348352 0.0954370653443493 -0.03137820646231716 -0.179325783654606 0.10269176749172364 0.1508271861197772 0.1932129156964849 -0.18501840645317702 -0.21263358464140145 -0.045330698991578225 -0.04738547825229587 -0.17782991656564642 -0.13937471477864913 0.06489131537449404 -0.197309812744818 -0.05897386640123375 -0.2320198162155599 -0.21032246381549677 -0.1320567953449708 -0.07513620067330422 0.21903195810763787 -0.2666835595756753 0.24239965100875877 0.245695139562913 0.24760647887872644 -0.20997044192670888 -0.18501320197728527 0.07155172511013885 0.23655742446738326 -0.05092656147994537 0.0782221956354873 -0.1370377204943508 -0.11578127603259536 -0.058389282162459394 -0.14225051470016384 -0.20998880646504656 0.0140124390937435 0.042319064072310286 0.20468980943346018 -0.18306193169572188 -0.16705352899822623 0.16112276950635948 0.07239678914610942 0.23282140166681128 0.15771109818872706 -0.02264577046999249 0.09252466182259117 0.2935362716960724 0.20077525837275942 0.07514016481210442 0.18382230435809463 0.1709104567865524 0.19791246006537563 0.0809995298228451 -0.126372108766464
28 -0.12345124980375109 -0.08763139698339138 0.15961367618537348 -0.15100203954765484 0.07730791291791046 -0.21118712241435952 -0.04656710314044494 0.11925637672589319 0.18764404232956072 -0.14237335769949666 0.15164785600388508 -0.18604526742672342 0.1150827174551336 -0.03605845733142656 -0.073800925781804 -0.24699559464699453 -0.15713036254679633 0.12201156204676447 0.1715240819605422 -0.05231078310207769 0.08425638363558882 -0.1352950233654972 0.004829078867025554 -0.14911416079658282 0.14926034264593188 0.06498248322418754 0.23921705021036663 0.01514190927145442 0.21963724566272366 0.16164314455301787 -0.12498172613562485 -0.20825952056332367 0.04828286426922011 0.17035068392278044 -0.018546855439722825 -0.06067675896052956 -0.003325800067488066 -0.16381751766805372 0.071249490242046 0.0558970551764207 0.05540436664708506 -0.22805061731810314 -0.0279430649903813 -0.10573556277356048 0.06044677577149568 0.00022986359726054285 0.1290054363386664 -0.06789208136448459 0.029929485840303464 0.006388174522992591 0.040675291282094336 -0.1998859178299979 0.0009226656538230114 -0.25857695046061424 -0.22476440381825785 0.14985263698491286 -0.12663291617264033 -0.08515490113303342 -0.18175851550278022 0.14956807338114 -0.08105120196556188 -0.0731054376326484 0.20175705996787535 0.022559549059024367 0.11810932079287507 0.028147588753115554 0.016312618521309847 -0.0940817555778765 -0.12577984027292405 -0.06214486846641494 -0.26044637913821045 -0.1426539727922093 -0.20455402982613308 -0.06889215403111308 0.07039315456906894 -0.03582733075133191 -0.17095511219979476 0.07850836274856943 0.1414219188684452 0.18466272719828458 -0.16903444229685138 -0.20283790737237434 -0.039659246955115184 -0.026418573643805354 -0.17049979799557943 -0.12255709760123266 0.049749954724575975 -0.19633696738040973 -0.05577904172534484 -0.22292536909674784 -0.19810750228647783 -0.12511261267778676 -0.06055824129288168 0.20518538387887764 -0.25909838225545784 0.2320979766100392 0.23898871828077328 0.23189611337381247 -0.19861289719948247 -0.16390323296441944 0.05188040587296932 0.23017199857230727 -0.05737631777848031 0.0850331812123449 -0.12314978149412732 -0.08628947762015188 -0.029782702978444327 -0.13209171580343843 -0.20911735940939755 0.015077780510190514 0.018865178101333983 0.19412229733012487 -0.16180343493922777 -0.16255791176542067 0.15766192041792948 0.08545359774431247 0.22720903025416525 0.14921834397374217 -0.02917741207945732 0.09129821290286302 0.28727860474873756 0.1938840934162952 0.06506335411961772 0.17486768372171652 0.15738920267749915 0.1987826338629498 0.083040083942702 -0.1297257542469628
29 -0.09902835603695767 -0.07052332781323489 0.15315815144614764 -0.13781477883866175 0.0566607513829361 -0.1967409042066182 -0.03708371993678817 0.09596047036012396 0.18416365587253272 -0.1285033071014892 0.13469687876513065 -0.178666619871465 0.11410753553396853 0.010271047506049968 -0.055498227336554545 -0.2149772816090448 -0.153608235951562 0.09895924463367564 0.1608161254340222 -0.009577347965619544 0.07010096351072113 -0.13253453082255556 0.04225893106105725 -0.14737815795026327 0.12438465315850684 0.09041837392978201 0.22244513297691426 0.04399483380527545 0.2110852117917128 0.14258096527460928 -0.12584975572193438 -0.18136479145258025 0.06421106594409118 0.1530356090357024 -0.027998837901268215 -0.0332505236472057 -0.043699229884631284 -0.16660162547984508 0.07736057702252745 0.088657200615304 0.07888504200882845 -0.1989370129293371 -0.003081976981828969 -0.10288571619291467 0.059894455239031016 -0.014840372220774433 0.13322545848960848 -0.07545951131300357 0.03140895543758151 -0.015484857964730703 0.029133895886492716 -0.19574686199109503 -0.021371616019757143 -0.24726731461677018 -0.20873126573146905 0.125568307871344 -0.1310916845678742 -0.0953751397851641 -0.16724080464453348 0.16344001180097573 -0.07030213525217233 -0.13879662492372435 0.18603062401611925 0.03420818837765189 0.10544437484784447 0.066303959807638 0.07714133785967882 -0.10721763516527864 -0.10399778472813644 -0.025368451993193607 -0.23278715965603247 -0.11801453809375213 -0.19911231186329245 -0.060176011196709 0.07789198943544143 -0.019372215127338777 -0.16404440965620706 0.10515976984101003 0.12070715529424729 0.1533107959409231 -0.16432010407876768 -0.17907918173841872 -0.02618252088330435 -0.027693677403725813 -0.14695728790097523 -0.10555934556075922 0.05411919683557054 -0.1640364383691462 -0.04691317647082146 -0.20099861753977968 -0.174136215095865 -0.11724616802301029 -0.05218034102016697 0.19416278414055613 -0.2436778649107499 0.22684656063636277 0.21951465648412416 0.21646911098339855 -0.17709126190888116 -0.16314862891387727 0.07798447255519374 0.2123614002743031 -0.029480707923292302 0.05244027516708142 -0.10741461441386489 -0.10746606782391768 -0.06262367466945343 -0.13384171702261105 -0.1859137175286826 0.010842316683332376 0.0494644113098791 0.1848850408423331 -0.16205466375318778 -0.13172675332955794 0.14592895097973801 0.05264207468283929 0.2045524910836431 0.14868868983479888 -0.003257250675904645 0.0824218174004339 0.2669108374525048 0.17774113689291518 0.05853504682446666 0.1676919037921641 0.14888606362896625 0.18231322093773478 0.05785782469120897 -0.10024744343965614
30 -0.12624211702863433 -0.09283496657025457 0.16549976874254058 -0.15912837023050627 0.08340046264735827 -0.21341653187550136 -0.050683731950276846 0.12729214282150522 0.18550487666767956 -0.14760326811902227 0.1546656119940503 -0.1958999374840929 0.11634264721013993 -0.04492132104969524 -0.08009201073633902 -0.2523058766420253 -0.17416126462899356 0.13152066101110155 0.1738439976250822 -0.06925188063600253 0.09215073279049157 -0.13235217280281436 -0.008726097479516142 -0.14431903836984336 0.1547004577666854 0.05834581627205143 0.24835520481799356 0.01014997653641167 0.21817212941738964 0.15698695614824182 -0.12390599476332889 -0.20778635094745956 0.052683644274338706 0.17447863057818824 -0.024071837434435448 -0.07620842309607957 0.014810939978199118 -0.1642090967923944 0.07029065940289896 0.046394590745699085 0.03642988264118409 -0.23225363374675084 -0.03369134171865156 -0.09474036622954123 0.05445339378416882 0.012412682746262775 0.13106665937115078 -0.05248930553610915 0.028658872718765264 0.014742565401757533 0.04428383426385153 -0.20560180761002755 0.009309532212608971 -0.2613485289874587 -0.23098696240283173 0.15469806411125134 -0.13062228287585625 -0.08766036692659335 -0.18193562277660352 0.14836863365941097 -0.0947655639109201 -0.05322041943237126 0.20406808786036051 0.010509502941381888 0.11505608403676446 0.015276614479071433 -0.010943820290925999 -0.08785935638949742 -0.12484974731683122 -0.06694455606165901 -0.27093677922746934 -0.14300604358350907 -0.2045160514547841 -0.07302234974769374 0.06630526490049188 -0.051814412622054495 -0.16509306304504387 0.07863939981294597 0.14704374803357564 0.18617260208671998 -0.17233590678191088 -0.21128628189721047 -0.03880769554764639 -0.011039889561306117 -0.1785470189244703 -0.1120500634930027 0.05143368511911765 -0.20014043219075736 -0.06152494754608341 -0.22067089508613635 -0.2016892341055376 -0.12871751311353888 -0.06180482650016341 0.2012876613210449 -0.25957592484013337 0.2368266122978342 0.24263916447982883 0.23671834532771155 -0.20096491397856334 -0.16867218751155275 0.04583733133393583 0.23361150245074577 -0.06714363566132767 0.10086092253429783 -0.12703684751220165 -0.06912831436638825 -0.010451290686593211 -0.13797813459705213 -0.2157500758406694 0.02115443009708917 0.012537398713847672 0.2031858534790795 -0.16154262192630112 -0.15388937303581612 0.16153228301548975 0.09239766801326621 0.22533486015413576 0.14996813505659 -0.04801251324914596 0.09950976157443928 0.2928721374707469 0.1998755154460022 0.06846684452103582 0.17794980150622375 0.1533177928945352 0.20050228226506375 0.08545626288290133 -0.13897273960493112
31 -0.1433348326148672 -0.09863420360489135 0.18581237561578667 -0.1800063650041712 0.08054101031908474 -0.24769138257957435 -0.05127603217818076 0.12782102402421053 0.22126377206376957 -0.15988115148309864 0.17536937890052204 -0.22443596406772978 0.13644055320104567 -0.03725639891320075 -0.07623171834465153 -0.29064837831026896 -0.19106067230979468 0.1379867792495214 0.2057423337388513 -0.052686681482567624 0.09254501760064168 -0.15911460781446385 0.008080039769883607 -0.17767061770644751 0.1720153390146953 0.08148965491542723 0.28027286526538187 0.020340283215569577 0.2590773186561413 0.19174035688904503 -0.15256285268026953 -0.24216118073506304 0.05459153562507563 0.2029201370984468 -0.02165553995835802 -0.06729216237773614 -0.008985725957994115 -0.19716942246985528 0.08371498680490458 0.07392175877443148 0.07015887276554315 -0.2639968118920681 -0.027254581015000657 -0.12864118912937686 0.07787279228150903 -0.0010560105868354388 0.16014423167816375 -0.08933816959871443 0.04279584161816871 0.0036051458400621086 0.044509180936375715 -0.23725073779344105 -0.005196031730746613 -0.30636259967221613 -0.25692345739286454 0.1673805174079252 -0.15140484941548388 -0.10756712534451635 -0.21108388927474195 0.1802262655435582 -0.08700914345245543 -0.09932861474685946 0.2327421832875733 0.036405587587178496 0.13472556189759605 0.038276754393659726 0.034302651038477946 -0.10872874070351375 -0.1425842619676783 -0.06754788176267568 -0.30200459000124247 -0.15469356993589156 -0.23793515001311694 -0.0760190703707835 0.08956524934218804 -0.03332529562255997 -0.1966416233391337 0.09602710073812115 0.1722349499416932 0.2174436678582491 -0.20577390873103713 -0.23642975200215618 -0.047845183825378564 -0.04576931453430945 -0.2008535739961467 -0.1485831228646575 0.06383628237899265 -0.22766410419065825 -0.06210755470196379 -0.26221867111579283 -0.23410224982753577 -0.14901458858423275 -0.07752923673414411 0.24652681274008967 -0.3072452889800073 0.27887822892355396 0.28192917770033565 0.27575057596605984 -0.23554796075176038 -0.19570496581411842 0.0631813642608008 0.26685832526975184 -0.06316041436485445 0.09181455525010994 -0.14778877207692273 -0.10841150682091737 -0.0450964120720465 -0.15173632570821388 -0.2342099517768194 0.011154928234453397 0.03137002344535675 0.21890804046525614 -0.18898083175697333 -0.1858708544610411 0.18220272790002184 0.08405962073056096 0.25979256048251337 0.1706810462762293 -0.027648011314206092 0.10470212199418132 0.3348172737652859 0.22432219539256348 0.0795990091368079 0.20599698382108952 0.18975236246222812 0.22524553512428727 0.0956801731337197 -0.14252329244941075
32 -0.1693897949190468 -0.11659175357181119 0.2351669632334191 -0.22056465390074584 0.11238523034450705 -0.2959473370014928 -0.06614021739814249 0.16002360583805122 0.27349484540890684 -0.20021905857486588 0.21557159418644653 -0.2780591144801836 0.17395077115375035 -0.016062773786187277 -0.09512962461953393 -0.33596176228091545 -0.2397558718557178 0.16715996584370837 0.24690190400373244 -0.04626554091863901 0.11955087380440003 -0.20436560768769596 0.04550731648527688 -0.22290592823524477 0.20702795557651166 0.12912833576204022 0.3397124422905724 0.055447424839182906 0.3161385682450604 0.22560416800174893 -0.18929938396950494 -0.2847411339366592 0.09122734395674792 0.23781600663318705 -0.03893184794100241 -0.07263539198387058 -0.04395743995325474 -0.25024273436178823 0.11950276668229412 0.11675827429619476 0.10347645060382533 -0.3118462555650058 -0.016457685039124113 -0.1548536517822272 0.09033051138175643 -0.016238935227500254 0.19714819355355692 -0.10843439267250744 0.04331312229951352 -0.00930000034870863 0.05416514372959452 -0.2918056075242874 -0.019446096609336924 -0.3582270004688397 -0.3127212922091226 0.20212126977920056 -0.19410251924119634 -0.1434884845914531 -0.2516532443015857 0.23425025327356339 -0.11069558598936932 -0.17065930628494422 0.27158579305072855 0.044457380551426805 0.15931158399997608 0.08235000626937101 0.0799161706340655 -0.15414054745382794 -0.1643441998468656 -0.05616756046800823 -0.3622070743243533 -0.18758437014074983 -0.2896269148631841 -0.09189348201077506 0.11263122528064057 -0.04273275845610826 -0.2465225014697116 0.15757916800104135 0.20535477751099795 0.25738767476671615 -0.25865076417814026 -0.28873517534189264 -0.05599395631688011 -0.038181801465835954 -0.2451836860976985 -0.17286469593527076 0.08565291715211586 -0.27558261727391914 -0.08421882253122936 -0.3122931492694273 -0.28079611550155464 -0.18600472685830488 -0.08718420670930618 0.2901085425176562 -0.3574282557855618 0.3296297805212753 0.3256907565394219 0.32165359831808576 -0.272514924552713 -0.2446143247134548 0.10916110167312178 0.3104133766026003 -0.057016566589902264 0.09470133844896707 -0.1668297153467555 -0.14512077144030316 -0.0749110104297502 -0.19711058751418858 -0.281950027240338 0.025299766970887146 0.0540878112247825 0.27670696021405244 -0.24217680323497784 -0.21051303350854578 0.22576008200471154 0.09396543022989035 0.3063085558817125 0.22537854187793266 -0.026585610110999025 0.13356495114639025 0.39021118317195014 0.27366848911765607 0.09295008845134149 0.25090444517788135 0.2198372777382916 0.27388099290829143 0.09856122946109636 -0.1694781612945392
33 -0.18055210900280963 -0.1274376222653108 0.25055809368940524 -0.23768282951753092 0.12970611727897904 -0.3149526779597124 -0.06917341522382114 0.17857231586619687 0.2883568745362425 -0.21908821201003786 0.23383814805434713 -0.29355512489449803 0.1817357006699978 -0.02132870329914554 -0.10926772197629941 -0.35383982910706235 -0.25619230670070603 0.18156079787616564 0.26229318909408184 -0.05502841920528671 0.13299144124233048 -0.2212278177773953 0.05012787195238073 -0.23465961481669018 0.22234116442281915 0.14106438886085168 0.351312147336787 0.06400143224631241 0.327341739323442 0.23939192529812506 -0.20241844018203278 -0.29782453837628525 0.1043070665374758 0.25428725228820126 -0.044504450239496195 -0.07768656114419382 -0.04760515678228468 -0.26547776058760847 0.12744093772759718 0.13078855786995153 0.11973897949636855 -0.33002117990178526 -0.017569840424899077 -0.17192199692110782 0.10269979739670727 -0.017053230672327196 0.2176227165761383 -0.12127169400185867 0.04629205920438194 -0.015463219588347649 0.05845638370023426 -0.30863347942036184 -0.02497361106825188 -0.37765121849058714 -0.3322505448151781 0.22194430630292855 -0.20940658984735544 -0.1588427357503039 -0.2694048902776601 0.262008395405624 -0.12966817453297683 -0.19550789374148714 0.3004238871209647 0.047093563916829846 0.17529321586139746 0.09742823782672594 0.08925045320458239 -0.17349172074672853 -0.18061796747682451 -0.06372031564259988 -0.382139970268637 -0.20924132083329441 -0.3062860046643226 -0.10484206352412433 0.12331087349229704 -0.04937193635467361 -0.2656906481040419 0.1707139583973674 0.22041022582492262 0.27582889127429855 -0.27290902588564037 -0.3044669472026228 -0.06316214170891883 -0.03988327183008109 -0.2614409350423014 -0.1908103320363184 0.09242049902346322 -0.2901356905395356 -0.09337895516764066 -0.33369045138469067 -0.29918641370182136 -0.19959035527871272 -0.09586441115798222 0.3073099442196717 -0.37236992011042197 0.347640064829983 0.34141039173352883 0.3397524044616896 -0.2940238884543795 -0.2627320949666452 0.12307844885041137 0.3359582015410872 -0.06593718974139472 0.11297451189917497 -0.18196938836841284 -0.15979084128085227 -0.08577225071609416 -0.2180704839680268 -0.3051608783241123 0.028175508613642267 0.06267674897687216 0.2992402623114208 -0.2600493333203323 -0.22992758149496945 0.2432736241767741 0.10984379827437456 0.32734052115227885 0.24488190046988242 -0.026614936415369137 0.1471335161480285 0.4080116114050931 0.2944349065359812 0.10302748719320096 0.2722210328097255 0.2410284645018514 0.29587265811824126 0.11330460030620683 -0.1891825830008061
