1024 128
0 0.04019768163561821 0.10008957982063293 -0.29935798048973083 0.003957666922360659 0.151546448469162 -0.15001903474330902 -0.06871362775564194 0.08042454719543457 0.07947050780057907 0.06412135809659958 0.06292346119880676 -0.1852777898311615 -0.09877283871173859 -0.01755445823073387 0.09677962958812714 0.029996683821082115 0.08992500603199005 0.17741376161575317 0.24844840168952942 -0.15482240915298462 0.057008296251297 0.17465277016162872 -0.12233014404773712 -0.12898577749729156 -0.047026894986629486 -0.1174125224351883 0.0430920384824276 0.0375148169696331 -0.0933915376663208 -0.2135501503944397 -0.030993949621915817 0.16531825065612793 -0.06489646434783936 -0.005346172023564577 0.1016681119799614 0.20654530823230743 -0.1869133561849594 -0.2918720543384552 0.029165996238589287 0.22047029435634613 0.161823570728302 -0.0737493708729744 -0.08865485340356827 -0.00045432790648192167 0.03324455767869949 0.05531275272369385 -0.06472960114479065 -0.07806756347417831 -0.040362127125263214 -0.11853941529989243 0.0998721569776535 0.05650601536035538 0.07927155494689941 0.3115454316139221 -0.17418241500854492 0.015495657920837402 0.10008960962295532 -0.06374632567167282 -0.11688561737537384 0.2343413531780243 0.034399133175611496 -0.11477036774158478 0.0344105139374733 -0.20988957583904266 0.03526724502444267 0.06169525906443596 0.06645122915506363 0.002923328895121813 0.02085193432867527 -0.14668138325214386 0.11046912521123886 0.12874434888362885 -0.15851841866970062 -0.09454860538244247 0.09003658592700958 -0.014307265169918537 0.20616476237773895 -0.13428694009780884 0.08595109730958939 -0.09657684713602066 -0.021747849881649017 -0.10947471857070923 0.25538358092308044 0.05429582670331001 -0.05725705251097679 0.18490654230117798 0.14574486017227173 0.014006055891513824 0.04232640191912651 0.027888251468539238 -0.15715497732162476 -0.2017345279455185 0.16489462554454803 -0.01345348171889782 -0.2856849133968353 0.08454521000385284 -0.252900630235672 -0.044820014387369156 0.2720332741737366 -0.07915004342794418 0.029439523816108704 -0.25542882084846497 0.0050702388398349285 0.29891258478164673 0.003983722534030676 0.04476325213909149 0.1029193326830864 0.08020814508199692 0.17765414714813232 -0.010459905490279198 -0.30730265378952026 -0.3348497748374939 -0.058609265834093094 -0.020437773317098618 -0.1672138273715973 0.16861869394779205 -0.3466322720050812 0.05965311452746391 0.19133996963500977 0.1412462443113327 0.2446144074201584 -0.12992650270462036 -0.1848599761724472 0.0452168770134449 -0.03685903176665306 -0.2446955293416977 -0.2279537171125412 0.0031229115556925535
1 0.07093238830566406 0.1289784014225006 -0.32164624333381653 0.15566352009773254 -0.022677414119243622 -0.20282942056655884 -0.014224307611584663 0.16866068542003632 0.13207601010799408 -0.007218556012958288 0.18481242656707764 -0.13910318911075592 -0.023464536294341087 -0.04164827615022659 0.11088009923696518 -0.1320664882659912 0.08653509616851807 0.31181108951568604 0.27185213565826416 -0.023836340755224228 0.03464286029338837 0.09488258510828018 -0.03429913893342018 0.10563091188669205 -0.08344803005456924 0.04784656688570976 0.46684935688972473 0.03342223912477493 -0.06977899372577667 -0.07554615288972855 0.06946675479412079 0.1597515344619751 -0.04256507009267807 0.06868445873260498 0.029519347473978996 0.13384827971458435 -0.032047320157289505 -0.2187790870666504 -0.14772666990756989 0.22456908226013184 0.02514173835515976 -0.03649144247174263 -0.00376129150390625 -0.014653763733804226 0.0919354110956192 -0.09462639689445496 -0.027127472683787346 -0.05136179178953171 -0.04615437239408493 -0.22744351625442505 -0.05739273130893707 0.16172263026237488 0.026680825278162956 0.04279310256242752 -0.16214519739151 -0.01139107532799244 -0.054583724588155746 0.05055724456906319 0.027849720790982246 0.14917051792144775 0.1454916149377823 -0.11359952390193939 0.19164344668388367 -0.0658811554312706 0.07423192262649536 0.07369382679462433 -0.19116543233394623 -0.018612835556268692 -0.02480241470038891 -0.05689387395977974 -0.04220425710082054 -0.10419552028179169 0.05251675844192505 -0.018638065084815025 -0.03373756259679794 0.006733796559274197 0.15413424372673035 0.07244504243135452 0.278677761554718 0.10311474651098251 -0.0969083160161972 -0.10844340175390244 0.34790870547294617 0.003916624002158642 0.11888501048088074 0.023160848766565323 0.1188458725810051 -0.132656991481781 0.04260074719786644 0.126443013548851 -0.07142210006713867 -0.21894827485084534 0.056028008460998535 0.06042105704545975 -0.22663816809654236 -0.11953752487897873 -0.21435312926769257 0.08655037730932236 0.33722516894340515 0.02250143326818943 -0.02684815600514412 -0.2681039571762085 0.036787986755371094 0.28872236609458923 0.005272882059216499 -0.0030067958869040012 0.01701238378882408 0.08464954793453217 0.15414242446422577 -0.08334392309188843 -0.24343685805797577 -0.26667043566703796 -0.08341468125581741 -0.08584806323051453 -0.21546268463134766 0.09079812467098236 -0.22454002499580383 -0.05272645875811577 0.01244298368692398 0.11890546977519989 0.271284282207489 -0.0666387677192688 -0.20634578168392181 -0.1269511729478836 0.016991522163152695 -0.023892289027571678 -0.10604076087474823 -0.018991464748978615
2 0.09179677069187164 0.03058687597513199 -0.0016317666741088033 -0.09685265272855759 0.04302751272916794 -0.08183476328849792 -0.07065282762050629 0.0038019055500626564 0.1099444106221199 0.08329714834690094 -0.02067670412361622 -0.08737153559923172 -0.14016517996788025 -0.0369570218026638 0.05750054121017456 -0.2383708357810974 -0.06994093209505081 0.1447567492723465 0.12241460382938385 -0.011160030029714108 0.006550392135977745 0.29489052295684814 0.022683247923851013 -0.04728804528713226 -0.18121090531349182 -0.18949376046657562 -0.04283756762742996 0.15678073465824127 -0.08932788670063019 -0.03140825033187866 -0.052330028265714645 0.14064885675907135 -0.10155728459358215 0.11865336447954178 0.03992285206913948 0.18668098747730255 0.011472459882497787 -0.1985538750886917 0.0662674754858017 0.21740108728408813 0.20479446649551392 -0.052318599075078964 -0.06828921288251877 -0.015255975537002087 -0.03203940391540527 -0.007259379606693983 -0.011614196933805943 0.07443061470985413 -0.20344175398349762 -0.10446211695671082 0.11241907626390457 0.12388502806425095 0.06043326482176781 0.01581602916121483 -0.20352128148078918 0.0967276468873024 0.12266623973846436 -0.0007042885990813375 -0.006209328304976225 0.21289348602294922 -0.10984959453344345 -0.02380596473813057 0.022652316838502884 -0.12561702728271484 -0.04778815433382988 0.029642196372151375 -0.005108032375574112 0.003044706769287586 0.0020865718834102154 -0.08866904675960541 -0.14986516535282135 0.1471148282289505 -0.09300480037927628 -0.1273777037858963 0.1259523630142212 -0.10460913181304932 0.049963586032390594 -0.1686026006937027 0.06407878547906876 -0.0330079086124897 -0.21186235547065735 -0.0847066268324852 0.2576175332069397 0.06373164802789688 0.06635262072086334 0.07112736999988556 0.18038517236709595 -0.052502043545246124 -0.04007131606340408 0.08712299168109894 -0.041531432420015335 0.04567735642194748 0.18046292662620544 -0.023188846185803413 -0.19318926334381104 0.030404241755604744 -0.2372121959924698 0.05971377342939377 0.39925673604011536 -0.09905024617910385 0.163303941488266 -0.16521917283535004 -0.04277435690164566 0.23440350592136383 -0.055364400148391724 0.12318553775548935 0.15591281652450562 0.02591443993151188 0.12400739639997482 0.2039966583251953 -0.29792118072509766 -0.20743562281131744 -0.10449062287807465 -0.0911354199051857 -0.15276126563549042 0.2301306128501892 -0.210006445646286 0.13474179804325104 0.1162654384970665 0.0321626290678978 0.49456167221069336 -0.07054630666971207 -0.2179226577281952 -0.01545780524611473 0.17491619288921356 -0.19310487806797028 -0.14462999999523163 -0.14982421696186066
3 0.057955458760261536 0.10586337000131607 -0.2525825500488281 0.07834593951702118 0.11296810954809189 -0.15420320630073547 0.028186026960611343 0.060547299683094025 0.03905484452843666 -0.0020691154059022665 0.0959029346704483 -0.1710382103919983 -0.09984329342842102 0.0237436406314373 0.12179472297430038 0.027680357918143272 0.022383015602827072 0.17453835904598236 0.2951000928878784 -0.09417354315519333 -0.03438349440693855 0.16973571479320526 -0.058354057371616364 -0.12967820465564728 -0.005258782766759396 -0.0931699201464653 0.11605127900838852 0.12766076624393463 0.019236791878938675 -0.07856026291847229 0.09583030641078949 0.15830020606517792 -0.045857518911361694 0.1113944947719574 0.15841862559318542 0.1984967589378357 -0.06189059838652611 -0.3779424726963043 -0.0843515545129776 0.10659251362085342 0.15962620079517365 0.11912151426076889 -0.10478553175926208 -0.005567357409745455 0.15140967071056366 -0.030187930911779404 -0.027481820434331894 -0.003944966942071915 -0.076674684882164 -0.16744253039360046 0.029952634125947952 0.14566516876220703 0.09009825438261032 0.17337347567081451 -0.09891296178102493 0.08632244169712067 -0.06399849057197571 -0.10022987425327301 -0.20018140971660614 0.2515026330947876 -0.01655786857008934 -0.12270594388246536 0.0764802098274231 -0.09853716939687729 0.12520498037338257 0.19052764773368835 -0.031619805842638016 -0.03184511139988899 -0.09599333256483078 -0.13396324217319489 -0.018127864226698875 0.15242387354373932 0.010528218932449818 -0.13205879926681519 -0.020479777827858925 0.044836707413196564 0.17527370154857635 -0.01596122235059738 0.12126418948173523 -0.14744481444358826 -0.07243760675191879 -0.0756632387638092 0.2828918993473053 -0.08513978123664856 -0.07472680509090424 0.07636173814535141 0.1646609753370285 -0.029758518561720848 -0.07464558631181717 0.13396084308624268 -0.19267567992210388 -0.3022029399871826 0.1356743723154068 0.0722959116101265 -0.3768264353275299 0.0923575684428215 -0.25254902243614197 -0.005570861045271158 0.23344236612319946 -0.06490679830312729 -0.006540336180478334 -0.26751798391342163 -0.11139023303985596 0.3262959122657776 -0.12014790624380112 0.0743841826915741 -0.017381027340888977 0.07908260077238083 0.07419481873512268 0.06441330909729004 -0.3465513586997986 -0.3725261092185974 -0.12425952404737473 -0.006115588825196028 -0.13606807589530945 0.08875582367181778 -0.21494783461093903 0.04573572054505348 0.11504146456718445 0.25207337737083435 0.29152098298072815 -0.024366971105337143 -0.16824282705783844 -0.09965597093105316 0.21460913121700287 -0.19931967556476593 -0.13286058604717255 -0.05250613018870354
4 0.015418348833918571 0.08749686926603317 -0.3032187521457672 0.10504209250211716 0.023560557514429092 -0.13149642944335938 -0.09183061867952347 -0.10902214050292969 0.00676355417817831 0.0015925909392535686 0.10417881608009338 -0.06728498637676239 0.08300932496786118 0.0008996060350909829 0.21629953384399414 -0.24401766061782837 -0.045750703662633896 0.041972335427999496 0.13589900732040405 -0.04214897379279137 0.05457716062664986 0.1493612378835678 0.05417899042367935 -0.07620851695537567 -0.0010676204692572355 -0.12131761014461517 0.16675134003162384 0.12627772986888885 0.02688044309616089 -0.1083071380853653 -0.10007446259260178 0.20571774244308472 -0.018862208351492882 0.23152142763137817 0.10748588293790817 0.10834477841854095 -0.031262319535017014 -0.2743852138519287 -0.1254451721906662 0.2722957134246826 0.10319279879331589 -0.006923820357769728 -0.04910099506378174 0.04337063059210777 0.051088206470012665 -0.020205151289701462 0.037794068455696106 -0.006503431126475334 -0.23155400156974792 -0.03898666054010391 0.09898129850625992 0.07587478309869766 0.1273522675037384 0.1766526699066162 -0.14184309542179108 0.008984451182186604 0.02288779430091381 -0.1164005920290947 0.034609414637088776 0.2790120840072632 0.008836398832499981 -0.14017178118228912 0.021601056680083275 -0.18696989119052887 0.043615441769361496 0.1887906789779663 0.06169940158724785 -0.06377492100000381 0.00453543197363615 -0.10917230695486069 0.05826418101787567 0.020227428525686264 -0.05804520472884178 -0.126694455742836 0.06946783512830734 -0.08137735724449158 0.24996116757392883 -0.045506857335567474 0.07169530540704727 -0.05735666677355766 -0.10801319032907486 0.005536363460123539 0.3781377077102661 0.08978806436061859 0.01369631290435791 0.11914318799972534 0.07978253066539764 -0.09368354827165604 0.0030403686687350273 0.06950519233942032 -0.08381575345993042 -0.057195983827114105 0.0808311402797699 0.08589814603328705 -0.2453325390815735 0.020256981253623962 -0.23080871999263763 0.08355271816253662 0.3168991506099701 0.02796769328415394 0.10972332209348679 -0.14482693374156952 0.05577114224433899 0.24323712289333344 0.06643206626176834 0.08307942003011703 0.1774149239063263 0.057702165096998215 0.009406546130776405 -0.056870028376579285 -0.3960675895214081 -0.26835644245147705 -0.0223569143563509 0.04202248528599739 -0.07867122441530228 0.0035426777321845293 -0.25953197479248047 -0.004100876394659281 -0.036955300718545914 0.17826434969902039 0.13300982117652893 0.010539091192185879 -0.1741713136434555 -0.07436466962099075 0.22598321735858917 -0.1284988522529602 -0.1431584507226944 -0.04375895485281944
5 -0.016376782208681107 0.1401425451040268 -0.4085744619369507 0.23898151516914368 -0.02156408689916134 -0.13410703837871552 -0.10309338569641113 0.07156073302030563 -0.02154867723584175 0.04432367905974388 0.09654722362756729 -0.07134541869163513 -0.10719773918390274 0.062216367572546005 0.1417257934808731 -0.04083727300167084 -0.010749598033726215 0.26559972763061523 0.23431095480918884 0.045162469148635864 -0.10762005299329758 0.15390801429748535 0.1569974720478058 -0.12245718389749527 -0.13434720039367676 -0.14943692088127136 0.25189438462257385 -0.023028496652841568 -0.07005232572555542 0.032689206302165985 0.028693238273262978 0.17431873083114624 -0.19221936166286469 0.1375197470188141 0.15268370509147644 0.25741007924079895 0.09339585155248642 -0.24262875318527222 -0.15710663795471191 0.10762682557106018 0.233317032456398 -0.11407715827226639 -0.0793037861585617 0.24501891434192657 0.08090120553970337 -0.10778384655714035 -0.11523942649364471 -0.07696129381656647 -0.04114052280783653 -0.021665411069989204 0.022914258763194084 0.22225995361804962 0.14835576713085175 -0.05699707940220833 -0.2715487778186798 0.13516275584697723 -0.009395882487297058 0.051768019795417786 0.04813369736075401 0.24883709847927094 0.0014374953461810946 -0.1572216898202896 0.01296227890998125 -0.06841760128736496 0.21129544079303741 0.0004198990936856717 -0.29993218183517456 -0.018868407234549522 -0.04526985064148903 -0.0941481739282608 0.1235574334859848 0.007037356961518526 -0.004749423358589411 0.039336975663900375 0.22547407448291779 -0.02288128435611725 0.0798674076795578 -0.11363206803798676 -0.032751526683568954 -0.03250887244939804 0.0213333610445261 -0.07771182060241699 0.2903965413570404 -0.19282816350460052 -0.04074893519282341 -0.08374744653701782 -0.01265489961951971 -0.1898651123046875 -0.023586666211485863 0.17403534054756165 -0.01410709135234356 -0.08666577190160751 0.053424108773469925 -0.03165207430720329 -0.3352460265159607 -0.011899362318217754 -0.23414179682731628 0.11353529989719391 0.2430824637413025 -0.043995201587677 -0.0014634476974606514 -0.379058301448822 -0.06306245177984238 0.2925543189048767 -0.12015091627836227 0.09655767679214478 0.06985627859830856 -0.05623948201537132 0.19232185184955597 0.14703243970870972 -0.28796857595443726 -0.3887411952018738 0.09050853550434113 -0.18040528893470764 -0.04741917923092842 0.06703299283981323 0.01138957031071186 0.034777503460645676 -0.1484760195016861 0.14021830260753632 0.1667306125164032 -0.016646111384034157 -0.22441045939922333 -0.11795824766159058 0.022323664277791977 -0.2332685887813568 -0.1264483630657196 0.05453009903430939
6 -0.004636849742382765 0.04497075080871582 -0.2260114699602127 -0.001679041190072894 0.016118893399834633 0.021321753039956093 -0.06270931661128998 0.17454856634140015 0.15058676898479462 0.01052797306329012 0.11152245849370956 -0.050574880093336105 -0.06988399475812912 0.061401426792144775 0.21042166650295258 -0.056432321667671204 0.11062455177307129 0.16231901943683624 0.21765954792499542 -0.10293033719062805 0.07530728727579117 0.1311502605676651 0.017133107408881187 -0.005609253421425819 -0.08398733288049698 -0.048583582043647766 0.2755022943019867 0.0764007419347763 -0.013524281792342663 -0.13558444380760193 0.006292599719017744 0.10843166708946228 0.08520495146512985 0.0607539638876915 0.18822239339351654 0.2666855752468109 -0.08781362324953079 -0.3347720503807068 -0.1943090558052063 0.2158312201499939 0.21970589458942413 0.019130554050207138 -0.12418411672115326 -0.19307398796081543 0.1377285122871399 0.06328003853559494 -0.014511152170598507 0.11751791834831238 -0.08616270869970322 -0.1253591924905777 0.15030314028263092 0.05540791153907776 0.09500007331371307 0.14328695833683014 -0.05552266538143158 0.0673401951789856 0.05175328999757767 0.0414452999830246 0.006289713084697723 0.2923804223537445 -0.08901112526655197 -0.06556615233421326 -0.030133850872516632 -0.09857257455587387 0.09878363460302353 0.09369495511054993 -0.09407757967710495 -0.019865792244672775 0.007798113394528627 -0.14596062898635864 0.009524219669401646 0.07186693698167801 -0.13676761090755463 -0.017250725999474525 0.04287942871451378 0.04008500650525093 0.2841666340827942 -0.034508347511291504 0.16918179392814636 -0.026557067409157753 -0.045691102743148804 -0.031973112374544144 0.25686103105545044 0.1413649171590805 -0.003504399675875902 0.1443825364112854 0.2127666175365448 -0.11078868806362152 0.021334068849682808 0.0959821566939354 -0.07336816936731339 -0.10494691878557205 0.19713841378688812 0.10150487720966339 -0.07037092745304108 0.08460169285535812 -0.11805404722690582 0.11456318199634552 0.3739253580570221 -0.05073559656739235 -0.02560301125049591 -0.26646459102630615 0.05101786553859711 0.35939836502075195 0.03386176750063896 0.03981681168079376 0.11462260037660599 0.14992691576480865 0.18428465723991394 -0.10064569115638733 -0.35345712304115295 -0.36404716968536377 -0.07938795536756516 0.004931632429361343 -0.060140419751405716 0.1300392746925354 -0.30881601572036743 0.024372341111302376 0.12907195091247559 0.15572214126586914 0.2826617956161499 0.014425679109990597 -0.2774442136287689 -0.09134398400783539 0.1810072362422943 -0.17489582300186157 -0.052916426211595535 0.06169307976961136
7 0.019938329234719276 0.220564603805542 -0.38740068674087524 0.0434478223323822 0.07490590959787369 -0.1853455901145935 0.01955108903348446 0.037882737815380096 -0.051760170608758926 0.1237325519323349 0.2296941727399826 -0.2830122113227844 -0.11075113713741302 0.04799139127135277 0.09494821727275848 -0.11712901294231415 0.14558520913124084 0.2583290636539459 0.1432206928730011 -0.008156752213835716 0.04846026375889778 0.13552118837833405 0.034830667078495026 -0.12920546531677246 -0.07486014068126678 -0.18333669006824493 0.07697925716638565 0.025650858879089355 -0.018731242045760155 -0.07557900249958038 0.04817558825016022 0.11034192889928818 -0.0663251280784607 -0.02647390216588974 0.16121798753738403 0.12025292217731476 -0.05760670825839043 -0.3044363856315613 -0.06922930479049683 0.26707780361175537 0.2159183919429779 -0.0507248155772686 -0.028575243428349495 -0.019666381180286407 0.11976490169763565 0.002326569752767682 -0.060616783797740936 0.01600722037255764 -0.03749574348330498 -0.100875623524189 0.06565399467945099 0.07361643761396408 -0.008524986915290356 0.2432800829410553 -0.056833479553461075 -0.08187101036310196 -0.03367780148983002 -0.08209802955389023 0.007591105531901121 0.2534528374671936 0.04433951526880264 0.0052116126753389835 0.11553188413381577 -0.19725386798381805 0.2952892780303955 0.1427249163389206 -0.0005273639690130949 0.1041419580578804 -0.05647336319088936 -0.13520751893520355 0.08216792345046997 -0.03558453172445297 0.04972074180841446 -0.15691664814949036 0.07282626628875732 -0.14112283289432526 0.15688461065292358 -0.014895500615239143 0.1391373574733734 -0.07821781933307648 -0.1479773074388504 -0.03504453971982002 0.23143312335014343 0.01575460471212864 0.012640014290809631 0.13114102184772491 0.0871269628405571 -0.21989279985427856 -0.10381568968296051 0.08183459937572479 -0.021350480616092682 -0.1383865475654602 0.04894920065999031 0.11373304575681686 -0.19872815907001495 -0.03614756092429161 -0.1776159405708313 0.18560324609279633 0.2016807645559311 0.08452527970075607 0.08230342715978622 -0.37473222613334656 0.06754641979932785 0.24883025884628296 0.041897792369127274 -0.10170439630746841 0.0031026965007185936 0.09687452763319016 0.05274336785078049 -0.05606585368514061 -0.23076386749744415 -0.4103523790836334 -0.06705406308174133 -0.03928467258810997 -0.1511303037405014 0.033736247569322586 -0.299115926027298 0.12556645274162292 0.01739424467086792 0.31944936513900757 0.20818611979484558 0.043141286820173264 -0.15238451957702637 -0.23701463639736176 0.06690391153097153 -0.14134752750396729 -0.04409458488225937 -0.07974887639284134
8 0.016169415786862373 0.22853387892246246 -0.4373506009578705 0.23769237101078033 -0.0005155367543920875 -0.12812307476997375 -0.09345172345638275 0.0711502805352211 0.04274933040142059 -0.10437635332345963 -0.0028839053120464087 -0.1851399689912796 0.16316930949687958 0.046105578541755676 0.25651687383651733 -0.14584650099277496 -0.1276616007089615 0.0963563472032547 -0.05709318816661835 -0.044440630823373795 0.16635829210281372 0.191425159573555 0.12417197972536087 -0.06821613013744354 -0.05200321599841118 -0.20375697314739227 0.2404979020357132 0.10429910570383072 0.016416240483522415 -0.1252487450838089 0.16146890819072723 0.29117143154144287 -0.04332612082362175 0.14749781787395477 -0.10151252895593643 0.10918332636356354 -0.08266973495483398 -0.32875558733940125 0.02784675545990467 0.3131698966026306 0.05937894061207771 0.020054971799254417 -0.02846909500658512 0.14253254234790802 0.11055394262075424 -0.13695651292800903 -0.11697015166282654 -0.09310980141162872 -0.06572505086660385 -0.15519456565380096 0.1295405626296997 0.23720180988311768 0.1628151535987854 -0.024782950058579445 -0.2170313447713852 -0.0007542775711044669 0.24590063095092773 0.056026775389909744 -0.018010657280683517 0.3148289620876312 0.003697839332744479 -0.07538876682519913 0.07443799823522568 -0.1414581835269928 -0.10142778605222702 0.11297342926263809 -0.11651857197284698 -0.10434066504240036 0.02430381439626217 -0.02448301762342453 0.02921542525291443 0.05229147896170616 0.2579520344734192 -0.19689060747623444 -0.08586318790912628 -0.11093944311141968 0.07034853100776672 0.031877290457487106 0.01273437961935997 -0.06772647798061371 -0.11309778690338135 -0.2540527880191803 0.3795316517353058 0.09118781238794327 0.04650338366627693 0.11176952719688416 0.06691853702068329 -0.13272319734096527 0.01147005707025528 0.05325834080576897 -0.06259020417928696 -0.07660027593374252 0.27587080001831055 0.09609849005937576 -0.1350507289171219 -0.0012342517729848623 -0.23917841911315918 0.07995711266994476 0.39312857389450073 0.09726115316152573 0.18036200106143951 -0.23376299440860748 0.08500448614358902 0.23988541960716248 -0.022253388538956642 0.2148372083902359 0.18310482800006866 0.16807863116264343 -0.017339758574962616 -0.06817840784788132 -0.09596385061740875 -0.2576805651187897 -0.029320739209651947 0.014409235678613186 -0.07554281502962112 0.2415020614862442 -0.1443905532360077 -0.06526553630828857 0.067158542573452 -0.04325564578175545 0.2506166696548462 -0.04309139400720596 0.021104998886585236 -0.13425634801387787 0.1311313360929489 -0.08540426939725876 -0.07993394136428833 -0.06766542792320251
9 0.10605454444885254 0.050862982869148254 -0.28204625844955444 0.14419670403003693 0.1487853229045868 -0.05240704119205475 -0.023753635585308075 0.20851176977157593 0.07714845985174179 0.03626326099038124 0.05654342845082283 -0.27884641289711 0.03761472925543785 0.10068406164646149 0.1229105293750763 0.018420308828353882 -0.10550199449062347 0.21343673765659332 0.35434845089912415 -0.10610987991094589 -0.0029656433034688234 0.12081386893987656 -0.01478178333491087 0.12673424184322357 -0.023719042539596558 -0.022754834964871407 0.12158333510160446 0.18771548569202423 -0.09994407743215561 -0.10557135194540024 -0.06955590099096298 0.17123843729496002 -0.07984897494316101 0.1897212117910385 -0.15990419685840607 0.18738657236099243 -0.0653769001364708 -0.10316582769155502 -0.03472995012998581 0.10107012093067169 -0.08826020359992981 0.14298003911972046 -0.13195602595806122 -0.003459495259448886 0.12859107553958893 -0.2189905345439911 0.12330375611782074 -0.07586105167865753 -0.11626710742712021 -0.1305258870124817 -0.053788747638463974 -0.014641760848462582 0.029117275029420853 0.1548047810792923 -0.2816701829433441 -0.000768107536714524 -0.07967834174633026 -0.03749217838048935 0.0918181985616684 0.20811466872692108 0.03179572895169258 -0.1314261555671692 -0.0003787378373090178 -0.06598638743162155 0.14228324592113495 0.07165917009115219 0.031171513721346855 0.0002618319704197347 -0.031048621982336044 0.10906076431274414 -0.009322835132479668 0.07269831001758575 0.02833670936524868 0.0057854666374623775 0.12948398292064667 0.06840304285287857 0.2531075179576874 -0.08693169057369232 0.04403653368353844 -0.07411415874958038 0.030377289280295372 0.04438428208231926 0.2600090801715851 -0.060784291476011276 0.006487930193543434 0.14919093251228333 0.15664681792259216 0.0612507127225399 0.03767380863428116 0.02734440378844738 -0.1506081372499466 -0.22203058004379272 0.13103467226028442 -0.01961882971227169 -0.12511959671974182 -0.01952509954571724 -0.17809678614139557 -0.03049398772418499 0.2510429918766022 -0.1308155506849289 -0.09513365477323532 -0.23507986962795258 -0.10227454453706741 0.16734731197357178 -0.13690750300884247 0.19238822162151337 -0.05512669309973717 0.08835692703723907 0.15567579865455627 0.02474917098879814 -0.38471928238868713 -0.17491912841796875 -0.06120401993393898 -0.07763355225324631 -0.08258946239948273 0.0770418718457222 -0.25189945101737976 0.02468034066259861 0.05764618515968323 0.12411756813526154 0.12501643598079681 -0.28493040800094604 -0.1605803519487381 0.09754254668951035 0.040380071848630905 -0.20621372759342194 -0.08769682049751282 -0.002356521785259247
10 0.11297637224197388 0.09111584722995758 -0.3962365388870239 0.019018299877643585 0.052371278405189514 0.017713448032736778 -0.16979245841503143 0.02864237315952778 0.07718777656555176 0.03908689692616463 0.1581861972808838 0.055849287658929825 -0.0729188397526741 -0.1406310796737671 0.20396368205547333 -0.16276748478412628 -0.11250367015600204 0.3209405541419983 0.2671522796154022 -0.00585646228864789 0.029059693217277527 0.14914724230766296 -0.07073409110307693 -0.09005279093980789 -0.08231505751609802 -0.06568045169115067 0.16949565708637238 0.08189539611339569 -0.05510760843753815 -0.10148615390062332 0.019651547074317932 0.10566386580467224 -0.043767765164375305 0.10733196139335632 0.1635812520980835 0.3085107207298279 -0.17293496429920197 -0.2959362268447876 -0.08606661111116409 0.1553335338830948 0.06753849238157272 0.028959643095731735 0.005007061176002026 0.022801753133535385 0.14758701622486115 -0.21358467638492584 -0.02260531298816204 0.0022217324003577232 -0.033879008144140244 -0.2659590244293213 -0.018877997994422913 0.17860610783100128 0.060223355889320374 -0.013081759214401245 -0.28592047095298767 0.053725603967905045 -0.009377921000123024 0.0596979483962059 -0.04935397207736969 0.29974403977394104 0.034889668226242065 -0.06137649714946747 0.04350688308477402 -0.18283312022686005 0.004506373777985573 0.047494255006313324 -0.19822710752487183 -0.0165474321693182 0.08919131755828857 -0.01530547346919775 -0.007038723677396774 0.008205060847103596 0.046985507011413574 0.0593588724732399 0.17803312838077545 -0.07518662512302399 0.14383873343467712 -0.002004503272473812 0.15869680047035217 -0.009474804624915123 -0.04977419599890709 0.0692468211054802 0.28974607586860657 0.09469813108444214 0.07731756567955017 0.006031533237546682 0.04710070416331291 -0.18032146990299225 -0.13754957914352417 0.04337571933865547 0.07986513525247574 -0.08395442366600037 0.15868450701236725 0.07653926312923431 -0.2118254452943802 0.017069313675165176 -0.16184233129024506 0.044129692018032074 0.2452094703912735 0.0926508754491806 -0.004516937769949436 -0.23145067691802979 -0.0076048350892961025 0.23061896860599518 0.10511244833469391 0.1762826293706894 -0.005573743488639593 0.08944493532180786 0.1489579826593399 0.11579564213752747 -0.3051479458808899 -0.37602314352989197 -0.19330565631389618 -0.06837469339370728 -0.1047840416431427 0.17055098712444305 -0.28746190667152405 -0.0620289072394371 0.044143036007881165 0.15992502868175507 0.23156440258026123 -0.04302094876766205 -0.20188331604003906 -0.09109073877334595 0.13131245970726013 -0.16125023365020752 -0.03634757921099663 -0.07644439488649368
11 0.16774171590805054 -0.035156939178705215 -0.20579105615615845 0.030737677589058876 0.06316440552473068 -0.08449707925319672 -0.15396437048912048 0.13347037136554718 0.1428060233592987 0.07107958942651749 0.14613233506679535 -0.10729611665010452 -0.1963304728269577 -0.02599509060382843 0.12255176901817322 -0.0986541211605072 0.05638134479522705 0.29174840450286865 0.41079702973365784 -0.12306667864322662 0.01637396588921547 0.2567655146121979 -0.15611596405506134 -0.042233988642692566 -0.05365065857768059 -0.0010006855009123683 0.1662890911102295 0.04035544767975807 -0.20024943351745605 -0.08581919968128204 -0.11807379871606827 0.17327213287353516 -0.12641233205795288 0.06374578177928925 0.18839609622955322 0.22508037090301514 -0.026386862620711327 -0.2852114737033844 -0.14301851391792297 0.1535950005054474 0.11048734188079834 -0.10390231758356094 -0.004282024223357439 0.1336696445941925 0.14165695011615753 -0.0589207261800766 -0.03214751183986664 -0.04904436320066452 -0.02445165254175663 -0.2660902440547943 0.05484829843044281 -0.12247153371572495 0.04248949885368347 -0.06437763571739197 -0.125594824552536 -0.11524464935064316 -0.012203535065054893 0.0660281628370285 -0.01769145205616951 0.281622052192688 -0.057903923094272614 -0.13787196576595306 -0.02461952157318592 -0.06085916981101036 -0.05333109200000763 0.08589069545269012 -0.10936057567596436 0.006857501808553934 0.07789218425750732 -0.1386958211660385 0.03330346569418907 0.1959928721189499 0.14341242611408234 -0.06725183129310608 -0.0013481322675943375 0.01200184691697359 0.13900241255760193 -0.020657438784837723 0.38086193799972534 -0.09994741529226303 0.06107988581061363 -0.07370416074991226 0.09830541908740997 0.11315851658582687 0.03413979709148407 -0.0014715855941176414 0.13788211345672607 0.08765394985675812 0.05846557393670082 -0.011033068411052227 -0.029358098283410072 -0.08453944325447083 0.18189768493175507 0.05719373747706413 -0.32786574959754944 -0.02441428229212761 -0.2797307074069977 -0.04659029468894005 0.3305828273296356 -0.10511143505573273 0.03154073283076286 -0.3429287374019623 0.020522240549325943 0.25073811411857605 0.02113620936870575 0.03840689733624458 -0.005270484834909439 0.04660545662045479 0.21312066912651062 -0.012584174051880836 -0.38271141052246094 -0.4086354374885559 -0.23849068582057953 -0.01756083220243454 -0.1888483315706253 0.32163816690444946 -0.35518878698349 -0.05496383085846901 0.1689016968011856 0.1834648996591568 0.2061680257320404 -0.09975846111774445 -0.20586533844470978 0.0038902154192328453 0.14022144675254822 -0.16793197393417358 -0.037803903222084045 -0.07706320285797119
12 0.2021898776292801 0.18300433456897736 -0.35259324312210083 0.006775785703212023 0.06268290430307388 -0.09229034930467606 -0.028163010254502296 0.18012751638889313 0.05075155571103096 0.15974511206150055 -0.01781713217496872 -0.27741512656211853 0.014791930094361305 0.04778067395091057 -0.0027010843623429537 -0.13164891302585602 -0.0704742893576622 0.2869241535663605 0.11993119865655899 -0.034613680094480515 0.014977379702031612 0.23369890451431274 -0.04836343228816986 -0.09209177643060684 -0.09597820788621902 -0.16975128650665283 0.07622352242469788 -0.01868087612092495 -0.09483345597982407 -0.01373108197003603 0.01319272443652153 0.12798433005809784 -0.0003531767870299518 -0.020420663058757782 -0.02785578928887844 0.25515514612197876 0.04964213818311691 -0.10006709396839142 -0.033899448812007904 0.18346935510635376 0.18700343370437622 -0.05052715539932251 -0.0563640333712101 -0.036031968891620636 0.1413174271583557 0.024324528872966766 0.04880847781896591 0.03602441027760506 -0.013343359343707561 -0.0761554166674614 0.10861745476722717 0.1521664410829544 0.05115637928247452 0.032761622220277786 -0.08185882866382599 0.041325896978378296 0.08960369229316711 0.01750711351633072 -0.0061292643658816814 0.3313610255718231 -0.06236093491315842 -0.07987526059150696 -0.005259165074676275 0.01230007316917181 0.08388737589120865 0.049439460039138794 0.06680333614349365 0.026061968877911568 -0.04102037847042084 0.010990288108587265 0.0011426437413319945 0.017032578587532043 0.09529862552881241 -0.18405117094516754 0.126786008477211 -0.013422845862805843 0.10022804141044617 -0.10278730094432831 0.09465281665325165 -0.021618803963065147 -0.16010208427906036 -0.15824681520462036 0.22035466134548187 0.02188819833099842 0.15042561292648315 0.04141683876514435 0.16067984700202942 -0.15104173123836517 0.01597181335091591 0.19222429394721985 -0.09042815119028091 -0.10206735879182816 0.1575360745191574 0.10691491514444351 -0.15708214044570923 0.11271268129348755 -0.14008189737796783 -0.005977661814540625 0.33657607436180115 -0.1010943204164505 0.028150618076324463 -0.42896729707717896 0.034442827105522156 0.25824081897735596 -0.07837535440921783 0.05920039489865303 0.05170092731714249 0.021843131631612778 0.066537044942379 0.027105163782835007 -0.3707323372364044 -0.3461223542690277 -0.0883132815361023 -0.04565737023949623 -0.21214568614959717 0.20415262877941132 -0.2599945068359375 0.0716201439499855 0.10144324600696564 0.027971502393484116 0.31224730610847473 -0.06071685254573822 -0.2734968364238739 -0.12057696282863617 -0.01730542816221714 -0.1930166482925415 -0.018534628674387932 -0.08078411966562271
13 0.17997382581233978 0.12203647941350937 -0.23892845213413239 -0.007358057424426079 0.022135743871331215 -0.1079978421330452 -0.00601707911118865 0.013426870107650757 0.07819477468729019 0.07166256010532379 0.05612598732113838 -0.09402426332235336 0.013905448839068413 -0.0025963825173676014 0.08527127653360367 -0.3084973394870758 0.025569256395101547 0.1819854974746704 0.18681849539279938 0.04283960163593292 0.011252094991505146 0.25666922330856323 0.029864512383937836 -0.10403309017419815 -0.14459457993507385 -0.13317905366420746 0.04950302466750145 0.1946699470281601 0.0009174023289233446 0.08942317962646484 0.0069205970503389835 0.14695782959461212 -0.07596827298402786 0.08207347989082336 -0.01539670955389738 0.17206139862537384 -0.08539079129695892 -0.3137289881706238 -0.006991009693592787 0.29307928681373596 0.07426565885543823 -0.051228832453489304 -0.10222896188497543 0.0051189870573580265 0.015545648522675037 0.039618998765945435 -0.11728416383266449 0.008957658894360065 -0.1902509182691574 -0.14867863059043884 0.08286069333553314 0.07561613619327545 0.07605822384357452 0.13805505633354187 -0.15777616202831268 0.0861765444278717 -0.010091904550790787 -0.02577534131705761 -0.033603254705667496 0.2412467747926712 0.04260406643152237 0.035240765661001205 0.15336932241916656 -0.15915097296237946 -0.009444923140108585 0.1333971917629242 -0.06506481021642685 0.04655405133962631 -0.009201358072459698 -0.012274575419723988 0.0048531885258853436 -0.00609363429248333 -0.026408173143863678 -0.06096995994448662 0.047104161232709885 -0.07849058508872986 0.07251454889774323 -0.13727208971977234 0.05853750929236412 0.05505979433655739 -0.15898317098617554 -0.012236773036420345 0.3817828893661499 0.02993093430995941 0.1808914989233017 0.08599555492401123 0.060724373906850815 -0.05359821394085884 -0.08701574802398682 0.12079925835132599 -0.055644258856773376 -0.1289653480052948 0.15155358612537384 0.01600411720573902 -0.23763594031333923 -0.03328092396259308 -0.2534901201725006 0.0005513444193638861 0.4106481075286865 0.015528627671301365 0.05805074796080589 -0.22659561038017273 0.02541476860642433 0.2785181403160095 -0.0470350943505764 0.07253246754407883 0.0651690661907196 0.06098385900259018 0.14261282980442047 0.10012088716030121 -0.3319709002971649 -0.2570320963859558 0.011233356781303883 0.006837173830717802 -0.1723693460226059 0.17174439132213593 -0.24916593730449677 0.04185318574309349 0.07743123918771744 0.14112836122512817 0.34945598244667053 -0.07986763119697571 -0.223197340965271 -0.10891499370336533 0.08749102056026459 -0.2332080602645874 -0.17913249135017395 -0.10726270079612732
14 0.13850893080234528 0.09262654185295105 -0.3834913671016693 -0.014565359801054 0.07411205768585205 -0.12205544859170914 0.05524449795484543 0.022272057831287384 0.06164891645312309 0.20542262494564056 0.09584328532218933 -0.13175320625305176 -0.10286251455545425 -0.0015200305497273803 -0.016346627846360207 -0.14819201827049255 -0.06484769284725189 0.10008083283901215 0.06496212631464005 -0.024287445470690727 0.07474235445261002 0.27167919278144836 -0.03455544635653496 -0.05596910044550896 -0.012593775056302547 -0.0979185551404953 0.042644139379262924 0.19126306474208832 0.06149234250187874 -0.03341354802250862 0.16582520306110382 0.2417948693037033 0.017271948978304863 0.10224638134241104 0.2187865674495697 0.21481364965438843 -0.13840191066265106 -0.2639319896697998 0.01992584951221943 0.15435825288295746 0.14509333670139313 0.02756166271865368 -0.027016164734959602 -0.0025645894929766655 -0.06702227890491486 0.015738679096102715 -0.0793304592370987 0.02435476705431938 -0.15915466845035553 -0.03373084217309952 0.12037912011146545 0.13562649488449097 0.11725633591413498 0.29609453678131104 -0.11198242008686066 -0.10014654695987701 0.05571011081337929 -0.10731831938028336 0.008075099438428879 0.32272177934646606 0.006084628868848085 -0.1048499047756195 0.017375098541378975 -0.11212985217571259 0.010507019236683846 0.2711680829524994 -0.0390150211751461 -0.05409698933362961 -0.0312708243727684 -0.037820782512426376 0.03390529006719589 0.07251524925231934 0.045611422508955 -0.2132624238729477 0.06926789879798889 0.010860437527298927 0.22011494636535645 -0.1423732340335846 0.1335146278142929 -0.016709918156266212 -0.17758096754550934 -0.07754182070493698 0.20896771550178528 0.06344382464885712 0.03398321941494942 0.0874403864145279 0.09848499298095703 -0.08937368541955948 -0.020942416042089462 -0.03558475524187088 -0.1528126448392868 -0.05072373151779175 0.19114406406879425 0.15837931632995605 -0.2219926416873932 -0.0669589415192604 -0.2908218801021576 -0.014577819034457207 0.3034673035144806 -0.051755212247371674 0.1184423565864563 -0.2400798499584198 -0.057157110422849655 0.28752008080482483 -0.0882638469338417 0.04840812459588051 0.06517674773931503 -0.030619774013757706 0.06493919342756271 -0.1329471617937088 -0.3325701057910919 -0.290237158536911 -0.13561831414699554 -0.009988653473556042 -0.09605900198221207 0.11501894891262054 -0.17429429292678833 -0.01290483120828867 -0.02651173062622547 0.1273772269487381 0.30638352036476135 -0.01736539974808693 -0.17769914865493774 -0.03963617980480194 0.26967310905456543 -0.20105481147766113 -0.267201691865921 -0.15173982083797455
15 0.041311684995889664 0.20194238424301147 -0.3386075496673584 0.006279044784605503 0.04535249248147011 -0.05346302688121796 -0.01221690233796835 -0.02852892130613327 0.05926436930894852 0.05442854389548302 0.06595844775438309 -0.1106802374124527 0.052737344056367874 0.02629789710044861 0.17076152563095093 -0.19562716782093048 -0.02638435922563076 0.14661437273025513 0.11331062763929367 -0.13480786979198456 0.10447347164154053 0.22884297370910645 0.08584848791360855 -0.02829252928495407 -0.0778869241476059 -0.24735292792320251 0.10485444217920303 0.048899486660957336 -0.11421217769384384 -0.08467861264944077 -0.06762067973613739 0.2297951728105545 -0.062397945672273636 0.21044926345348358 0.02189396694302559 0.21488113701343536 -0.14925765991210938 -0.31602537631988525 -0.07150514423847198 0.2431318312883377 0.09953369945287704 0.02357345074415207 -0.06688593327999115 0.0651707723736763 0.0371972881257534 -0.1121060699224472 -0.011979404836893082 -0.08858925849199295 -0.06511568278074265 -0.072453573346138 0.11690722405910492 0.2095240354537964 0.07208944857120514 0.19342659413814545 -0.18059232831001282 0.02292410098016262 0.024018453434109688 -0.03638385236263275 -0.09680100530385971 0.30727899074554443 -0.05389204993844032 -0.028884338214993477 0.12761428952217102 -0.07442876696586609 0.08952576667070389 0.20571118593215942 0.01192762702703476 -0.04716569930315018 -0.03720562532544136 -0.13417333364486694 0.043041348457336426 0.07093153893947601 0.06764078140258789 -0.20276933908462524 0.1398041844367981 -0.05034618079662323 0.1834120750427246 -0.11714828759431839 0.13644325733184814 -0.07582678645849228 -0.10370610654354095 -0.08503439277410507 0.22338341176509857 0.042028337717056274 0.06207900494337082 0.11547600477933884 0.14470963180065155 -0.05269955098628998 -0.09623964875936508 0.06581471115350723 0.031226903200149536 -0.12176593393087387 0.1140955239534378 0.008234156295657158 -0.17727164924144745 0.028924960643053055 -0.2202790379524231 0.10017667710781097 0.332289457321167 0.06489839404821396 0.061023786664009094 -0.3086267411708832 0.07897291332483292 0.2132832258939743 0.04636753723025322 0.1440107673406601 0.006736640352755785 0.0894230380654335 0.0788397565484047 -0.047086793929338455 -0.32590430974960327 -0.4106120467185974 -0.013568716123700142 -0.02723282016813755 -0.08731162548065186 0.18340571224689484 -0.22010159492492676 -0.0895928293466568 0.019391650334000587 0.023618625476956367 0.23748521506786346 -0.08416406810283661 -0.14522162079811096 -0.21286281943321228 0.14276397228240967 -0.09825368970632553 -0.16243131458759308 -0.07368937879800797
16 0.027431223541498184 0.10099074244499207 -0.23350772261619568 0.01028428878635168 -0.00629501324146986 -0.03183991461992264 0.01089887972921133 0.09206041693687439 0.07111432403326035 0.07079233229160309 -0.06500060111284256 -0.07776766270399094 0.027611928060650826 0.02780022844672203 0.027942411601543427 -0.08155383169651031 -0.0018481534207239747 0.1650323122739792 0.16519682109355927 -0.02530849166214466 -0.017232481390237808 0.13026541471481323 -0.003965567331761122 -0.15680807828903198 -0.034503255039453506 -0.12284301966428757 0.06244620680809021 0.06665104627609253 -0.07206712663173676 -0.01085574273020029 0.09393345564603806 0.24419516324996948 -0.01253180205821991 0.047165073454380035 0.07360973209142685 0.10070513933897018 -0.018067270517349243 -0.28137126564979553 -0.06403719633817673 0.15285484492778778 0.13948774337768555 -0.08881973475217819 -0.08591261506080627 0.07008273899555206 0.08186156302690506 -0.06539613008499146 0.032280534505844116 -0.03428368270397186 -0.1390221267938614 -0.048755597323179245 0.08324635028839111 0.08626741170883179 0.11522086709737778 0.015034905634820461 -0.12702693045139313 0.08660198003053665 0.05395051836967468 0.05469721555709839 -0.057199977338314056 0.3510354459285736 -0.046667102724313736 -0.0717126727104187 -0.0038882840890437365 0.059024546295404434 0.002406812272965908 0.16331639885902405 -0.10430449992418289 -0.06300468742847443 -0.06702274084091187 -0.029194019734859467 -0.03239873796701431 0.1617434024810791 0.1431513875722885 -0.06387989223003387 -0.0002507393655832857 0.09574370086193085 0.22952643036842346 -0.17815937101840973 0.2145327627658844 -0.08602641522884369 -0.009465733543038368 -0.04438772797584534 0.3136245310306549 -0.0005285913939587772 0.04194740951061249 -0.10684601962566376 0.16252394020557404 -0.06929434090852737 0.06465893238782883 0.0659642294049263 -0.17328855395317078 -0.11389981210231781 0.15044309198856354 0.06289304047822952 -0.1643606722354889 0.05441225692629814 -0.3594139516353607 0.03474932909011841 0.3570009768009186 -0.11397386342287064 0.05274801701307297 -0.2887822389602661 -0.06921204924583435 0.22387130558490753 -0.0740203857421875 0.10882215946912766 0.165692999958992 0.17330819368362427 0.06857474893331528 0.05062050372362137 -0.35721200704574585 -0.32606467604637146 -0.09381697326898575 -0.09432028979063034 -0.10604599863290787 0.19637547433376312 -0.17106632888317108 -0.03936925530433655 0.14138802886009216 0.05750441923737526 0.26471781730651855 -0.0994027778506279 -0.17204642295837402 0.03132506459951401 0.1578756421804428 -0.2984369695186615 -0.05805361270904541 -0.0869382843375206
17 0.0017811850411817431 0.09221132099628448 -0.2397390902042389 -0.24516348540782928 0.1432294100522995 -0.1350805014371872 0.0265171080827713 0.1545671820640564 0.15902118384838104 0.08554841578006744 0.06070748716592789 -0.36759358644485474 -0.11155004799365997 0.0462736077606678 -0.0033172238618135452 -0.1196240484714508 0.08869507163763046 0.21700555086135864 0.09590760618448257 -0.1830255091190338 0.07080598175525665 0.14094369113445282 -0.004011556971818209 0.03583655506372452 -0.1184779480099678 -0.03666575253009796 -0.023374585434794426 0.18710726499557495 -0.08373469859361649 -0.2739005386829376 -0.15308044850826263 0.12157483398914337 -0.1327742487192154 0.17135968804359436 0.18943677842617035 0.3253222405910492 -0.18124186992645264 -0.0646371841430664 0.047294437885284424 0.2086360901594162 0.02031068131327629 -0.12439712882041931 0.03501569479703903 -0.14518290758132935 -0.0321444608271122 -0.034719619899988174 0.024158431217074394 0.018754130229353905 -0.03607674315571785 -0.07651583105325699 0.12473272532224655 0.009189765900373459 -0.013398755341768265 0.3806273639202118 -0.17222577333450317 -0.08366508781909943 0.07328435033559799 -0.000951366382651031 0.05425339937210083 0.2794473171234131 0.022067328914999962 -0.040037937462329865 0.04700709506869316 -0.21961131691932678 0.024492990225553513 0.12808243930339813 0.03951174393296242 0.09328526258468628 0.07220408320426941 0.04218565672636032 -0.09592512249946594 0.06321954727172852 -0.2036619484424591 -0.05085869878530502 0.12621226906776428 -0.030515536665916443 0.20369085669517517 -0.18064573407173157 0.19470979273319244 -0.07888933271169662 -0.12094561010599136 -0.1135655865073204 0.1233537569642067 0.0799044594168663 0.07543692737817764 0.35109761357307434 0.1624210774898529 -0.08767518401145935 -0.027136294171214104 -0.10712642222642899 -0.11136247217655182 -0.028366249054670334 0.033754583448171616 0.0756068155169487 -0.09637434035539627 -0.079021155834198 -0.18819670379161835 -0.02227712795138359 0.43665871024131775 -0.05941697582602501 -0.006911862641572952 -0.22248432040214539 0.09981359541416168 0.14535842835903168 0.026113858446478844 0.009724583476781845 -0.01723666302859783 0.032927341759204865 0.15991175174713135 -0.19552680850028992 -0.2739393711090088 -0.3097198009490967 -0.0937122106552124 0.040924400091171265 -0.2836831510066986 0.284383088350296 -0.41691291332244873 0.06113189086318016 0.11898661404848099 0.21478389203548431 0.14722731709480286 -0.08557450026273727 -0.1793576180934906 0.178010031580925 0.10778471827507019 -0.15398944914340973 -0.09597199410200119 -0.16215644776821136
18 0.105803482234478 0.06927064806222916 -0.11373748630285263 -0.16148337721824646 0.1980798989534378 -0.2679787576198578 -0.1571001559495926 0.13699840009212494 0.1037542000412941 0.11615729331970215 0.0502127930521965 -0.3339078724384308 -0.15269997715950012 0.06178739294409752 -0.04410071671009064 -0.020779894664883614 0.0747828334569931 0.26475659012794495 0.20232868194580078 -0.05530380457639694 -0.045637186616659164 0.2974908649921417 -0.14807447791099548 0.02124706096947193 -0.14340466260910034 -0.15363852679729462 0.026006516069173813 0.09414539486169815 -0.21536944806575775 -0.19738507270812988 -0.12786203622817993 0.07107266783714294 -0.03129450976848602 0.029202787205576897 0.07529812306165695 0.3298771381378174 -0.10376439243555069 -0.14444555342197418 -0.07670792192220688 0.19400770962238312 0.1404978483915329 -0.021645404398441315 -0.02990390732884407 -0.06967031955718994 0.09867529571056366 0.04808509722352028 0.06776834279298782 0.048415061086416245 -0.04931200295686722 -0.15227432548999786 0.15442945063114166 -0.042364928871393204 -0.018590854480862617 0.09656870365142822 -0.14812807738780975 -0.06023519113659859 0.05785433202981949 -0.09770142287015915 0.021854229271411896 0.26782092452049255 0.0017047810833901167 -0.13933707773685455 -0.019748004153370857 -0.1858529895544052 0.1485917717218399 0.02056407928466797 0.13005836308002472 0.1839245855808258 -0.07585962861776352 -0.04821144789457321 -0.00467884773388505 0.10267825424671173 -0.01950322650372982 -0.157717764377594 0.1355883926153183 -0.07679829001426697 0.171786367893219 -0.10824015736579895 0.21102996170520782 -0.141672283411026 -0.13142070174217224 -0.20573654770851135 0.014870425686240196 0.061782561242580414 0.08318529278039932 0.19519886374473572 0.2340317964553833 -0.05093500018119812 -0.023195721209049225 0.12224499136209488 -0.10182708501815796 -0.12610597908496857 0.13169054687023163 -0.006442361976951361 -0.2615954875946045 0.0115912901237607 -0.22302165627479553 -0.0249988604336977 0.2822936773300171 -0.026861820369958878 -0.04509931057691574 -0.35122543573379517 -0.0011705629294738173 0.2678694427013397 -0.04637281969189644 -0.03439906984567642 0.036239203065633774 0.14085137844085693 0.08378814160823822 0.04180126637220383 -0.35243409872055054 -0.2702158987522125 -0.23722854256629944 0.052996598184108734 -0.22968903183937073 0.20573529601097107 -0.333365797996521 0.1789177805185318 0.12646649777889252 0.2128652185201645 0.26414182782173157 -0.10217860341072083 -0.24006611108779907 0.08355947583913803 0.07811791449785233 -0.060848698019981384 -0.04006951302289963 -0.03572440519928932
19 -0.05727549269795418 0.21050450205802917 -0.3133765459060669 -0.12584270536899567 0.14721789956092834 -0.12842385470867157 -0.015580457635223866 0.005871916189789772 0.11104584485292435 0.07257819920778275 0.16182708740234375 -0.09228392690420151 -0.05803224444389343 0.019922921434044838 0.0003660700167529285 -0.16041989624500275 0.0019536789041012526 0.11363944411277771 -0.0035416404716670513 0.17273522913455963 -0.0639597699046135 0.1399017572402954 0.201421856880188 -0.08724048733711243 -0.21771888434886932 -0.1855446994304657 0.014694643206894398 -0.04694181680679321 -0.0002459867100697011 0.015389429405331612 -0.0450185090303421 0.17356717586517334 -0.08932685852050781 0.1946365088224411 0.28984612226486206 0.23987914621829987 0.13605138659477234 -0.15915340185165405 0.010563786141574383 0.1888599991798401 0.12857729196548462 -0.012105761095881462 0.06400631368160248 0.19046592712402344 -0.018353598192334175 -0.13807176053524017 -0.024590276181697845 0.02497234009206295 -0.22994667291641235 -0.03814755752682686 0.01642661914229393 0.08573561161756516 0.08415570855140686 0.05109097808599472 -0.22275203466415405 0.04636586084961891 0.0022864423226565123 0.11555779725313187 0.047151267528533936 0.15531501173973083 -0.09454778581857681 -0.1550525575876236 0.06829804927110672 -0.17050978541374207 0.02710559405386448 0.09730102121829987 -0.16581279039382935 -0.00299056782387197 -0.014675319194793701 -0.08941416442394257 -0.13030005991458893 0.14161017537117004 -0.03651202842593193 -0.05283180996775627 0.2494523525238037 0.056620482355356216 0.06258133798837662 -0.09520498663187027 0.14138029515743256 -0.03013634867966175 -0.2626193165779114 0.004090199712663889 0.21038998663425446 -0.07215876132249832 -0.04649700969457626 0.14787214994430542 0.04870132356882095 -0.18385976552963257 -0.17737217247486115 -0.03037767857313156 -0.017653275281190872 -0.0999499261379242 0.06557343155145645 0.06730128079652786 -0.2095123678445816 0.05037896707653999 -0.25442051887512207 0.11244066059589386 0.31400975584983826 -0.07076555490493774 0.07743629068136215 -0.27289190888404846 -0.09819329530000687 0.27462059259414673 -0.12911619246006012 0.1855703890323639 0.05254218727350235 0.02323082834482193 0.06607245653867722 0.041795678436756134 -0.21577191352844238 -0.28946951031684875 -0.16920937597751617 -0.08531414717435837 -0.17488618195056915 0.16599400341510773 -0.06476017087697983 0.09611248224973679 -0.04491123929619789 0.24407823383808136 0.3480222225189209 0.06587234139442444 -0.09969022125005722 0.037268128246068954 0.2458435595035553 -0.15043869614601135 -0.010487363673746586 -0.055066827684640884
20 0.10352472215890884 0.06597381830215454 -0.27191272377967834 0.007488652132451534 0.0821400135755539 -0.0965937003493309 -0.13286909461021423 -0.09174644201993942 0.1264924705028534 -0.03692856803536415 0.16414223611354828 0.03892519697546959 -0.008165765553712845 -0.09990031272172928 0.0978299155831337 -0.20852558314800262 0.032915543764829636 0.2038722038269043 0.34595924615859985 -0.05538924038410187 0.024017054587602615 0.2911502718925476 -0.06343985348939896 -0.043983813375234604 -0.1387099325656891 -0.1811993271112442 0.21462507545948029 0.09644069522619247 -0.10639581829309464 -0.06586582213640213 0.04437527433037758 0.12170585989952087 -0.05827891081571579 0.18080021440982819 0.009773443453013897 0.227369025349617 -0.07139063626527786 -0.2462015450000763 -0.09469085186719894 0.2806026041507721 0.10316503047943115 0.006884149741381407 -0.06852644681930542 0.11692675948143005 0.022510848939418793 -0.2176685631275177 -0.05242644622921944 -0.005601103883236647 -0.1084362342953682 -0.16995099186897278 -0.026996152475476265 0.1263802945613861 0.01874603144824505 -0.020135458558797836 -0.14367708563804626 -0.0013739487621933222 -0.014924325048923492 -0.003980555571615696 -0.07938425987958908 0.2598377466201782 0.08374439924955368 -0.09193249046802521 0.10860347002744675 -0.11955700069665909 0.06859776377677917 0.07096239179372787 -0.07373346388339996 0.04309685528278351 -0.08879201859235764 -0.14639277756214142 0.007537382189184427 0.025552190840244293 0.03829079493880272 -0.08406189829111099 0.03859898820519447 -0.014560246840119362 0.12874546647071838 0.04901627451181412 0.24422673881053925 -0.053070880472660065 -0.1141834557056427 -0.07375387847423553 0.25701501965522766 -0.006720166653394699 0.08290316164493561 0.018222909420728683 0.17943210899829865 -0.03884410485625267 -0.07887990772724152 0.1251252293586731 0.0787246823310852 -0.17101377248764038 0.1370026171207428 0.0495930016040802 -0.3344249427318573 -0.0024551572278141975 -0.2252667099237442 -0.015106572769582272 0.3520779013633728 0.01821232959628105 0.046260494738817215 -0.1533646136522293 -0.02770429477095604 0.2978065013885498 -0.003631651634350419 0.14616407454013824 0.07539661228656769 0.07910419255495071 0.09207659959793091 0.05812538415193558 -0.3996967077255249 -0.35429176688194275 -0.18343627452850342 -0.021280789747834206 -0.0738358348608017 0.10092678666114807 -0.27084803581237793 0.0053960541263222694 0.02577546425163746 0.07149238139390945 0.3415853679180145 -0.11903560161590576 -0.16724741458892822 -0.06854256242513657 0.18242791295051575 -0.0809035450220108 -0.1277584433555603 -0.03005591221153736
21 -0.04365650564432144 0.21128109097480774 -0.19210535287857056 0.03138090670108795 0.0697975903749466 -0.22825007140636444 0.12316196411848068 -0.041626427322626114 0.03525182977318764 0.119847871363163 0.06904805451631546 -0.047377925366163254 -0.18391579389572144 0.09593326598405838 0.16647249460220337 -0.05357807129621506 0.08884754031896591 0.14271965622901917 0.14849551022052765 0.022367721423506737 0.027325330302119255 0.08649134635925293 0.030083267018198967 -0.0482107475399971 -0.04925713315606117 -0.05919637158513069 -0.036269884556531906 0.23761847615242004 0.04331563785672188 -0.061200663447380066 -0.04619844630360603 0.137414813041687 0.012925229966640472 0.18692311644554138 0.01450330764055252 -0.016833994537591934 0.017099857330322266 -0.2397734373807907 0.02614966407418251 0.26931869983673096 0.03531989827752113 -0.08586566150188446 0.0780038833618164 0.016639482229948044 -0.050285473465919495 -0.12458508461713791 -0.06866951286792755 -0.002162744291126728 -0.16129587590694427 -0.046748775988817215 0.21127808094024658 0.12552596628665924 0.14038899540901184 0.19073909521102905 -0.07910216599702835 -0.019039511680603027 0.054868876934051514 -0.015079116448760033 -0.06356195360422134 0.2283467948436737 -0.05451664701104164 0.10709764063358307 0.12491412460803986 -0.11106760054826736 -0.035702455788850784 0.20902109146118164 -0.0029902267269790173 0.008056197315454483 -0.13662323355674744 -0.008236976340413094 0.011479385197162628 0.08835854381322861 0.05680093541741371 -0.13421495258808136 -0.023928184062242508 0.12976114451885223 0.18088240921497345 -0.028101326897740364 0.18920210003852844 -0.004716712515801191 -0.19064833223819733 0.015130402520298958 0.2096947729587555 0.03601064160466194 0.03403425216674805 0.06159604713320732 0.12222293019294739 -0.14000649750232697 -0.026780638843774796 -0.04338381439447403 -0.16743114590644836 -0.0803525298833847 0.11049419641494751 0.04892673343420029 -0.19416801631450653 -0.0868331789970398 -0.32036522030830383 0.03804663196206093 0.284702330827713 -0.04092337563633919 0.015853436663746834 -0.08834227919578552 0.0205292496830225 0.22918474674224854 -0.1558712273836136 0.09345047175884247 0.09478554874658585 0.09538896381855011 -0.009874915704131126 -0.019467102363705635 -0.16851428151130676 -0.2785132825374603 -0.07297320663928986 0.00019190659804735333 -0.10544333606958389 0.1673203557729721 -0.1486942172050476 -0.1161443293094635 0.048393506556749344 0.19572579860687256 0.21582819521427155 -0.05498553812503815 -0.10106609016656876 -0.04858363792300224 0.1633373349905014 -0.20119807124137878 -0.1992644965648651 -0.07457216829061508
22 0.0625823438167572 0.1933550387620926 -0.314788281917572 0.07891782373189926 0.040806639939546585 -0.16758981347084045 -0.10743590444326401 -0.1428118795156479 0.0889706090092659 0.002653513103723526 0.10107386857271194 -0.1462969183921814 0.1506834775209427 -0.12170436978340149 0.026062170043587685 -0.1103830486536026 0.005950556136667728 0.23489977419376373 0.23054878413677216 -0.020367484539747238 -0.08956440538167953 0.2055511176586151 0.014479662291705608 -0.21476498246192932 -0.08913072198629379 -0.22793935239315033 -0.004850552882999182 0.00015499925939366221 -0.1980636864900589 -0.17871466279029846 -0.1627560704946518 0.15535268187522888 -0.014952259138226509 0.11266306787729263 0.060999561101198196 0.25639858841896057 -0.14336968958377838 -0.3053858280181885 -0.16338230669498444 0.3463900685310364 0.1521684229373932 -0.1131756603717804 -0.10845638066530228 0.19427332282066345 -0.013662905432283878 -0.09463351219892502 -0.0776856318116188 -0.11614569276571274 -0.1239015981554985 -0.049611009657382965 0.06945252418518066 0.17648017406463623 0.030964653939008713 0.11659874767065048 -0.20970477163791656 0.07417265325784683 0.05773377791047096 -0.014112149365246296 0.06284420937299728 0.2241659164428711 0.08430907130241394 -0.13964153826236725 -0.008123200386762619 -0.20103488862514496 0.2704361379146576 0.03303335979580879 -0.0011050908360630274 -0.043376095592975616 -0.03901046887040138 -0.3046526610851288 0.10956674069166183 0.0037777971010655165 -0.11162429302930832 -0.1339711993932724 0.25714924931526184 -0.11656555533409119 0.15794530510902405 -0.0993901863694191 0.06696556508541107 -0.08268941938877106 -0.03595030680298805 -0.05131213739514351 0.16602112352848053 -0.043715950101614 -0.0484849289059639 0.09080402553081512 0.06075684353709221 -0.13079474866390228 -0.050907690078020096 0.020805740728974342 0.022849678993225098 -0.0814262107014656 0.09703464061021805 -0.07465425878763199 -0.20911428332328796 0.11396710574626923 -0.20139892399311066 0.12322135269641876 0.19074580073356628 0.054852161556482315 -0.08082278817892075 -0.17082956433296204 0.02746979519724846 0.31974300742149353 0.025868838652968407 0.1413712054491043 0.11294388771057129 0.05976887047290802 0.07171519845724106 0.08971027284860611 -0.42549625039100647 -0.3907717764377594 0.06881625950336456 -0.011238510720431805 -0.054956283420324326 0.060045670717954636 -0.20078741014003754 0.011635859496891499 -0.10513761639595032 0.04198266938328743 0.2038990706205368 -0.1775592416524887 -0.07902660965919495 0.005952406208962202 0.09330926835536957 -0.14557704329490662 -0.1891375184059143 0.0031116334721446037
23 -0.019569428637623787 0.03473053500056267 -0.224872425198555 0.04541480541229248 0.0954064354300499 -0.1088508740067482 -0.19143064320087433 0.010882583446800709 0.05363824591040611 0.15839220583438873 -0.07506033778190613 -0.10289935767650604 0.04592158645391464 0.012277904897928238 0.19212932884693146 0.0014810764696449041 -0.20714744925498962 0.22121208906173706 0.11070279777050018 -0.13650110363960266 0.07455465197563171 0.14620906114578247 -0.05309014022350311 -0.09375599771738052 -0.005095400847494602 -0.026005949825048447 0.14067953824996948 0.04855399578809738 0.1087193712592125 -0.13661669194698334 0.03606293350458145 0.285734623670578 0.11849842965602875 0.047209661453962326 0.05731227248907089 0.15285253524780273 0.05551406741142273 -0.26553258299827576 -0.017487244680523872 0.11958634108304977 0.16902385652065277 0.05923725664615631 -0.030414899811148643 -0.0808846727013588 0.14251209795475006 -0.1276317536830902 -0.004129669163376093 -0.0350441113114357 -0.11652819067239761 -0.155331090092659 0.1886962652206421 0.07646075636148453 0.09043082594871521 0.16648252308368683 -0.2356223165988922 -0.02407931536436081 0.16009840369224548 -0.044702693819999695 -0.03027663752436638 0.3668067753314972 -0.080998495221138 -0.11075173318386078 -0.02339339070022106 -0.07746577262878418 0.021672353148460388 0.08087754249572754 0.07433377206325531 -0.04136449843645096 0.06282628327608109 -0.09075922518968582 0.007135668303817511 0.16051702201366425 -0.0032092505134642124 -0.31174781918525696 -0.061425283551216125 0.03669212386012077 0.1689893901348114 -0.021038750186562538 -0.01188816037029028 -0.07522158324718475 0.07703404128551483 -0.048246078193187714 0.3575670123100281 0.049234818667173386 -0.10876408964395523 0.13516193628311157 0.2252694070339203 0.03789548575878143 0.12064364552497864 0.12873591482639313 -0.13384296000003815 -0.08417482674121857 0.17847365140914917 0.09627163410186768 -0.18160271644592285 0.10467774420976639 -0.30655810236930847 0.06584402173757553 0.31761983036994934 -0.030336106196045876 0.02598017081618309 -0.2770076096057892 0.10222967714071274 0.3077162206172943 -0.07799728959798813 0.027512764558196068 0.09644239395856857 -0.011257090605795383 0.1390448659658432 0.024488965049386024 -0.18518571555614471 -0.36737796664237976 -0.032768163830041885 -0.008991633541882038 -0.1177893728017807 0.21902771294116974 -0.1858205795288086 -0.023437123745679855 0.16466297209262848 -0.06998099386692047 0.2360258847475052 -0.14239053428173065 -0.093476302921772 0.009517352096736431 0.12860652804374695 -0.24122050404548645 -0.2500936985015869 0.012983562424778938
24 0.1968398243188858 0.09246683120727539 -0.15889951586723328 0.07520978152751923 0.09315866231918335 -0.09322425723075867 -0.032038286328315735 0.07187560945749283 0.07303972542285919 -0.008271831087768078 -0.020627813413739204 -0.02573699690401554 -0.030398061498999596 0.06199422851204872 0.11753814667463303 -0.020293867215514183 0.010636767372488976 0.1306845098733902 0.23087570071220398 -0.05579305440187454 -0.08192942291498184 0.2728060483932495 0.08231556415557861 -0.0562436506152153 -0.007429802790284157 -0.16399097442626953 -0.07260103523731232 0.2624562382698059 -0.05156642571091652 -0.16572192311286926 -0.018501712009310722 0.25438958406448364 0.06653255969285965 0.17053523659706116 0.06495431810617447 0.21247582137584686 -0.05304371565580368 -0.23672392964363098 -0.020279400050640106 0.11534390598535538 0.1089242547750473 0.0444614440202713 -0.15398751199245453 0.14090996980667114 0.03480206057429314 -0.04056030884385109 -0.020688926801085472 -0.015232207253575325 -0.15012681484222412 -0.11774368584156036 0.008788647130131721 -0.01780245639383793 0.10229097306728363 -0.036621615290641785 -0.14229094982147217 0.10119964182376862 0.041451819241046906 0.03745795413851738 -0.07241381704807281 0.31652384996414185 -0.06017477437853813 -0.08320998400449753 0.04733339697122574 -0.01857922412455082 0.011646902188658714 0.27160218358039856 -0.05237048119306564 -0.06655266135931015 -0.13717761635780334 -0.015941064804792404 -0.1312619298696518 0.1299019306898117 -0.07438434660434723 -0.12188649922609329 0.07065024971961975 0.04571269825100899 0.16111646592617035 -0.1441788226366043 0.0716695562005043 -0.17860282957553864 -0.1237613633275032 -0.04951244965195656 0.16704700887203217 0.00785051193088293 -0.027916036546230316 -0.004057386890053749 0.10278081148862839 0.10578766465187073 -0.013507101684808731 0.1339384764432907 -0.15637817978858948 -0.17148853838443756 0.1156962513923645 -0.0037813475355505943 -0.32312193512916565 0.029795289039611816 -0.28847038745880127 -0.07608357816934586 0.34010618925094604 -0.18882808089256287 0.08008021116256714 -0.21483604609966278 -0.04224056750535965 0.21139000356197357 0.04321843758225441 0.15843002498149872 0.07363155484199524 0.05554738640785217 0.09534746408462524 0.11985518783330917 -0.39653539657592773 -0.31543654203414917 -0.01731416955590248 0.14121775329113007 -0.16764245927333832 0.28124701976776123 -0.13302800059318542 0.06183699518442154 0.21181750297546387 0.11209799349308014 0.29123809933662415 -0.11138579249382019 -0.12254822254180908 0.03371886536478996 0.26947492361068726 -0.22038868069648743 -0.024098237976431847 0.017162643373012543
25 -0.10557930171489716 0.07875955104827881 -0.22107523679733276 -0.06462922692298889 0.06401090323925018 -0.12894143164157867 0.0514986477792263 0.16005615890026093 0.05514879152178764 0.10927880555391312 0.07217787206172943 -0.14729660749435425 -0.062219906598329544 0.13753589987754822 0.089096300303936 -0.014068806543946266 0.15367111563682556 0.0771796777844429 0.017049923539161682 -0.02851247414946556 0.08006849884986877 0.05530162528157234 -0.012928975746035576 -0.028017768636345863 -0.06628432124853134 -0.12551942467689514 0.05091816559433937 0.1051328182220459 0.03990289196372032 -0.17942218482494354 0.007415277883410454 0.1869095414876938 0.028740018606185913 0.13904744386672974 0.11792152374982834 0.2306186407804489 -0.057990849018096924 -0.20586790144443512 -0.008775250054895878 0.16325314342975616 0.13679566979408264 -0.010389323346316814 -0.039798662066459656 2.2609274310525507e-05 0.005317796487361193 -0.11545081436634064 -0.07328072935342789 -0.022913549095392227 -0.13683782517910004 -0.05574002489447594 0.09453962743282318 0.08578942716121674 0.1278788447380066 0.200310617685318 -0.23236657679080963 -0.011542734690010548 0.04906022548675537 0.1436695158481598 0.0014222339959815145 0.28067028522491455 0.05848392844200134 0.015073306858539581 0.04144966974854469 -0.13840126991271973 0.09335509687662125 0.08531702309846878 -0.01657281443476677 -0.0431981161236763 0.04307234659790993 -0.029619690030813217 -0.11152324825525284 0.09437917172908783 -0.15630218386650085 -0.10202466696500778 0.037064436823129654 0.02004055865108967 0.17799371480941772 -0.10942758619785309 0.04237972944974899 -0.022407928481698036 -0.10091830044984818 -0.12972392141819 0.14609019458293915 0.018753185868263245 0.060106173157691956 0.057132694870233536 0.18521256744861603 -0.09081487357616425 0.007854850962758064 0.12462207674980164 -0.11365709453821182 -0.18068385124206543 0.12102306634187698 -0.06799153238534927 -0.2231968343257904 -0.08302249759435654 -0.36996525526046753 -0.03341444954276085 0.4144408702850342 -0.009846283122897148 0.06341264396905899 -0.2169017493724823 0.00028613294125534594 0.14526858925819397 -0.0046559348702430725 -0.010295123793184757 0.01668829657137394 0.006655033677816391 0.10778135806322098 -0.06525365263223648 -0.1814129650592804 -0.28849512338638306 -0.0035842068027704954 0.07205311954021454 -0.19555680453777313 0.3226483166217804 -0.30107784271240234 0.06604159623384476 0.09286318719387054 0.1259300410747528 0.23792621493339539 -0.15760353207588196 -0.1494218111038208 -0.10479839146137238 0.12124574929475784 -0.24690866470336914 -0.1523285061120987 0.0018159545725211501
26 -0.05598015710711479 0.18966440856456757 -0.4125015437602997 -0.11912158876657486 0.08181695640087128 -0.11102446168661118 0.023425789549946785 0.017642829567193985 0.11602785438299179 0.0814201608300209 0.051549095660448074 -0.1689615398645401 -0.08588875085115433 0.00497122947126627 0.08340457826852798 -0.09377468377351761 0.005276140291243792 0.2504041790962219 0.06269101053476334 0.0025269256439059973 -0.006758506875485182 0.0628819689154625 0.05034857988357544 -0.05100392922759056 -0.14751142263412476 -0.14434227347373962 0.13111020624637604 0.07928771525621414 -0.09675722569227219 -0.1404450386762619 -0.0005066244048066437 0.13409925997257233 -0.032083023339509964 0.1922038048505783 0.24817916750907898 0.34081509709358215 -0.08591696619987488 -0.2231534868478775 -0.03768014907836914 0.23477883636951447 0.1535830944776535 -0.024544494226574898 0.007659782189875841 0.02029544487595558 0.01965523697435856 -0.24292495846748352 -0.037909138947725296 -0.06735023856163025 -0.02158481813967228 -0.0909486934542656 0.09743329882621765 0.08728097379207611 0.05321492627263069 0.09970559924840927 -0.3162921965122223 -0.0019155063200742006 0.06856115907430649 0.16066104173660278 0.07990814745426178 0.22536683082580566 -0.0998464971780777 -0.06998667120933533 0.10791808366775513 -0.22545908391475677 0.04116404056549072 0.13649268448352814 -0.10427550226449966 0.0016548206331208348 -0.028703944757580757 -0.16288796067237854 -0.034513212740421295 0.08950330317020416 0.013775563798844814 -0.06201770901679993 0.21208302676677704 -0.015936564654111862 0.21472758054733276 -0.10680380463600159 0.20629630982875824 -0.07528570294380188 -0.0692921131849289 -0.06769536435604095 0.11536887288093567 0.05580015107989311 -0.1157236322760582 0.11731000244617462 0.04136840999126434 -0.20674602687358856 -0.07134809345006943 -0.04442410171031952 0.002925968263298273 -0.15359114110469818 0.1732761710882187 0.07172854989767075 -0.11077434569597244 0.012757289223372936 -0.25156211853027344 0.23957061767578125 0.30612242221832275 0.17747001349925995 0.012276613153517246 -0.24948519468307495 0.06689453125 0.27529415488243103 0.07911115139722824 0.19186438620090485 -0.015560511499643326 0.06104828789830208 0.18012236058712006 -0.018514228984713554 -0.126312717795372 -0.34592747688293457 -0.075325608253479 -0.09654644876718521 -0.08638922870159149 0.19101114571094513 -0.19592507183551788 -0.027961593121290207 -0.07355563342571259 0.16596156358718872 0.1550055742263794 -0.044801171869039536 -0.11695065349340439 -0.009364339523017406 0.22266723215579987 -0.21677295863628387 -0.0984126478433609 -0.0887223407626152
27 -0.04037264361977577 0.1321047991514206 -0.37597352266311646 0.18356429040431976 0.06341305375099182 -0.022798700258135796 -0.07474732398986816 -0.0471806675195694 0.08438188582658768 -0.07360833138227463 -0.11125633120536804 -0.11280901730060577 -0.007329463493078947 0.11583907157182693 0.15316718816757202 -0.05889996141195297 -0.007043562363833189 0.19139926135540009 0.15989533066749573 -0.17819315195083618 0.01340774167329073 0.14670531451702118 -0.002804249757900834 -0.05389879271388054 -0.046771638095378876 -0.050577376037836075 -0.004156942944973707 0.07831322401762009 0.006527135148644447 -0.08369158208370209 -0.018004991114139557 0.2567705512046814 0.012885253876447678 0.03239592909812927 0.02635866403579712 0.2651335597038269 -0.08763352036476135 -0.3712523579597473 -0.11920909583568573 0.19082145392894745 0.028936339542269707 -0.08666081726551056 -0.06455953419208527 0.04067278280854225 0.20982453227043152 -0.20558162033557892 -0.03122878447175026 -0.07751647382974625 -0.006799506954848766 -0.1881340891122818 0.12239095568656921 0.12876099348068237 0.1643737554550171 0.09148586541414261 -0.21029135584831238 0.05391954258084297 0.07839076220989227 0.11867866665124893 0.13303877413272858 0.3328746259212494 0.0541488341987133 -0.12114355713129044 0.10123701393604279 -0.14546865224838257 -0.028750654309988022 0.01646808721125126 -0.12304319441318512 0.005911830347031355 -0.11884074658155441 -0.12024104595184326 0.153859481215477 0.09045939892530441 0.12863965332508087 -0.21477599442005157 -0.0791838988661766 0.0879528820514679 0.13589483499526978 -0.03557795286178589 0.039776429533958435 -0.05025634542107582 0.002795854350551963 -0.00369625142775476 0.36747661232948303 0.05241229757666588 0.050262514501810074 0.04745103418827057 0.18311531841754913 -0.053200799971818924 0.018139325082302094 0.06536129117012024 -0.08071862161159515 0.02981673739850521 0.13574320077896118 0.01191321574151516 -0.26050427556037903 0.015026260167360306 -0.3393816351890564 0.11580941081047058 0.2597563862800598 0.057108324021101 -0.03989976644515991 -0.1953824907541275 0.09695010632276535 0.2967299818992615 -0.10474380850791931 0.15551826357841492 0.1110086441040039 0.16646303236484528 0.13555312156677246 0.020039595663547516 -0.2521485984325409 -0.32857537269592285 0.06400715559720993 -0.07163631170988083 0.015186899341642857 0.15956133604049683 -0.20336492359638214 -0.09789454936981201 -0.018079649657011032 0.040947288274765015 0.18226014077663422 -0.10724006593227386 0.03836115449666977 0.03310918062925339 0.1753089278936386 -0.26939427852630615 -0.17860203981399536 0.009769545868039131
28 0.026667149737477303 0.24859930574893951 -0.22390231490135193 -0.004700047429651022 0.07631564885377884 -0.17150086164474487 0.020286422222852707 -0.017648611217737198 0.03946193680167198 -0.007869345135986805 0.017752258107066154 -0.08527947962284088 0.024118073284626007 -0.08338022232055664 0.14103752374649048 -0.27941834926605225 -0.07741977274417877 0.119175985455513 0.11480730772018433 0.03230813518166542 0.09745478630065918 0.20101919770240784 0.06568164378404617 -0.1336505115032196 -0.12495242804288864 -0.1472400277853012 0.1799013316631317 0.10233647376298904 -0.07322230935096741 0.007867053151130676 0.07040772587060928 0.2200276106595993 -0.05545566603541374 0.14093132317066193 0.04657363146543503 0.14966487884521484 0.01303802989423275 -0.3880877196788788 -0.06682834029197693 0.27702420949935913 0.1682012528181076 -0.099428690969944 -0.0385068878531456 0.06926487386226654 0.11134277284145355 -0.06957986950874329 -0.15973281860351562 0.05865144729614258 -0.25740617513656616 -0.09133763611316681 0.0924585610628128 0.09613712877035141 0.04390929639339447 0.056026309728622437 -0.2401009202003479 0.11299799382686615 0.07347422093153 0.07008299231529236 -0.08927877992391586 0.26916608214378357 -0.08238402009010315 -0.06014572083950043 0.03801349923014641 -0.15142647922039032 0.0701749250292778 0.10128854215145111 -0.10974157601594925 -0.032894834876060486 -0.07956063002347946 -0.1800328642129898 -0.0068107713013887405 0.04223287105560303 0.008553466759622097 -0.2168985903263092 0.05651673302054405 -0.08193325251340866 0.1523786038160324 -0.10034877806901932 0.11469174921512604 0.022214485332369804 -0.18166357278823853 -0.16522721946239471 0.27558037638664246 0.06169259548187256 -0.016944242641329765 0.07060901820659637 0.08311716467142105 -0.0764663815498352 -0.04659038409590721 0.038329899311065674 0.022130105644464493 -0.15537211298942566 0.2415572553873062 0.030115578323602676 -0.15337777137756348 0.11595968157052994 -0.23932579159736633 0.11460079252719879 0.3429197072982788 -0.030748948454856873 -0.06958712637424469 -0.33187413215637207 0.04104973375797272 0.2765659987926483 -0.023510858416557312 0.08603046834468842 0.13500358164310455 0.07835785299539566 0.07895265519618988 0.03334399685263634 -0.32739928364753723 -0.3698630630970001 -0.15980850160121918 -0.040084727108478546 -0.12118054181337357 0.15146224200725555 -0.2178538292646408 -0.007628581486642361 0.15872760117053986 0.05825195088982582 0.2863502502441406 -0.12217964977025986 -0.12047601491212845 -0.18267852067947388 0.1448056846857071 -0.16034600138664246 -0.17393840849399567 -0.04267041012644768
29 0.043210070580244064 0.16125096380710602 -0.3016374111175537 -0.14754877984523773 0.10828091204166412 -0.10070648044347763 -0.056585147976875305 0.06333459168672562 0.13819138705730438 -0.08030074834823608 0.23950573801994324 -0.25890180468559265 -0.16258525848388672 0.11695472151041031 -0.05590580031275749 -0.07628274708986282 0.11722183972597122 0.12602418661117554 0.20120003819465637 0.07775503396987915 -0.12128641456365585 0.22321712970733643 -0.031752537935972214 -0.19136646389961243 -0.08475568890571594 -0.11410199105739594 0.06991472840309143 0.018995674327015877 -0.07058773189783096 -0.08906418085098267 -0.041630323976278305 0.07476751506328583 -0.08594401925802231 -0.016380881890654564 0.19699764251708984 0.16446755826473236 0.10069942474365234 -0.07076084613800049 -0.10094153881072998 0.15980803966522217 0.023215387016534805 -0.051583390682935715 0.018448522314429283 0.15779316425323486 0.010962089523673058 -0.09344393759965897 0.007929469458758831 -0.12699587643146515 -0.0033199002500623465 -0.052642032504081726 0.0996842011809349 0.09928057342767715 0.08492901176214218 0.05102904140949249 -0.16805464029312134 -0.03662949800491333 0.04144325479865074 -0.07927417755126953 0.13201762735843658 0.09035033732652664 0.06351611018180847 -0.15097428858280182 0.03900299593806267 -0.06519722193479538 -0.036142610013484955 0.01711690053343773 0.05175883695483208 0.007313917391002178 0.005150474142283201 -0.04116315022110939 0.2388966679573059 0.0770467072725296 0.09148316085338593 -0.19060255587100983 0.1103525385260582 0.17574253678321838 0.10015055537223816 0.03582805395126343 0.20850315690040588 -0.06413853913545609 -0.022448554635047913 -0.10371702909469604 0.2010972797870636 -0.07298488914966583 0.017038637772202492 0.1519298106431961 0.14522820711135864 -0.17782992124557495 -0.002550318371504545 0.011246724985539913 -0.060212355107069016 -0.05057350918650627 0.08837179839611053 0.07819018512964249 -0.26870447397232056 0.031017154455184937 -0.25434422492980957 -0.17124244570732117 0.10691915452480316 -0.018491363152861595 0.03963654488325119 -0.46981894969940186 0.08299760520458221 0.2155134677886963 -0.06287577003240585 0.23191776871681213 0.2294599562883377 0.23264627158641815 0.12014976143836975 0.15551525354385376 -0.30255767703056335 -0.3277466893196106 -0.09586293250322342 0.04656028002500534 -0.13692831993103027 0.09979721903800964 -0.3147352933883667 0.09051830321550369 0.07801294326782227 0.27147459983825684 0.2973285913467407 -0.030749138444662094 -0.16225066781044006 0.07595482468605042 0.08344685286283493 -0.18496087193489075 0.0542537085711956 -0.06435831636190414
30 0.07704482227563858 0.23794013261795044 -0.26985305547714233 -0.105227991938591 0.04666940122842789 -0.1295451670885086 -0.13406795263290405 0.09353847056627274 0.07597356289625168 0.12013322114944458 -0.015295040793716908 -0.13927841186523438 -0.15627102553844452 -0.02911464497447014 0.09486881643533707 -0.15107065439224243 0.005312954541295767 0.17280809581279755 0.26730644702911377 -0.050550296902656555 0.030520079657435417 0.2594085931777954 0.08078428357839584 0.01800823211669922 -0.07250350713729858 -0.11243187636137009 0.16289396584033966 0.061046112328767776 -0.1567447930574417 -0.09425082057714462 -0.04030241072177887 0.1350252628326416 -0.03231021761894226 0.09837772697210312 0.04811248928308487 0.23378820717334747 -0.04251730814576149 -0.2503654360771179 -0.0895288735628128 0.21154555678367615 0.13142774999141693 0.021806783974170685 -0.07785029709339142 0.038961466401815414 0.09456173330545425 -0.06994640082120895 -0.05202320218086243 0.023478735238313675 -0.10430685430765152 -0.164821058511734 0.06410355120897293 0.02246561273932457 0.06995906680822372 -0.033314988017082214 -0.22398465871810913 0.08968313038349152 -0.020005036145448685 0.12303082644939423 -0.03465773165225983 0.23644013702869415 -0.050169408321380615 -0.024545328691601753 0.0347854308784008 -0.15202072262763977 0.09382503479719162 0.10415206104516983 -0.04056914523243904 0.002602911554276943 -0.0771111398935318 -0.041332047432661057 -0.053970519453287125 0.06114376708865166 0.08332028985023499 0.003097320906817913 0.11487273126840591 0.08237526565790176 0.11622606217861176 -0.17051294445991516 0.2017662525177002 -0.10941874235868454 -0.11386013776063919 -0.12633006274700165 0.17379000782966614 0.043297894299030304 0.05994945392012596 0.10818546265363693 0.11648131161928177 -0.055389389395713806 -0.0032375920563936234 0.02643992379307747 0.016827411949634552 -0.19078561663627625 0.1236279308795929 0.0006080094026401639 -0.3124072849750519 0.04050932452082634 -0.31712713837623596 0.11128474771976471 0.32558292150497437 0.012878679670393467 -0.010851968079805374 -0.32940447330474854 -0.029327120631933212 0.11309466511011124 0.04545503854751587 0.05618498846888542 -0.013921786099672318 0.11842493712902069 0.07571043819189072 0.14903822541236877 -0.24176721274852753 -0.2849947214126587 -0.18120333552360535 -0.025776153430342674 -0.16812656819820404 0.22582492232322693 -0.2729269564151764 0.054147131741046906 0.16632428765296936 0.220920592546463 0.2925601899623871 -0.050648536533117294 -0.22321008145809174 0.050771020352840424 0.13933098316192627 -0.15491698682308197 -0.08487223088741302 -0.0758586972951889
31 0.11977141350507736 0.09949854016304016 -0.34461984038352966 -0.06503959745168686 0.02908908948302269 -0.023241600021719933 -0.1768721491098404 0.031121844425797462 0.0646306499838829 0.09325207769870758 0.09844449162483215 -0.006962829735130072 -0.1262669861316681 -0.04907532408833504 0.07098005712032318 -0.2090918868780136 -0.012158691883087158 0.19702522456645966 0.2597002685070038 -0.1081007570028305 -0.01309768296778202 0.1998862773180008 0.07581222802400589 -0.0016475302400067449 -0.10950583964586258 -0.17283445596694946 0.24426808953285217 0.027282295748591423 -0.11354303359985352 0.04488028958439827 0.03217921033501625 0.22523115575313568 -0.0686221644282341 0.11581996083259583 0.0937710851430893 0.33663123846054077 0.015596200712025166 -0.20065051317214966 -0.09708170592784882 0.29343849420547485 0.11641266942024231 0.00199612183496356 -0.01559043861925602 0.14101286232471466 0.12651200592517853 -0.2059432864189148 -0.06144074723124504 0.010824806988239288 -0.09283697605133057 -0.14626683294773102 0.09193503856658936 0.2045934796333313 -0.004178520292043686 -0.14432145655155182 -0.2601090371608734 0.02279140241444111 -0.060686126351356506 0.10906359553337097 -0.035267677158117294 0.3616923987865448 -0.03841295838356018 0.003999619744718075 0.11216703057289124 -0.08409637957811356 -0.0924905464053154 0.11906592547893524 -0.1625298410654068 0.009839825332164764 -0.014179583638906479 -0.011121571063995361 -0.009689070284366608 0.03833523392677307 0.045359253883361816 -0.07267553359270096 0.1385023593902588 0.0607614666223526 0.14399704337120056 -0.004094766918569803 0.16501174867153168 0.007009580265730619 0.0012191373389214277 -0.03208710253238678 0.2682090997695923 0.03784335032105446 0.03178898245096207 -0.06219882890582085 0.03797173500061035 -0.08860025554895401 -0.0584111250936985 0.05763402581214905 0.11976058781147003 -0.20524969696998596 0.04549693316221237 -0.016096636652946472 -0.3894822597503662 -0.10862746834754944 -0.15849144756793976 0.1033809557557106 0.350871205329895 0.0653606504201889 0.010721627622842789 -0.2183741331100464 0.012433229014277458 0.3849414885044098 0.03933754190802574 0.1993948519229889 0.03322651609778404 0.03430422022938728 0.20465528964996338 0.057206377387046814 -0.3083706498146057 -0.4221116602420807 -0.14002999663352966 -0.17377661168575287 -0.10568244010210037 0.16951884329319 -0.16860081255435944 -0.039177268743515015 0.13935455679893494 0.0037514178548008204 0.3121461272239685 -0.0243828184902668 -0.27224093675613403 -0.16832663118839264 0.07272248715162277 -0.16565145552158356 -0.1487669199705124 -0.06028815731406212
32 0.1535106748342514 0.03881319984793663 -0.26892971992492676 -0.15373745560646057 0.13245177268981934 -0.1462576687335968 0.12352607399225235 0.1331225037574768 0.07825777679681778 0.07736389338970184 0.17366604506969452 -0.22284285724163055 -0.11950523406267166 0.092018261551857 -0.10230928659439087 -0.14345628023147583 0.10478466749191284 0.22919076681137085 0.23851178586483002 0.017225103452801704 -0.1925356239080429 0.28622105717658997 -0.009122534655034542 -0.1316959261894226 -0.17158663272857666 -0.04560227692127228 0.048880670219659805 0.008441608399152756 -0.09511715918779373 -0.1208001896739006 0.01474413089454174 0.12530842423439026 -0.11564603447914124 0.02872502990067005 0.22563853859901428 0.185845285654068 0.08605882525444031 -0.15392670035362244 -0.04266323149204254 0.15608587861061096 0.07831377536058426 -0.13241888582706451 -0.05550443381071091 0.09249124675989151 -0.09543482959270477 -0.05840102583169937 -0.003727916395291686 0.015191649086773396 -0.13908085227012634 -0.11351993680000305 -0.03325989842414856 0.003941955976188183 0.07090591639280319 0.09837131202220917 -0.14831043779850006 -0.06971732527017593 -0.0032958518713712692 -0.05718250200152397 0.16014337539672852 0.16245102882385254 0.1374678909778595 -0.08326061069965363 0.029923753812909126 -0.08202026784420013 0.027808938175439835 0.10995486378669739 -0.017770102247595787 -0.0037943071220070124 -0.03636835888028145 -0.09288628399372101 -0.03193613886833191 0.05368532985448837 0.0423804335296154 -0.13945409655570984 0.10816977918148041 -0.11486095190048218 0.11305764317512512 -0.07964429259300232 0.2647448778152466 0.10216239839792252 -0.1351732313632965 -0.16240550577640533 0.2072400152683258 -0.03488718345761299 0.05059593915939331 0.09174726903438568 0.2355826199054718 -0.17223726212978363 -0.06843265891075134 0.03757810965180397 -0.1512300819158554 -0.13932183384895325 0.05287009850144386 0.10129046440124512 -0.17607411742210388 -0.026658395305275917 -0.23338502645492554 -0.06734388321638107 0.22174187004566193 0.0007151458994485438 -0.034530822187662125 -0.3892819881439209 0.0019833180122077465 0.23396159708499908 -0.17259220778942108 0.10521215945482254 0.08443235605955124 0.12313739210367203 0.18187065422534943 0.011725950986146927 -0.4344010055065155 -0.29259398579597473 -0.19324947893619537 0.0031808556523174047 -0.28919079899787903 0.09990786015987396 -0.2554391920566559 0.05734047293663025 -0.050027891993522644 0.19152569770812988 0.41041985154151917 -0.09776261448860168 -0.13932840526103973 -0.02337859384715557 0.11737257987260818 -0.16522379219532013 -0.13595496118068695 -0.1379905641078949
33 0.18087290227413177 0.14861994981765747 -0.316382497549057 0.10020433366298676 -0.03989442065358162 -0.23230445384979248 -0.12826888263225555 -0.0011615193216130137 0.04120006784796715 0.0546535924077034 -0.059599604457616806 -0.18111877143383026 0.0014117039972916245 0.007872678339481354 0.07574237138032913 -0.13678884506225586 0.02035401202738285 0.14385080337524414 0.24490372836589813 -0.12335122376680374 0.10243849456310272 0.20537082850933075 0.009388734586536884 -0.07224623113870621 -0.029079847037792206 -0.20966586470603943 0.14947101473808289 0.01947067864239216 -0.16269193589687347 -0.030945556238293648 -0.01924113556742668 0.2785961925983429 0.049104128032922745 0.09118976444005966 0.006384877488017082 0.1802850067615509 0.048797670751810074 -0.29157596826553345 -0.15933355689048767 0.25934478640556335 0.24647639691829681 -0.07172248512506485 -0.10924121737480164 -0.05091552063822746 0.17783626914024353 -0.0045603676699101925 0.135261669754982 -0.07086721062660217 -0.0011570776114240289 -0.11995746195316315 0.19321246445178986 0.18476474285125732 0.1842733919620514 -0.006227560807019472 -0.0710691437125206 0.020178189501166344 0.1291051059961319 0.0148380808532238 -0.06117041036486626 0.37383267283439636 -0.12726075947284698 -0.07548968493938446 0.0073776450008153915 -0.07450773566961288 0.0819169133901596 0.1656341701745987 0.07740934938192368 -0.024062326177954674 -0.060004424303770065 -0.16707704961299896 -0.008161216974258423 0.0956217497587204 0.10955733805894852 -0.07856234163045883 0.03693392127752304 0.027768230065703392 0.17924392223358154 -0.1496942639350891 0.05070402845740318 -0.07879557460546494 -0.06351707130670547 -0.24055030941963196 0.36171165108680725 0.0026798872277140617 -0.003878026967868209 0.11551141738891602 0.1830424815416336 -0.04348074272274971 0.08244062215089798 0.16634270548820496 -0.027639396488666534 -0.19165568053722382 0.11634602397680283 0.015551676042377949 -0.22793461382389069 0.09135802835226059 -0.22239267826080322 0.09201246500015259 0.3794822692871094 -0.0010127539280802011 0.005325420759618282 -0.35547760128974915 0.07671727240085602 0.26460471749305725 -0.028017275035381317 0.11582447588443756 0.16081909835338593 0.09775496274232864 0.08125800639390945 0.02762569673359394 -0.2721136510372162 -0.4210207462310791 0.05512751266360283 -0.07747943699359894 -0.1867663562297821 0.21209587156772614 -0.2812047600746155 0.10189250856637955 0.12104949355125427 -0.057024240493774414 0.3070968687534332 -0.04756375774741173 -0.20585615932941437 -0.02613787353038788 0.03321381285786629 -0.31610792875289917 -0.14555096626281738 0.0025260127149522305
34 0.03189457580447197 0.1688787043094635 -0.34871912002563477 -0.05156771466135979 -0.014041674323379993 -0.14735451340675354 0.02515571378171444 -0.02320077270269394 0.022717416286468506 0.17193721234798431 0.11139320582151413 -0.04722225293517113 -0.1003379374742508 -0.051885347813367844 0.07716157287359238 -0.07083994895219803 -0.044370535761117935 0.2537331283092499 0.2919326722621918 0.04304177314043045 -0.14489805698394775 0.12480591982603073 0.01065016072243452 -0.17487388849258423 -0.1261872947216034 -0.16344425082206726 0.08077825605869293 -0.061407674103975296 -0.17337311804294586 -0.09635204076766968 -0.024918625131249428 0.08036123216152191 -0.06346331536769867 0.055342018604278564 0.14875014126300812 0.18256624042987823 0.01929367333650589 -0.16813704371452332 -0.1252392828464508 0.30300241708755493 0.198857843875885 -0.09089065343141556 -0.0031159359496086836 0.11294221878051758 -0.019069291651248932 -0.1431627869606018 -0.06599411368370056 -0.018299082294106483 -0.10195973515510559 -0.09501360356807709 0.026257583871483803 -0.005508694797754288 -0.06445994228124619 0.25330331921577454 -0.2508246898651123 0.010156188160181046 -0.01225544698536396 0.06661595404148102 0.10913170874118805 0.19974686205387115 -0.03819872438907623 -0.04826042056083679 0.0038780176546424627 -0.1672971248626709 0.20310120284557343 0.03840234875679016 -0.1653546690940857 0.012172629125416279 -0.12246029824018478 -0.17808797955513 0.030155641958117485 -0.03696328029036522 -0.13874313235282898 -0.14110663533210754 0.33612555265426636 -0.12857556343078613 0.30340591073036194 -0.0980968177318573 0.17663951218128204 -0.06679349392652512 -0.0925074964761734 -0.04249275475740433 0.15106602013111115 -0.03543168306350708 -0.027959570288658142 0.09396886825561523 0.033111706376075745 -0.16270853579044342 0.08346166461706161 -0.025797594338655472 -0.04122544080018997 -0.16308194398880005 0.06651102006435394 -0.05773521587252617 -0.0068575236946344376 0.08291241526603699 -0.19948339462280273 0.23728753626346588 0.2932469844818115 0.0014514513313770294 -0.13695789873600006 -0.1845710426568985 0.15662579238414764 0.3023415505886078 0.057399503886699677 0.13635051250457764 0.024619946256279945 0.10616244375705719 0.10929449647665024 0.058706965297460556 -0.27861374616622925 -0.2841947376728058 -0.033362120389938354 -0.012248425744473934 -0.07969392091035843 0.031792908906936646 -0.17560137808322906 0.0083059873431921 -0.0338580422103405 0.13391059637069702 0.13352075219154358 -0.19309309124946594 -0.12343306839466095 -0.06956233829259872 0.05535650998353958 -0.07632363587617874 -0.12613056600093842 0.07208433747291565
35 0.09449835121631622 0.09796053171157837 -0.3033505976200104 0.116889089345932 -0.013457022607326508 -0.06196775287389755 0.007693924475461245 -0.09352831542491913 0.03357872739434242 0.0881916955113411 0.1375218778848648 -0.07192331552505493 0.03939089924097061 -0.11299635469913483 0.06666811555624008 -0.15851159393787384 -0.05793502926826477 0.10556603223085403 0.2696913778781891 -0.012998893857002258 0.021861102432012558 0.270595520734787 -0.0210307277739048 -0.14548592269420624 -0.026966698467731476 -0.12621156871318817 0.12395136058330536 0.11422011256217957 -0.06038700416684151 -0.004468965344130993 0.008423087187111378 0.21951767802238464 -0.0001964967232197523 0.1573629230260849 0.1528041958808899 0.09862281382083893 -0.04819536954164505 -0.2902529239654541 -0.10113579034805298 0.14834657311439514 0.07951068133115768 0.09924440085887909 -0.05282827839255333 0.11261054873466492 -0.017843175679445267 -0.0959920808672905 0.040147095918655396 0.018432611599564552 -0.18868738412857056 -0.0757957249879837 0.023216241970658302 0.1544552892446518 0.0813799500465393 0.1490122526884079 -0.12975668907165527 -0.026025811210274696 0.02343010902404785 -0.07020138204097748 0.010376927442848682 0.3418993055820465 0.05099201202392578 -0.15630175173282623 0.011491438373923302 0.0008046759176068008 0.05301589518785477 0.23331111669540405 -0.0667601004242897 -0.09426300972700119 0.03272445872426033 -0.12350596487522125 0.04946063458919525 0.09270212799310684 0.11387565732002258 -0.16978953778743744 -0.009437551721930504 -0.055082667618989944 0.24672716856002808 -0.11282801628112793 0.10952328145503998 -0.02247270569205284 -0.023935772478580475 -0.0009138399618677795 0.32192370295524597 0.08093234896659851 0.10991484671831131 0.02490486204624176 0.18534328043460846 -0.06489221006631851 -0.040141019970178604 0.10602712631225586 -0.03200209513306618 -0.07481057941913605 0.12743064761161804 0.017178913578391075 -0.24906688928604126 0.046249352395534515 -0.26825979351997375 0.005269535351544619 0.31713512539863586 -0.14739085733890533 0.013965914957225323 -0.27146288752555847 0.021495990455150604 0.19091705977916718 -0.03424655646085739 0.1992136538028717 0.05507012829184532 0.06412257254123688 0.06394995748996735 0.07472817599773407 -0.48834073543548584 -0.35959264636039734 -0.14880289137363434 -0.02240047976374626 -0.10948635637760162 0.07405538856983185 -0.2488664984703064 -0.03260631114244461 0.06187163665890694 0.0778653547167778 0.309839129447937 -0.164825901389122 -0.21717293560504913 -0.10059329122304916 0.2342662364244461 -0.16484388709068298 -0.11926815658807755 -0.07038179785013199
36 0.20989248156547546 0.13143181800842285 -0.4431711733341217 0.16338686645030975 -0.10079323500394821 -0.12773095071315765 -0.053129300475120544 0.09355911612510681 0.08757641911506653 -0.004775458015501499 0.010576372966170311 -0.12432888150215149 -0.1340835988521576 0.0451890230178833 0.1456231027841568 -0.12623387575149536 0.09428269416093826 0.19295845925807953 0.1784830093383789 -0.09759268164634705 0.11260320246219635 0.3202400803565979 0.10078198462724686 -0.09859220683574677 -0.06617438793182373 -0.17532522976398468 0.07172904908657074 0.04433131217956543 -0.14108535647392273 -0.06492123007774353 -0.0015990682877600193 0.12058049440383911 0.0004326371126808226 0.0031837301794439554 0.047151580452919006 0.10053332895040512 -0.03812355920672417 -0.3528367578983307 -0.16933050751686096 0.2519512474536896 0.19124078750610352 -0.07857555896043777 -0.04746033251285553 -0.07694218307733536 0.09727170318365097 0.14975154399871826 -0.05632949620485306 0.09107217937707901 -0.0374428890645504 -0.07134079933166504 0.03890280798077583 0.025337178260087967 0.14253954589366913 0.11052720993757248 -0.0018294684123247862 -0.012622830457985401 -0.021524641662836075 0.05255381390452385 0.04689015448093414 0.4156282842159271 0.03355943784117699 -0.05809754878282547 -0.01080195140093565 -0.0976359099149704 0.2730175256729126 0.1287856251001358 -0.15402637422084808 0.05606371536850929 -0.1642698347568512 -0.1953982561826706 0.12485653162002563 0.07831821590662003 0.03171008452773094 0.006054454483091831 0.20344991981983185 -0.10250765085220337 0.24418818950653076 -0.1887708157300949 0.02591051533818245 -0.17649976909160614 0.030003318563103676 -0.09367291629314423 0.15902070701122284 0.04713866859674454 0.059780266135931015 0.0434320829808712 0.01301626767963171 -0.002727095503360033 0.021466419100761414 0.10058208554983139 -0.1631920039653778 -0.07386209815740585 0.08826661109924316 -0.07173390686511993 -0.1802246868610382 0.0014425371773540974 -0.33172690868377686 0.10577315837144852 0.510148823261261 0.02450377866625786 0.09226924180984497 -0.4113435447216034 -0.11946132779121399 0.24039189517498016 -0.037251655012369156 -0.08424872905015945 0.12465105950832367 0.015360607765614986 0.1435389667749405 -0.013372695073485374 -0.2946200370788574 -0.35026493668556213 0.014801462180912495 0.0012642554938793182 -0.07152577489614487 0.17027907073497772 -0.1966925412416458 0.04862997308373451 0.0941319614648819 0.13989479839801788 0.23691140115261078 0.013269267044961452 -0.15047311782836914 -0.1836358606815338 0.16762691736221313 -0.16897423565387726 -0.22784677147865295 -0.029501793906092644
37 -0.002505073556676507 0.10306929796934128 -0.2900077998638153 -0.08094990998506546 0.0921943262219429 -0.14138934016227722 0.08688180148601532 0.16697245836257935 0.08047257363796234 0.2985956072807312 0.04046836122870445 -0.11702747642993927 -0.10473603755235672 -0.0351569764316082 0.01536206342279911 -0.039433907717466354 -0.08659766614437103 0.21478645503520966 0.17047865688800812 -0.06201129034161568 -0.023617872968316078 0.20557349920272827 0.06546956300735474 0.0012292927131056786 -0.10508046299219131 -0.06741685420274734 0.17238856852054596 -0.025176458060741425 0.02424411103129387 -0.13381600379943848 0.18046559393405914 0.14866921305656433 -0.015948167070746422 0.006230500526726246 0.24611875414848328 0.2640809714794159 -0.042207278311252594 -0.3112714886665344 -0.0064559318125247955 0.09197244793176651 0.18162652850151062 0.04000459238886833 -0.05202006548643112 -0.08668455481529236 0.062085479497909546 0.0006608488038182259 -0.033494677394628525 0.022155875340104103 0.012616772204637527 -0.11926770955324173 0.07100257277488708 0.025046050548553467 0.0805683359503746 0.30166903138160706 -0.2800253927707672 0.07292084395885468 0.01121495384722948 0.026267975568771362 0.07704833894968033 0.2653176784515381 -0.072170190513134 -0.16141252219676971 0.10175492614507675 -0.09742007404565811 0.11292893439531326 0.22690865397453308 -0.030697191134095192 -0.02813202701508999 -0.09215372800827026 -0.18207095563411713 -0.013559062033891678 0.12924599647521973 0.05165833234786987 -0.15391620993614197 0.13646256923675537 -0.019108233973383904 0.2550155818462372 -0.18361446261405945 0.18374697864055634 -0.039562441408634186 -0.08795677870512009 -0.11584141850471497 0.28582629561424255 0.02916463278234005 0.01708935759961605 0.15071140229701996 0.12188801169395447 -0.10986364632844925 -0.05087568238377571 0.15025848150253296 -0.18824318051338196 -0.2188652604818344 0.14814230799674988 0.20653650164604187 -0.1431482881307602 0.10815172642469406 -0.2736201882362366 0.11240101605653763 0.31315869092941284 -0.0015711764572188258 0.03618025779724121 -0.41158467531204224 0.04068965092301369 0.2657241225242615 -0.01317343395203352 0.016251785680651665 -0.11710558831691742 0.09400078654289246 0.20858053863048553 -0.028537223115563393 -0.4217108190059662 -0.3642610013484955 -0.14863094687461853 -0.019949913024902344 -0.12461967021226883 0.11408111453056335 -0.27268117666244507 0.03720638155937195 0.02254670485854149 0.1660749316215515 0.25691381096839905 -0.10023193806409836 -0.24998325109481812 -0.11365824937820435 0.23117032647132874 -0.14825142920017242 -0.040534019470214844 -0.006489970255643129
