1024 128
0 -0.12425738573074341 0.1049301028251648 0.0943080484867096 -0.008769440464675426 0.019087964668869972 0.06886449456214905 0.10448785126209259 0.12757131457328796 -0.11135276407003403 0.02666671946644783 -0.09259049594402313 0.02356885001063347 -0.06736274808645248 0.06741249561309814 0.048340313136577606 -0.08497027307748795 0.152204230427742 0.03197765722870827 0.07448671758174896 -0.1875666230916977 0.24088798463344574 -0.07454542070627213 -0.17815202474594116 -0.09437504410743713 -0.19335810840129852 0.10488419234752655 -0.04701127111911774 -0.2438400685787201 0.0810951441526413 -0.09431395679712296 -0.0190285574644804 -0.04543014243245125 0.16175751388072968 0.1470266878604889 -0.13975626230239868 0.08926460146903992 0.040065500885248184 0.07015258818864822 0.023773018270730972 0.12788961827754974 -0.10549129545688629 0.1589377373456955 -0.1654917299747467 0.002463494660332799 -0.010878724977374077 0.03266043961048126 -0.006935491692274809 0.20181995630264282 0.050753336399793625 -0.1008831039071083 -0.2701413631439209 0.058487165719270706 -0.057366661727428436 -0.16033659875392914 -0.06618999689817429 0.1401558816432953 0.03022109717130661 -0.11342781037092209 -0.01344231329858303 0.05850493535399437 0.058376096189022064 0.027095338329672813 0.016621962189674377 -0.13268154859542847 0.0657183825969696 -0.08252371847629547 -0.06538179516792297 -0.014340311288833618 0.17451024055480957 -0.05655233561992645 0.05672528222203255 0.1477493941783905 -0.09009534120559692 -0.09662847220897675 -0.056817129254341125 0.009698707610368729 -0.13584743440151215 0.05369584262371063 0.041254278272390366 0.13961270451545715 -0.028763065114617348 0.02620578743517399 0.2235749214887619 -0.11098325997591019 -0.14047729969024658 0.06475841999053955 -0.1287006437778473 0.03746994957327843 0.006607897579669952 -0.07243530452251434 0.0593230202794075 -0.004068291280418634 -0.2019285410642624 -0.019217247143387794 -0.10172329843044281 0.00611333642154932 -0.13594412803649902 -0.048389535397291183 0.022295761853456497 -0.0290555190294981 0.07157944142818451 0.057376399636268616 0.008297599852085114 0.08468642085790634 0.03335912898182869 0.03199728578329086 -0.09237052500247955 -0.05422225594520569 0.13221603631973267 -0.03460526838898659 -0.05676916986703873 0.26972246170043945 -0.047573599964380264 0.04400922730565071 -0.04603145644068718 0.17771130800247192 -0.1834588497877121 -0.011431762017309666 -0.12770123779773712 -0.17298908531665802 0.12269003689289093 0.06821411103010178 0.12940704822540283 0.06718111783266068 -0.06924787163734436 -0.12086884677410126 0.09287629276514053 -0.1642257124185562
1 0.059706058353185654 0.1250990331172943 0.1141224354505539 0.10620447248220444 0.013648569583892822 0.04052279144525528 -0.009623910300433636 0.0857115238904953 -0.03587900847196579 0.14511196315288544 -0.05876941606402397 0.019990090280771255 -0.2828729748725891 -0.1630828082561493 -0.08279766142368317 -0.06339339911937714 0.021227654069662094 -0.04445118457078934 -0.03083903342485428 0.004348742309957743 0.020957864820957184 -0.07822087407112122 -0.09742320328950882 0.07854233682155609 -0.10377433896064758 -0.009817419573664665 0.10808065533638 -0.052462633699178696 0.035990431904792786 -0.18282705545425415 0.1845116764307022 -0.06938405334949493 0.12002609670162201 0.2107812464237213 -0.1239800676703453 -0.06246361881494522 0.15489298105239868 -0.13567611575126648 0.2903989851474762 -0.08878464996814728 -0.08239152282476425 0.05375555530190468 -0.0962730422616005 -0.029123101383447647 -0.04954903572797775 0.07361240684986115 0.019167231395840645 0.11733227968215942 0.17756153643131256 -0.02266353741288185 -0.0482446625828743 0.02510751597583294 0.03759937733411789 -0.030948737636208534 -0.004825635813176632 -0.046255096793174744 0.09885436296463013 0.11792853474617004 0.09248476475477219 0.014809951186180115 0.11483797430992126 -0.049721647053956985 0.06206149235367775 0.14979927241802216 -0.018149180337786674 0.01733960583806038 -0.11560817062854767 0.08257928490638733 0.0043139373883605 0.07423311471939087 0.20153144001960754 -0.1108093187212944 -0.0820222869515419 0.036998458206653595 -0.04149065911769867 -0.02803550660610199 0.048588238656520844 0.023274345323443413 0.03071008063852787 -0.08148831874132156 -0.05625608563423157 0.04228170961141586 -0.06289484351873398 -0.07642969489097595 -0.17099343240261078 0.15860168635845184 0.15193191170692444 0.21850016713142395 -0.05506972596049309 0.09703503549098969 -0.029254848137497902 0.07648970931768417 0.04891860857605934 0.0036702915094792843 0.024699801579117775 0.13113239407539368 0.09851910173892975 0.06750365346670151 0.06009720265865326 0.03060411848127842 -0.14679060876369476 0.018423229455947876 0.03293083608150482 0.04269000515341759 0.007879571989178658 0.04438177868723869 -0.0581679567694664 -0.001329499646089971 -0.14917224645614624 -0.12298349291086197 -0.00785939022898674 0.08941134810447693 0.0504271574318409 -0.0969531238079071 -0.09831313788890839 0.1594320684671402 -0.3177329897880554 0.009669536724686623 -0.1629771739244461 -0.1833319067955017 0.10741227865219116 -0.10465852916240692 0.021598365157842636 0.03869388997554779 -0.06532692909240723 -0.09159909188747406 0.0355166457593441 0.020358189940452576
2 -0.1435762345790863 0.04058855026960373 0.12009120732545853 0.03417791426181793 -0.036355990916490555 0.0909184068441391 -0.04130897298455238 0.054782263934612274 -0.07793409377336502 0.11949234455823898 0.011745999567210674 -0.028265172615647316 -0.11630241572856903 0.24007335305213928 -0.09417763352394104 0.0021120458841323853 0.0014139660634100437 -0.15950340032577515 0.16966867446899414 0.06977427750825882 0.016204919666051865 0.0952484980225563 0.006401190534234047 -0.028717171400785446 0.01606554538011551 0.07279997318983078 -0.15425558388233185 0.0379394106566906 -0.007143779657781124 -0.09662196785211563 -0.01840391382575035 -0.04431631416082382 0.17736510932445526 0.2047020047903061 -0.1700141727924347 0.0886821374297142 0.005771583877503872 -0.022381220012903214 -0.07173589617013931 -0.05159275233745575 -0.04086347296833992 0.16156905889511108 -0.0877017006278038 -0.010434428229928017 -0.07990723848342896 0.158136785030365 -0.08926188945770264 0.12312524020671844 0.014441186562180519 -0.06265337020158768 0.009535220451653004 0.057199958711862564 -0.12533102929592133 0.017940135672688484 -0.1065841093659401 0.10574563592672348 -0.01461671944707632 0.07053925096988678 0.004637458361685276 0.0988563671708107 0.10062547028064728 0.17701347172260284 -0.03251076862215996 0.08771505951881409 -0.11576839536428452 -0.057585474103689194 0.03436005115509033 -0.215774267911911 0.11519163846969604 -0.15386389195919037 0.13452298939228058 0.037805795669555664 -0.1472453624010086 0.02172107622027397 -0.04614359512925148 -0.049340978264808655 -0.09778568893671036 0.07477107644081116 -0.0004464829107746482 0.01195540837943554 -0.08900430053472519 -0.10372349619865417 -0.003659243695437908 -0.08391920477151871 -0.09126604348421097 -0.030415905639529228 -0.05898107588291168 -0.010219988413155079 0.11837227642536163 0.16511528193950653 -0.07360856980085373 -0.09732826799154282 -0.19709308445453644 -0.0365583710372448 -0.056447941809892654 -0.1879526823759079 -0.11974147707223892 -0.1432866007089615 0.055558737367391586 0.05963633954524994 -0.06627688556909561 -0.047721073031425476 -0.06147478520870209 -0.11164391040802002 0.08360914885997772 0.1142609566450119 -0.01966949738562107 -0.08830570429563522 0.016231141984462738 -0.16146138310432434 -0.08272324502468109 0.16550517082214355 -0.14583377540111542 -0.025061704218387604 -0.0548691488802433 0.18700526654720306 -0.1132027730345726 -0.08467976748943329 -0.014817633666098118 -0.0767403393983841 0.10056985914707184 -0.013861579820513725 0.13369567692279816 0.14478519558906555 -0.0067760879173874855 -0.11783996969461441 0.08554982393980026 0.046846359968185425
3 -0.11872164160013199 0.167979896068573 0.11048994958400726 0.16677939891815186 0.01565077155828476 0.17793123424053192 0.007099546026438475 0.17471173405647278 -0.17769522964954376 0.12909570336341858 -0.054497130215168 0.06412237882614136 -0.02687816321849823 0.03571861982345581 0.06420736759901047 -0.06021653115749359 0.22053153812885284 0.08268176019191742 0.21108205616474152 -0.010946927592158318 0.018282055854797363 0.0463997907936573 -0.13264761865139008 -0.005367112811654806 -0.0773574560880661 0.12175813317298889 0.0970865935087204 -0.11800718307495117 0.0603296235203743 -0.11685974150896072 0.1381550133228302 -0.10833658277988434 0.06682632863521576 0.21347196400165558 -0.23561353981494904 -0.011165539734065533 0.021143708378076553 0.03008575737476349 0.1291963756084442 0.10853438824415207 -0.02176453173160553 0.11043228209018707 -0.10486415773630142 0.04263469576835632 -0.10539940744638443 0.06875715404748917 -0.17121602594852448 0.10812216252088547 0.17174996435642242 -0.1265166699886322 -0.13749635219573975 0.10908570140600204 0.010040340945124626 -0.019124243408441544 -0.05306003615260124 -0.008881445042788982 0.12256542593240738 0.11356616765260696 -0.08234749734401703 0.1651940792798996 0.01997976377606392 -0.011384177021682262 -0.010235130786895752 0.10689748823642731 -0.06835074722766876 -0.11716553568840027 -0.04736482352018356 -0.04852019622921944 0.20956724882125854 -0.1488155871629715 0.06134277582168579 0.11340246349573135 0.06036047637462616 0.03314553201198578 -0.11361304670572281 -0.03124413639307022 -0.052879489958286285 0.04294586554169655 0.028930148109793663 -0.04953305423259735 -0.041411153972148895 0.05362933874130249 0.05544286221265793 0.06105436384677887 -0.20975448191165924 0.17148661613464355 -0.021892720833420753 -0.014612093567848206 -0.05859329178929329 0.0940810814499855 0.07828201353549957 0.14249859750270844 -0.07949011027812958 0.16044126451015472 0.03182251751422882 -0.07353568822145462 -0.15792937576770782 -0.04811573401093483 0.08173200488090515 -0.060569703578948975 -0.006561462767422199 -0.06780436635017395 -0.09759626537561417 0.027876324951648712 -0.05872660130262375 -0.01575828157365322 0.0751233845949173 0.03395523503422737 0.011132105253636837 -0.14360164105892181 -0.008231519721448421 0.15250641107559204 0.0037978850305080414 -0.03982097655534744 -0.18522529304027557 0.12266969680786133 -0.1967509239912033 -0.07224038243293762 -0.03617817163467407 -0.07633962482213974 0.11645405739545822 -0.06986840814352036 0.10778960585594177 0.1730576455593109 -0.12417272478342056 -0.02530425600707531 0.06650977581739426 0.04090866446495056
4 -0.01044686883687973 0.11648408323526382 -0.10321766883134842 0.0612097904086113 -0.029792524874210358 0.022582000121474266 0.016507772728800774 0.12854379415512085 -0.046510130167007446 0.10798493772745132 0.09641613066196442 -0.05062955617904663 -0.1633881777524948 0.002975204261019826 -0.1528043895959854 -0.1454860270023346 0.005803265608847141 0.019237250089645386 -0.023560108616948128 -0.001188364578410983 -0.03982768952846527 -0.022418247535824776 -0.16208554804325104 0.03574883192777634 -0.10399835556745529 0.09428630769252777 -0.053119026124477386 -0.031572312116622925 -0.07701514661312103 -0.07722286880016327 0.09168624877929688 -0.0050340089946985245 0.08239493519067764 0.023614229634404182 -0.003801343496888876 -0.018941732123494148 0.04944177344441414 0.04564359039068222 0.11891597509384155 0.2629636526107788 -0.036884505301713943 -0.024266626685857773 0.02126144804060459 0.038514528423547745 -0.27726247906684875 -0.0574185773730278 -0.19438254833221436 0.17008076608181 -0.016045449301600456 -0.06624050438404083 0.038567472249269485 0.11441824585199356 -0.08884286880493164 -0.017666898667812347 -0.02082366682589054 0.10530988872051239 -0.017246367409825325 -0.0687641054391861 0.09403432160615921 0.0815107524394989 0.12779638171195984 0.1073213443160057 0.05850760266184807 0.0090452516451478 -0.0002682316116988659 -0.058749955147504807 -0.02014676108956337 -0.10082878172397614 0.01792832277715206 -0.027588412165641785 0.09127804636955261 0.10382874310016632 -0.1362435221672058 0.010312395170331001 0.00809277594089508 0.11636585742235184 -0.05383617430925369 0.14855343103408813 0.05877320095896721 -0.0037413155660033226 -0.004468275234103203 0.05444968119263649 -0.010588538832962513 -0.04559957608580589 -0.045635007321834564 0.13067850470542908 -0.10178080201148987 0.13015612959861755 0.04032221809029579 0.0388314388692379 0.05309499055147171 0.06894958019256592 -0.08623241633176804 -0.01483889576047659 -0.12852594256401062 0.13626287877559662 -0.06749767065048218 0.015226785093545914 -0.030793998390436172 -0.03257829695940018 -0.013201698660850525 -0.08214642107486725 -0.03254466503858566 -0.05668964236974716 0.024203401058912277 0.037095725536346436 0.05041570961475372 0.015268189832568169 -0.0004442704957909882 -0.04410813748836517 0.061200231313705444 0.10370563715696335 -0.23637700080871582 -0.12996220588684082 -0.02688491716980934 0.1760469228029251 -0.28857624530792236 -0.20411793887615204 -0.05302440747618675 -0.17529062926769257 0.1618259996175766 -0.0815313309431076 -0.032632797956466675 0.09854794293642044 -0.18727262318134308 -0.10909879207611084 -0.018586957827210426 0.03613227605819702
5 0.01890712045133114 0.08296037465333939 0.08805515617132187 0.06555354595184326 0.12887723743915558 0.15055175125598907 -0.15122288465499878 0.016423258930444717 -0.09098189324140549 0.15031208097934723 0.055873382836580276 0.06379890441894531 0.06654416024684906 -0.029428649693727493 -0.07273577898740768 -0.009471563622355461 -0.07388807833194733 0.09500841796398163 0.05435619130730629 -0.10481349378824234 0.1434442102909088 0.11823444813489914 0.038066565990448 0.0697319433093071 -0.16515471041202545 -0.0019295350648462772 -0.131708025932312 -0.025031495839357376 -0.03936174139380455 -0.2866690456867218 -0.12772086262702942 -0.138966903090477 0.007719079032540321 0.22408314049243927 -0.09429758042097092 0.07027674466371536 0.0006053952965885401 0.044701412320137024 0.11964894831180573 0.08714563399553299 -0.14111129939556122 0.18923752009868622 -0.1000625491142273 -0.11277896165847778 -0.26275402307510376 0.27619439363479614 -0.11911288648843765 -0.012234299443662167 0.1716419905424118 0.0701071247458458 0.03515055030584335 0.10296125710010529 0.08215926587581635 0.2293449491262436 0.11730704456567764 -0.06004507839679718 0.06818464398384094 0.07915934175252914 -0.10429298877716064 0.12580753862857819 0.26513147354125977 -0.00027846405282616615 -0.17595872282981873 0.012417963705956936 0.05755593255162239 0.030165638774633408 0.1125466600060463 -0.04698585718870163 0.12075988948345184 -0.04357615485787392 0.0906360000371933 0.048677653074264526 0.07654736191034317 0.012959765270352364 -0.12897822260856628 -0.052094027400016785 -0.0964631736278534 -0.04686775431036949 0.024155156686902046 -0.07337184995412827 -0.04769549146294594 -0.04567335173487663 -0.02638741210103035 -0.04265080392360687 -0.189449280500412 -0.013118922710418701 -0.10186218470335007 0.057663872838020325 0.008786045014858246 0.12083038687705994 0.18070310354232788 0.0395989716053009 0.14044316112995148 0.04664836823940277 0.05425013601779938 -0.05220988020300865 -0.06825943291187286 0.10110685229301453 0.09769326448440552 -0.03412656486034393 -0.09389782696962357 -0.17410986125469208 -0.019697610288858414 -0.1943824291229248 -0.16384737193584442 -0.018668755888938904 -0.0026500928215682507 0.09643462300300598 -0.09216608852148056 0.024832431226968765 -0.006911095231771469 0.18933896720409393 -0.017113979905843735 -0.062430936843156815 0.06918296962976456 0.12333681434392929 -0.22858799993991852 -0.013103039935231209 -0.042675115168094635 -0.1152893677353859 0.1075412705540657 0.12485284358263016 0.043049897998571396 0.1393834501504898 -0.07673616707324982 -0.015126587823033333 -0.06537145376205444 -0.026533260941505432
6 -0.0007634187350049615 0.036162119358778 0.07995400577783585 0.02959037572145462 0.06469206511974335 -0.03648979961872101 -0.1816682368516922 0.19646979868412018 -0.24134019017219543 0.09027306735515594 0.014060653746128082 -0.051384925842285156 -0.1712190806865692 -0.022671423852443695 -0.16959762573242188 -0.2082996368408203 0.010805345140397549 -0.2413555085659027 0.06314286589622498 -0.04924074560403824 -0.05487444996833801 -0.015743497759103775 -0.0791628286242485 -0.034069329500198364 -0.11587774753570557 0.10464073717594147 0.04315700754523277 -0.002943339291960001 0.06726185977458954 0.017596188932657242 0.04665125906467438 0.14587175846099854 0.10398983210325241 0.07692708820104599 -0.11353848874568939 -0.06322367489337921 0.10203757882118225 -0.08446430414915085 0.2987528443336487 0.126656636595726 0.0016586368437856436 0.04326077923178673 -0.07961472868919373 -0.046894755214452744 -0.0022292835637927055 0.1386149525642395 0.0508350245654583 0.15411902964115143 0.10863351076841354 -0.006186807062476873 -0.026661481708288193 0.19654330611228943 0.046414319425821304 0.03041147068142891 -0.2006242871284485 0.0013366732746362686 0.037183113396167755 0.09870432317256927 0.048494018614292145 0.03621932864189148 0.11854731291532516 -0.04663386940956116 0.1426568478345871 -0.014949558302760124 -0.15021489560604095 -0.05321685969829559 0.013470375910401344 0.02819262444972992 0.04953916370868683 -0.22053003311157227 0.059382740408182144 0.04265410825610161 -0.0040736268274486065 -0.06629769504070282 -0.04465989023447037 -0.17299692332744598 -0.028564399108290672 0.12188982963562012 0.0381174311041832 -0.06627703458070755 0.06381474435329437 0.016713637858629227 -0.0030009765177965164 0.121277816593647 -0.2010519653558731 0.058514904230833054 0.10341334342956543 0.047666314989328384 -0.06294732540845871 0.02899298444390297 0.02446817047894001 0.04493549093604088 -0.08814874291419983 0.17826791107654572 -0.11921383440494537 -0.019702056422829628 -0.05037514492869377 0.19077205657958984 0.0103760976344347 -0.023727934807538986 0.09961207956075668 0.051742199808359146 -0.12199383974075317 0.1722715198993683 0.25004643201828003 0.05502775311470032 0.05012883245944977 -0.11270051449537277 -0.13563041388988495 0.023086462169885635 -0.08503319323062897 0.06444524228572845 -0.08312162756919861 0.0493081770837307 -0.08031846582889557 0.24698449671268463 -0.18408991396427155 -0.1322956681251526 -0.1313808262348175 -0.24521131813526154 0.08071273565292358 0.031071532517671585 -0.0790415033698082 0.130440354347229 -0.10369990020990372 -0.1039823666214943 0.16202089190483093 0.02495972253382206
7 -0.1318918764591217 0.19862550497055054 0.03829946741461754 0.1621444672346115 0.02732568420469761 0.02515663020312786 -0.07572753727436066 0.084664486348629 -0.09311030805110931 0.01790831983089447 0.0020301607437431812 0.007371352519840002 -0.0635547861456871 -0.046826135367155075 -0.10757961869239807 -0.1328970044851303 0.17254027724266052 -0.00014677061699330807 0.1108790785074234 0.04643350467085838 0.09992026537656784 0.002381504513323307 -0.15319351851940155 0.1250845491886139 -0.08179918676614761 0.13934321701526642 0.09626501798629761 -0.21232880651950836 0.08257261663675308 -0.05327353999018669 0.02504831738770008 -0.19529487192630768 -0.023110033944249153 0.06423884630203247 0.02012166567146778 -0.03200090676546097 0.05854620784521103 -0.09156786650419235 0.053316179662942886 0.14242449402809143 0.10683172941207886 0.0008407079731114209 -0.19062869250774384 0.13975410163402557 0.05870261415839195 -0.0017885700799524784 -0.11312337219715118 0.23150946199893951 0.030584584921598434 -0.11223684251308441 -0.14679357409477234 0.2071438878774643 0.028186282142996788 0.01368650421500206 0.0717681273818016 0.010117866098880768 -0.030533041805028915 -0.22216279804706573 0.07377989590167999 0.10501991957426071 0.18414388597011566 -0.060091275721788406 0.014164213091135025 0.005435930099338293 -0.02283802255988121 -0.07713429629802704 0.06751994788646698 -0.05349273979663849 0.0842929258942604 -0.10682980716228485 0.04049025475978851 0.0298931822180748 -0.07024526596069336 0.057982608675956726 -0.04861065372824669 0.06724846363067627 -0.15914875268936157 0.10978773981332779 0.02053341642022133 0.07619405537843704 -0.04147316515445709 0.03822193294763565 0.15846167504787445 0.02701510116457939 -0.05200928449630737 -0.05124980956315994 -0.07017368823289871 0.07912889868021011 -0.04059497267007828 0.07491015642881393 0.03218108415603638 0.13485874235630035 -0.16626685857772827 0.07825183868408203 -0.044799137860536575 -0.0784345269203186 0.01486310176551342 0.018586596474051476 0.1486315131187439 -0.10543794184923172 0.02103291265666485 -0.13201671838760376 0.0007840855978429317 0.003598464885726571 -0.03721730783581734 -0.07931257039308548 -0.005711352452635765 0.0689316913485527 -0.03273200988769531 -0.10396241396665573 0.03985923156142235 0.08569372445344925 -0.16478116810321808 0.027419142425060272 -0.054148364812135696 0.109986312687397 -0.2659842371940613 -0.023202452808618546 -0.15414762496948242 -0.06994252651929855 0.22222305834293365 -0.10843634605407715 -0.011617145501077175 0.0988081619143486 -0.10151165723800659 0.02293885312974453 0.10669609904289246 -0.06547592580318451
8 0.014807053841650486 -0.03220585361123085 -0.011138134635984898 0.08929423242807388 0.008155851624906063 0.042975325137376785 -0.0037670794408768415 0.09220102429389954 -0.03497515991330147 -0.023499658331274986 -0.12969452142715454 -0.07994779944419861 -0.26409226655960083 0.12011346220970154 -0.1255623698234558 -0.017247959971427917 0.05861877277493477 0.0022060112096369267 0.11088187247514725 0.11514264345169067 -0.0007250482449308038 -0.3100338876247406 0.03414905071258545 0.08246765285730362 -0.010139674879610538 0.15665562450885773 -0.00129610113799572 -0.01718921959400177 0.0894804447889328 -0.1498064547777176 0.07191137224435806 0.061048947274684906 0.2167985439300537 0.18153275549411774 0.15783579647541046 -0.016125664114952087 -0.14770165085792542 -0.05819200724363327 0.12540483474731445 0.11120029538869858 0.07499764859676361 -0.13054871559143066 0.01498684287071228 -0.07686353474855423 -0.20448952913284302 -0.031369004398584366 0.08188878744840622 0.1414763480424881 0.07353149354457855 0.033126067370176315 0.09309738874435425 0.14184297621250153 -0.23917168378829956 0.03397131711244583 -0.061133772134780884 0.17521105706691742 0.0015794625505805016 0.21829354763031006 -0.07220524549484253 0.08415472507476807 -0.05717698112130165 -0.12388323247432709 0.030753500759601593 0.17295227944850922 -0.1959713250398636 0.07291285693645477 0.004282897338271141 -0.06885752826929092 -0.002537371590733528 0.08985428512096405 0.12471067905426025 0.12650173902511597 -0.16599351167678833 0.025720449164509773 -0.04015808552503586 0.1443219780921936 -0.13396739959716797 0.14194081723690033 -0.057654332369565964 -0.02202906645834446 -0.057487208396196365 0.11124555766582489 0.007111343089491129 -0.21648596227169037 -0.10622522979974747 -0.1504347026348114 0.024422721937298775 -0.033983804285526276 0.09014102816581726 0.0019563823007047176 0.0038798998575657606 0.19965101778507233 0.0706731304526329 0.0749150887131691 -0.021979454904794693 0.11785231530666351 0.03606382757425308 0.04384445771574974 0.13078397512435913 0.05774203687906265 -0.045800093561410904 -0.12902233004570007 0.04012434557080269 -0.06007225066423416 0.014822322875261307 -0.07666107267141342 0.006250281818211079 0.041948605328798294 -0.299895703792572 0.036278385668992996 0.03594151511788368 0.09790417551994324 -0.12369870394468307 -0.01438596099615097 -0.0827467292547226 0.05306049436330795 -0.3215638995170593 0.14749808609485626 -0.0018312905449420214 -0.21919193863868713 0.049667149782180786 0.0734625831246376 -0.07963220775127411 -0.10039867460727692 -0.15323865413665771 -0.08094638586044312 0.06693600118160248 -0.07627968490123749
9 -0.12642964720726013 0.0653667002916336 -0.08594191819429398 0.06876765936613083 0.04036789387464523 0.19168026745319366 0.14198967814445496 0.0006675645709037781 0.03262520581483841 0.17324700951576233 -0.115241140127182 0.16813741624355316 0.006316435057669878 -0.12692686915397644 0.13220886886119843 -0.19985008239746094 -0.06293827295303345 0.030861839652061462 0.14281584322452545 -0.07933201640844345 0.14253635704517365 -0.1643979400396347 -0.054990727454423904 0.15204931795597076 -0.019639361649751663 0.11865819990634918 -0.023157279938459396 -0.16295930743217468 -0.0035949391312897205 0.037913352251052856 -0.003205467713996768 0.02034088969230652 0.007291802205145359 0.13078047335147858 -0.15895956754684448 -0.058666180819272995 0.1727631688117981 -0.005405157804489136 0.05357014760375023 -0.046448953449726105 -0.12082244455814362 -0.2273189127445221 -0.09047585725784302 -0.13510312139987946 -0.18110622465610504 0.06727837026119232 -0.010799151845276356 0.058304235339164734 0.028147194534540176 0.03534114360809326 0.015965623781085014 -0.015300051309168339 -0.031778451055288315 -0.07609440386295319 0.09448881447315216 0.10682439059019089 0.14824922382831573 -0.06923946738243103 -0.07881983369588852 0.019481871277093887 0.0678231492638588 -0.16293613612651825 0.04096889868378639 0.15380646288394928 0.10593932867050171 0.031378015875816345 -0.1798359602689743 0.01606876775622368 0.14604493975639343 -0.1862245798110962 0.1698412299156189 -0.14280074834823608 -0.11661574244499207 -0.05957210808992386 -0.10335273295640945 -0.025586431846022606 -0.1835290938615799 -0.1392054557800293 -0.085725799202919 -0.07319194823503494 0.08074445277452469 0.03609922155737877 0.14559157192707062 0.05949359014630318 -0.05933087319135666 0.1204981803894043 -0.15828898549079895 0.05521022900938988 0.043157100677490234 0.21532699465751648 0.11992311477661133 -0.032830141484737396 -0.0019592316821217537 0.020756715908646584 -0.025872156023979187 0.022394739091396332 0.023420732468366623 0.10261671245098114 0.10763553529977798 0.005986119620501995 -0.11363232135772705 0.12333329021930695 0.15164875984191895 0.08918488770723343 -0.07174025475978851 0.04336833581328392 0.31197264790534973 0.07275094836950302 -0.07237132638692856 -0.00104687106795609 -0.040078748017549515 -0.13710340857505798 -0.01179702952504158 -0.07493516057729721 -0.06372085213661194 0.17243130505084991 -0.21183297038078308 0.027252430096268654 0.19945663213729858 -0.23758350312709808 -0.05556891858577728 -0.07491603493690491 0.019575411453843117 -0.0032639242708683014 -0.1905498057603836 -0.1808432936668396 -0.00916244275867939 0.024798085913062096
10 -0.17857936024665833 0.059052903205156326 0.16883617639541626 -0.18911176919937134 0.11750867962837219 0.2306584119796753 0.03967372328042984 -0.010084062814712524 -0.10607922077178955 0.44599664211273193 -0.06880838423967361 0.09382936358451843 -0.2527790665626526 -0.0668259710073471 -0.20990008115768433 -0.36521172523498535 0.11430658400058746 -0.15110352635383606 0.2560197710990906 -0.22558055818080902 -0.08417641371488571 -0.17087316513061523 0.22654113173484802 0.0612674206495285 -0.03707435354590416 0.063222736120224 0.09885252267122269 -0.16565750539302826 0.007941529154777527 -0.18875820934772491 0.23823177814483643 -0.17060700058937073 0.12088921666145325 0.1467341035604477 -0.08112949132919312 -0.045355573296546936 0.047125086188316345 -0.1483309268951416 0.22664502263069153 -0.02364598773419857 -0.03773453086614609 -0.0004528462886810303 0.10824914276599884 0.06081205606460571 -0.1476384550333023 0.10196329653263092 0.07148502767086029 0.1678766906261444 -0.03072506934404373 -0.01209200918674469 -0.212134450674057 0.13220876455307007 -0.0595480352640152 0.17263470590114594 -0.10087008029222488 0.11342023313045502 -0.08631344884634018 0.09440687298774719 0.19832207262516022 0.051353901624679565 0.05941540375351906 0.06843511015176773 0.03482586145401001 0.10123759508132935 -0.054095227271318436 -0.05323319509625435 0.10510516911745071 0.05541331321001053 0.05717353895306587 0.0995781272649765 0.10512202978134155 0.04956760257482529 -0.2269423007965088 -0.019740521907806396 -0.23486903309822083 -0.2180558741092682 -0.06914281845092773 0.09053067862987518 0.04660859704017639 0.04678705707192421 0.13262546062469482 -0.029496528208255768 0.1126534640789032 0.02951272949576378 -0.1346776783466339 3.8526952266693115e-05 -0.17380985617637634 0.15416669845581055 0.14953984320163727 0.12120029330253601 0.28789639472961426 0.0015505291521549225 0.10931470990180969 -0.0166952982544899 -0.1928604245185852 0.06689287722110748 0.10653471946716309 0.12956351041793823 -0.02345167100429535 -0.013304883614182472 -0.018284494057297707 -0.023663965985178947 0.21812140941619873 -0.060519758611917496 -0.13040249049663544 0.09806280583143234 -0.015205590054392815 -0.18471753597259521 -0.18714070320129395 0.02019372023642063 0.29406481981277466 -0.15009436011314392 -0.132048100233078 0.1714329868555069 -0.05298498272895813 0.17296575009822845 -0.30644041299819946 -0.08963121473789215 -0.08274659514427185 -0.1739291548728943 0.11341304332017899 -0.266117662191391 0.20476962625980377 0.3170161247253418 -0.2794342041015625 -0.017379380762577057 0.0716463103890419 -0.07738587260246277
11 -0.07887332141399384 0.24478915333747864 0.07404964417219162 0.2124035656452179 0.12229324877262115 0.26866888999938965 -0.07524390518665314 0.0544511154294014 0.055464375764131546 0.21596434712409973 -0.03776875138282776 0.09464126825332642 -0.35965678095817566 -0.022847183048725128 -0.2153007537126541 -0.21145319938659668 -0.045439213514328 -0.1788245290517807 0.07775729894638062 -0.04936852306127548 -0.07546314597129822 -0.26644545793533325 0.022695884108543396 0.003201693296432495 0.0031315386295318604 -0.011223137378692627 -0.034637391567230225 -0.038300223648548126 -0.21399565041065216 -0.15131494402885437 0.015587300062179565 -0.07186231017112732 0.3054580092430115 0.36153215169906616 -0.26701802015304565 0.12556438148021698 0.08442080765962601 -0.0595940425992012 0.40451064705848694 -0.2198573499917984 0.02587638795375824 0.05005606263875961 -0.13270257413387299 -0.21655800938606262 -0.10367536544799805 0.47778236865997314 -0.07947292178869247 0.07281345874071121 -0.03794035688042641 0.12311828881502151 -0.09641290456056595 0.03836512938141823 -0.10879464447498322 -0.11654294282197952 0.0016085971146821976 -0.07379025220870972 0.3403628468513489 0.10825667530298233 0.13345550000667572 0.13680517673492432 0.29311424493789673 0.18628601729869843 0.03445887565612793 0.18003444373607635 -0.10523590445518494 -0.22966870665550232 -0.0805693119764328 -0.16434963047504425 0.05004608631134033 -0.08948580920696259 0.17021091282367706 0.011989535763859749 -0.19609010219573975 -0.1461295336484909 -0.06934462487697601 -0.19498154520988464 0.02229992300271988 -0.18841566145420074 0.10861630737781525 0.15379098057746887 -0.22041481733322144 -0.0839252918958664 0.031163327395915985 -0.012918636202812195 -0.014228254556655884 0.10983230173587799 0.05988145247101784 0.11500685662031174 0.029026947915554047 0.10505494475364685 0.02719060331583023 0.16831567883491516 -0.018900945782661438 0.21554754674434662 0.034854453057050705 0.04829417169094086 0.08293040096759796 0.07514171302318573 0.0709739550948143 0.11224750429391861 0.09562427550554276 -0.11870423704385757 -0.014300409704446793 -0.16857106983661652 -0.02918267995119095 0.08064612746238708 0.12539204955101013 -0.05379403755068779 -0.1970481425523758 0.0063208527863025665 -0.11422745883464813 0.1549825817346573 -0.28743886947631836 0.1423560231924057 0.07219445705413818 0.5020359754562378 -0.2000313699245453 -0.09119148552417755 -0.05075215548276901 -0.18134112656116486 -0.010811321437358856 0.021645357832312584 0.16531015932559967 0.2447306513786316 -0.0871409997344017 0.12801744043827057 0.19297192990779877 -0.12294969707727432
12 0.07083339989185333 0.1421104222536087 0.14777515828609467 0.06825204938650131 0.2415924072265625 0.02369319647550583 0.061483532190322876 0.2289915382862091 -0.12310118228197098 0.029910743236541748 -0.23763644695281982 -0.16609951853752136 -0.14789602160453796 0.1800670325756073 -0.20505593717098236 -0.0939762070775032 -0.07015469670295715 -0.24066811800003052 0.1204567551612854 0.16780507564544678 0.16346782445907593 -0.04230296611785889 0.030629688873887062 0.00806424394249916 -0.012074794620275497 0.29622334241867065 -0.07724785804748535 -0.09002473205327988 0.08842229843139648 -0.10635621845722198 -0.19852149486541748 -0.061643727123737335 0.24038147926330566 0.1281214952468872 -0.15661831200122833 -0.01735369861125946 -0.08059737831354141 -0.1780419498682022 0.061900392174720764 -0.24484580755233765 -0.23208045959472656 0.1432708352804184 -0.13998004794120789 -0.011359356343746185 0.0015367642045021057 0.09731974452733994 -0.04301424324512482 0.17211945354938507 0.12458561360836029 -0.19081927835941315 -0.1390339434146881 0.03761284053325653 -0.2647135853767395 -0.02087019383907318 -0.12164951860904694 0.013454332947731018 -0.18634280562400818 0.0166642889380455 0.06475204229354858 0.27076178789138794 0.2168518602848053 -0.007757887244224548 -0.07870973646640778 0.06900807470083237 -0.10327482968568802 -0.13694056868553162 0.11301064491271973 0.041399143636226654 -0.05040383338928223 -0.11831579357385635 0.23749908804893494 -0.09551767259836197 -0.058051757514476776 -0.10464507341384888 -0.13384202122688293 0.08033384382724762 -0.5001553893089294 0.2117062211036682 0.13285493850708008 0.047019943594932556 -0.1703561395406723 0.019540205597877502 -0.013734683394432068 -0.0123249851167202 -0.2104090005159378 -0.19115886092185974 0.1206841990351677 0.22431637346744537 0.2643512487411499 0.22732101380825043 -0.09994814544916153 -0.0675189346075058 -0.14193619787693024 0.06466852128505707 -0.027778390794992447 -0.12645235657691956 0.04898863285779953 0.16441328823566437 0.2365078330039978 -0.14430274069309235 -0.004281282424926758 0.08394493162631989 0.040323417633771896 -0.06613140553236008 -0.15366913378238678 0.17967256903648376 -0.1717222034931183 -0.16004349291324615 -0.1702679842710495 -0.15307697653770447 0.040678855031728745 0.11960409581661224 -0.04625377058982849 0.17488636076450348 -0.0350349023938179 0.2705579400062561 -0.3589699864387512 0.04648341238498688 -0.16407084465026855 -0.14931447803974152 0.09722128510475159 -0.046707749366760254 0.008896462619304657 0.1535181999206543 -0.058182068169116974 0.03192737698554993 0.15700063109397888 0.0636071115732193
13 -0.14622068405151367 0.14972832798957825 0.1835794746875763 0.1205548495054245 -0.005450502038002014 0.10373087227344513 0.027918308973312378 0.11153878271579742 0.0002775229513645172 0.03527795523405075 0.04879390448331833 -0.013349942862987518 -0.14603614807128906 0.09929228574037552 -0.08971713483333588 -0.11509931087493896 0.0532892644405365 0.005796605721116066 0.17554065585136414 0.03707891330122948 0.21055632829666138 0.07440212368965149 0.13878130912780762 -0.010713944211602211 -0.09460233151912689 0.03728000074625015 0.05145448446273804 -0.21275022625923157 -0.11506574600934982 -0.30504530668258667 0.08320299535989761 -0.17242956161499023 0.14425720274448395 0.2802150845527649 -0.0785847008228302 0.007027564570307732 0.015204623341560364 0.0980691909790039 -0.006877269130200148 0.06519077718257904 0.0856127142906189 -0.059518419206142426 -0.33543267846107483 -0.028853388503193855 -0.2989714741706848 -0.050937019288539886 -0.17535889148712158 0.1779591143131256 0.04998127743601799 -0.08440107852220535 -0.13095249235630035 0.14782275259494781 -0.08188048750162125 0.3205512762069702 0.09935140609741211 0.05188708007335663 0.06462663412094116 0.03025258332490921 0.08191083371639252 0.10171456634998322 0.2995706796646118 -0.05266503617167473 -0.09280595928430557 0.1539033204317093 0.014792129397392273 -0.21403661370277405 0.04618438333272934 -0.21985812485218048 0.039266038686037064 0.1270388960838318 0.2066280096769333 -0.06252775341272354 -0.0593993216753006 0.22781498730182648 0.0778612270951271 -0.16279491782188416 -0.12077980488538742 0.15422740578651428 0.061470139771699905 0.08659628033638 0.03968137875199318 0.07886846363544464 0.009580407291650772 -0.10933369398117065 -0.33755967020988464 0.013527348637580872 0.06655004620552063 0.09930115938186646 0.03806758671998978 -0.05725232511758804 0.22412779927253723 0.06494196504354477 -0.13116076588630676 0.08172707259654999 -0.1697528213262558 -0.03114304691553116 -0.2065814882516861 -0.0523202046751976 0.27466386556625366 0.14321289956569672 0.09676742553710938 -0.09389597177505493 0.09222780913114548 -0.0006849095225334167 0.2960548400878906 0.06411817669868469 -0.18689659237861633 -0.04775748401880264 0.0020584911108016968 -0.22556760907173157 0.013957594521343708 0.2500840723514557 -0.00016127526760101318 -0.30597734451293945 0.10487023741006851 0.10209938883781433 -0.23909451067447662 -0.04209652543067932 -0.255327045917511 -0.41646379232406616 0.2511293888092041 -0.01047852635383606 0.20811627805233002 0.1471497267484665 -0.10854703933000565 -0.12727533280849457 0.049276940524578094 0.021951626986265182
14 -0.11630421876907349 0.1150888055562973 0.1472381204366684 0.17675922811031342 0.15690863132476807 0.09994085133075714 0.1231665313243866 0.14209556579589844 -0.13137036561965942 -0.14658865332603455 0.021007966250181198 0.0011176550760865211 -0.12364603579044342 0.2733800411224365 0.15917865931987762 -0.06911397725343704 0.06118025630712509 -0.07105807960033417 0.04230765253305435 0.06964507699012756 0.03311386704444885 -0.07842910289764404 -0.3349173963069916 0.0802350789308548 -0.1588452011346817 0.24366383254528046 0.015018492937088013 -0.0052351802587509155 -0.14314207434654236 -0.06129682436585426 0.01437118649482727 -0.15892988443374634 0.13554465770721436 0.3027728796005249 -0.12956605851650238 0.09407629072666168 -0.08130788803100586 0.06355121731758118 0.19474661350250244 0.02432646043598652 -0.06243160367012024 0.07827261090278625 -0.07533858716487885 0.06401796638965607 -0.3069342076778412 0.17100906372070312 -0.2646203339099884 0.15990203619003296 0.2649325132369995 0.007663644850254059 -0.06834389269351959 -0.06733021140098572 -0.23223191499710083 -0.10242260992527008 -0.0365646593272686 0.10120507329702377 0.10899221152067184 0.00016674399375915527 0.12668734788894653 0.21095630526542664 0.09858588874340057 -0.04852933809161186 0.01717991940677166 0.09143338352441788 -0.06804552674293518 -0.032572437077760696 -0.1829969584941864 -0.031148530542850494 0.10088285058736801 0.03413604199886322 0.13354942202568054 -0.0004895180463790894 -0.04657426103949547 -0.15486076474189758 0.00918935239315033 0.17131155729293823 -0.23247574269771576 0.14347350597381592 0.19034162163734436 0.061875782907009125 -0.2522013187408447 -0.04924848675727844 0.14281202852725983 0.05275572091341019 -0.2272348701953888 0.1250794678926468 0.0005806908011436462 -0.061760012060403824 0.03923515975475311 0.05516599118709564 0.031486086547374725 0.09991094470024109 -0.2263566255569458 0.1405385434627533 0.029477037489414215 0.06136027351021767 0.0648743063211441 -0.1819947361946106 0.10745634883642197 -0.028086256235837936 0.00629115104675293 -0.06887422502040863 -0.04324429854750633 -0.195664182305336 -0.05283370614051819 0.11269621551036835 0.11990596354007721 -0.06979116052389145 -0.15507449209690094 -0.29017120599746704 0.09775669872760773 0.19631485641002655 -0.06862862408161163 -0.06849837303161621 -0.14861883223056793 0.3468643128871918 -0.4934816360473633 0.05105491727590561 -0.17317183315753937 -0.23663641512393951 0.13544321060180664 -0.061689361929893494 -0.0023884549736976624 0.11936774104833603 -0.1181505024433136 -0.1444026678800583 0.008389636874198914 -0.1526528149843216
15 -0.06555674970149994 0.1220661997795105 0.15023739635944366 0.10163000971078873 -0.018613822758197784 0.3395439088344574 -0.02496066689491272 0.0038122795522212982 -0.06234763190150261 -0.00026780320331454277 -0.06390193849802017 0.12851494550704956 -0.1438623070716858 0.029113393276929855 -0.20729729533195496 -0.2473922222852707 0.1434900462627411 -0.0561787486076355 0.11046791076660156 0.15372975170612335 0.052148669958114624 -0.10619674623012543 0.03544013202190399 0.06721796840429306 -0.28976595401763916 0.21429643034934998 -0.06948503851890564 -0.013287760317325592 -0.03463874012231827 -0.16936826705932617 0.19447988271713257 -0.09920641779899597 0.1372908651828766 0.019485998898744583 -0.1759093552827835 0.13011407852172852 -0.024682290852069855 0.16720923781394958 0.13813789188861847 0.19737377762794495 -0.1270514279603958 -0.15901733934879303 0.053280219435691833 -0.06876252591609955 -0.07410013675689697 -0.04450240731239319 -0.023121563717722893 0.342389315366745 -0.09778308868408203 -0.08603477478027344 0.06332116574048996 0.12383002042770386 -0.23236024379730225 -0.07339969277381897 -0.06451280415058136 0.16688969731330872 -0.006678812205791473 0.11443379521369934 0.0794549211859703 0.1402638852596283 0.008624527603387833 -0.16761687397956848 -0.12822382152080536 -0.046496786177158356 0.06307179480791092 -0.00244046188890934 -0.039783816784620285 0.0021482687443494797 0.07672865688800812 -0.07375899702310562 0.11797350645065308 0.08356455713510513 -0.12072128802537918 0.14257270097732544 -0.09150075167417526 0.18435022234916687 -0.39140987396240234 0.0326380655169487 0.1056583970785141 0.12314162403345108 -0.031719792634248734 0.04183372110128403 0.2276894748210907 -0.11762681603431702 -0.004658132791519165 0.020362045615911484 -0.2287982702255249 0.0011456049978733063 0.010833588428795338 0.20200668275356293 0.07776190340518951 -0.002019427716732025 -0.007759012281894684 0.041051968932151794 -0.23452071845531464 0.022857628762722015 -0.1616237312555313 0.061486389487981796 0.0975692868232727 0.15707069635391235 0.033915065228939056 -0.06126811355352402 0.15739315748214722 0.03687800467014313 -0.06320129334926605 0.027043089270591736 0.22968022525310516 0.022182684391736984 -0.1508505493402481 0.10180807113647461 0.15937791764736176 0.027578532695770264 -0.20008350908756256 0.023452874273061752 0.06173773109912872 0.20502300560474396 -0.3950330317020416 -0.08618709444999695 0.108558289706707 -0.18173134326934814 0.1429467797279358 0.10233737528324127 0.06964419037103653 0.14730921387672424 -0.09112812578678131 0.024112284183502197 0.013451692648231983 -0.20044466853141785
16 0.18546929955482483 0.07208642363548279 0.18816059827804565 0.31393587589263916 0.14338712394237518 0.1560112088918686 -0.1090642660856247 -0.10368026047945023 -0.20420797169208527 0.1371515691280365 -0.08102598041296005 -0.2070576548576355 -0.15010161697864532 0.02644461952149868 -0.12319836765527725 -0.024448774755001068 0.06858952343463898 0.04240087792277336 0.1086391806602478 0.1537700593471527 0.19671028852462769 0.03644322603940964 -0.08295600116252899 0.03182715177536011 -0.13129892945289612 0.1518774926662445 -0.017752952873706818 0.16475152969360352 -0.14190557599067688 -0.07062961906194687 -0.06661457568407059 -0.003534764051437378 0.17465493083000183 0.1871081292629242 -0.22740218043327332 -0.03632914647459984 0.04753746837377548 0.08307818323373795 0.10280480235815048 -0.032241422683000565 -0.2508183717727661 0.20689496397972107 0.1296006739139557 -0.16407239437103271 -0.10545434802770615 0.26783841848373413 -0.09150739759206772 0.15610331296920776 0.24319733679294586 -0.018807746469974518 -0.0967467874288559 0.3648519814014435 -0.09807687252759933 0.09089231491088867 -0.03671176731586456 0.1772477924823761 -0.025238599628210068 0.3590129613876343 0.1623787134885788 0.18787944316864014 0.03370976448059082 -0.297982394695282 -0.14540329575538635 0.1839267909526825 -0.180372953414917 -0.05766768753528595 0.11459170281887054 -0.184256911277771 0.1904667615890503 -0.07887889444828033 0.35454657673835754 -0.10947257280349731 -0.1803673505783081 -0.2040821760892868 -0.19351786375045776 -0.1053207665681839 -0.2426699697971344 -0.14712069928646088 0.2709542214870453 0.047469887882471085 -0.000494491308927536 0.010726861655712128 0.19785338640213013 0.13058985769748688 -0.053136300295591354 -0.10993041098117828 -0.004944004118442535 0.056292738765478134 -0.004250772297382355 0.1869322657585144 0.07194666564464569 -0.005431251600384712 0.1021764725446701 0.015250077471137047 0.147389754652977 0.023036595433950424 -0.0734412744641304 0.13544632494449615 0.14469504356384277 0.10856299102306366 0.07698341459035873 0.048509158194065094 0.10070928931236267 -0.08339326083660126 -0.07834647595882416 -0.0494430735707283 0.06520595401525497 -0.08748592436313629 -0.16071240603923798 0.022577185183763504 0.10083764046430588 0.20081515610218048 -0.020698081701993942 0.018591448664665222 0.05331987887620926 0.23901231586933136 -0.2481643110513687 0.12799102067947388 0.2381746768951416 -0.2646161913871765 0.039934203028678894 -0.013610301539301872 0.025646593421697617 0.011118374764919281 -0.0976354330778122 -0.041187360882759094 0.07413876056671143 0.14778438210487366
17 -0.09531112015247345 0.12788134813308716 -0.065602146089077 -0.05028364062309265 0.11940768361091614 0.08881203085184097 0.026215236634016037 0.1888533979654312 -0.10316228121519089 0.3025157153606415 -0.1655520498752594 -0.02442193776369095 -0.41478610038757324 -0.21314069628715515 -0.07713280618190765 -0.16135306656360626 0.24906116724014282 -0.034937500953674316 0.14426298439502716 -0.09205430001020432 -0.08968379348516464 -0.09943956136703491 -0.21531987190246582 -0.008517563343048096 -0.014203276485204697 0.05948406830430031 -0.24155999720096588 0.05085518956184387 0.01797226257622242 -0.24526450037956238 -0.010586723685264587 -0.1841534823179245 0.10396941006183624 0.005588642321527004 -0.19444015622138977 -0.05526700243353844 0.34467896819114685 -0.11870075017213821 -0.15483693778514862 0.006326727569103241 -0.17882585525512695 0.16942983865737915 -0.060294926166534424 -0.013480311259627342 -0.015783190727233887 -0.06624844670295715 -0.04864119738340378 0.35200488567352295 -0.08092571794986725 0.22888466715812683 -0.064578115940094 0.13396066427230835 -0.07275299727916718 -0.21034011244773865 -0.20728139579296112 0.14727570116519928 0.2962222695350647 -0.2414388358592987 0.1433328092098236 -0.09918651729822159 0.19295883178710938 0.2907676696777344 -0.11682577431201935 0.03858441486954689 -0.07605879008769989 -0.022030076012015343 0.06475813686847687 -0.1464548110961914 0.1491260528564453 -0.2978687286376953 0.0785825103521347 -0.04824153706431389 -0.01620008982717991 -0.1588900089263916 -0.13023167848587036 -0.049295686185359955 -0.29661208391189575 -0.04243496060371399 0.15904086828231812 0.15930742025375366 -0.05447965860366821 -0.1290641725063324 0.16334791481494904 0.14085155725479126 0.04227515682578087 -0.08666147291660309 -0.21777796745300293 0.0819087103009224 0.09722378849983215 0.1359112411737442 0.07752865552902222 -0.10745982825756073 -0.06851877272129059 -0.05999477952718735 -0.06583461165428162 0.08209767192602158 -0.1409432590007782 0.05684686079621315 0.0622970387339592 0.004711342975497246 0.039250899106264114 0.09918063133955002 0.031792134046554565 -0.06358343362808228 0.028029756620526314 0.33420708775520325 0.17148235440254211 -0.17063963413238525 0.02125585824251175 -0.13132338225841522 0.20428787171840668 0.07709023356437683 -0.3114669919013977 0.0074057430028915405 -0.011281329207122326 0.1708022654056549 -0.2950226664543152 0.06418275088071823 -0.17343227565288544 -0.06300389021635056 0.06827789545059204 0.019408173859119415 -0.02464202791452408 0.17744454741477966 -0.16364559531211853 -0.15699036419391632 -0.04271234571933746 0.046609215438365936
18 -0.19165024161338806 0.15971998870372772 -0.007062687538564205 -0.07323263585567474 -0.04566556215286255 -0.01675279438495636 -0.05247153341770172 0.05413064360618591 -0.04322383180260658 0.14772215485572815 -0.11070795357227325 -0.0704013854265213 -0.26322972774505615 0.02650342509150505 -0.045123860239982605 -0.2923893332481384 0.24232470989227295 -0.143776997923851 0.10639750212430954 -0.07268333435058594 0.05254996940493584 -0.10713835060596466 -0.09726674854755402 0.11841931939125061 0.05096307024359703 0.0750080794095993 -0.00405815988779068 -0.17802183330059052 0.24053175747394562 0.08785222470760345 -0.07701818645000458 -0.17612740397453308 0.2853941321372986 0.12022190541028976 -0.10277311503887177 0.05810960754752159 0.023622257634997368 -0.07867249101400375 0.07666543126106262 -0.07610005140304565 -0.184269979596138 0.10692418366670609 0.0013943745288997889 -0.0014495626091957092 0.10987889021635056 0.14242497086524963 0.01828780025243759 0.1972489356994629 -0.008576542139053345 0.059990327805280685 -0.3027391731739044 0.06512966752052307 -0.0022950060665607452 -0.1047167107462883 -0.11778371036052704 0.01584172062575817 -0.12321779131889343 -0.13918882608413696 -0.014050133526325226 0.2576095163822174 0.33931800723075867 0.16363820433616638 0.05719463527202606 0.11016598343849182 -0.10288268327713013 -0.24030554294586182 -0.0010397564619779587 -0.15466377139091492 0.3251938819885254 -0.2698657214641571 0.23905763030052185 0.10505111515522003 -0.16996246576309204 -0.1313895285129547 -0.16071736812591553 -0.04926562309265137 -0.12697674334049225 0.08059094846248627 0.07959793508052826 0.23889651894569397 -0.13134077191352844 -0.1281271129846573 0.20364204049110413 0.10928376764059067 -0.025782115757465363 0.04648583009839058 -0.19994951784610748 -0.04491989314556122 -0.01687353104352951 0.168919637799263 0.04947176203131676 0.1005881056189537 -0.2598675787448883 0.0862322598695755 0.08933930099010468 -0.26545339822769165 -0.008335195481777191 -0.10812787711620331 0.1294930875301361 0.0220729261636734 -0.10922245681285858 -0.044364944100379944 0.20343755185604095 0.03630906343460083 0.03834123909473419 -0.04810634255409241 0.055778078734874725 -0.06615595519542694 0.17497742176055908 -0.140766903758049 -0.03745578974485397 0.2543984353542328 -0.24262090027332306 0.16445529460906982 -0.08872643113136292 0.5507248640060425 -0.22954899072647095 -0.1200350821018219 -0.08873607218265533 -0.2050371766090393 0.11776822060346603 -0.05443738028407097 -0.03199104964733124 0.19671939313411713 0.1551142930984497 -0.16407015919685364 0.1884993463754654 0.019147345796227455
19 -0.005795888602733612 0.1563073694705963 0.1666012704372406 0.05104595795273781 0.04825221374630928 0.11805738508701324 0.025646764785051346 0.17345017194747925 -0.09092506021261215 -0.07206528633832932 -0.026255952194333076 0.004275878891348839 -0.22360172867774963 -0.08899559080600739 -0.14557939767837524 0.0284435972571373 -0.03971696272492409 -0.21609845757484436 -0.17533542215824127 0.15766680240631104 -0.13094869256019592 -0.17214231193065643 0.06792943179607391 0.0662272721529007 -0.1255059540271759 0.03828081861138344 -0.1553935706615448 0.1427820324897766 0.026371579617261887 -0.14869685471057892 0.04583489149808884 -0.16851720213890076 0.16072991490364075 0.16218627989292145 -0.041267361491918564 0.034591592848300934 -0.23082619905471802 -0.13852959871292114 0.22089776396751404 -0.07617652416229248 -0.05269216001033783 0.09338440001010895 0.009365241974592209 -0.05413074418902397 -0.1133178323507309 0.18057739734649658 0.17212480306625366 0.06628400087356567 0.0975789800286293 0.24944382905960083 -0.18206475675106049 0.14427652955055237 -0.11363887786865234 0.020512647926807404 -0.10415984690189362 0.08819276094436646 0.1699347198009491 0.1438552588224411 0.1196189820766449 0.23275072872638702 0.25938576459884644 -0.019223414361476898 -0.023818500339984894 0.16196559369564056 -0.2406741827726364 -0.16600513458251953 0.1376284658908844 -0.2187320739030838 0.09338957071304321 -0.07053281366825104 0.11381334066390991 0.16566656529903412 -0.21108248829841614 0.10414651036262512 -0.1778857409954071 -0.18773417174816132 -0.1447218507528305 0.1674492508172989 0.13281549513339996 -0.08371415734291077 -0.047536734491586685 0.03465519845485687 -0.022836744785308838 0.19233128428459167 -0.15409573912620544 0.006630390882492065 0.04151512309908867 -0.01684304140508175 -0.05973570793867111 -0.029755935072898865 0.15514320135116577 0.011601883918046951 -0.23941484093666077 0.2456894814968109 -0.007693242281675339 -0.17894397675991058 -0.08972646296024323 -0.019027458503842354 0.036030977964401245 0.13654209673404694 0.006687670946121216 -0.12544788420200348 0.3038705885410309 -0.05255568027496338 -0.08565721660852432 -0.05743401497602463 0.05656132847070694 -0.15913009643554688 0.1517789363861084 -0.18717162311077118 0.08698143064975739 0.13181720674037933 -0.0169101282954216 -0.027823152020573616 0.0995020866394043 0.27054563164711 -0.3206644356250763 -0.08497167378664017 -0.05205022543668747 -0.11076080054044724 0.014457210898399353 0.05011213570833206 -0.12476534396409988 0.11743941903114319 -0.05364656448364258 -0.00656108558177948 0.1375587284564972 0.027867980301380157
20 -0.02091323398053646 0.29393455386161804 0.08198316395282745 0.12695573270320892 0.10609196126461029 0.45555123686790466 0.09314306825399399 -0.0673137754201889 -0.08360905200242996 0.24489639699459076 -0.1758367121219635 -0.00998765230178833 -0.3044871985912323 -0.07415895164012909 -0.1491970419883728 -0.17361672222614288 0.14367316663265228 0.05065160244703293 0.0860937163233757 0.23570501804351807 -0.0721282809972763 0.13667164742946625 0.011352536268532276 0.11009186506271362 -0.03423769399523735 0.27392327785491943 -0.11820390820503235 -0.06793832033872604 0.1220134049654007 -0.10500349849462509 0.01106911152601242 0.025391168892383575 0.17207415401935577 0.2800433039665222 0.05231558904051781 -0.002877950668334961 0.27007848024368286 -0.05744749680161476 0.3121303915977478 0.11366935074329376 0.06657363474369049 -0.03280145674943924 -0.09842158108949661 -0.04538453742861748 -0.12014847993850708 0.01676146686077118 -0.04652871936559677 0.2739686667919159 -0.05015699565410614 -0.0367351770401001 0.008784987032413483 -0.003996454179286957 -0.11317369341850281 0.23882094025611877 -0.01537182368338108 0.15467633306980133 -0.050325989723205566 0.08636782318353653 0.0640752762556076 0.20591406524181366 0.05939188972115517 0.09950369596481323 -0.120989128947258 -0.02618608996272087 -0.03283199667930603 -0.06158161163330078 -0.0385652594268322 -0.04649502784013748 0.14407098293304443 -0.1566714346408844 -0.024443507194519043 -0.022469492629170418 -0.06613665074110031 0.08362540602684021 -0.040686096996068954 0.016445714980363846 -0.1507321000099182 0.13649563491344452 0.06620073318481445 0.0632077157497406 -0.09566861391067505 0.023815786466002464 0.05530056729912758 0.025618650019168854 -0.10485978424549103 0.08167814463376999 -0.1198219582438469 0.023442961275577545 0.12608781456947327 0.27338075637817383 0.16771122813224792 0.0723070576786995 0.0019757524132728577 0.05720013380050659 -0.17061959207057953 -0.17483437061309814 0.0024031884968280792 0.15862181782722473 -0.0777633860707283 0.07179052382707596 0.06217767298221588 -0.0032329335808753967 0.055322062224149704 -0.0089164599776268 0.03662627190351486 0.20374202728271484 0.094010129570961 -0.08308130502700806 0.06426779925823212 -0.011377978138625622 0.1624119132757187 0.04641573876142502 -0.032101958990097046 -0.022313758730888367 -0.013240456581115723 0.40764567255973816 -0.37601763010025024 -0.11458291113376617 0.07057176530361176 -0.26276180148124695 0.07222789525985718 0.001733195036649704 0.29423949122428894 0.2890058159828186 -0.3419424891471863 -0.11092232912778854 -0.0643780454993248 -0.03710396587848663
21 -0.14357000589370728 0.006990157067775726 0.1336333155632019 0.23763802647590637 0.07596395909786224 0.31150534749031067 -0.012135708704590797 0.08211434632539749 -0.07093280553817749 0.1823195517063141 -0.04558277875185013 0.2018243968486786 -0.21204835176467896 -0.06589999794960022 0.07066823542118073 -0.15188363194465637 0.2759074866771698 0.22083842754364014 0.0783962681889534 0.025750644505023956 0.01938670128583908 -0.044262953102588654 -0.05939509719610214 0.2145395278930664 -0.2485603392124176 0.12657591700553894 -0.0393645241856575 0.10937733203172684 -0.021956734359264374 -0.02912665717303753 0.1485498547554016 -0.13592635095119476 0.17322319746017456 0.23623280227184296 -0.2869075536727905 -0.11098140478134155 0.06457415223121643 0.2235194742679596 0.05892998352646828 0.04294750839471817 -0.0010587051510810852 0.012794137001037598 0.05293814837932587 -0.03533449023962021 -0.25789639353752136 -0.07571566104888916 -0.19911684095859528 -0.17327243089675903 0.18782536685466766 -0.009700801223516464 0.14744991064071655 0.11833292245864868 -0.12338636070489883 -0.04404555261135101 0.01574983261525631 -0.09096047282218933 0.0008992776274681091 0.029756760224699974 0.023023739457130432 0.2608855962753296 0.08030848205089569 -0.09282882511615753 0.04367678984999657 0.05424587428569794 0.09517082571983337 0.0181913822889328 0.06390614062547684 -0.12908326089382172 0.017598286271095276 -0.29617297649383545 0.030797578394412994 0.1464550644159317 0.09833167493343353 0.17545145750045776 0.18153585493564606 -0.00660695880651474 -0.0334363654255867 -0.12448850274085999 0.037779372185468674 0.08558224141597748 0.16732493042945862 0.10500913113355637 0.3054587244987488 0.037728674709796906 -0.014510922133922577 0.043671559542417526 0.04557172581553459 -0.003765985369682312 -0.14167428016662598 0.09801831841468811 -0.056736890226602554 -0.05379559472203255 -0.13889998197555542 0.013595890253782272 -0.22385960817337036 -0.09873902797698975 -0.10139556229114532 -0.17748670279979706 0.06416737288236618 -0.14045606553554535 0.15736424922943115 -0.06935101747512817 0.16458867490291595 -0.22420832514762878 0.03404856473207474 0.03486597537994385 0.1683187037706375 -0.03714904934167862 0.042194902896881104 -0.11557388305664062 0.16950225830078125 0.12704454362392426 -0.3807715177536011 -0.18633273243904114 -0.05720439553260803 0.16453006863594055 -0.21639801561832428 0.08953296393156052 0.04568463936448097 -0.12084441632032394 0.26774099469184875 0.1250552237033844 -0.02020900696516037 0.19033297896385193 -0.24926099181175232 -0.10110366344451904 -0.05491647869348526 0.02173749916255474
22 0.12447278201580048 0.12596753239631653 -0.05557473003864288 0.05844924598932266 0.04306039959192276 0.02935805916786194 0.09231812506914139 -0.02902238443493843 -0.09117673337459564 0.1637091040611267 0.12247295677661896 0.024926941841840744 -0.14943236112594604 0.08424679934978485 -0.25092682242393494 0.0716618001461029 0.12566858530044556 -0.015943355858325958 0.06625073403120041 0.10730580240488052 0.22642531991004944 0.04058954119682312 -0.016574108973145485 -0.08881312608718872 -0.1773693710565567 -0.048081956803798676 -0.09898753464221954 -0.09103982895612717 -0.023294664919376373 0.15886470675468445 -0.0029991567134857178 -0.0686320960521698 0.42686179280281067 0.2670082151889801 -0.12387906759977341 0.062150947749614716 0.07780147343873978 0.08555234968662262 0.04282572120428085 0.33025580644607544 0.024659182876348495 -0.01846424862742424 -0.1789853721857071 0.06950446218252182 -0.08785755932331085 0.2267121523618698 -0.2544970214366913 0.36485129594802856 -0.005992531776428223 -0.030192673206329346 -0.11718303710222244 0.2581920623779297 -0.1272294819355011 0.24650979042053223 -0.07110509276390076 0.024565137922763824 -0.03459061682224274 0.2709720730781555 0.13392707705497742 0.2052978128194809 0.014217909425497055 -0.04856365546584129 -0.26468467712402344 -0.1280403435230255 -0.13621923327445984 -0.047465018928050995 0.11204754561185837 -0.06261476874351501 0.12036015093326569 -0.026708541437983513 0.13831910490989685 0.21012714505195618 -0.23613211512565613 0.031957224011421204 -0.007834237068891525 -0.0026559941470623016 -0.2624470293521881 -0.1402241289615631 0.07053108513355255 -0.08785121142864227 -0.04586191847920418 -0.1117943599820137 0.4066489338874817 0.08454830944538116 0.014638416469097137 -0.10859586298465729 -0.1418309360742569 0.13754799962043762 0.28752943873405457 0.016780853271484375 0.3633561134338379 0.1504034548997879 0.1272202432155609 -0.024493077769875526 0.1506684124469757 -0.11596576869487762 -0.2554563581943512 -0.017096955329179764 -0.1252492070198059 0.16995568573474884 0.1979881078004837 -0.09439264237880707 0.2863491177558899 -0.03332367539405823 0.08463592827320099 0.04467752203345299 -0.025529678910970688 0.2627902626991272 0.0034758299589157104 -0.030284032225608826 0.11467060446739197 0.00969734787940979 -0.0027308687567710876 0.1424567997455597 -0.0869717225432396 0.3793185353279114 -0.4933145344257355 0.06318549811840057 0.051191747188568115 -0.4091433584690094 0.09684856235980988 0.03430725634098053 -0.10550542175769806 0.07990387082099915 -0.08250574767589569 -0.04929690435528755 -0.02035943791270256 -0.0032030344009399414
23 -0.06625015288591385 -0.020166965201497078 -0.059853143990039825 0.10883751511573792 -0.12353090196847916 0.39834028482437134 0.08721842616796494 0.13367365300655365 -0.12736141681671143 -0.033340245485305786 -0.08052469044923782 0.0016377046704292297 0.008016608655452728 0.1970130205154419 -0.1022418737411499 -0.16749343276023865 0.032913945615291595 -0.2603597044944763 0.1849687546491623 -0.01674969680607319 0.3121653199195862 -0.09399528801441193 -0.16841988265514374 0.05384276807308197 -0.1474979817867279 0.15274767577648163 -0.02955886721611023 -0.026715833693742752 0.07938490062952042 -0.17102885246276855 -0.0769246518611908 0.10176704823970795 0.15986789762973785 0.2433440387248993 -0.20475324988365173 0.029952555894851685 -0.09124567359685898 0.0990176871418953 0.01882072165608406 0.007254354655742645 -0.14315353333950043 -0.10242963582277298 0.2093563973903656 -0.04374728351831436 0.14638450741767883 0.08368518948554993 0.16897019743919373 0.07087088376283646 0.16993916034698486 -0.22690944373607635 -0.14582249522209167 0.15896010398864746 -0.31506672501564026 0.10210752487182617 -0.23038432002067566 0.1333428919315338 0.040279269218444824 0.15959863364696503 0.10655996948480606 0.16799239814281464 0.06099764257669449 0.017901072278618813 -0.018909107893705368 0.23345056176185608 -0.1913776695728302 -0.23084266483783722 -0.08926986902952194 0.07009309530258179 0.09414473176002502 0.00646074116230011 0.20249149203300476 0.16619673371315002 -0.24934770166873932 -0.05785554647445679 0.009618843905627728 0.14215466380119324 -0.2438231259584427 0.030538246035575867 0.06383579969406128 0.023590531200170517 -0.13713152706623077 0.14987461268901825 0.138024240732193 -0.07797654718160629 -0.31409507989883423 -0.19414888322353363 -0.1366918981075287 0.07250744104385376 0.1457403302192688 0.20209041237831116 0.0381116047501564 0.012016084045171738 -0.08520692586898804 0.09210096299648285 -0.05249877646565437 0.03760925680398941 0.11265485733747482 -0.07795608043670654 0.19092142581939697 0.031999118626117706 0.030394062399864197 -0.15100230276584625 -0.17226529121398926 -0.010124869644641876 0.07400170713663101 -0.04281744360923767 0.09009839594364166 -0.06859322637319565 0.007359310984611511 0.1111445277929306 -0.08365732431411743 0.07920340448617935 -0.1696842908859253 0.17965352535247803 -0.19139069318771362 0.3547981381416321 -0.3673960566520691 -0.010575320571660995 -0.06749893724918365 -0.04106065258383751 0.1987757682800293 -0.07550262659788132 0.034921325743198395 0.019571151584386826 0.014540687203407288 -0.1416577249765396 -0.057003721594810486 -0.12647005915641785
24 0.12450488656759262 -0.13550972938537598 -0.07186073809862137 -0.0025190040469169617 0.17428669333457947 0.23495975136756897 -0.0729503408074379 0.005798690021038055 0.048889294266700745 0.31412452459335327 -0.10499977320432663 0.1635112762451172 -0.058294691145420074 0.22906458377838135 -0.037560153752565384 -0.21089011430740356 0.06368189305067062 -0.11697901040315628 0.22076326608657837 -0.04687052592635155 0.12237296998500824 -0.025371894240379333 0.017498770728707314 0.007200881838798523 0.01556473970413208 0.23057305812835693 -0.29351097345352173 0.029781274497509003 -0.036280009895563126 -0.040204692631959915 -0.10935855656862259 0.08850336819887161 0.15453600883483887 0.038163237273693085 -0.3837244212627411 0.22594594955444336 0.10470452904701233 0.1616654247045517 -0.06295657902956009 -0.07320238649845123 -0.05701082944869995 0.2999730706214905 -0.0371725931763649 -0.19508427381515503 -0.12016712129116058 0.254293829202652 -0.14184553921222687 0.020809873938560486 0.041473351418972015 0.06652607768774033 -0.026387667283415794 0.2119694948196411 -0.059256210923194885 0.1368129551410675 -0.07996712625026703 0.07423564046621323 0.18195703625679016 -0.023284222930669785 0.07767936587333679 0.14621347188949585 0.24494510889053345 0.06558902561664581 -0.04104318842291832 0.15854763984680176 -0.05045875534415245 -0.04269057512283325 -0.11440812051296234 -0.5112971067428589 0.1967402696609497 -0.19561436772346497 -0.06788850575685501 -0.10625803470611572 -0.11443514376878738 -0.12376914173364639 -0.13078029453754425 -0.18344669044017792 -0.178258016705513 -0.08908417820930481 0.12559917569160461 0.18982449173927307 -0.06283827126026154 0.05867103487253189 0.13618476688861847 0.16714219748973846 -0.1765013039112091 0.12637433409690857 -0.07288812100887299 0.2427375316619873 0.09914286434650421 -0.006133756600320339 0.15197579562664032 0.08884244412183762 -0.08585451543331146 0.24151119589805603 -0.09676225483417511 -0.08182907104492188 -0.1250574290752411 0.055213309824466705 0.4391289949417114 0.05633825063705444 0.07445298135280609 0.06296849250793457 0.001588284969329834 -0.12944303452968597 -0.07837163656949997 0.11305013298988342 -0.0245499424636364 -0.16819927096366882 0.0064198728650808334 -0.11299287527799606 0.10157078504562378 0.33991289138793945 -0.11043108254671097 0.018356580287218094 0.1891879141330719 0.2834305763244629 -0.10496243834495544 0.04909683018922806 -0.003598460927605629 -0.1941634863615036 -0.031711455434560776 0.06300131976604462 -0.01545197144150734 0.15801551938056946 -0.08384609967470169 -0.20198923349380493 -0.046233803033828735 -0.03854154050350189
25 -0.1822308897972107 0.2004328966140747 0.09766615927219391 0.0587364099919796 -0.1311180293560028 0.3223843574523926 -0.14599886536598206 0.15484119951725006 0.0760824978351593 -0.24803830683231354 -0.11520533263683319 0.19276094436645508 -0.08967334032058716 -0.2627216577529907 -0.20882558822631836 -0.17077003419399261 0.10133159905672073 -0.018540462478995323 0.0806078165769577 0.03686561435461044 0.039142146706581116 -0.07679352164268494 -0.04906236380338669 0.07888487726449966 -0.07164106518030167 0.009570173919200897 -0.13620486855506897 -0.07021372765302658 0.05014064908027649 -0.045503489673137665 -0.003508793655782938 -0.19961699843406677 0.00950063206255436 0.44906845688819885 -0.2899114787578583 0.24060502648353577 0.03306691348552704 -0.06980227679014206 -0.11361388862133026 -0.20363621413707733 0.03786949813365936 -0.07338453084230423 -0.08657467365264893 -0.04217490553855896 -0.1859196126461029 0.07992405444383621 -0.08876030147075653 0.12366273999214172 0.0525607094168663 -0.012225739657878876 -0.13615623116493225 0.05139056220650673 -0.2813301682472229 -0.24245628714561462 -0.09074375033378601 0.13346827030181885 0.11793947219848633 0.01565360650420189 -0.11044881492853165 0.08524204790592194 0.2576291263103485 -0.16796556115150452 0.11258027702569962 0.21405553817749023 0.022001557052135468 -0.11985528469085693 -0.02494845725595951 0.07783157378435135 0.2209913581609726 -0.09966085106134415 0.12359865009784698 -0.12927669286727905 -0.10327655076980591 0.10691511631011963 0.05753413215279579 0.06947668641805649 -0.24110470712184906 0.09788571298122406 0.03025919944047928 0.1171080619096756 0.0066903261467814445 -0.044819969683885574 0.3174784183502197 -0.06573806703090668 0.09601178765296936 -0.14038464426994324 -0.11417505145072937 -0.006283096969127655 -0.13762816786766052 -0.07286696881055832 -0.011486969888210297 -0.1507987678050995 -0.2008129358291626 -0.06662946939468384 -0.1827475130558014 -0.009300235658884048 -0.1685951054096222 0.022449258714914322 0.26312723755836487 0.2665327191352844 -0.06326866149902344 0.0587826743721962 0.3382750153541565 0.13596874475479126 0.22696925699710846 0.0547049455344677 -0.07843075692653656 -0.04298633709549904 0.01927044987678528 -0.10217444598674774 0.11603270471096039 0.14759346842765808 0.02951797842979431 0.23523300886154175 0.031542930752038956 0.07521149516105652 -0.43316179513931274 -0.04561019688844681 -0.06309149414300919 -0.14217393100261688 0.04959169402718544 -0.011414077132940292 -0.1307019591331482 0.03028421476483345 -0.17252901196479797 -0.16004443168640137 -0.25796401500701904 -0.24616870284080505
26 -0.2070891559123993 0.15507592260837555 -0.14206025004386902 -0.19003146886825562 -0.08135728538036346 0.28638648986816406 0.02021031081676483 -0.11524832993745804 0.06912121176719666 0.0015216991305351257 0.05206306278705597 0.029208123683929443 -0.20067882537841797 -0.05412544310092926 -0.13791826367378235 -0.21190956234931946 -0.06284301728010178 -0.07443860918283463 0.15881256759166718 0.16573788225650787 -0.0863153338432312 -0.3320029377937317 0.05337432026863098 0.15586905181407928 -0.20283061265945435 0.1709786057472229 -0.035873137414455414 0.01161336898803711 0.09649454057216644 -0.030949121341109276 -0.0122209582477808 -0.13657641410827637 0.13611873984336853 0.14814375340938568 -0.216337651014328 0.14295533299446106 -0.26089972257614136 -0.20457518100738525 0.17320071160793304 0.0009602010250091553 -0.14336463809013367 0.08998921513557434 0.00976902898401022 -0.010629706084728241 -0.27700185775756836 0.16691944003105164 0.1598718762397766 0.15461355447769165 -0.22289086878299713 0.09438622742891312 -0.06870483607053757 -0.017137151211500168 -0.18620418012142181 0.0720856562256813 -0.16025970876216888 0.25165408849716187 0.23788698017597198 0.14253893494606018 0.12131410837173462 0.21915650367736816 0.17272382974624634 -0.05964789167046547 -0.09690367430448532 0.10275821387767792 -0.3543502688407898 -0.19825869798660278 0.12758806347846985 0.06903572380542755 0.014447354711592197 0.08787175267934799 0.025387797504663467 -0.0014918074011802673 0.04303818941116333 -0.045812301337718964 0.07859593629837036 0.06524727493524551 -0.1620655357837677 -0.11492570489645004 0.009465865790843964 0.033291492611169815 0.03383384272456169 0.10024900734424591 0.08624882996082306 0.010433418676257133 0.017335601150989532 -0.01693129539489746 -0.08065763115882874 0.047566670924425125 0.21555733680725098 0.15535442531108856 0.05862046033143997 -0.1353132277727127 -0.02435491234064102 0.07989677786827087 -0.07322800159454346 0.07844109833240509 0.05062262341380119 0.17338767647743225 -0.1480332911014557 0.048543527722358704 0.12081407755613327 0.04370667412877083 0.3707520365715027 -0.25060734152793884 0.02897283434867859 0.11911159753799438 0.16256339848041534 -0.13184592127799988 -0.3108549118041992 -0.051297351717948914 0.02167610079050064 -0.1965218186378479 -0.2325650155544281 0.11454915255308151 -0.06770915538072586 0.3552625775337219 -0.2936934232711792 0.03052954003214836 -0.08159211277961731 -0.26041242480278015 0.15977740287780762 0.23000434041023254 -0.18589800596237183 0.03251557797193527 -0.2897500693798065 0.031838558614254 -0.1106499657034874 -0.10529828071594238
27 -0.15547655522823334 0.025162048637866974 0.028945043683052063 0.3024418354034424 0.16848574578762054 0.2836841940879822 -0.0052221184596419334 0.05927051231265068 -0.0845501571893692 0.12047797441482544 0.05114467442035675 -0.009377336129546165 -0.15090137720108032 -0.1215287372469902 -0.27423205971717834 -0.11200996488332748 -0.10688675940036774 0.09955260157585144 0.1787302941083908 0.16374340653419495 0.21970543265342712 -0.25855356454849243 -0.04911551997065544 0.06805465370416641 -0.1727227121591568 -0.021306782960891724 0.036271482706069946 -0.19029325246810913 -0.06669247895479202 -0.3320844769477844 -0.07912081480026245 0.024500662460923195 -0.0459325946867466 0.24986380338668823 -0.26035428047180176 -0.07060390710830688 0.018164590001106262 0.061496615409851074 0.11657511442899704 0.2347138226032257 0.06435889005661011 -0.16348469257354736 -0.12062008678913116 0.02845422551035881 -0.2398531138896942 -0.0831056609749794 -0.08038987219333649 0.2313169538974762 0.23428109288215637 -0.007809542119503021 -0.10679936408996582 0.2733343243598938 -0.13049374520778656 0.183693528175354 -0.07343535125255585 0.08563929051160812 0.10832110792398453 0.08656961470842361 -0.1035206988453865 0.09241487830877304 0.17600101232528687 -0.1715732216835022 -0.09974204003810883 -0.05784940347075462 -0.30325818061828613 -0.031895771622657776 -0.003945609554648399 -0.14213845133781433 0.18566331267356873 -0.08078522235155106 0.16346189379692078 0.14206302165985107 -0.19678588211536407 0.023368533700704575 0.04656892269849777 0.013178709894418716 -0.27936261892318726 -0.03409320116043091 -0.029798537492752075 0.12150651216506958 0.13578066229820251 0.22331467270851135 0.09547821432352066 -0.041782084852457047 -0.17563951015472412 -0.019910074770450592 -0.016042102128267288 -0.1112581342458725 -0.047883644700050354 0.15878893435001373 0.23974719643592834 0.2284815013408661 -0.08050458133220673 0.3337010145187378 -0.14778989553451538 -0.11085960268974304 0.0181732214987278 0.34695965051651 0.0014779642224311829 -0.07290175557136536 0.223179891705513 -0.139731764793396 0.02609829604625702 0.042958568781614304 -0.039148326963186264 -0.2047603726387024 0.0738653913140297 0.007083497941493988 -0.21932247281074524 -0.1321539580821991 -0.26075518131256104 0.0224920604377985 -0.2269209623336792 0.1374608278274536 -0.196496844291687 0.09611055254936218 -0.29100239276885986 0.07720424234867096 0.08589445799589157 -0.14528153836727142 0.1796676516532898 0.254313588142395 -0.11977142095565796 -0.036543235182762146 -0.06973634660243988 0.06678023189306259 0.01985582336783409 0.0836358368396759
28 -0.13353928923606873 0.31226301193237305 -0.03942079097032547 0.08034873753786087 0.15220484137535095 0.15949392318725586 -0.02624334767460823 0.1288084238767624 0.160380557179451 0.02903662621974945 0.08384659141302109 -0.07120423018932343 -0.13855521380901337 0.059255197644233704 -0.32162970304489136 0.002069897949695587 0.1377612054347992 -0.17274844646453857 0.1730196624994278 -0.0023423880338668823 0.23085768520832062 0.04983337223529816 0.00022027641534805298 0.05463991314172745 -0.05678451061248779 0.3074592351913452 0.05938365310430527 0.011317064985632896 -0.024469424039125443 -0.26187390089035034 0.12812848389148712 0.1892365962266922 0.28301897644996643 0.23225030303001404 -0.36096081137657166 0.16468392312526703 -0.27798789739608765 0.029218178242444992 0.023920074105262756 0.1270584762096405 -0.2577727437019348 0.2190563976764679 -0.029929442331194878 -0.02614402398467064 -0.24844655394554138 0.14544637501239777 0.11280376464128494 0.23488643765449524 -0.011456629261374474 -0.24118202924728394 -0.23485533893108368 0.2351239025592804 -0.07518728822469711 0.0526893325150013 -0.04865275323390961 0.025903873145580292 0.04819618538022041 0.02638240158557892 -0.06253328919410706 0.3584013283252716 0.13776284456253052 -0.026474840939044952 -0.15657883882522583 0.247827410697937 -0.20746853947639465 -0.12564988434314728 0.005671672523021698 -0.08355839550495148 0.2185956835746765 0.04687554016709328 -0.04982747882604599 0.06517842411994934 -0.24644120037555695 0.11917605996131897 -0.05173542723059654 -0.00637546181678772 -0.26122206449508667 0.16477392613887787 0.14398184418678284 -0.2675447165966034 -0.01817232370376587 0.1066865473985672 0.12863342463970184 -0.0423198826611042 -0.1646656095981598 -0.050991930067539215 -0.01108129695057869 0.11320129781961441 0.010426759719848633 0.16831889748573303 -0.014202440157532692 0.11554262042045593 -0.051761094480752945 0.039921022951602936 -0.17202815413475037 -0.07535082846879959 0.10883830487728119 -0.15242183208465576 0.08374089002609253 0.03157990798354149 0.14038550853729248 -0.13048402965068817 0.25303521752357483 -0.22694085538387299 0.09237944334745407 0.2347095012664795 -0.30405861139297485 -0.03076821006834507 -0.13420209288597107 0.08587707579135895 -0.13452056050300598 0.20672133564949036 -0.12806788086891174 0.005069257691502571 0.11882498115301132 0.19699327647686005 -0.2645890712738037 0.0894499346613884 -0.1649932563304901 -0.1971856653690338 0.13917499780654907 -0.09232741594314575 0.030791185796260834 0.0543033629655838 -0.294375479221344 -0.13244493305683136 0.022650383412837982 -0.011912522837519646
29 -0.06760513782501221 0.05934295058250427 0.17419825494289398 0.2461811602115631 -0.115629643201828 0.11811748892068863 -0.21538090705871582 -0.011933845467865467 -0.19375300407409668 0.16018885374069214 -0.21027745306491852 -0.24721567332744598 -0.2148076295852661 0.0798799991607666 -0.21633170545101166 -0.1185058057308197 -0.03288953751325607 -0.07940986752510071 0.09043140709400177 0.07856747508049011 0.19593745470046997 -0.13589639961719513 -0.016357045620679855 0.16778448224067688 -0.07986685633659363 -0.011315375566482544 -0.15431514382362366 0.02332380600273609 -0.008335529826581478 0.041899174451828 -0.0013781189918518066 -0.09939415007829666 0.1046563982963562 0.13415277004241943 0.046666666865348816 -0.06318721175193787 0.02644822746515274 -0.1403820812702179 0.042490728199481964 0.4598047435283661 -0.09196226298809052 -0.016797073185443878 -0.14164701104164124 0.0407291054725647 -0.26438644528388977 0.03343626484274864 -0.056291572749614716 0.16604594886302948 -0.05097408965229988 -0.002108938992023468 0.0006121573969721794 0.0071432702243328094 -0.13143649697303772 -0.12672023475170135 -0.14752057194709778 0.20602759718894958 0.06651867926120758 0.045005589723587036 0.16921038925647736 0.06328888982534409 0.3950064182281494 0.08680425584316254 -0.058804988861083984 -0.020757202059030533 -0.15620942413806915 -0.4007161259651184 0.12909993529319763 -0.08595158904790878 -0.05977579578757286 0.038584161549806595 0.054469287395477295 0.14566080272197723 -0.013647496700286865 0.14296306669712067 -0.02458944171667099 0.0628272294998169 -0.09983150660991669 0.22490279376506805 0.06085763871669769 -0.05117600038647652 0.10219427943229675 0.0011615172261372209 -0.27104946970939636 0.17107149958610535 0.040411315858364105 0.06016923114657402 0.19217164814472198 0.21137377619743347 -0.05505409836769104 0.08779790997505188 0.27073317766189575 0.0686570480465889 0.02132122963666916 0.22307653725147247 0.16571812331676483 0.053981706500053406 -0.17184048891067505 0.11368612945079803 -0.11829780787229538 -0.06149180978536606 0.015528995543718338 0.07033629715442657 0.04851042851805687 -0.02494169771671295 -0.10499726235866547 0.09193939715623856 -0.15026356279850006 -0.09617935866117477 0.07250620424747467 0.017001541331410408 0.17329339683055878 0.0501827672123909 0.014090262353420258 -0.10981534421443939 0.0049584005028009415 0.4429780840873718 -0.2192886620759964 -0.40389329195022583 -0.08941332995891571 -0.1611466407775879 0.23492735624313354 0.02689289301633835 -0.014539236202836037 0.2983585000038147 -0.20464885234832764 -0.026143338531255722 -0.02336668223142624 0.023476161062717438
30 -0.29454857110977173 0.1119164377450943 0.11895684897899628 0.21054516732692719 0.22388151288032532 0.16275213658809662 -0.013543624430894852 0.10359957814216614 -0.08830150961875916 0.1791263073682785 -0.23519672453403473 0.05069328099489212 -0.1435096114873886 -0.0814782977104187 -0.03349559009075165 -0.10868746787309647 0.25846388936042786 0.04603106528520584 0.10995587706565857 -0.014616087079048157 0.307387113571167 -0.046645551919937134 -0.00683288648724556 0.06021099537611008 -0.13139033317565918 0.21035180985927582 -0.04186767339706421 -0.08718016743659973 -0.049285635352134705 -0.04010889679193497 0.1711968332529068 0.06635797768831253 0.07099214941263199 0.29507964849472046 -0.28173595666885376 -0.0281768087297678 -0.023567132651805878 -0.2681199908256531 0.13654014468193054 -0.039292216300964355 -0.11347731947898865 -0.009898807853460312 -0.007680434733629227 -0.10179095715284348 0.09426146745681763 0.1662658154964447 -0.06081761047244072 0.302532434463501 0.05003797262907028 0.0913638174533844 -0.15908680856227875 0.367267370223999 -0.17074252665042877 -0.0959206074476242 -0.0696905180811882 -0.045065149664878845 0.19317126274108887 -0.08765903115272522 0.018886126577854156 -0.031384095549583435 0.08690280467271805 -0.11684456467628479 -0.10454754531383514 0.24998953938484192 -0.26793578267097473 -0.1019265279173851 0.017494767904281616 0.004049444571137428 0.1302781105041504 -0.05907239019870758 0.021164055913686752 -0.08942902833223343 -0.15222683548927307 -0.10000878572463989 0.01162741333246231 -0.04080220311880112 -0.38520288467407227 0.07240708917379379 0.06533206254243851 0.08434176445007324 -0.21374402940273285 0.017843609675765038 0.1325916349887848 0.0052558910101652145 -0.18689750134944916 -0.09219778329133987 0.07492781430482864 -0.11193674802780151 0.10119505226612091 0.11509304493665695 0.11101201921701431 0.09995429962873459 -0.18971841037273407 0.1440110206604004 -0.18332108855247498 -0.06489405781030655 -0.05300634354352951 0.16895872354507446 0.2943693995475769 -0.10330883413553238 0.02703826129436493 -0.10035322606563568 0.09345977008342743 0.038649268448352814 -0.010542850941419601 -0.11995582282543182 0.0285322368144989 -0.012577513232827187 -0.140839621424675 0.10506708920001984 0.022719550877809525 0.16425727307796478 -0.04287373274564743 0.08876638114452362 -0.22478216886520386 0.2381581962108612 -0.22049172222614288 0.1387270987033844 -0.2158409059047699 -0.21749775111675262 0.11420254409313202 0.06297716498374939 -0.03269815072417259 0.18438827991485596 -0.10986578464508057 0.03586622327566147 0.046621959656476974 -0.08734022080898285
31 -0.05684309080243111 0.1331801414489746 0.05173489451408386 -0.05622841417789459 0.10523301362991333 0.3112201988697052 0.19229477643966675 0.1407778561115265 0.025423675775527954 0.1280239373445511 0.0872810110449791 0.08932596445083618 -0.253012090921402 0.08352750539779663 -0.37864041328430176 -0.0769178718328476 0.19462309777736664 -0.15074706077575684 0.13961903750896454 -0.015352852642536163 0.09530727565288544 -0.07187243551015854 0.11939138174057007 0.088886559009552 -0.15549147129058838 0.16796648502349854 0.041554465889930725 0.08243360370397568 0.02352038398385048 -0.18809175491333008 -0.002005424350500107 -0.3015887141227722 0.3013603687286377 0.14210407435894012 -0.0462188720703125 0.14709635078907013 -0.05720191448926926 0.13410109281539917 0.3803500533103943 0.0906313806772232 -0.07655194401741028 -0.07577010989189148 -0.1147291511297226 -0.08808751404285431 -0.2206849604845047 0.2427973747253418 -0.039903126657009125 0.3601255416870117 0.011775290593504906 0.005012519657611847 -0.09861164540052414 0.11359883844852448 -0.1138201653957367 0.03985433280467987 0.03731773793697357 0.20184677839279175 -0.012653246521949768 0.18251612782478333 0.13882163166999817 0.06834834814071655 0.09260652959346771 -0.025363927707076073 -0.21881437301635742 0.1578742414712906 -0.08118513226509094 0.04761170968413353 0.060620345175266266 -0.05710317939519882 0.2587275803089142 0.06334827840328217 0.047571416944265366 0.13568830490112305 -0.32900071144104004 -0.08590871095657349 -0.045472390949726105 0.19598336517810822 -0.15896625816822052 0.09473060071468353 0.1158006489276886 -0.11834639310836792 0.06935614347457886 -0.07447449117898941 -0.024657830595970154 -0.11061748117208481 -0.2194584608078003 -0.037489667534828186 0.08008117228746414 0.06931254267692566 -0.04254966601729393 0.01159522496163845 0.13135354220867157 -0.021562015637755394 0.014977160841226578 0.04430308938026428 -0.11196361482143402 0.10275920480489731 -0.08444289863109589 0.15260814130306244 0.1438247710466385 0.1434568464756012 0.0034294351935386658 -0.19328123331069946 0.20250828564167023 -0.19301022589206696 0.05993811786174774 0.10484706610441208 -0.020240196958184242 -0.06881143897771835 -0.08489211648702621 -0.16705842316150665 0.07979699969291687 -0.13819608092308044 -0.11880756169557571 0.019036194309592247 0.11833213269710541 0.42789632081985474 -0.3213111162185669 -0.008657664060592651 -0.013449045829474926 -0.1364658921957016 -0.02395317703485489 0.007181890308856964 0.06269368529319763 0.15915164351463318 -0.16629546880722046 -0.03377290070056915 -0.07340303063392639 -0.1938800811767578
32 -0.039170101284980774 0.07192040979862213 0.21725264191627502 0.20667065680027008 0.01888447254896164 0.07771361619234085 -0.07953252643346786 0.1309870034456253 -0.08603712916374207 0.16162122786045074 -0.19849446415901184 -0.02470160648226738 -0.43775707483291626 -0.20962873101234436 -0.10383038967847824 -0.08151711523532867 -0.07355093210935593 -0.06904172152280807 -0.033047448843717575 0.027255196124315262 0.029504623264074326 -0.15670675039291382 -0.020424142479896545 0.020270586013793945 0.12539540231227875 0.058832768350839615 0.12943029403686523 -0.09746067225933075 -0.06925345957279205 -0.05827715992927551 -0.1496480107307434 -0.1502073109149933 -0.021038293838500977 0.23577775061130524 -0.3139776289463043 0.0024649761617183685 -0.05483471602201462 -0.23879922926425934 0.07764456421136856 -0.09633731096982956 -0.11263597756624222 0.13269880414009094 -0.19333578646183014 -0.1458568423986435 -0.028151653707027435 0.17953461408615112 0.08945316076278687 0.09275151789188385 0.013195060193538666 0.004502102732658386 -0.1565968543291092 0.027917876839637756 0.013199210166931152 -0.056067679077386856 0.01490006223320961 0.1216074600815773 0.1810038983821869 0.024266647174954414 0.10074051469564438 0.14338570833206177 0.37280958890914917 0.02210143394768238 0.07636339962482452 -0.04095567762851715 -0.0312592014670372 -0.3078792989253998 -0.059333253651857376 -0.0757589340209961 -0.11205403506755829 0.062190137803554535 0.12667375802993774 -0.007859162986278534 0.054061293601989746 -0.05601266771554947 0.12691092491149902 0.03434909135103226 -0.3441873788833618 0.18806269764900208 0.06822101026773453 0.011104544624686241 -0.14636975526809692 -0.14979875087738037 0.09587549418210983 0.10495851188898087 -0.20137275755405426 -0.09609432518482208 -0.030327215790748596 0.22761330008506775 0.1082427054643631 0.18665844202041626 -0.0018289685249328613 0.028589576482772827 -0.08662054687738419 0.11755257844924927 0.24879491329193115 -0.1886414885520935 0.12669700384140015 0.09391060471534729 0.04812277853488922 -0.10129572451114655 0.10998319089412689 0.09487487375736237 0.028697213158011436 -0.0778786838054657 0.018790381029248238 0.2606549561023712 0.02109691873192787 -0.10244303941726685 0.04475695639848709 -0.014154691249132156 0.04720180109143257 0.16201241314411163 -0.18009938299655914 0.04934742674231529 0.03719068318605423 0.4120575189590454 -0.37252524495124817 -0.26783132553100586 -0.19360071420669556 -0.319526731967926 0.16012896597385406 0.06066298484802246 -0.09411373734474182 0.1036752462387085 -0.2407911717891693 -0.16284015774726868 -0.07429029047489166 0.18910153210163116
33 0.1978597342967987 0.08680620789527893 0.30835795402526855 0.20634162425994873 0.010749533772468567 0.2719111144542694 -0.04045223817229271 0.09101127088069916 0.11051125824451447 0.1322759985923767 -0.17629803717136383 0.059078849852085114 0.01775968074798584 -0.028933372348546982 -0.19391679763793945 -0.09363660961389542 0.10130410641431808 -0.08680717647075653 0.20189499855041504 0.08403893560171127 0.043367668986320496 -0.1279868185520172 0.1133275032043457 -0.005395948886871338 -0.07552172243595123 0.46388858556747437 -0.1588841676712036 -0.029381996020674706 0.0329437255859375 -0.2890317738056183 -0.06367029994726181 0.07618968188762665 0.17027638852596283 0.1579548716545105 -0.03523821383714676 0.016001544892787933 0.20795640349388123 0.005216442048549652 0.18910351395606995 0.16945357620716095 -0.03788142651319504 -0.10231141000986099 0.03890705853700638 -0.07101850211620331 -0.08540531992912292 0.024949897080659866 -0.02875247597694397 0.292594850063324 0.23306943476200104 0.12715235352516174 -0.12270519137382507 0.02979280799627304 -0.12308414280414581 0.2036934196949005 -0.26322460174560547 0.2001951038837433 0.16953061521053314 0.16571006178855896 -0.013834059238433838 0.11449965834617615 0.16998428106307983 -0.001721840351819992 -0.15430283546447754 0.02352304197847843 -0.06033091992139816 -0.14681988954544067 0.08084918558597565 -0.33350956439971924 -0.1267623007297516 -0.08515457808971405 0.15909680724143982 -0.05476922541856766 -0.3768225312232971 0.01373109221458435 -0.0636819526553154 0.00608767569065094 -0.2545372247695923 0.028555188328027725 0.06321246922016144 0.20106950402259827 -0.18569234013557434 -0.013574877753853798 0.1869480311870575 -0.07258066534996033 0.025806795805692673 -0.12861089408397675 -0.013141131028532982 0.2594393193721771 0.03704030439257622 -0.038080714643001556 -0.05332266539335251 0.07962308079004288 -0.12148606032133102 0.26337718963623047 -0.10876056551933289 0.014500373974442482 0.0892615094780922 0.0908077210187912 0.18626238405704498 0.018144521862268448 0.05482643097639084 -0.0889604389667511 -0.14597205817699432 -0.07116658985614777 -0.04889123514294624 0.021516330540180206 0.07987356185913086 -0.038473475724458694 0.04170738160610199 -0.06548503041267395 0.077039435505867 0.16516944766044617 -0.260153591632843 0.2972813844680786 -0.09263566136360168 0.16919076442718506 -0.2348993718624115 0.04045025259256363 0.06621573120355606 -0.2848460078239441 0.1752055585384369 0.03492549806833267 0.1697402447462082 0.2800327241420746 -0.14753666520118713 -0.0001233406364917755 0.07625596970319748 -0.006048832554370165
34 -0.048979904502630234 0.1650632917881012 0.22855684161186218 0.08481372892856598 -0.03787074610590935 0.2592571973800659 0.021348655223846436 0.011431360617280006 -0.2135777473449707 0.147811159491539 0.07309898734092712 0.014834752306342125 -0.0068611763417720795 0.03322279080748558 -0.2987464964389801 -0.301680326461792 0.10881169885396957 -0.22196173667907715 0.08894632011651993 -0.13797178864479065 0.23849298059940338 -0.11077931523323059 -0.04337809234857559 0.1700005978345871 -0.13600723445415497 0.10974936187267303 0.18978577852249146 -0.18287932872772217 -0.11076366901397705 -0.08216312527656555 -0.07445674389600754 -0.029249627143144608 -0.06644640862941742 0.014016762375831604 -0.12254510819911957 -0.04072348773479462 -0.04336906969547272 -0.000919874757528305 0.022623933851718903 0.166823610663414 0.0947248637676239 0.06549336016178131 -0.21765172481536865 0.17238837480545044 0.053458668291568756 0.1574007272720337 -0.12058547139167786 0.148162379860878 -0.012063167989253998 -0.17850083112716675 -0.21745648980140686 0.32422104477882385 0.21702852845191956 0.03783721476793289 -0.036208294332027435 0.0652889609336853 -0.08813055604696274 -0.0520525723695755 0.2683952748775482 0.25339460372924805 0.0791647657752037 0.0691244900226593 -0.2014138400554657 0.018918491899967194 -0.10637731850147247 -0.0850171446800232 0.1576729118824005 -0.1708076149225235 0.04535654932260513 0.02614235132932663 0.0024297917261719704 0.05032612383365631 -0.11663110554218292 0.17453183233737946 0.024039696902036667 0.09694933891296387 -0.07570314407348633 0.13640642166137695 0.17138054966926575 -0.20447662472724915 0.1127438172698021 0.1772964745759964 0.14712406694889069 0.02775707095861435 -0.2586905062198639 0.005146191455423832 0.04030769690871239 0.28523972630500793 0.0003108866512775421 -0.16616880893707275 0.10981903225183487 -0.058252349495887756 -0.08604409545660019 -0.14167077839374542 0.1005992591381073 -0.04943416640162468 0.04557546228170395 -0.13281750679016113 0.1583843231201172 0.035390906035900116 0.07365266233682632 0.003903169184923172 0.23194009065628052 -0.12288965284824371 0.17444512248039246 -0.04339686408638954 0.07664957642555237 0.09996239840984344 -0.1834428906440735 0.013183869421482086 0.2454269677400589 0.06359817832708359 -0.2051672637462616 0.059282269328832626 0.16762322187423706 0.1721343696117401 -0.4232981503009796 0.0112820565700531 -0.20728857815265656 -0.2238244116306305 0.2292669713497162 -0.05006943270564079 -0.01008499413728714 0.049100786447525024 0.011877663433551788 0.0692167803645134 0.043979212641716 -0.1221315935254097
35 -0.048191141337156296 0.10508628934621811 -0.06497874110937119 0.16353121399879456 0.005201978608965874 0.2529354691505432 -0.07551267743110657 -0.24821573495864868 -0.07656432688236237 0.07474209368228912 0.00929088145494461 -0.028509080410003662 -0.09120047837495804 0.26166316866874695 -0.13046987354755402 -0.21934878826141357 0.12795662879943848 -0.10982266813516617 -0.05460994690656662 0.14883145689964294 0.12881501019001007 0.009828656911849976 -0.06656548380851746 0.19355130195617676 -0.15859855711460114 0.2584981918334961 -0.022117093205451965 -0.2175227701663971 -0.2976651191711426 0.035833265632390976 -0.047980986535549164 -0.1196475476026535 -0.03406519815325737 0.1592961549758911 -0.14255604147911072 0.13209669291973114 0.10262059420347214 0.15478679537773132 0.0001870039850473404 0.23587201535701752 -0.14523909986019135 -0.004779401235282421 0.07172612845897675 -0.14913329482078552 -0.13470979034900665 0.29423338174819946 -0.1285209357738495 0.15020573139190674 0.09340520948171616 -0.18736541271209717 -0.11377531290054321 0.02342379465699196 -0.24313515424728394 0.023120708763599396 -0.21727436780929565 0.31111252307891846 0.07560443878173828 -0.15541484951972961 0.16616734862327576 0.2099221795797348 -0.09170190989971161 -0.14649155735969543 -0.14441516995429993 0.000596487894654274 0.019000962376594543 -0.17541469633579254 -0.05117416009306908 -0.20299796760082245 0.24767011404037476 -0.06690818816423416 0.1518126279115677 -0.052070461213588715 -0.056499600410461426 -0.13406789302825928 0.04914764314889908 0.12972964346408844 -0.29054316878318787 0.11202651262283325 0.28808069229125977 0.0181101206690073 -0.13635975122451782 0.08622966706752777 0.12433455884456635 -0.05944790691137314 -0.15902812778949738 0.024796251207590103 0.018062518909573555 0.10125955194234848 -7.762853056192398e-05 0.09355578571557999 0.0674799382686615 -0.03198006749153137 -0.23246519267559052 0.07319841533899307 -0.003786996006965637 -0.029092073440551758 -0.20690765976905823 -0.10859083384275436 -0.014870226383209229 0.07534858584403992 0.16641350090503693 0.09923239052295685 0.08491545915603638 0.1280982494354248 0.14646540582180023 0.02318895235657692 0.0427604615688324 0.04979681596159935 -0.2733185887336731 -0.08143334835767746 0.13511282205581665 0.27316421270370483 -0.12174670398235321 0.0006569810211658478 0.04855240508913994 0.3164259195327759 -0.42728060483932495 -0.16070258617401123 -0.016718408092856407 -0.2969719171524048 0.21550287306308746 -0.07213689386844635 0.15992029011249542 0.0038817133754491806 -0.18774910271167755 -0.09708291292190552 -0.07014010101556778 0.07922139763832092
36 0.0729798898100853 0.33418354392051697 0.32238444685935974 0.12895753979682922 -0.050176266580820084 0.2949756681919098 -0.08206523209810257 -0.12042543292045593 -0.14607316255569458 0.0016769319772720337 -0.07306332886219025 -0.13557590544223785 -0.04752811789512634 0.07348113507032394 -0.19458787143230438 -0.2338610589504242 0.055211253464221954 -0.05288030952215195 0.2543771266937256 0.007653452455997467 0.334552526473999 0.0171999279409647 -0.16015982627868652 0.13328644633293152 -0.03226395323872566 0.26828235387802124 -0.0324828065931797 0.24425679445266724 0.09544488787651062 -0.06761672347784042 -0.03252720460295677 0.04741917550563812 0.25891128182411194 0.307925283908844 -0.12563440203666687 -0.04863646626472473 0.014602258801460266 0.18200430274009705 0.06387130171060562 0.008512720465660095 -0.09763745218515396 0.14610201120376587 0.13320550322532654 -0.16403502225875854 -0.27872347831726074 0.17393553256988525 -0.12247838824987411 0.02644769288599491 0.07990305125713348 -0.09251334518194199 -0.10251685976982117 0.17549771070480347 -0.052711669355630875 0.07569234073162079 -0.17110128700733185 0.05056463181972504 0.021763883531093597 0.13697963953018188 -0.00938764214515686 0.10189143568277359 0.3252180814743042 -0.034740373492240906 0.09497447311878204 0.2385099083185196 -0.01496712863445282 -0.20771850645542145 -0.004758670926094055 -0.1570202261209488 -0.1253470629453659 -0.07179863750934601 0.2660476267337799 0.001997563987970352 -0.2126440852880478 -0.06675945967435837 0.01094447448849678 0.041443221271038055 -0.1559247076511383 -0.20640933513641357 -0.03191845118999481 0.07655134797096252 0.044188424944877625 0.13997071981430054 0.032983943819999695 0.01178186759352684 0.006392225623130798 -0.06521880626678467 0.13900598883628845 0.024630162864923477 0.12166108936071396 -0.05010000988841057 -0.08712602406740189 0.03991691768169403 0.014008204452693462 -0.049281470477581024 0.2442435324192047 -0.007904138416051865 -0.11423034965991974 0.13404510915279388 0.14387817680835724 0.009895467199385166 0.16640594601631165 -0.05117020383477211 0.03894051909446716 -0.18837730586528778 -0.005445137619972229 -0.009360704571008682 0.11695593595504761 -0.16257844865322113 -0.16277670860290527 -0.08848071098327637 0.026329057291150093 0.1403079479932785 -0.3249576687812805 0.0665372759103775 -0.20795682072639465 0.3312629163265228 -0.21874180436134338 -0.03902183845639229 -0.13276934623718262 -0.3227369785308838 0.20900416374206543 0.13907577097415924 0.13073354959487915 0.14780792593955994 0.03191453218460083 -0.12072626501321793 0.07714840024709702 -0.04403956979513168
37 0.03355336934328079 0.23830178380012512 -0.04489815980195999 0.11057418584823608 0.05727618187665939 0.01945728436112404 -0.09631919115781784 0.19044503569602966 -0.22842882573604584 0.04086930304765701 -0.03286129981279373 -0.13168242573738098 -0.02203531004488468 0.1301782727241516 0.03987452760338783 -0.2889084219932556 0.05373137444257736 -0.21574559807777405 0.16025806963443756 0.19171220064163208 -0.04314073175191879 0.05918413773179054 -0.2355090230703354 0.2948847711086273 -0.08189885318279266 0.22090405225753784 -0.08257248252630234 0.10881682485342026 0.2262115478515625 -0.2743188142776489 0.0006161555647850037 -0.053579434752464294 0.16370955109596252 0.2100437581539154 -0.17628121376037598 -0.022537942975759506 -0.0008093714714050293 -0.003155134618282318 0.19346198439598083 0.13629946112632751 -0.09186802059412003 -0.019036397337913513 -0.044961001724004745 0.09077471494674683 -0.10036435723304749 0.04382610321044922 -0.0393981859087944 0.22121071815490723 0.1999707669019699 -0.3135286271572113 0.11707005649805069 0.2551456689834595 -0.2345060557126999 0.13653919100761414 -0.029985107481479645 0.13623161613941193 -0.11297325789928436 -0.10304514318704605 -0.13014794886112213 0.04208226874470711 0.2681918740272522 0.15016987919807434 0.014466514810919762 0.06040935963392258 -0.0740196630358696 -0.19246071577072144 0.0827125683426857 -0.004286985844373703 0.049154989421367645 -0.17245937883853912 0.15656337141990662 0.12606047093868256 -0.22265824675559998 0.18885597586631775 -0.1088867112994194 -0.10005747526884079 -0.26149633526802063 0.12001209706068039 -0.11065275222063065 -0.15523606538772583 -0.07624968141317368 0.04896579682826996 0.11796240508556366 -0.04536609724164009 -0.0714491754770279 0.13941004872322083 -0.20171606540679932 -0.04990773648023605 0.07528373599052429 0.15364795923233032 0.0878700464963913 -0.07012057304382324 -0.189286470413208 -0.09232640266418457 -0.031102079898118973 0.09851931035518646 -0.10453392565250397 -0.1366073489189148 -0.08281822502613068 -0.0511351004242897 0.003963924944400787 -0.08477385342121124 -0.13181360065937042 -0.23975098133087158 -0.0394647978246212 0.09244462102651596 -0.01377435028553009 -0.22449538111686707 -0.1482190638780594 -0.15392042696475983 -0.1594957560300827 0.07105141133069992 -0.13132382929325104 0.1118120551109314 -0.01971607282757759 0.3893451690673828 -0.3658815622329712 -0.13114914298057556 -0.2320578247308731 -0.3754608631134033 0.13733240962028503 0.1274460256099701 0.1381256878376007 0.13405050337314606 -0.0032976940274238586 -0.20668081939220428 0.17421694099903107 -0.07204985618591309
