1024 128
0 0.005006393062258885 0.0684029336495448 0.1966839518445482 -0.11867724512099852 0.09704340213378264 -0.14910131161968626 -0.0462507375089807 -0.041566104860194165 0.03563249533581648 0.03342092731368733 0.028868488062423172 0.07113569329640673 0.05306002741206951 -0.057825314677337654 -0.05830938529095116 0.042769282458774704 -0.14901308433803104 -0.11232813078812413 -0.07679954378611996 0.054007058595478656 0.027317016305921864 -0.06935601248307227 -0.0256421308862202 0.1150142492664071 -0.09883684638331389 0.0405142668725764 0.06131337034553861 0.005282586916651506 0.006502781626060517 -0.1275464723150626 -0.10374872193391044 -0.004131183547657074 -0.21472301850776268 0.014107300930114208 -0.03275262798638932 -0.13421418791518952 -0.09261107665501386 0.11864672013849681 0.1068939771520018 0.02091139381858736 0.12272277508163648 0.005034269286060733 0.09090563767178532 -0.04846182418371489 0.029063335833145756 -0.19709822454871462 -0.009411747647297984 -0.04599128092890597 -0.002818054610160213 -0.10546096794159718 0.055414671702124774 0.13877317333459932 0.08029506193309535 -0.06343685218507188 -0.08288856901338426 0.10487879226468472 -0.085759621119849 -0.05375710119556888 0.07911157550654385 0.13957306047394935 0.007567939928702873 0.08709648088863259 -0.0006513456512787536 0.018855135138071105 0.08079406145680786 0.027928460721690317 -0.072961331159293 -0.07752997005637421 -0.10057817972049427 -0.051499209790007855 -0.11304800801393838 -0.04608823949369966 0.1291502512187774 0.08601734136653315 -0.03265759968674256 -0.10459930284597824 0.013834393153215807 0.06563798432559181 0.08568839315229582 -0.1802188609133929 -0.06429695990935431 0.12549076996233738 0.1256530059023157 -0.15177061751895135 -0.054486775446231824 -0.029902818122119427 -0.10030766250244244 0.0007987312372407768 -0.03709864369231596 -0.10513864235817551 -0.13844300011391705 0.07754589404989722 -0.19921760149568868 0.039790224724454315 0.05069722754138144 0.11104914635439167 -0.0686323475073188 0.04492325424808578 -0.04904451449259963 0.12717682041817366 -0.07699415414198228 0.022733021325040424 0.06651929601154154 0.01488580625374103 0.11215059817664161 0.14316359735861517 0.051172901433644086 -0.0879646771002268 -0.047488351909371916 0.029509461520731646 0.09645138806569711 0.061755054200724975 0.036125761621159415 -0.1744168002703849 0.08333706622561503 0.1345868308657295 -0.17847457408844605 -0.10767213734011251 -0.05469600192555362 0.040964503675817866 0.00594637397180533 -0.08714214962460463 0.06437655294499742 -0.0015711471011862124 -0.11911809013973494 -0.054046044489466 -0.1152027529976997 -0.02554052160767499
1 0.024843084811749013 0.0570684981475975 0.20610605273110308 -0.11962606942168656 0.08891869520139223 -0.09806066698425717 0.03212341659610403 -0.0784122509547209 0.070980741376906 0.0158970029693806 -0.010586652478876102 0.03519128203493888 0.03014599100623537 -0.08478250541154139 -0.0438466276312863 0.07554519112015073 -0.1599741115415397 -0.03266810030714086 -0.09109446066457222 0.09593319095849925 0.05752024949923139 -0.09193629508295952 0.0045173783786279535 0.047661025704213315 -0.10672377360159083 0.01258866165086195 0.05131719755061668 0.017727441102676166 -0.027854007545289456 -0.14547481711000865 -0.12604061102950082 0.031309975727106795 -0.185236885608951 0.03491943582518028 0.010719058788835174 -0.03996593904620047 -0.0872490496314626 0.06730842323779566 0.07346635016504814 0.08204585379032571 0.10557037517107941 0.0169007518670598 0.0332873825918166 -0.0470602427612216 0.040800403881485876 -0.13244203518251133 -0.04514176477940152 0.0198007845890198 0.024006001270466995 -0.1038743483043862 0.02800767125020899 0.10924067668297412 0.07666443616371652 -0.0016604893430814272 -0.062357080595483866 0.03512928765318698 -0.01081861140686698 -0.05606836157590482 0.052675643704662635 0.10354759962243698 0.04932796047614565 0.04767713861088431 -0.003334896122833072 -0.01855732988134592 0.08414074078023046 0.0715904360979659 -0.05284881941039431 -0.050149105287969654 -0.11975751083990595 -0.1158553777685389 -0.1271469014039443 0.006938730023927398 0.10735354165054709 0.08429540381161568 -0.0009333018132174649 -0.09830090366115923 0.040320898792811796 0.06302235922590682 0.020302631838319634 -0.19920793753296392 -0.050909820635508106 0.07558867300265291 0.09001337193005451 -0.13412519478017357 -0.073338960019599 -0.008998249845306562 -0.1105949416758911 0.04577846192522637 0.029396686598439328 -0.12208713248689185 -0.12506968614348496 0.07110268631413706 -0.13760399794129358 0.004260151958240446 0.07952430212148003 0.09301363333407871 -0.021132801731633885 0.06876411337286809 -0.027407135840097553 0.07970819399535163 -0.0867186387488153 0.01861453887323949 0.08213897530446952 0.0005274143547911796 0.06602613157752062 0.10682524207985984 0.01779415149495496 -0.08771501583737484 -0.07179599985999796 -0.009032506017751546 0.07240434552239672 0.07739162631781622 0.0016370265120604266 -0.16201795377385853 0.03773034013752842 0.07565007791102532 -0.19707230572508497 -0.14242525739570025 -0.022069259523904584 0.019304884100577804 -0.027223909122014844 -0.10302021781971883 0.029257032085186725 0.007277811560877673 -0.0943036703600462 -0.05706317275038263 -0.0752768777230218 -0.03203399971139695
2 -0.060287423082872146 0.009962970956752642 0.15545327198411987 -0.10649340189679109 0.08143983713707456 -0.15629836411060763 -0.007775886081112584 0.010838098855605851 0.04134980198469396 0.09108349595250807 0.059226755782550065 0.0641900061405552 0.004835223820135454 -0.05261193304615778 -0.062314506106057585 0.030352365614439117 -0.18999037147711043 -0.061112078669851216 -0.09893563893490823 0.05146686450298748 -0.03188559176995405 -0.049044776742298284 -0.04738392460112951 0.11798044496939221 -0.07437652404650613 0.0296152208719783 0.0540644657016105 0.019174227274771586 0.03257664667560561 -0.135760886748836 -0.09520949278646601 -0.04401171254108682 -0.2379172810863125 -0.03922030150310961 -0.10074440207132568 -0.08541270411409314 -0.053806170637863075 0.1092277556448858 0.1024283062316767 0.04090850545847956 0.13890363080454268 -0.03516849783419151 0.03302144147300322 -0.015283376668307952 0.015284413066536023 -0.21587008522191764 0.028907717806698655 -0.08855376636876168 -0.061640431466758086 -0.05234825786602575 0.1472889947803849 0.14607112445968676 0.08898104739489793 -0.11398183321610114 -0.061364206456738575 0.04741212642783807 -0.07941379432915717 -0.11497149163677897 0.024510737464966906 0.2331728047383595 -0.0925943418818293 0.06826320453407772 0.030136676444634188 -0.019216306164545928 0.09874075485235678 -0.0065508116694426985 -0.05394269775274891 -0.06905411375588799 -0.019243369811482884 -0.05005997923665213 -0.04948560597365139 -0.023450685301661937 0.1271182773359505 0.058600195708675404 -0.046263838695525666 -0.06313934695868077 -0.005411132132477966 0.05281698408053522 0.08925902825051305 -0.14010801501726108 -0.057861087146071896 0.08623545271206505 0.1127948275803421 -0.07882426301616428 -0.0365040621333812 -0.06758516538929663 -0.08191653823836051 -0.0024744927592712804 -0.0896490634031344 -0.10840309871039007 -0.06460001523611116 0.03680684675303307 -0.20503620308311568 0.022496020766436826 -0.014368910419547467 0.13203792731131483 -0.054860479500198414 0.07516781678018186 -0.0015014666155713325 0.1795199034776579 -0.11434107017310845 0.05034634146039083 0.06404443019501857 0.01225950040793495 0.09043100982581538 0.1780261139850639 0.08553575067843597 -0.04985777480048545 0.011238230316631403 0.07634999765079585 0.11907170451270613 -0.008913945671759339 0.02063418522420526 -0.2271277169669573 0.15586916732861833 0.13090690474244426 -0.0945074110749517 -0.08389168721158896 -0.06733983651170275 0.07458421156897763 -0.025916946472526757 -0.05337219647953398 0.08943595531676055 -0.025016726762108196 -0.1563955502595415 -0.061681005503319564 -0.12321319986389209 0.0012632760089056952
3 0.02719687214680252 0.02985760148670125 0.20737355579301273 -0.14989270201641486 0.12036491952250544 -0.14638346471703384 0.0025756111620896483 -0.02995512841638186 0.045805334590168466 0.04619325490951992 0.040594733339153144 0.06763029100235247 0.06859207986066737 -0.09054994967855527 -0.06205293523972542 0.05933153659910222 -0.169873069114558 -0.09915470876495491 -0.12114688509043983 0.09023768049165105 0.04735196601523763 -0.09372009910105727 -0.001951921420053562 0.10112641947900577 -0.13320685024437529 0.027419715808911158 0.05237969855473336 -0.032224623543902944 -0.02675227069556772 -0.17207682692469034 -0.1438158340991966 0.01673751487978171 -0.23165027599322977 0.004318443977195717 -0.012883176761222423 -0.061662029161190714 -0.09383197580512868 0.12221122558278458 0.13687626610252734 0.04531441438803046 0.15172601080718093 0.009096350699408935 0.06872322162847928 -0.04679106493555906 0.04393842748582899 -0.20527036318273803 -0.037031205656309255 -0.0068272717186303716 -0.00947618301950731 -0.12212044544645945 0.07044900001352541 0.16101929643639565 0.12308912899447254 -0.1041261585635208 -0.09264909274024144 0.05790793062331463 -0.08698909421034581 -0.07320787806841664 0.07568945941312308 0.17374274907931447 0.015941849116386363 0.05159630740824931 0.0006102263778997308 0.006129923613341642 0.11939704898555259 0.06542148612959038 -0.12339965150276554 -0.07902931820559195 -0.09253753666692738 -0.11417017968827148 -0.13565343491104342 -0.0006692564764299257 0.15148450345898345 0.09651158979038751 -0.04215407529265025 -0.09370008700003675 0.0495700046421111 0.08232988432954491 0.07386238416854646 -0.2273318944203773 -0.06406141219403994 0.08131694422830577 0.13248786806117385 -0.16738534436852617 -0.08315165948322457 -0.029116299177653314 -0.15624988988311048 0.014423787301872545 -0.07246640824863572 -0.10839088060057601 -0.13213636945356103 0.08111889366195754 -0.18742059603769262 0.01271666090635222 0.0781758167409723 0.0934714284761763 -0.04396715296209933 0.07869813243011138 -0.010159836046347378 0.15390724088193916 -0.11255252413559394 0.04318744618585463 0.08434933869236222 0.01044195069747093 0.11924664367438313 0.15256010117274882 0.046113288740624876 -0.09294996760340812 -0.04366398343430496 0.023577505807549214 0.08935511422193258 0.0765527199782361 0.014172735648626752 -0.21791485883179795 0.06537897790789214 0.15108899173132814 -0.2021056345210561 -0.14605930679230722 -0.03829187392291163 0.05542864772246574 0.020844193038337278 -0.08878117170093991 0.06455887116039047 0.013781222579483424 -0.1372882153966995 -0.05633758013122011 -0.11201602118592312 -0.028019432257381238
4 0.04293913360168893 0.026855393523395315 0.20392226929270413 -0.1472064352588076 0.10870403116337024 -0.1187082954622245 0.028805644802274905 -0.07177003798359681 0.07315457278717159 0.01949883816744557 0.011409059090723575 0.07379105366094568 0.004710181834986488 -0.08824069150604225 -0.06547629661609856 0.04555416324979496 -0.13447741475583755 -0.09034177640184209 -0.0614272863120451 0.09805357518732398 0.05578644144083156 -0.05668847074194031 0.014694231142735489 0.07724628198786597 -0.1275841697580327 0.008117133053091474 0.05276139073497033 0.049785884456158856 -0.017403740111790893 -0.16308214505555063 -0.0992068818701836 0.03265127360022121 -0.18988881288549017 0.015992098968230246 -0.017932989375246504 -0.030939603067061738 -0.07827135631498458 0.09441979676908062 0.06087312161802174 0.0378808512378926 0.10318246707934356 -0.008350829148491393 0.06559242686166275 -0.052292245365770706 0.06957306865995423 -0.16835126943625786 0.0022454966781456608 0.004391989350209642 0.011703727745640777 -0.11932296472871508 0.07691879957983697 0.12877070970350155 0.10305520490015854 -0.052126385213025574 -0.07636672451457824 0.045502157938757 -0.05231750298911021 -0.03186548039366753 0.04848119661359434 0.15037401332542846 0.023997879555300652 -0.0033410083267407095 0.018191031665010696 0.03542208996946303 0.08740631543464288 0.0642151623263593 -0.08809901582206434 -0.04984998840754877 -0.143487491314258 -0.07047993421858122 -0.10416218263386257 -0.014020899438477693 0.12073991544077585 0.0995485965995306 -0.01975201072512264 -0.0848972216414746 0.038749300812951505 0.04263511901083131 0.0801810993733346 -0.19754508218778652 -0.04163419255561546 0.0820269764731716 0.10382709013874342 -0.1784021773885502 -0.07812282577268777 -0.06265255528108903 -0.13505167908164517 0.042895839462675375 -0.029689872483175252 -0.13685218299651322 -0.15220283171251328 0.062371378401771156 -0.1783342809197692 0.006830433392374352 0.07124952858185551 0.0691587879459423 -0.04257230095134589 0.03763080963776519 -0.027844850247026487 0.12456314980664092 -0.08796031951621291 0.01806243627428797 0.05927165668165028 0.008386235960657054 0.05576773655286308 0.13373795198515126 0.016977070400625897 -0.07948977161046653 -0.05699792508329641 0.004287650211093661 0.07947331881521948 0.06506255295246141 -0.027763601331956066 -0.19950781551135924 0.04568829249701142 0.1367411412836718 -0.19977232240419926 -0.1201315253916672 -0.03092265637406423 0.02449521967862929 -0.014721311320843238 -0.10338855612455863 0.006524161076559322 -0.009962429519834741 -0.11449972047613956 -0.04807066857074782 -0.07054999799016483 -0.0024140667039981396
5 0.03293943588216082 0.016000120160910517 0.14513340811029096 -0.11832903790336145 0.11763261001104708 -0.10701925298437819 0.036713851280788655 -0.01531364820045074 0.10001480619924567 0.02866381506106957 0.0581705154844143 0.019342033671316268 0.060111324005575256 -0.06424378032258425 -0.024390474437628307 0.02694601456728044 -0.14223372003630175 -0.039281421475484565 -0.04722337183128681 0.06153452743320101 0.04984673627390509 -0.09642130003929357 -0.01304633610452637 0.03512041339477937 -0.1055021278184253 0.0035382108639217392 0.08323180256593386 0.020914944363538555 -0.01356759721305998 -0.15697609438393603 -0.11700526166648334 0.07099600596324059 -0.15892713557638197 0.018308162220812312 0.00943411700295753 -0.028962632103046396 -0.0723240528127074 0.08197727348327165 0.10352250874273715 0.011397186605584355 0.09826075329641869 -0.0029282560200858346 0.07846056090681211 -0.031801940933774024 0.049214617650424404 -0.14646877326311 -0.009508849095704942 -0.0006521765936039344 -0.021693953804325337 -0.09672881865224535 0.03981479541452445 0.08613753616559736 0.06736872661262215 -0.07040919469491545 -0.020727961592881396 0.04318738945272616 -0.048283332015746104 -0.06680748652820419 0.08396529926005115 0.10955917401030968 0.038850561961997855 0.048175691038928735 0.015240034286299558 0.00048079933762991476 0.06115371271895879 0.06340661949598936 -0.06339372092250296 -0.035283691546836644 -0.09556580029333599 -0.08235023507503354 -0.09672113271377109 0.012053226384045265 0.10647465849845747 0.07512099763027671 -6.841903621936446e-05 -0.04439100774081558 0.030647181228835935 0.09753230853526364 0.06433636550437226 -0.17168578901914025 -0.027774017874623077 0.04614912717194092 0.09785766592114731 -0.10589813249158578 -0.068839906058335 -0.043938071298072826 -0.09677278095189819 0.00965786673367848 -0.05269092796953116 -0.10946279915632498 -0.12400862352909449 0.04433503193978619 -0.12354623378955605 -0.0012432953397943814 0.07794306497807386 0.06516455187591622 0.0019873116227570728 0.030739750641571827 -0.024180331299460518 0.09224924920342363 -0.07025775266045894 0.034578417658234224 0.0661772977000871 0.010947629751507345 0.0889290415055696 0.09548682019493702 0.009394442970937339 -0.0889691858838071 -0.04871251062502499 0.019069897874733253 0.0736056845585629 0.022444544218512354 0.01370839401501023 -0.15341267231968694 0.051173059685058385 0.09738435625673388 -0.13750429556812233 -0.0777291180096171 -0.041982094375384235 0.01894452352017382 -0.003910072374720166 -0.08966437644288931 0.048267176887509075 0.021130737900892517 -0.1377281918943301 -0.045273378678236144 -0.05232636098529235 -0.02535833612406969
6 0.03472907534751498 0.05145465703972122 0.1927686808055705 -0.1434103824436225 0.11264373110439423 -0.12284155109256789 -0.0017471253831740417 -0.06679642208363329 0.05380526149821298 0.014492676397467066 0.011158819764701185 0.04359508240601417 0.05716053580082619 -0.06829338996259504 -0.032976112133110164 0.08216066629821388 -0.16006839716961632 -0.08082608744083083 -0.07332800193136994 0.06104044618371034 0.039262516718886656 -0.07662291122130895 0.018617758963233883 0.04241204481129324 -0.0871167360983066 0.06418964180319005 0.055697931140950424 0.02129437656794519 -0.03740514997294116 -0.1514575428172188 -0.1512883672759588 0.038944849314091874 -0.2083768442485316 0.024986047258313767 0.010464744485344306 -0.04095900127431205 -0.09557856055753478 0.09621598751030015 0.09833717709255069 0.03530636395368855 0.13222699762816922 -0.004796250685551707 0.05119639435488827 -0.06633306040344629 0.06273287278576996 -0.16987215261937597 -0.03257226442699925 0.03784123873791647 0.050742117502268945 -0.12845701115965305 0.03023886425970803 0.10612554716733404 0.08602219117677998 -0.02407754285524718 -0.09451372765979094 0.04684188047730031 -0.009957626392021985 -0.07990931324741297 0.08904382459899012 0.1315352633440446 0.03361555181472966 0.021283477356182613 -0.01680940645058129 0.004161694084085258 0.06656555970716638 0.10479440448307259 -0.08931175609171235 -0.06607024081812056 -0.10745732248981435 -0.12325910965501706 -0.13108359827467392 0.029489293565645367 0.13813545375886221 0.04908705568356462 -0.03157304135992517 -0.11852220016917962 0.051074468736723326 0.09056714685354704 0.025383706860336534 -0.19337277646422552 -0.06890240255483433 0.061640046489508424 0.08463415524467328 -0.16929912061557098 -0.09454490521345424 -0.014734882347856902 -0.12033017381807638 0.07886848876991608 -0.01430136387339475 -0.12512206160668043 -0.13149750412537325 0.0798870864708028 -0.13035632029813907 0.06860998493039701 0.08019778874159421 0.0916743150199824 -0.006285861311186025 0.07497542784109217 -0.035693432890212935 0.10211482235930694 -0.0618405962940838 0.04016264290380593 0.0936152201526242 0.003441236019712124 0.07038703454882281 0.1247796918804703 0.012290036626454398 -0.06772938203769982 -0.06978189917983676 0.007936762804120182 0.05725731014475004 0.0708880308993385 0.012980871384052845 -0.19634857741847994 0.05275076092387782 0.10363944114795395 -0.20292396186275408 -0.1612954881306452 -0.023292670105360874 0.04978203188289851 -0.03251846256840979 -0.11589296310739342 0.013735443553701831 0.014142935922104376 -0.11824261944173042 -0.04780444939530665 -0.03538469190911078 -0.028255946597017367
7 0.031243123443512846 0.045962531580835846 0.206084380557529 -0.1455680773476665 0.11735420344219064 -0.10263271493304718 0.046328652870521445 -0.1286774657589157 0.0601479416859401 -0.028545145862660968 0.009205332384791856 0.0663230304691099 0.022982300603837134 -0.04943657882060123 -0.044911805818269056 0.11913330480335936 -0.16249557962242567 -0.043511604863775574 -0.05755971959748149 0.10230541188523447 0.07792879626942255 -0.0906866940315533 0.01604172171916634 0.05997502610890895 -0.1335393051963412 0.04102511620877566 0.04905056622952116 0.003873830270647319 -0.06879828232816554 -0.16715916924354388 -0.1471631624222345 0.04618894294384428 -0.1799649465923218 0.05175623224670614 0.03385065808692026 -0.02261894839448917 -0.07462729550518564 0.11321112267021131 0.08163090617349662 0.0513014732239869 0.11276222154070176 0.037693331501515485 0.07757399239047914 -0.07420665526643104 0.07360415983367662 -0.17118498712190636 -0.06522338061164547 0.0800218841861554 0.06771663613366549 -0.1716965992149165 -0.0002678624461791788 0.12096498474441962 0.07860586368620341 -0.035538935067497696 -0.07092526783942174 0.10725658857102109 -0.027677295957078515 -0.03222606711083164 0.0959327037386426 0.13163847831310288 0.07052429953154636 -9.497309620240803e-05 0.05274683948433966 -0.014657723384530006 0.09735177247213764 0.10798312881334225 -0.09350040638328688 -0.045927335881146336 -0.14175706489873205 -0.11287511804915536 -0.18349302888032312 -0.025770240703618524 0.1580682434501026 0.1087112786644554 -0.0017373970959984769 -0.14730642808593883 0.047656160655488986 0.09005594111814355 0.029870427137789896 -0.2336160893315379 -0.032814778601265145 0.014211522320712504 0.11040922487632387 -0.21595205962462366 -0.08813723937230786 -0.007986063074447977 -0.1256342959071883 0.12226044745837279 0.009223734203908433 -0.1181730470981668 -0.18442632028720504 0.09162564870115958 -0.16508642239533122 0.039322606495581246 0.10921978110587459 0.0791783547234825 -0.010491237232310782 0.019822381874364536 -0.022367454091600812 0.0975144593271471 -0.08494247194017031 0.008687026216236602 0.0803770038123089 0.013956835869186614 0.0704134036894155 0.13053844847162313 -0.009993738994140453 -0.11875070296708343 -0.11540812200887449 0.009707370873183262 0.06020389399626202 0.12030306651267013 0.0010104581802075198 -0.174848669997605 0.02499031528806224 0.07287571204488047 -0.20578359253351355 -0.18291950040096905 -0.0004517896334568793 0.00527336064556536 0.005585846328466395 -0.12496382116045547 -0.04741377445297658 0.009102534052681858 -0.09284461710733076 -0.03495417257083135 -0.042468445444502796 -0.057438488896320965
8 -0.022401937978734777 0.0204948448337475 0.17081925789633332 -0.08486221347963026 0.054471572674294415 -0.07778220773818852 0.05137511590665579 -0.02930705889487028 0.09541265548185049 0.02753249356801611 0.025097637467850084 0.027995339796287676 0.007462801283622985 -0.09974167666668943 -0.11630264694924831 0.027898373647234964 -0.12592770642103016 -0.059316985917732254 -0.08023009833742714 0.06533440647094581 -0.03203924119228727 -0.05912173115737445 -0.027369570406154568 0.04808792223160638 -0.10791359134950076 0.024842045547621875 0.07089597269135887 0.06513294878564589 -0.029997136765195016 -0.12564321855375735 -0.09467601172542207 -0.026141652195932574 -0.17318303279847277 -0.03613793388769637 -0.06936754467566802 -0.03171753731637542 -0.03699744252515601 0.09803394340463516 0.050628704589730296 0.05400911328418901 0.1082471912704842 -0.06386438974718016 0.06599576039965625 0.008070520711278471 0.025445487065657475 -0.13217138899682243 0.020141867858504702 -0.021387424514179326 -0.003995427412346077 -0.05832681589133195 0.13618188875359455 0.12946453554524245 0.10707151297542639 -0.04875102626930825 -0.044402782930987365 0.015880216576012195 -0.04295565084721843 -0.0992896022805008 -0.014402093959722001 0.16777423002257466 -0.03712704599596012 0.03207792955000382 -0.018992983140487918 -0.012768583232392982 0.07412346678118006 0.05593271531984478 -0.04208559734044023 -0.08056499484525838 -0.07130670476383079 -0.036898099136157256 -0.08406680621462255 0.005203266240293591 0.08831824480429439 0.05873020418765025 -0.05823265032532499 -0.0463524208296143 0.03450323125334411 0.027848554874153567 0.08468134198476165 -0.16935722730857858 -0.05838413981808908 0.09084199296121215 0.057101929144073194 -0.07771942845169251 -0.05842418308936783 -0.07766452862254841 -0.11902915349442704 -0.025016551400723144 -0.05299784579351482 -0.09540594554758079 -0.08655207160976451 0.024502648013884288 -0.1718399623953652 0.015893646858292036 0.01179430577020076 0.1287987154137762 -0.03995892143745708 0.05061688221160599 -0.007851226041226678 0.12516493415422172 -0.08228556400902227 0.03782791065326484 0.06167214516007927 0.03267004742354857 0.08860929064829165 0.1546389439310347 0.062482069990764506 -0.0664960866913643 -0.07011281568553136 0.014558705767537908 0.09171789839358495 0.02100254161397002 0.010988733010631541 -0.18584200589349215 0.06482584020861987 0.11328846461871306 -0.1326667793132472 -0.03816302041132637 -0.06911806947266623 0.00483226831223482 -0.009509719799474164 -0.09929144805897637 0.05441121822271798 -0.0003185493528247393 -0.12173918269370722 -0.03156853904995573 -0.11303429945453354 -0.00835831996893806
9 0.025986870022980436 0.04783861599391511 0.11454700820838401 -0.1177240600844898 0.08764656979359862 -0.08749465531691937 0.021758754761635652 -0.0742225016471078 0.03375260509912985 0.0018040362952247368 -0.03997917931109834 -0.005469097716107281 -0.004677584078315968 -0.016831487927431207 -0.046522158138844 0.06346801800889831 -0.11072298003651641 -0.08025495836520707 -0.03416980603418031 0.08992789452369133 0.051393650105880366 -0.0709023084178244 -0.020194821116081507 0.0902628870606925 -0.07762035002556306 0.03603281643419248 0.03153766604602178 -0.005048293854368367 -0.06779146536321438 -0.11900621464478395 -0.0846722336216816 0.023674475534984547 -0.1408011266050379 0.004325159612344271 -0.0057334478461142716 -0.04336834505889675 -0.06724497938026228 0.11614165048616869 0.05833909687069789 0.007984688153410371 0.09399845341397285 0.04919835528342485 0.03466648534067833 -0.05845273083841548 0.06441604306436627 -0.09755843096702652 -0.06425290282976819 0.03779768659049573 0.016419728906949607 -0.08207439530752401 0.061645804764869735 0.10805040513844887 0.03124481465972138 -0.045941234441816504 -0.09227869351065997 0.04219487133251323 -0.046319223677394696 -0.05521006404694789 0.04758917062949358 0.09510367477075196 0.06855765612026564 0.03490866992864305 -0.012584736743610384 -0.014607504663906867 0.054063796457701124 0.08943196475575967 -0.03333322710176587 -0.028980602762896924 -0.08190049469565915 -0.06549143146896132 -0.1017037312770602 0.03176362077232918 0.09538484968460262 0.09466424663516261 -0.025667930329954132 -0.09451607892296628 0.073921940436957 0.0436926566614427 0.0457222873724952 -0.15285165320478533 -0.01868418502489283 0.049572132932137955 0.09588306342027719 -0.07945859829087244 -0.08251730897960914 -0.005151836312243387 -0.12695664930997835 0.024490725509745254 -0.030794426504619336 -0.10815053574738462 -0.10966186935518013 0.08719702424123289 -0.10773983953357497 0.02482597725820333 0.08296163356536539 0.048700609709501554 -0.014168273131230485 0.023443216568964698 -0.005224553507434953 0.10605595640565975 -0.0667077250466083 0.019496909284769232 0.05672544721781731 -0.020125573040036013 0.06726305591290153 0.1085346392285625 -0.0032113377291779566 -0.04931459649910818 -0.04186094241105365 -0.006115045607917824 0.05015326122810962 0.046417886656073465 0.060491779856910434 -0.11548030383795921 0.021981922395108756 0.07150421842033679 -0.1351333576992298 -0.10537692360875558 0.018417860471570464 0.03667746497004233 -0.03712810527231262 -0.04614476733726506 0.0031920283692680037 -0.023580618730490038 -0.09145254557332788 -0.028469826365611763 -0.04440014574354864 -0.027833901240359085
10 -0.007914634435391421 0.07125435101882138 0.2254900647996969 -0.11322951292672481 0.12432679928351036 -0.1090298430574477 0.05192797590114069 -0.07439967939757308 0.06618259121251018 0.024570625532908986 0.017637904055855975 0.03474534348302288 0.022707542180744344 -0.09132346189273553 -0.060503871923323654 0.08308737023758563 -0.19067054483167478 -0.037028965674491 -0.10809730141589184 0.05693859827850524 0.05457040253637864 -0.07616014902919255 -0.0007683307609334474 0.06229327605067629 -0.10729842950105074 0.02853481492611011 0.08830051223839236 0.023847966780577483 -0.01853317525834398 -0.16015270046107943 -0.1252890298339 0.04396815716349313 -0.2130501944448293 -0.004444191316596406 -0.018081912640736223 -0.04578763141943074 -0.06312748652814369 0.08550167478906859 0.0685063038756112 0.05324752249457487 0.14898473020959502 -0.033252175245129065 0.05294154060577405 -0.0693767171354253 0.043067944275830494 -0.1633831563826234 -0.020656134030733676 0.003440583977621905 2.8427870048049913e-07 -0.1185034294098964 0.08784799823516645 0.12135583036850547 0.06096236279052074 -0.05272735125760834 -0.1003771830577057 0.031054371673295278 -0.09161457514019188 -0.08096017425359502 0.05362321244718554 0.13859025747313236 -0.0027822799365709912 0.0563319623536793 0.044924195027601616 -0.03502535310812233 0.11274700928935523 0.08144508650824439 -0.07392445006821156 -0.03325640343422374 -0.1035816519596117 -0.09207775894734203 -0.1341743839580196 -0.008052484615106253 0.11061365877732379 0.10762419781264651 -0.005797633196797733 -0.08670863141943008 0.048658053038436754 0.070091498315573 0.04518071009091837 -0.2134065562981825 -0.06730967520521562 0.06532407957154011 0.10784890457076657 -0.13788429052911416 -0.10202248858598033 -0.05211671116821727 -0.09526307883067243 0.07055781716633949 -0.015146214238717488 -0.14673850711736114 -0.1588423535818138 0.04225850640980274 -0.1672492639476535 0.021550203374775145 0.06646372667483236 0.08925286462060267 -0.023805059806680944 0.08444873708212762 -0.021965726189984686 0.11329572474392051 -0.07328646371540141 0.03811237960750031 0.052836914057174784 -0.051020149283494805 0.0934969162900873 0.15386690299144307 0.03336467533940091 -0.09350592610872659 -0.037619045696924945 0.0013784679637246862 0.1070559110006211 0.07914065177772826 -0.004149351122202697 -0.18224932737347965 0.06169562882658454 0.10021889998762004 -0.20625257590669538 -0.13486087289026896 -0.03103609342621361 0.039573876209324683 -0.06503322688162905 -0.10702606184974553 0.04064430739678223 -0.015082738242878707 -0.14206858263896993 -0.08609345092682019 -0.09256355370315746 -0.028607581843026076
11 -0.007494149001352708 0.06095128918183885 0.20262253213711232 -0.13744111140559967 0.16290651173903772 -0.1559146915206273 0.015291648828284413 -0.09099703055211836 0.10759634536410181 0.0283976035858079 0.01632362547997792 0.0406662852125519 -0.003950740031718629 -0.07648383884618043 -0.05739759823469051 0.09547942831146237 -0.20201203099200424 -0.06732823897600992 -0.13661421836595455 0.07590148788618623 0.053411931149399156 -0.092469776528642 -0.007554449359804458 0.06667575357789175 -0.093943861206268 0.013039475486088107 0.06233772102489668 0.052643690455684816 -0.037358492489604336 -0.19308787828254861 -0.11551090530386598 0.004293781888869199 -0.2479744386579819 -0.019833515006641825 -0.012643331252182855 -0.07085440810994167 -0.09067194579493744 0.12964798810732384 0.07946739037870174 0.05962717203076354 0.17332925676654243 -0.008296344319854982 0.0233068428534313 -0.09217395464980935 0.07740604021919574 -0.17793813615960494 -0.026010767877254846 0.006261379889250837 0.005955133925088486 -0.12281388324736285 0.06292856692584298 0.08904467538860301 0.06732811850709448 -0.061471224583569434 -0.08975180479872182 0.07018466609799486 -0.08019436465528934 -0.10026681671337814 0.08867022608850567 0.19157922932657817 0.03369302041856514 0.04217220189782942 0.028951751311086016 -0.028363246884982134 0.1095052082994296 0.048789670915665724 -0.08678661849267134 -0.08046030140063651 -0.09314537037956111 -0.07866909832219067 -0.13600438833911693 -0.010005450505908264 0.09630488696208622 0.14191233397628192 -0.044762898767921576 -0.09144886973124208 0.03318416576640547 0.10111793416733279 0.047930096566316215 -0.2423067769829837 -0.06913669179326036 0.0924448804352892 0.10323820444449598 -0.11723400845424882 -0.09023947199601144 -0.019092595247233193 -0.11444335111513416 0.033235859571761395 -0.0250342948489305 -0.1407407339394059 -0.16864605535752536 0.06069602817236461 -0.18154679814178826 0.06430091417291722 0.05323135599184428 0.07860436369649006 -0.035664630484926275 0.10218220121101397 -0.008055911422534166 0.1104921555146212 -0.0919559965942995 0.039027690676150625 0.055177600453952064 -0.023795061420584067 0.09311466431473456 0.12507372264173997 0.016403543216653018 -0.09681089503454834 -0.0033498065243775903 0.011915141233743952 0.1317438205200806 0.03573503650611608 0.002266312610268333 -0.1962089521603019 0.06864133509880098 0.09792337710370752 -0.21513011142488542 -0.1448650756693216 -0.019634216152899092 0.02434359847688037 -0.05839542608952929 -0.1282736877516076 0.07607085913907308 -0.035559419760687175 -0.1525973666558421 -0.0707088972846717 -0.10776716192352176 -0.03454862871387819
12 -0.02640535127508287 0.018706875251258172 0.1817887442767511 -0.09204687262686492 0.07833067200078943 -0.12802761752606445 -0.012215666075245952 -0.04088270455845902 0.08219374566950573 0.028402761417149598 0.055847377761728004 0.06587006244389289 0.04893545105152848 -0.0784499186997865 -0.061751237366640094 0.06867951161408432 -0.19447520701523466 -0.07586068076441281 -0.10025920110404785 0.07164014830689504 0.010864618548638925 -0.09918530600341506 -0.040909367655163016 0.085205289190869 -0.10017221781295489 0.020700934903912657 0.09016369460098053 0.022993689312774564 0.016754404695698295 -0.14998717225288885 -0.13531442245908012 0.007876257917221607 -0.21922668916106666 -0.033133771791916136 -0.05505732688413504 -0.06760632778097114 -0.05770302062289162 0.11702076930394528 0.10409323830948822 0.05997031626548194 0.1216171756144465 -0.03067731789507375 0.027480029465032783 -0.05295016488178442 0.01822333135844373 -0.19055951000574775 0.013628114984339721 -0.017708667696295144 -0.0116013163289532 -0.08056060936009382 0.10959746822007206 0.1381762009507214 0.10314524601602655 -0.07254058620427553 -0.0702468267391422 0.06096470795070966 -0.08368595090490816 -0.12742311695141298 0.03581886082346484 0.18391736432524627 -0.025302323011284388 0.09376068354783416 0.054937850573435296 -0.03238664795800288 0.08041379977364285 0.051238502452104547 -0.11830920140890062 -0.08718714538292219 -0.05985907391794753 -0.09307228913830248 -0.11567144419057764 -0.02720458776121939 0.1135217613428426 0.09707188177754764 -0.02001294943269902 -0.06460060587945742 0.05090445175557056 0.09725686012117457 0.052299561553196657 -0.20692096097891693 -0.03900766969946268 0.045065040273088865 0.0848143891007303 -0.1320241956844946 -0.08278397956893004 -0.04570780661625143 -0.08464043061687192 0.017570419161760154 -0.024472873338970476 -0.13078318610936832 -0.09717186649631344 0.03467277638613202 -0.18262834833821584 0.01638911183642037 0.0010053169424969826 0.10620229954794638 -0.049204755629106194 0.06568413597793553 -0.013335896819078721 0.11302810398991801 -0.07779778198020736 0.047852943077596105 0.041326804507674425 -0.004895816448636573 0.13947093921346818 0.15182953268684468 0.016226172582599882 -0.07300677520374133 -0.02454851220832536 0.04672353062983376 0.10299912777777653 0.00823196209535496 0.039917946473203285 -0.20659602065331348 0.12579959743880578 0.10845241365124951 -0.1447504230442768 -0.1135479866340852 -0.04417760085726962 0.044144640494527106 -0.03953018931723331 -0.1029379539537889 0.057008191904234895 0.04566398070286886 -0.123383743668455 -0.035120721986932724 -0.09579428046657663 -0.02044944801489919
13 -0.050699081783939205 0.0434241615291557 0.18293990760095927 -0.10321357675002844 0.0771948378139218 -0.14791065361587202 0.010002707661071725 -0.012289887252377977 0.05590449702262162 0.07257986648607177 0.0338816508415214 0.08522934003246961 0.006993806734790688 -0.059376753945457945 -0.06970695321596958 0.022312295504105694 -0.1742417322716055 -0.04265871862258217 -0.11720111662120902 0.05674819666837566 -0.021790845886445594 -0.042626641914759816 -0.025153119982824875 0.1039218843024796 -0.07502277697494436 0.017898709805219695 0.08293885466472954 0.023166904306135817 0.027225210522180108 -0.13386485484621463 -0.0953893268474868 -0.04117699113889315 -0.18585196231835457 -0.030278219273310404 -0.09075622757996943 -0.07417682743842283 -0.062143669273483776 0.08872992956968208 0.09226768769410362 0.05299907509799459 0.10923226741111366 -0.014905322987659335 0.044005368600238653 -0.0006889410546919007 -4.8051880854040124e-05 -0.1482697859463265 0.021472824751620483 -0.04249131763751409 -0.03758343764371537 -0.0659419925722434 0.11689544123878584 0.15872224776479765 0.08705415608773476 -0.07716745345201938 -0.036933360477860756 0.035919953250927665 -0.10482067981676248 -0.11426185870946462 0.010600777961668398 0.18719170759736956 -0.07737999433193925 0.05109935070885114 0.023725065580526568 0.01810767241878591 0.11648917133307735 -0.009610108251736171 -0.051997303873244395 -0.06526821679728546 -0.023960423759961498 -0.042572167040175225 -0.059679237667441445 -0.004401274890661603 0.1088851510323368 0.05935825789373121 -0.015235108790632241 -0.06647085264144274 0.00871889227325049 0.035426449165161814 0.06351895850310053 -0.15484600221876846 -0.05146534678055847 0.0691808298895827 0.0866719904412632 -0.09375042584699018 -0.04581113000041668 -0.06788003100908178 -0.06414398170499855 -7.047079410668112e-05 -0.0639740665600439 -0.08632153863271123 -0.10119150989068841 0.04236144169996009 -0.16772971914551074 0.006113345845192286 -0.005651063648720972 0.13807980170662076 -0.07767913233194214 0.036426263735327036 -0.003580825785937138 0.11832271198337585 -0.09899776491124028 0.03797162635762925 0.06627526165233258 0.02386874185118144 0.08972306320306574 0.14322330181848605 0.05799475696787435 -0.047849203177283806 -0.026033227330248522 0.06000525094567933 0.10470031244034095 0.01283023514632738 0.00047223000402214283 -0.1843525132798543 0.12666215916662488 0.12294025538623604 -0.09756000602891267 -0.046762366712569954 -0.08066448681891152 0.04535393256908208 0.015939876435852565 -0.09402411608219818 0.09155436937113622 -0.00586155832940869 -0.1394596959212048 -0.050964586264293364 -0.14132387194614565 -0.015017202643059906
14 0.007478040972184566 0.08181509832124126 0.19941505704441045 -0.1626092918325863 0.14955575453145295 -0.11994625155430085 0.0002893369297303797 -0.12378030343663723 0.09855218768847913 0.011242551870372725 0.04150780039956467 0.07301961863424763 0.022782469788870652 -0.08855569547106108 -0.03490742402914856 0.09078694444775272 -0.1931303542884532 -0.07189594522482219 -0.07794378264233338 0.09120419431124034 0.045934569718269695 -0.11086298493371353 8.89629553823553e-06 0.08108346831799099 -0.161208049303279 0.05309972616146289 0.035883852974919285 0.024440971643272087 -0.050495621935022265 -0.1791488464843307 -0.1429918771947031 0.04221428091517566 -0.22288737843339107 -0.006853040547897522 -0.03273003100957224 -0.0468606183970906 -0.08603645656926374 0.12229270428383976 0.058985591042533134 0.05284852409285517 0.14399572043776365 0.01758758404420321 0.061215339488718365 -0.053906077090292645 0.06173204641104212 -0.17388283505822968 -0.04672631421224153 0.034838607546869606 0.036395690674220715 -0.14546356519107725 0.04916921717013957 0.17209389987550114 0.08623487510025224 -0.06575454236126348 -0.09436408650989826 0.06354943124113956 -0.07334381617661097 -0.09167547430301123 0.10319380033864625 0.15122322454994722 0.03835023505361882 0.04010175036563804 0.05244588541482189 0.005037254037749351 0.09744960385348543 0.07880707054908098 -0.12160827228942434 -0.05390102167801726 -0.10147678683317214 -0.08944062254741919 -0.1442608932161308 -0.0023496222184663674 0.16233426001450998 0.09809953307897895 -0.04818074961659544 -0.10542818852175613 0.025866878291364137 0.060424782657362 0.0983878638090901 -0.234115847984467 -0.03168292357933627 0.08797809853008771 0.11537285859188262 -0.17202067567790463 -0.12751138764420694 -0.05204678327634149 -0.138468544372266 0.08566822029692012 -0.042716219669011395 -0.1417024089759049 -0.13708533808828546 0.10847400410859664 -0.19748142167896363 0.032473993604122495 0.06486183487283162 0.09949496668747168 -0.03634149171587003 0.09616809900161158 -0.00404490374357359 0.1559757850582873 -0.07424628800744336 0.0368693087297817 0.08717805810149196 0.010540573107493028 0.0885791890674016 0.15040594206122837 0.06611569591446251 -0.09919902919970702 -0.02522289815970321 0.006303412452378551 0.07520791721504552 0.06733253218494883 0.07614900680080541 -0.20577644640876255 0.06223386325263661 0.10985573988147986 -0.19437075572993281 -0.16120673179456543 -0.03031666084060234 0.025481850699486667 -0.023736208716373112 -0.10824059746012765 0.00037833767266635834 0.008531961642272982 -0.12077502899008424 -0.02729977186671609 -0.07638523853697295 -0.031210271602362505
15 0.031639356115075276 0.04379946391722896 0.22584482640275022 -0.15401338572719064 0.09002619574400914 -0.1406418327276235 0.010178416573943637 -0.08101937777302992 0.10205162599441858 0.01938649505330187 0.044261491143639996 0.052818598465659096 0.04238404873586793 -0.058091521560942765 -0.04933283721724402 0.07065271088562916 -0.18520312393972305 -0.07581429340145127 -0.07630815998914983 0.10212141564086631 0.04825740308701275 -0.11771559717641558 -0.0033349561946843004 0.06484348405025564 -0.14879155979289205 0.050270748569805505 0.05750354014472258 0.02274097268073603 -0.03685417420890157 -0.1824503303610806 -0.1411790168435723 0.04066372105773724 -0.20142578030140615 -0.011478019979684879 -0.02492245266601621 -0.053713819612982217 -0.0740948857534382 0.13097576165116423 0.0745250369572402 0.06281601511896644 0.1214857689358758 0.005501166680686806 0.06272567375892991 -0.07429051865075251 0.022539342006911718 -0.15893617641087185 -0.028002616746226266 -0.005387490325725695 0.027561526072148734 -0.1524384526792095 0.06740545601407696 0.13535321229114275 0.09501647333781446 -0.06501751636571888 -0.09015786829648657 0.05665686319180808 -0.08531497692371919 -0.08562920144883542 0.09687515981431209 0.13317914814599038 0.05271597157458305 0.0482360858635691 0.007961141925150919 0.009100607564902725 0.07942814372233235 0.14222248638232912 -0.11222793919533798 -0.05903653908082222 -0.129843860804533 -0.08528760704121581 -0.13003978329406626 -0.009647746907771988 0.13068002915715385 0.10226491417708444 -0.0564430493448014 -0.09435385588742347 0.04397865015696541 0.07226865792307864 0.05974605826992747 -0.250947540117605 -0.04371187743585678 0.04687392532683556 0.11578733993663391 -0.141606657616886 -0.11471932947906072 -0.04020962041599129 -0.1492872901050891 0.08857438419590084 -0.05383106666368494 -0.140611384052489 -0.11929234058794694 0.08780263122287119 -0.18445697589517993 0.0575206373495172 0.06909601245217635 0.08358896859496842 -0.02374819413834383 0.055929941766261815 -0.00539664019809978 0.11323887865414572 -0.06284962700490528 0.0386709736882883 0.08361269026046458 -0.005479300884860784 0.1163469025191853 0.13180626938355802 0.02672545767882182 -0.0980901373770008 -0.07926078271237683 0.010149700238341315 0.07673950406008236 0.07413896762986294 0.03505624641442039 -0.20465468848285653 0.06173227732904049 0.12087903960860082 -0.1892788855797329 -0.1455624830404227 -0.018799328126815645 0.029469216068231417 -0.04053109816579979 -0.09517960128943907 -0.013094304020915933 0.019150345395870867 -0.1074163688109176 -0.04178441962822363 -0.07981043365216824 -0.01351654477494808
16 -0.054337860425858614 0.029155488886175356 0.13994841542047592 -0.10119847449852065 0.09423881373664461 -0.10477222870301953 0.008917233979097609 -0.01712810214098867 0.027034817584601824 0.053838448007456234 0.04187098857043272 0.054243829869419266 0.023338155435438906 -0.03680509181902724 -0.08763020506923923 0.012933294294207918 -0.1604244922662737 -0.04829776571744822 -0.10368207416499449 0.06969828359130191 -0.004224055228116808 -0.03546676887142353 -0.026399846885286272 0.09051949933244384 -0.06787807388971098 0.03791300138601786 0.05547141763403843 0.03936893253059523 0.005163172882481169 -0.14044946116242585 -0.09722709719113133 -0.025565986207915534 -0.1962202806413476 -0.053100377650686675 -0.0720324711931901 -0.04294130486273409 -0.07564363419140874 0.0778503541469727 0.07523026394501471 0.0462226290073877 0.12585696278975142 -0.04123736771524674 -0.0023366079879040104 -0.027782132723705017 0.053625850287000856 -0.17761875353404982 0.016515825766635815 -0.03984594525696328 -0.04246786402367324 -0.049173331084728426 0.12600436951122035 0.14526243723826804 0.07398059914025508 -0.10513875655339004 -0.05742219439489806 0.02123115399382017 -0.08866678090260782 -0.11314456525882935 0.008035428100834841 0.18086128645558067 -0.0526869469839085 0.06487350538412533 0.004583432320698642 0.029361724642898126 0.0867457982694859 -0.00433156392958857 -0.07407436779965235 -0.041537582769569044 -0.012822991254316478 -0.06221018293597744 -0.08128415387128883 -0.019416800625150804 0.09370155256289604 0.07372472861294899 -0.020249764542869354 -0.05709936747436022 0.049317878282216954 0.05868813228377629 0.08017544687972043 -0.1184512880410667 -0.06440746184011481 0.05008825919016016 0.10884536605204875 -0.09285563390128583 -0.03613239672681137 -0.06566850128934112 -0.0800511466385465 -0.02255331716355406 -0.06495489008961852 -0.08683201933118088 -0.06007511779401116 0.0404841542147327 -0.17858687323055641 0.011465368213540935 -0.005081030435871821 0.0836297386892217 -0.062460444045699594 0.053376366492892124 0.005221616345075918 0.15552345957550062 -0.11036994681263608 0.05722192178802455 0.05925173563197277 0.009220886414633611 0.08263562718119481 0.15458980413853923 0.058927883244976366 -0.05189728021361093 -0.003330584306432773 0.036026701382400626 0.0826103606821654 0.008838467362687402 0.03487724460259983 -0.17692244727144094 0.10143075901471711 0.13655290022795802 -0.11343592228694221 -0.08337115518202338 -0.0723448785401166 0.03043346282929804 0.00024188495425048716 -0.05839267483067706 0.07970558393816014 -0.034499932171470966 -0.10741522974983903 -0.05922628822909658 -0.12672905392916214 0.00625915617997669
17 -0.0014081226618185107 0.05388397933238689 0.1780713686857366 -0.12789144080183687 0.0603427764854524 -0.13761901796049444 -0.019000506393950373 -0.0915759665107483 0.06909588474297075 0.03164054186980002 0.032697520400800636 0.03605911394421217 0.026514664127912032 -0.05310683041735836 -0.026667494265538324 0.09882330182540036 -0.19241033023265983 -0.0557384824280748 -0.0603694357138822 0.08560384234758617 0.020323819179748032 -0.07080426756663867 -0.030230808628674007 0.09642530745454123 -0.09167138310153784 0.01700970574288633 0.05909942359778147 0.024644853393795896 -0.024021573058339952 -0.14311585819272124 -0.09568596106466798 0.03496557207728028 -0.1839842961664972 -0.012503981494120955 -0.035750364570880364 -0.08646876457522318 -0.06498099623932975 0.10299893867026878 0.019276386329685546 0.04526949910671321 0.11193842441121973 -0.015181522061069196 -0.000817079042268724 -0.05816587649794332 0.04512747423477476 -0.14554663840763563 -0.020189045537006827 -0.000995941350981198 0.05975747413953 -0.08383055054396903 0.05071023954856289 0.09524491920183095 0.018936462126271775 -0.03849270580485889 -0.07629615466744927 0.052404863460534086 -0.058159166427510414 -0.07761620780756644 0.051934939581929664 0.10587244285123758 0.012289672589178718 0.031514392335959526 0.012748377695324411 -0.01451844345200672 0.09382930819141405 0.06483832134558795 -0.045360181891789225 -0.07648425915499517 -0.11834926114799643 -0.079646272796332 -0.11683002510056782 -0.024583357611299452 0.12251633976651909 0.08207841639228375 -0.04850869089852923 -0.12747481307351274 0.02561903203661245 0.06299310399290008 0.056202599946464614 -0.1588435747114378 -0.020470110248213005 0.07534638259757734 0.1167652441557197 -0.13268818308921962 -0.06317399683363165 -0.010243236744649855 -0.1206974266143718 0.07498920410630545 -0.021999930342911117 -0.10085847459185669 -0.09305088500652547 0.0957560236702502 -0.13415961510425337 0.03270842026373682 0.06794870848854541 0.09451966029369419 -0.03302636632168598 0.09072431639556197 -0.0033442529090494106 0.11035221220323542 -0.06238965195180779 0.017433913014896104 0.04751325711416488 -0.027338371916027893 0.087304384074764 0.11032677336378764 0.015938570967464424 -0.09018673869905544 -0.05142589365390361 0.02215887379512129 0.08507172449054826 0.0518895303786281 0.02362727319124922 -0.18738038740508522 0.05073661974255356 0.08838202909121078 -0.1586377038274311 -0.14351110983698256 -0.04193706924286856 0.02776540569296614 -0.028098074362169538 -0.1010264895934352 -0.024618429970344524 -0.0019512722335097857 -0.09229103422193712 -0.08046590835552965 -0.05258278105349153 -0.027261393331725822
18 -0.013929564207439377 0.06372431845816251 0.202506693037795 -0.14404164925614638 0.09998113149086738 -0.15277708740628276 0.030053853371014617 -0.0648608993744533 0.06997355765170196 0.04111307213249765 0.0371144322275148 0.07785645470842768 -0.003130005916436745 -0.07554383478440792 -0.07177792267159795 0.09913032596348278 -0.20449944165513884 -0.061695704213924285 -0.08893903013604651 0.054903157653156835 0.020069074311278665 -0.06738832518948475 -0.00954602423707287 0.10370321002120893 -0.05111746999718104 0.01809560635829402 0.05150822693509745 0.00567337868747486 0.02323877215391425 -0.16096869466040456 -0.13017638779479015 -0.014986102568548853 -0.23678053568056753 -0.011555894033774324 -0.030835601427066445 -0.08953069467108335 -0.11351664758655029 0.1285305453326569 0.09754814340989522 0.04815609572605852 0.12315267481174962 0.007864220059748557 0.015875267161927633 -0.04918357907892963 0.041553497392884185 -0.2134540666992944 -0.00630804935481447 -0.0017564380365387442 -0.009602454948518772 -0.090995613529733 0.07790948153256616 0.1360776345704396 0.08491561218961179 -0.061266961893944386 -0.09982462357568242 0.07210297721908214 -0.10205218641112274 -0.07764495316092067 0.07056916666936335 0.2052082484324018 -0.0015337971410305346 0.07200768249586349 0.015451970374491274 -0.029499362579473436 0.12413982336630432 0.026145865442549883 -0.07581266489660382 -0.07793216026077886 -0.07882180383473217 -0.11215821710862706 -0.13326340768065445 -0.0367265644173294 0.14615251845334853 0.08903720193829388 -0.014813928783179256 -0.11299513543251352 0.033127265844074515 0.09642945613194358 0.055547091223114645 -0.19166763419333033 -0.04200119185157494 0.04428355969904068 0.11540709675382604 -0.13552956593725263 -0.056183564842033955 -0.03325913817527265 -0.09978702284282902 0.027437333202501992 -0.027814338413392932 -0.13361268462572526 -0.13416322396457103 0.06793481226594988 -0.17821192466392605 0.036502573839127174 0.03662465363477177 0.11855046241671212 -0.06265014419203377 0.0771200464111811 -0.03556329710431585 0.16728874203530125 -0.09954962570498922 0.04273565559690918 0.05189073596272043 -0.03342463480107352 0.08408896622900008 0.17203468886515838 0.021065608550269867 -0.08126525121826347 -0.04079261704271648 0.04358595890197213 0.11038634881456295 0.05905541345494936 0.025068391242896573 -0.20544383358686305 0.10389053169252757 0.09442052835849939 -0.1693389925995684 -0.13377524371243957 -0.03680054543715075 0.026696073823311045 -0.005244439308833525 -0.11197647181898593 0.061051223417595855 0.008492929655423372 -0.11863923277444641 -0.07764966028083256 -0.10346890181986185 -0.06313245367018455
19 -0.04402721245184329 0.06894687998798334 0.16732146445448182 -0.16946542196515954 0.1409033129888829 -0.1150595113139686 -0.04238469911377347 -0.04460444744811371 0.050972347305010934 0.040105497125332054 0.016660430759202545 0.051049648911183194 0.03306963240338046 -0.02393360522504308 -0.0841463175379343 0.03771074950097282 -0.18211846677645527 -0.012232790481947186 -0.08327251212259022 0.0962669535340553 0.014860380650223317 -0.04611805194818685 -0.044115960829082194 0.05465229672550596 -0.13842028028495817 0.018128519703709024 0.0963754378572216 0.030594507651762103 -0.0014704954690304398 -0.12266423493846258 -0.11898476483799376 0.036996596310574885 -0.19243857222627864 -0.01995104229394798 -0.008386370354830036 -0.016147171201567848 -0.0840424425194573 0.06103309501393073 0.06538794261660255 0.037818355335807845 0.1249609977039719 -0.05542441751200291 0.042161893394348546 -0.04689320662669127 0.013503236113122114 -0.19205367826685132 -0.006727129310721174 0.0032326640754504706 -0.002609050429852236 -0.06051395083833662 0.09487150175057167 0.09867497160718663 0.046631276930737105 -0.11548346141538218 -0.013165018724521332 0.018557703038070524 -0.08035557960690579 -0.09326213611829019 0.05805533675616979 0.15990691947212773 -0.019164297836048682 0.014496168669960464 -0.003570607323470816 0.041834621311647634 0.07850725034168456 0.0519556192808271 -0.07987811975444338 -0.008541485761860229 -0.0465874644017311 -0.07207549884259203 -0.09876791456737596 -0.0017556448215402727 0.10708707403159434 0.10322843493083161 -0.01706215330944525 -0.0691706484983966 0.014620907496301905 0.04425872609245717 0.06929710849892998 -0.1336108599185216 -0.0380589263570661 0.01551704798962503 0.10357816811813463 -0.12545116352206306 -0.03334356106746155 -0.01740419674183476 -0.08123192703057877 0.05390667474593471 -0.06204877848545218 -0.10015511357718256 -0.0939537926248512 0.04929124223244148 -0.13632288284276176 0.0013196752638311726 0.048907111917728084 0.09911885298708101 -0.02572933564800474 0.08573573069475929 -0.00841954380363533 0.12493239260499493 -0.08734237811382468 0.06009618799116588 0.04955478955399922 -0.012201462095513989 0.08605943744648144 0.14975276163180348 0.10017379525333292 -0.04461451518103491 -0.00034158592245062255 0.0010665254838408196 0.0756874250490641 0.025942973627214358 0.029182978182683193 -0.19460169844566372 0.06933354597027305 0.11658523137554014 -0.1383068166597881 -0.08532631382906233 -0.045057872104563995 0.03535813509460121 -0.05461316500648181 -0.08864913529415672 0.04716490833139358 -0.023967913722807283 -0.12192942115923674 -0.07719040942187559 -0.07390570861087872 0.006090601803430652
20 0.04047367597924375 0.03701697451803702 0.20039337187808753 -0.1244303934623163 0.10432217765752574 -0.11236894116604947 0.023455533658640414 -0.054666606223906934 0.07486503273452427 0.02300407687541513 -0.0021167968954966315 0.06707810073748734 0.039009537895231934 -0.06748957952693525 -0.04975318452163281 0.07322208859988302 -0.18953672797395535 -0.05578162134772659 -0.10957299811742262 0.08652048682306794 0.05725022921875717 -0.06832382030470674 0.0028175879663981077 0.08099686968062053 -0.1290632244704945 0.026709192390696357 0.04432890690441554 -0.02121957279172795 -0.024488127965849642 -0.17086986099854917 -0.14004126325020091 0.026107812513466548 -0.2168499516908159 0.013310883007765239 0.0027973988424038056 -0.050592327098886204 -0.06840822199604511 0.11121327617483388 0.06427194081025668 0.06339596634623136 0.12269110780186239 0.02288298927755662 0.04959960828584358 -0.06419758873452239 0.013568024386035124 -0.16539405366761395 -0.046651357413066454 -0.019956077811503964 -0.013354460035331863 -0.11189936817233764 0.09293418527317543 0.13086824813747058 0.06655911064411359 -0.036590766025474446 -0.07428023994409216 0.0478821130631122 -0.053257636078731796 -0.07235485493978272 0.08424721040211036 0.16639802442457233 0.05005814719319665 0.07527409453247749 0.0030828497355608196 -0.016728979701537604 0.1023581034213615 0.04892239587541792 -0.08862539098188799 -0.071747044484821 -0.09166074300779245 -0.09644535867328474 -0.13371810180906063 -0.00568512160894019 0.14093971599808028 0.10485014964075878 -0.011141048326538582 -0.09431190616577445 0.03876657309820359 0.07354270000726904 0.07466517318380593 -0.24306113351308492 -0.04770757462818117 0.06077099654018889 0.1340082198177114 -0.12870958705123212 -0.07897987718080351 -0.019767278725590594 -0.14529838883501034 0.052183645069291566 -0.04908107269090584 -0.12103447530787974 -0.11306629382733904 0.07763825276131822 -0.1731519792816384 0.004352224539755093 0.08003396151437955 0.09127341048928476 -0.03963006989671276 0.08234805344403644 -0.025555422936571683 0.14483402652296418 -0.09168604767359323 0.057681306566149886 0.08212608562993609 -0.008830590462995306 0.09264586196376265 0.11812669448538762 0.025819946069573725 -0.1026186171565953 -0.02137769168386311 0.005038618997810781 0.09794725408197749 0.07895727463443099 -0.005978451456351715 -0.20616600834572318 0.08173060030530283 0.11790658889910222 -0.19604548278679143 -0.13357339535750007 -0.022446141619864378 0.05181979892316545 -0.03901586333877329 -0.09800361687910371 0.03577607647624583 -0.006308776416813315 -0.15030928177470873 -0.04148440496962581 -0.0923524745195144 -0.023308679528776962
21 -0.021366494176159642 0.0013375116002000268 0.10851755908550959 -0.10746430594814119 0.08823274292002432 -0.08167815924216923 0.028985069103095923 -0.057736341279080984 -0.0006277389405926198 0.042408139934851874 0.03095139471904206 0.026804502697449696 0.01956329066789161 -0.05818281652349031 -0.07698944754324386 0.009381434160181265 -0.11345507116794264 -0.023243085854849806 -0.054297981157794654 0.09227680959236197 0.04111093997405271 -0.030255192295353575 -0.004300458520654085 0.07710540653780501 -0.07617159372119009 0.029676122430697456 0.01533775585043581 0.020060199333785524 -0.01606327950186118 -0.13656897569206072 -0.08622907601019338 0.02062125724494499 -0.11524844643303024 -0.018275431103584424 -0.01342324959341429 -0.020144242078993537 -0.05769254310619767 0.07957538882663008 0.03561675733838038 0.03752139589532648 0.10164152145482774 0.006775548205807198 0.04057487075953569 -0.011216283153814226 0.04326794249932534 -0.11159010374728737 -0.037886509139225644 0.026874596746381384 0.0069726496770260065 -0.06636894040474 0.07842779560794438 0.1137245249952169 0.07827151255214114 -0.05881133491188587 -0.02835891367598799 0.039414091814816456 -0.014521079660762312 -0.056568140610880474 0.04730766071183537 0.09737397937823232 0.02966465316233441 0.03698132797490455 0.015843482046821653 0.006109911715703005 0.06713078340276216 0.05382099127376606 -0.08099552538930915 -0.03889738248571437 -0.08175757958376305 -0.0744882482398892 -0.1046439647864153 0.01486288505319904 0.10831261686852633 0.07200390635868928 -0.03898047731401746 -0.08268632672221418 0.052524622700130356 0.02416160650598283 0.03296404770867949 -0.1339507064308445 -0.03401160081972087 0.052841949356973734 0.08721617270463163 -0.13310969226313812 -0.05983967791663567 -0.030983814163866186 -0.1050638970638899 0.03707999007348934 -0.02657899711421462 -0.06440293715345143 -0.04808152712065929 0.05977111018193186 -0.14126887944064742 0.03440672075199321 0.027150337791238436 0.02472316805326647 -0.04586172416778361 0.022000375136811245 -0.008174528880320628 0.12186115079898766 -0.08562551744051798 0.011789144421695454 0.05106728823051529 0.02055248277723933 0.07858322722476012 0.07312865193127924 0.03522360333371414 -0.07434891185121566 -0.019190409815344915 -0.01163645153000761 0.05018634207043551 0.04492293036779207 -0.03735624565338475 -0.15754429309099685 0.05513928741801585 0.0794860965355488 -0.1335195293026109 -0.1009546540279186 -0.010804138209198703 0.027290150563381008 -0.003975017759740011 -0.0526383494732544 0.014453906122283674 -0.014919431294707668 -0.0861752010581837 -0.0480064485431711 -0.05713198791701578 0.01726906021741987
22 0.04745295270045087 0.0291530297635898 0.16203987356656424 -0.11958773191257352 0.07987456068465155 -0.10429022571135341 0.028716999407677864 -0.08409296397994802 0.06303060581657136 0.007319505520147144 0.020340186221996168 0.062170071903073845 -0.005294115195705439 -0.050377353068108775 -0.00017623229975829223 0.04504700868309905 -0.09629908550358977 -0.07397905029579363 -0.0492515267195431 0.03623711135262423 0.040020227439882004 -0.05476052408372576 -0.006425199258574747 0.06424800128165267 -0.0834801791870961 0.026908740695340543 0.025060215830575706 0.018738389330804094 -0.024487106051855115 -0.12978515137610255 -0.10554289703191826 0.062233076374874616 -0.1595946854792154 0.058555873817745505 -0.01651818911331584 -0.02895677655483362 -0.08396682683920377 0.09220841613139251 0.08361310998687023 0.004000079006242141 0.11712436125917637 -0.015931108774746953 0.06207164554977752 -0.04650952613259623 0.05163035242865938 -0.16088265319353826 -0.04001078907088646 -0.010292001303623382 0.037465816686619094 -0.13606976676295293 0.03604822499092032 0.08160681064267933 0.033726260694614534 -0.018735353225267398 -0.10372765253072547 0.06990315540963665 -0.0635497474015912 -0.028040179679175287 0.10395420945791049 0.11833953912766958 0.07258238814418308 0.05743806829445364 0.02058572598802358 0.01247415440440938 0.04360229082079887 0.08011419010049939 -0.06877697413228204 -0.03990897155710822 -0.10722074140233166 -0.07712187822535317 -0.07727653778991332 -0.011740511906201625 0.12327551925891059 0.08963366168517552 -0.006245040524017168 -0.08440048107274271 0.059712204911659676 0.06250188098524 0.07010385628275465 -0.1918718998693545 0.004172597438956273 0.03898447643128446 0.11049873833153781 -0.14513630381128653 -0.07283825645029413 -0.020868034547925563 -0.11257781347712567 0.02188873532317321 -0.02191624013421995 -0.15023285888712534 -0.1138335199354435 0.04858756000407004 -0.13513339065670033 0.008664300438101763 0.0815539372710708 0.08086518354853606 -0.03767760468298839 0.005425877800085115 -0.04950396905592227 0.07082279505143924 -0.04756228209413473 0.04990749144918981 0.06529142917982676 -0.010159072048611098 0.06664247586774873 0.098374958797656 0.01493052354391375 -0.05930654114569248 -0.025137478513803973 0.0023228122243771454 0.06159296740476542 0.050074893783466794 0.02236105001952526 -0.1515669108919665 0.023880008452652986 0.09084066620211596 -0.1666657161509194 -0.09702854535318071 -0.03622403373029158 0.02599243853589463 -0.006015920286135935 -0.0521911948691837 -0.015437914754330654 -0.01097829801714041 -0.08986151627540367 -0.012064340955506637 -0.061249293829487905 -0.05504406826629564
23 0.045178627416560466 0.04172867850060187 0.19201634970847137 -0.10111391955983146 0.10125056045559651 -0.11187051616460586 0.032429683898218604 -0.068317973466398 0.07254349682669069 0.012777501457704928 0.019109622394621346 0.05828986984994115 0.06734535133619306 -0.13346004525831662 -0.07335567949889414 0.0722800222418352 -0.19969473437732116 -0.08940284619412606 -0.10852321501381469 0.07913333993888418 0.031840632898490505 -0.08110692344563217 -0.03381375680995186 0.09578239271742386 -0.12613561904967413 0.041992521499975226 0.05691550707374636 0.029571389580825884 -0.010419470903910056 -0.14977495227157298 -0.12408022812433193 0.019883937847018078 -0.20559741974056855 -0.0026002331586214337 -0.0321107206494348 -0.08704698280112771 -0.07727586671882164 0.10791355361229571 0.07667897446249175 0.009091851044506463 0.13552666471984576 -0.001350663820079847 0.05898156843187358 -0.03965346175218367 0.06809215338432933 -0.1936118537909979 -0.012564217346444086 -0.026854716520542717 0.01632340430184916 -0.10364867838886754 0.09935941380159953 0.13527102084614134 0.06924316140402582 -0.09277428650174825 -0.0714391501398381 0.06846630869287425 -0.09028779967764446 -0.07044920308456312 0.07196455114935293 0.16065669754923229 0.002157499800521337 0.05198463692664078 0.02730413603801742 0.007866336838013818 0.0655258610178011 0.07858081398616455 -0.10149543205470196 -0.09041285323117979 -0.12437189063207035 -0.09959419418070084 -0.1142239156505653 -0.024034942917520265 0.1334989473271353 0.1109048906176531 -0.046220455688886816 -0.09125947607213372 0.047127229838124965 0.042003528317880914 0.060984512664292875 -0.21958598937372517 -0.06692733533135864 0.10857069990141772 0.10826290896128894 -0.13054532396049326 -0.07728020008942883 -0.037718841420007254 -0.1626723174787765 0.04351503763000363 -0.044079225373906204 -0.15346546405569733 -0.11195118326310921 0.07197478016484433 -0.17731665417963866 0.024917347357594943 0.0386783965664635 0.11093908902579751 -0.05282363377177586 0.07710025708189641 -0.030704078218723237 0.16307652615743018 -0.0752854407571979 0.032300053318112316 0.09338327436014457 -0.0019011846818583476 0.12888979903700104 0.14851007671726968 0.020363550356189457 -0.11608370315259421 -0.04262582009163667 0.025502957512666284 0.08628146926556347 0.038700814016823785 0.04345380969028863 -0.2029673593698415 0.060274364225207426 0.1288399466201134 -0.17836873901313424 -0.14291172248894252 -0.05927640831557891 0.04852944329528687 -0.017991347491560953 -0.11112796658328358 -0.0020236981252001107 0.012356066153033137 -0.1298265333555058 -0.07230300592922818 -0.0858072683193829 -0.05979099233413145
24 -0.008924474144002286 0.039829583769165865 0.1439176782470337 -0.1456373327126723 0.1216856376038347 -0.15258822941062905 -0.00889837469515573 -0.036886133912541495 0.0747503124377221 0.049701950718530674 0.06435549784494439 0.06068697604829284 0.012589772241792654 -0.030623036451721243 -0.07983896531032393 0.0409722701018623 -0.16840586990335227 -0.08397682928534064 -0.11040122255472719 0.051937463572832875 0.035746977063660784 -0.08800148765910014 -0.007947226573011267 0.08107765539526439 -0.0706838770527724 0.02971414778295469 0.030677127762315466 0.020618457847104116 0.005332432789082608 -0.146569830791221 -0.09073807208955646 0.013014456835506179 -0.21740900378743244 -0.029009902800071964 -0.028080014120534128 -0.048921670298311494 -0.061457974084381535 0.12521143087968403 0.07884107549721088 0.04299937322430878 0.13636154167187045 0.005782745674186515 0.02545668328711527 -0.049818608115604956 0.07488071646988127 -0.18127972686203883 -0.034672634574384645 -0.01591831225783021 -0.036997574566611124 -0.07952921598607231 0.0941350353554425 0.11869038615161068 0.08527591488333686 -0.078291362039835 -0.0729076215105891 0.04724142561326223 -0.08385474440017558 -0.09243389187464761 0.03581437135374643 0.17997230599475303 -0.009098039136396114 0.038825882193054724 -0.028099291423550405 0.015147894401168673 0.0967255328424555 0.03348280784175094 -0.0847915561589591 -0.04735758815970424 -0.06501826729369978 -0.06358884613950352 -0.08650393749411805 -0.01414155840001685 0.09782096720250787 0.0899450860881795 -0.028704501060876596 -0.0760582860021975 0.024715726924093226 0.06786949979720601 0.06711631442804201 -0.17434998068788626 -0.06515333766378398 0.09038405941233542 0.09526303399036322 -0.08673143211774968 -0.045800119632039935 -0.10599605989707343 -0.10837776732959027 -0.0061812419843052325 -0.06154864412282388 -0.11809103986120292 -0.1088934806464666 0.06449202632594245 -0.1682934904525541 0.030806767089018552 0.052634878616009025 0.07981518174877823 -0.06506222463355708 0.07284808410737412 0.008219674688219426 0.1504207135815143 -0.08295589687195251 0.044346907343835264 0.07347452908139848 -0.0215229314450446 0.08322273389324793 0.13748937076424717 0.05154445217283618 -0.048346545424046844 -0.008422690051987435 0.03200323871717278 0.09645441107264127 0.01835147919641073 0.030906068491403003 -0.18743156964858143 0.07528880098264049 0.1198385559741023 -0.13213799838362428 -0.08798430011360221 -0.03642529957410362 0.04477915698303699 -0.07121280580114521 -0.0663097656649646 0.06203529177741535 0.0040253760929426915 -0.11906506801054537 -0.04311109361672597 -0.11047556397877972 -0.015907753228963758
25 -0.0006767920307868367 0.06521342841707782 0.17474178580894714 -0.11121763423747824 0.10125279202758082 -0.12305584180349786 -0.03781378950038104 -0.07795646145680767 0.060986966122397686 0.04806427777685702 0.028638554929230245 0.03860982003415969 0.0382502619277223 -0.021943230658927247 -0.057739445836564325 0.05057419311299419 -0.15048439485858175 -0.06421333608717916 -0.06175120138668936 0.0901875596953704 0.04346460095647416 -0.08057130753853471 -0.024127407071779475 0.06376401311980774 -0.10761543175216638 0.01326066574114924 0.068857105174384 0.05359159669484894 0.007448995633676603 -0.13795037223848575 -0.11226802921602097 0.0037440644067898918 -0.18914976315967214 -0.02077563663957798 0.005528163249385606 -0.04366651932442702 -0.05077985526985857 0.07476317502788306 0.048657811678150295 0.06768107314126803 0.09966243342571642 -0.0007179613237397998 0.019272242907641898 -0.039091799464978975 0.04305185145015814 -0.1626583177164904 -0.003655863597470456 -0.015716906584727186 0.01657326285748326 -0.09721867529607309 0.05061089878407196 0.13240639301110496 0.059760527797139994 -0.08244894728786667 -0.055813011477960604 0.05153041872689081 -0.054380172982853824 -0.08050951803346075 0.07819701991230966 0.1152541323537925 -0.0018987385659059901 0.012206899226673219 0.026220005429240897 0.01295184670899077 0.0705496010868067 0.042588744072255824 -0.056499241578359116 -0.034144271457131836 -0.08708891360631109 -0.033280703863793414 -0.10982382731352293 0.01732217567610766 0.12050453319216838 0.08115203223093025 -0.050839165274341756 -0.059563278410164754 0.03141638770819818 0.05048452394014708 0.026502682384529668 -0.16188194321725496 -0.042400443179291286 0.01747661197628684 0.10876728874527178 -0.10388859445409446 -0.05255963400032709 -0.023614120317060613 -0.1000610007941205 0.041495394305211666 -0.055645977522312665 -0.11327756254873646 -0.12246949451982794 0.07063896173546245 -0.140957068898015 0.023002522604213427 0.04321166067999 0.05829784003844716 -0.009787902295022103 0.045837388377989056 -0.00900485043408772 0.12052897011759715 -0.09117317337136592 0.03509486958724119 0.06183947875488918 0.037670173061172436 0.07213821426135343 0.12126778652355905 0.058273944861063375 -0.06078272688443419 -0.04211340672131793 0.038125996911275654 0.054893467206752554 0.06815529493793283 0.02953528562755991 -0.1902593292328583 0.048242775960954505 0.09882576057779874 -0.1392698822009136 -0.09797061060887363 -0.025145163432515914 0.02689188840192572 -0.014800922230991245 -0.0849633799201665 0.028754490214771458 0.014184454113923469 -0.10675281606765015 -0.05336361709220343 -0.0787651026961294 -0.011337517944619359
26 0.001367145946643576 0.03370786440722007 0.20464174132612767 -0.15787413988188936 0.10814526687464975 -0.11103746309380662 0.026140880630868828 -0.11339921523073052 0.07984981800902713 0.02019812802414654 0.029818380804504302 0.016659320948399385 0.02298457705113343 -0.04123899712452018 -0.023508422790764313 0.06770607087102279 -0.14281321888545764 -0.04327703980135771 -0.07376095584735035 0.0624834494214197 0.02985825487512426 -0.09866505141519039 0.0010482748717383452 0.029853632165666995 -0.10432364294980236 0.02450779880271785 0.033380228645131835 0.05363146682919283 -0.043894236649845306 -0.15850236790046693 -0.12795097334443797 0.067742995782955 -0.17530765144287902 0.021104126271477234 0.009673226072126912 -0.02391290974165137 -0.04905810443205179 0.09924689797256786 0.05250195952423966 0.03974968720300009 0.12967883715105297 -0.008348925973239977 0.04115582027131811 -0.06189963298537114 0.05603332861285706 -0.14042728084695233 -0.058376941722226766 0.039696444245067956 0.0707608878518323 -0.13321845857627995 0.034234691112258776 0.10466720635456178 0.014105656183612928 -0.04675211028195148 -0.07796287872942607 0.04856044117487879 -0.03668369926905635 -0.0635320061815224 0.12464340400685232 0.11291007495911456 0.05528901767230581 0.026918403712282223 0.007976809941496027 0.0069137219436605285 0.06058236334989166 0.11303060179903807 -0.049115298632444036 -0.016558847734136965 -0.1284947156629671 -0.09698277142496972 -0.12735281494581172 0.02452516562913251 0.12115575114358353 0.10018685174529698 -0.054443229567659714 -0.11746813628976852 0.05708745930276989 0.0751756707560195 0.028217720744732902 -0.1995749346162265 -0.05763848253903804 0.028797615350831633 0.08474188933233143 -0.15221156075899137 -0.09089107760479317 -0.0155328482986942 -0.12292297821883806 0.10116562240273574 -0.002397165099230324 -0.1350502881638431 -0.12636759001178038 0.09279552554078987 -0.12356109047419273 0.027249328112419022 0.08150579675945767 0.07350086131538582 -0.00058244211790467 0.02808284102074326 -0.03772730804976424 0.1134283486775515 -0.027811921724909365 0.04376657010341061 0.08589616432609766 -0.00732697663617187 0.06981735257860935 0.11576240032122777 0.04304981119229672 -0.07056825483509893 -0.056098718373656674 -0.02047098318826994 0.06390570443560495 0.057644605153678335 0.019233504302767265 -0.17592054643893087 0.007233008359360378 0.0644735144289337 -0.16966787431665978 -0.13032752639852715 -0.01742935151517013 0.022784104487862618 -0.08234007368854943 -0.10874531396898518 -0.03935010706597275 -0.017879668078624577 -0.10029579446677436 -0.027415772957035782 -0.03621647169685383 -0.0014132000027640226
27 0.021068423171703675 0.0481831840024154 0.15653488980341498 -0.12422357047868643 0.0957860634010549 -0.09481932670776545 0.07404524365755744 -0.07926129756997764 0.0678783241994183 0.008168572235258489 0.027543712822294005 0.05888395460952758 0.04609954321784842 -0.10627952840799945 -0.04530224070404999 0.028318028268181535 -0.1459422750710393 -0.03565075762037629 -0.10677177336621928 0.07435348359931374 0.02014100513154811 -0.050397934091378147 -0.009415698876066048 0.09478926923903867 -0.10937232335951452 0.009381894263408425 0.029397182565627712 0.041218432061192335 -0.003939216586948265 -0.17466149452956947 -0.11990242824070124 0.007590537348469535 -0.1696740755281557 0.003911259046788165 -0.03393236237502323 -0.017694138125901704 -0.08345930536692123 0.10380967681285024 0.0716369368136975 0.019907451465109926 0.11329476227831917 -0.0024349797150008926 0.039715240340372285 -0.033565079746350514 0.08196596201860443 -0.16618916081546437 -0.005698008250088021 -0.0032481177932697424 0.0337423374130358 -0.10228327520924321 0.07376450070710436 0.12968882471825052 0.07798687840872055 -0.04722705324747776 -0.08388920818775072 0.05920419172327759 -0.0645515046774038 -0.06303555969043392 0.03190672044737978 0.14257280694222974 0.03192419262322713 0.037272427499498016 0.015570054386761976 -0.030858545838557135 0.049942855938256744 0.08601796044350145 -0.07309493450121207 -0.0701852093755941 -0.10102608205274939 -0.08667847417588186 -0.0916963046484229 0.020399843550122632 0.1329875880585877 0.09106669597488398 -0.061195085223029445 -0.10048495721667512 0.07578297666702477 0.06748321529227973 0.05075521272598851 -0.19169468192699918 -0.05490667684620939 0.068287971117527 0.11059376814922946 -0.11960328754256606 -0.05709338669784834 -0.039631688377139485 -0.15249983440508694 0.035460912303344305 -0.022191844164685576 -0.11790929750164716 -0.12101682383501974 0.05315150938521323 -0.14499665058986874 0.03520845213438764 0.06474318718256666 0.09243755508964462 -0.03610215281538927 0.02869614727112273 -0.041084389157170526 0.12808993587225792 -0.09451283675771634 0.06552356988750793 0.09622865689441326 0.006266168037472527 0.08986608860965803 0.10588682226536195 0.024104067935244056 -0.08168201444854535 -0.04438697921859682 0.02321304350978976 0.053518559626964675 0.05447779079575185 0.017577856005983557 -0.18670749244532545 0.04951174843046949 0.11339762649033903 -0.1624311152532631 -0.11426872557998949 -0.03591730029005883 0.022853471823573026 -0.02120843357061232 -0.1056637966382611 0.04089265291035941 -0.02082778288313521 -0.10116967238787702 -0.03333460393148287 -0.08543518645114564 -0.043874393915996866
28 -0.016452920320400265 0.02469538190608902 0.2134532502825263 -0.12771094902631305 0.09414447390360793 -0.13657155100961338 0.004282052157337247 -0.016485684736449575 0.07966592071855857 0.06969785024167238 0.050864502862007756 0.07458379479229904 0.019748276168406194 -0.081513687085747 -0.0897467275873173 0.026398519746621087 -0.17227754754128466 -0.060552413861446316 -0.11901303023318185 0.09871187665286013 -0.018142805306916754 -0.08508852617427476 -0.02515767963657004 0.09772240431149644 -0.1160703162353572 0.0004254469945582954 0.07812595021681477 0.03020502894767675 0.022336110331486927 -0.14947747428255717 -0.0947641591171268 0.006104440701551687 -0.24716985718330792 -0.032522684866741 -0.06315613804948096 -0.07971251911212095 -0.08763266032496625 0.1134211238606071 0.11001753301472693 0.08640666892989013 0.14616254378565768 -0.0513677475338294 0.023555717603644593 -0.002060541888608685 0.015535422397429072 -0.1907289319631438 0.0071834687203561395 -0.0516276833720481 -0.02462397767850786 -0.08782201117125839 0.15617359573400263 0.1439557039769079 0.11976857229227432 -0.09417870802156945 -0.04255243624667622 0.04130076850879773 -0.08882433255567661 -0.14680192925308092 0.012743935031171457 0.20426130083308056 -0.05078313742543587 0.0743809509025768 0.013544194348954484 -0.03521139881078055 0.08309324773209273 0.018232004055214836 -0.10651571338686908 -0.06984857046790777 -0.02267550170387844 -0.04728621731248423 -0.05657792158716428 -0.01475452040793735 0.10455172017321081 0.08117135685006174 -0.0004334767974273771 -0.06840347995710501 0.030182380544939207 0.05079052743448954 0.09263548279852446 -0.1612525072555764 -0.06774634338547438 0.046003865054395326 0.12238109226073912 -0.09253070322901384 -0.08193662663030096 -0.0650836612398944 -0.10713595206118602 0.0095020853979867 -0.10911570814860788 -0.11140494948099151 -0.08248076838881302 0.06029700231542527 -0.18189094341372114 0.0145979239312085 -0.00640789440316527 0.13674796078286364 -0.0748656849891531 0.05022676788359605 -0.0066323960218479475 0.1463465628603104 -0.10319418815392538 0.05370004422020841 0.055383628079099745 0.016231490803780696 0.10298025728906737 0.17802514366099104 0.09381866960514473 -0.05018570279962012 0.0071348363529380185 0.0459903664423225 0.09365913660588994 0.027103257464214568 -0.008593125072999495 -0.21269895962515073 0.12316791698528286 0.14071617817737908 -0.14519763012879525 -0.10814849687426994 -0.04870952461572506 0.08636624373947008 -0.025034734243437884 -0.06597958442907312 0.08027315887028007 -0.023574828759846986 -0.13740132129198032 -0.06156536937215494 -0.1544729377687159 -0.016349744618205545
29 0.03400282492717167 0.04781275396702133 0.16833946113613174 -0.13605048956855137 0.08557868036167775 -0.06464619708767659 0.04239851166797847 -0.06311769129149152 0.09199980362435661 0.004287210850588653 0.015735199809445603 0.05930218847931798 0.01850941294064898 -0.040026761200769125 -0.04909622564901067 0.06856866735806541 -0.1243438294767334 -0.05653637348909393 -0.09449796226230645 0.06461448297611845 0.021684502147021178 -0.060615151080470255 0.03645389255232858 0.08249875388804949 -0.07650321355873821 0.030323616155756718 0.055259670941976057 0.014575038262959559 0.00120770609870767 -0.1462879723397944 -0.10680516811069946 0.03501659409559776 -0.15268560965498928 0.02239767313609255 0.029352784692817293 -0.03519756747257622 -0.11249651545035054 0.06261077714772421 0.07557458023420327 0.043640676165776306 0.12007928396810166 0.026268458416734308 0.057192136138292514 -0.0871818256662559 0.05192643696065237 -0.15417800868739895 -0.016368432250335525 -0.004408468775389414 0.03303711761901648 -0.11316926882726833 0.05626626757143043 0.07193263516530728 0.06990260457622269 -0.026520233207225616 -0.04685309822758705 0.0440281631792045 -0.05390967808639743 -0.03803342723062347 0.07573392953266588 0.11511914126903194 0.04707197298181822 0.014493170823578101 -0.043346347653262424 -0.0010107612328772893 0.10110433888674292 0.046093568138093746 -0.07612216315165671 -0.04899090362456748 -0.06904916473545819 -0.09128257537650006 -0.09906485162011325 -0.058031022155550734 0.10713409142861395 0.04949823574232005 -0.050042644569032714 -0.07135863599809132 -0.00516084429854823 0.03320222784007372 0.044709482085880776 -0.16954228027717497 -0.059554314971674856 0.08729124107803196 0.053118400568330955 -0.11511329141698683 -0.06638623820433533 -0.014394030356837867 -0.09651835973354504 0.03518648780815361 -0.028491028119822803 -0.10815277633081377 -0.14461051073510997 0.07717779544409525 -0.12049895256691484 0.007581979790819266 0.05084997082681884 0.08968508568316083 -0.018493494259944777 0.034957987753369266 -0.037880105038449664 0.11150597820475701 -0.06855056042429036 0.038769612166179745 0.05272737189362781 -0.049649408206649065 0.07263914056081623 0.1114283299625948 0.013595713548923548 -0.10654449504630728 -0.03633876308670281 0.0018756748264195514 0.05911612849273079 0.05059473190063899 0.03687850715827668 -0.1411116069961719 0.004349349188968362 0.07495201803576179 -0.14175103817046264 -0.0853716665111723 -0.04222293747558717 0.01974466581811235 -0.04519835561034736 -0.12578900218317782 0.002054825016601488 0.004461906325914008 -0.09796184603924732 0.006165183038390077 -0.05444520908112433 -0.027826999477045283
30 -0.002446658432185683 0.053123828383616324 0.20515080629418947 -0.15013088136960534 0.10245091939485994 -0.1260400945014555 0.03754143994738113 -0.06334241321331421 0.04405870694053132 0.0435982631252298 0.024426367850746186 0.04719406290274894 0.011846407438983473 -0.07680009424264639 -0.04844930569855741 0.08031864704286448 -0.1920319053630967 -0.039690218865680804 -0.09941270376796181 0.06721274827303292 0.02894699757529083 -0.08925915898083164 -0.01737933713995513 0.09174971601884692 -0.11132145165475239 0.03210100605905946 0.06461859705780389 -5.472446224834482e-05 -0.01129702700000309 -0.19254374268113203 -0.12316103288956688 0.05151266628287615 -0.22356176750879683 0.002544258379907168 -0.02346882373513411 -0.06071401404812398 -0.11649543845160643 0.11782421724178509 0.13237868189012966 0.07655038409101368 0.15651181620905358 -0.00890855984440447 0.048905586520403346 -0.044858318582937616 0.06266332041678305 -0.19084329341117942 -0.03584891195830483 -0.012347027505219871 -0.018526500801863587 -0.10556964387268397 0.07964563506797302 0.12064159137402018 0.08638778958409309 -0.07248772972027828 -0.10053771893427782 0.06467699751831735 -0.083940102785631 -0.12585075675998003 0.06246215762364446 0.1834858289062108 0.010926232589022042 0.08833666647361473 0.05523559311767056 -0.011702753723471127 0.09924652308299861 0.0612768944925635 -0.0959017161279599 -0.0725572154083309 -0.09640033009897846 -0.09434560174920502 -0.12224772504907484 -0.024064752699942904 0.135427412541218 0.10443811089723283 -0.030447160928008848 -0.10892171593186248 0.04070630228486355 0.09093636389905062 0.07286399204690634 -0.19823346888020027 -0.06614107278498632 0.053575515641997466 0.13398963341227713 -0.13916127354581975 -0.11251601055730627 -0.032951795230271426 -0.09230180998126036 0.027760593396540686 -0.025069501279265414 -0.13251236474188416 -0.11022710260451334 0.039679586366821375 -0.16343763836289604 0.03381655109613342 0.04419479681584473 0.10082323087918837 -0.051446413707065354 0.10720155399815641 -0.009499349473524713 0.13139129191922266 -0.10463947645224533 0.04947173361822392 0.06268993899115657 -0.034846708591218765 0.08562381414981353 0.1704017396792146 0.041506993216238866 -0.09448541881056707 -0.055440074359368915 0.03799838295670734 0.09660024828106993 0.043880057527325725 0.0024634454536690193 -0.20027797992866617 0.10262906768467789 0.10209463335206989 -0.17706568301773296 -0.1310809763250794 -0.03592828020286706 0.060613436917543916 -0.044961896179475956 -0.08928682172622811 0.025764620835811745 0.006875324181664836 -0.13098843663853174 -0.07438046772432377 -0.08975818772224986 -0.050146788595022515
31 0.0385875671261743 0.056422231381906225 0.23238871923305565 -0.14462671452814446 0.17178174765120727 -0.13705646549552863 0.0700970136799289 -0.05893451588658713 0.11607680445283076 0.017569554568150736 0.02388061666458443 0.0648272502357071 0.04785279298699943 -0.06634877768095594 -0.06522743755507737 0.06751792271862542 -0.21984623776961332 -0.0553803882494671 -0.12431915716706934 0.07943210304001977 0.049894356778613806 -0.09456233636158691 -0.019523132496536325 0.060915001678274384 -0.16610669162215538 0.04585573456299442 0.08430546648082657 0.04897557252527734 -0.022451423393103322 -0.20549039621156007 -0.15371674976659302 0.052537213029182434 -0.23089348644254779 -0.02406553248320942 -0.0212854809503008 -0.04079584734930418 -0.06062405905686602 0.13046572240773782 0.09425048946934886 0.08171358377648254 0.1633684765524956 -0.011364037324613703 0.043070429708704026 -0.07161410719589544 0.07271486378185316 -0.20106919105043825 -0.045221137561321095 -0.008630170276025188 -0.004639414811227958 -0.1263516747783724 0.08328879452820466 0.12329029439294499 0.08701120416706275 -0.044768103776747545 -0.07049124004832559 0.06167873487337801 -0.05511766763908334 -0.10493497990626977 0.07781047218296892 0.18339590199266428 0.056094504594305115 0.07899708441903519 0.006288880631119687 -0.029559648372211544 0.10970347092228301 0.08753699563017753 -0.08696932035743644 -0.06009350183403364 -0.1117847570184364 -0.1060255389546052 -0.13598996607050545 -0.018501083306233033 0.14096615253690917 0.12548131262810377 -0.038424862858148265 -0.09746403641689066 0.043476458825932235 0.0937345661296102 0.07515831651206718 -0.23509084309048794 -0.06444306692423445 0.0720035422169982 0.12375036311842484 -0.13589192622766427 -0.09623718514546815 -0.07610635530197132 -0.13052378396970585 0.05774304015021376 -0.05712451727199556 -0.16522747120901252 -0.17254830813027533 0.09039887828886826 -0.17342905443414355 0.012822749900819413 0.0792183294401669 0.12092280941569093 0.0043682253519178515 0.09170004524919552 -0.04139166240417598 0.14256997996530144 -0.08392783495021917 0.06439342068006651 0.08161504148601911 -0.0037295148031559083 0.09559257732326588 0.1584412421271083 0.023199414583354436 -0.0991892163294276 -0.019644932262822726 0.012915048606050078 0.1252485964204534 0.09042563138556227 -0.004910861687921661 -0.21033237319168266 0.0940883427414799 0.11360706124534518 -0.20586192216630134 -0.17324547927270678 -0.03999525739324846 0.03738456017957354 -0.02595188156531422 -0.11813870229294955 0.0417207207045007 -0.02219715277487536 -0.17050017812100976 -0.04845119159880242 -0.11260227931679596 -0.0373838134107166
32 -0.045129351134062044 0.021993789372756048 0.17279655636380584 -0.13071506173988234 0.10352916973822633 -0.12641350337566282 0.018531884229580464 -0.05073240754605901 0.052341131490080316 0.06613314425356855 0.01125386698035834 0.0890643662838374 -0.004768215658441479 -0.07009288452762256 -0.08138189747206274 0.05471754639347325 -0.14772633247462327 -0.044142731525102015 -0.11081363199002403 0.08940798543867362 0.03466392758159086 -0.07748274300148084 -0.0015721030858276254 0.12637386914078527 -0.09922072464119319 0.03472487174358676 0.045055106012046486 0.039219592729415026 -0.007868692553544611 -0.16353571398145128 -0.1212840638940588 0.022154347531360197 -0.22634824198723902 -0.0012673446125484017 -0.03691055157333131 -0.08704744255997521 -0.11467555762474901 0.08723621139894462 0.08767816349569317 0.06509285417646445 0.1415146803036621 -0.003867044951905687 0.05104078647326271 -0.06401664349801563 0.043133775051376756 -0.1842744000106096 -0.0160573331158513 -0.03194982292893627 -0.003341710391938532 -0.08895486510369476 0.09384304955541865 0.1167813318266981 0.08132636863978425 -0.0608261056456086 -0.07115324838084355 0.04069104341595816 -0.0717878078031476 -0.0836351564789375 0.06494970003870132 0.18113258668657894 -0.008178769826655014 0.04325195402189712 0.01375191472742835 -0.024223489418595225 0.08211428065291172 0.019105858823169817 -0.07962115488915616 -0.05176598871815837 -0.03769298021010788 -0.05823433012047165 -0.09522549517014355 -0.06087773626150737 0.125297913729303 0.060655486059752885 -0.022514320614949554 -0.08378176579319636 0.0013714851799557603 0.04370604072796275 0.055560846807452574 -0.16644273294148637 -0.048088545004463024 0.06323599806341715 0.08220072812648369 -0.14479765818106735 -0.08097720094676107 -0.02360968735213313 -0.08085985642413197 0.015990918899412183 -0.02048105563746265 -0.12556817784173463 -0.09459734261505602 0.07151349471219644 -0.18997781645908182 0.012482134532452374 0.03186603774434096 0.09667235901318252 -0.0421427122814877 0.054976311169028985 -0.0075537650552041915 0.1368938096396072 -0.0973014751029815 0.05108883127676556 0.05778954127672144 -0.020748010569543177 0.0872028978771813 0.13937773521987953 0.04311435157587198 -0.08152264392663315 -0.02104095292569131 0.008789526340155654 0.07986530224625173 0.0593786624753098 0.033501394172453215 -0.20149356867341514 0.10040040668706685 0.08585278336984312 -0.160847059665661 -0.11427519221139217 -0.037091023023793926 0.05355570051454389 -0.021740313342104214 -0.08275897902348013 0.05705116173845285 -0.02665364139871668 -0.11554397474111619 -0.018918492071533538 -0.10951498963043463 -0.030471412429298243
33 0.005265291391096381 0.02980292022791339 0.2059751954252088 -0.13156375005593127 0.0991526981704964 -0.13645580922840547 0.026409632513546544 -0.030697678861774186 0.07463902632780345 0.03663975523162921 0.04038848167421556 0.0680819713479771 0.006951759267560712 -0.0698839895689404 -0.05920369248334819 0.06554000292370292 -0.1933491064822477 -0.08851646723534165 -0.08485941095647352 0.0964429907351365 0.02790823116563759 -0.11056900485138275 -0.007685670292771001 0.11645420901252362 -0.07561807272832438 0.05865092647735476 0.07809867950904771 0.030921110082148828 -0.016375825843010318 -0.19283633942384 -0.13339612784126068 0.0025362388164082692 -0.22265217383440458 -0.013122960647342053 -0.04313198166626814 -0.0724635870678511 -0.0631776293826128 0.14493454600375544 0.12383962292717744 0.06544235053261893 0.13555361595130527 0.003064728082396301 0.06799140213683565 -0.0626218131783095 0.04975246910443328 -0.20198772623427788 -0.022420184818678718 -0.027193381688319713 0.003399943634333324 -0.1261956228378884 0.0960073436735863 0.1201833748337033 0.09606101857818995 -0.05376110511408651 -0.09971502135581452 0.08782754708642898 -0.07044051787038484 -0.08860824875689964 0.07495048094297288 0.20116883984203476 0.011927070204721483 0.06392877430923347 0.022186351594698416 -0.036869277011962735 0.10740721510894242 0.07842940973638915 -0.11131720163840313 -0.0781023297486048 -0.10476259291841869 -0.09812673751121738 -0.11650359336601691 -0.023541023077083875 0.13040563061082117 0.11396426104947759 -0.044117138379350496 -0.08798955999045745 0.0684359377776534 0.08894165577179194 0.06648074018402482 -0.2180441096134324 -0.06073872355277244 0.09170200512362289 0.11047050152322911 -0.1535087658039653 -0.08040284117469088 -0.059884562086835784 -0.13478097271753028 0.022180940826120973 -0.05933705076042516 -0.12671319468121137 -0.1141505826220945 0.061082941059191605 -0.20682197986842324 0.0530336214138356 0.019555794331128876 0.11197783255524829 -0.04743919155768806 0.043400213943254516 -0.028433151032415435 0.14451812967775138 -0.08526766253883673 0.05436304968130746 0.08973227374100026 0.015309856832828183 0.10825110555717841 0.18262330816547828 0.021322849084594506 -0.11358919503771854 -0.06313496702554851 0.008000755476201125 0.11325648157820267 0.05356145553175863 0.012623305379032395 -0.2211777754156683 0.09486146628089427 0.12117538289033081 -0.20185736494008577 -0.13913321732700087 -0.044968406091583535 0.02179300311504493 -0.03206574615201546 -0.099937112154741 0.014497634302406668 0.014353770240237321 -0.15641097557830616 -0.07288705420948612 -0.11085930016864069 -0.04338468221197104
34 0.0333223877078536 0.0519480156377501 0.16004789814949202 -0.12423821474792426 0.0922018877626369 -0.0643666036127055 0.04152474282633925 -0.14693290692183186 0.0639742736148879 -0.037381801279766994 -0.005480264752085897 0.06204893890058558 0.0423189042618124 -0.022863875060705512 -0.011499351260949078 0.09284335814311954 -0.10531202688041422 -0.03514870149029238 -0.03361626180348361 0.07192640801308381 0.09032407898466278 -0.08461078886634811 -0.006841122514962644 0.022654622187917417 -0.16019940608663027 0.049414313230183596 0.01860079581830591 0.008539909638802086 -0.043647906610629165 -0.15182211773695214 -0.1317657483061378 0.11207250751270487 -0.13886512271114657 0.06837220986570831 0.04902194203260163 -0.05088289729249421 -0.08145482020333993 0.07659795540560982 0.06524326777772137 0.003379456157215853 0.0962468848221118 0.03919742428381722 0.020874548656022 -0.0722922584790716 0.1131991916448025 -0.14764535522619965 -0.08418292565400039 0.044847689452601404 0.0937503612984188 -0.1584961371851581 -0.007599437823678077 0.0593331281971699 0.016890836090237712 -0.013283323929398383 -0.06205927900860683 0.0822364316200079 0.01667036249812897 -0.013696418158009753 0.12220098823843735 0.05468065930229395 0.13002424501528162 0.04104916504892429 0.010802669571566182 -0.028392065509345525 0.02343229362231116 0.14624682629925387 -0.06755831847861841 -0.014630429368966491 -0.12333482350989126 -0.09401586129097957 -0.10572452516237596 -0.015173690971733945 0.14576204576056642 0.06819953805379665 -0.021095253489119562 -0.10335082305978081 0.028519086361663237 0.07946692992368726 0.03502846097245614 -0.18529881917591515 -0.001627479415846279 -0.002990223985291194 0.07660260008412781 -0.20165814318885422 -0.098219193892338 0.013849103351901594 -0.13876716525107516 0.11452231782457699 0.014229953637029183 -0.11732530657593615 -0.13365479131172955 0.09038390946548695 -0.10413576508876955 0.021026857715646458 0.1152789405453736 0.0625643895926557 0.017811476383247576 0.040691518012270354 -0.06495114670657733 0.06437808064166446 -0.03266867678097278 0.032608590927306454 0.08920696079670969 -0.028142053701336437 0.0571773389279252 0.07954099564818014 0.013441217820897227 -0.06255025314404891 -0.09983188042961677 -0.03529064452164529 0.04042256495103827 0.09972708242269372 -0.00841177363530423 -0.12812680589010825 -0.010112211809379025 0.05069398888048418 -0.19130412486583712 -0.1898298354961656 -0.00619488422700384 0.006269088174602761 -0.05574770179444301 -0.06063853335501448 -0.0694109260898703 -0.02180956938726216 -0.0640652565905364 0.01762731090955216 -0.0033866489307690087 -0.03779669004151876
35 0.0186651005285005 0.07170925931969048 0.18698677085891377 -0.1302339372300778 0.10701398610942883 -0.11204947661244259 0.006001014393054202 -0.05485810732194196 0.0335937449975252 0.02296768385638389 -0.0030950301294317127 0.07063048179775057 0.022814157950837955 -0.06042490837543476 -0.03871500270599281 0.05503926811204858 -0.1749110887567808 -0.06584604896011215 -0.1170404621274823 0.0909678663610409 0.044176567442064225 -0.09076736745763486 -1.0314199238104947e-05 0.08335934626249712 -0.13323852847301665 0.06286967530450814 0.03961816659737546 0.011144963175993533 -0.008599592243264339 -0.15223146461511067 -0.11717621463941695 0.020092775919280447 -0.22668024752983335 -0.0019599950403369946 -0.03323949652788477 -0.08768804225824456 -0.09566451318191027 0.10773212946115644 0.05719964799848953 0.060157377297809816 0.11971948253028593 -0.006291826164366816 0.05730664184032436 -0.07134707637498991 0.03763738439963828 -0.17386992636810528 -0.03439347546031294 -0.023826450448918207 -0.00821312814410084 -0.11226142434455011 0.09006797364301622 0.1344923216937983 0.06796113343084127 -0.07445534214397766 -0.09383446862622545 0.035311764335881374 -0.08080399362005095 -0.09520335417109803 0.08678943570453491 0.14477865596445233 0.02554918346306587 0.07347389881663101 0.03414029740861644 0.014657542562380825 0.09618113951767827 0.07419013285193642 -0.08617542249704398 -0.04618502548306936 -0.08942981683260129 -0.07204091671767443 -0.10240544566728392 -0.022484071934389074 0.1276080621399599 0.10728584468078481 -0.06075499476612226 -0.07852967337370968 0.024427204845439424 0.0777366298959198 0.09671937359522015 -0.2079377149178436 -0.03805437002844392 0.07183805162999221 0.1170953911867705 -0.14498162761577785 -0.09302660417335 -0.028804433869654207 -0.12764360973325745 0.0324266320928644 -0.05174529118988739 -0.1166742608262982 -0.12303617875046387 0.07969129954729105 -0.1774529655823395 0.017927612704232935 0.05881152073678533 0.08756893003966064 -0.04068505766556222 0.06576447353756153 -0.02023974168744838 0.1362062175141681 -0.04807295066909475 0.028913174641355975 0.04976471959803327 -0.016662447059347066 0.0790073831695215 0.12635398012153662 0.041836906978753086 -0.08590608154816688 -0.047949662473731995 0.02373169496372297 0.0895002514709569 0.09376177912402586 0.04915613657614383 -0.18792282847792616 0.06836336783190401 0.12409453640841862 -0.19061526437499332 -0.13611974517661063 -0.03882935464157513 0.035516121895886744 -0.028349109048279884 -0.07970566224694639 0.025392254782617706 -0.0004276248625932294 -0.13375625555940912 -0.03405126468181908 -0.10900134351777252 -0.012031497255387031
36 0.016250336120573396 0.049355222108424725 0.21433127888975892 -0.17021040033989332 0.11094248411774274 -0.1225669342718127 0.02852954961482927 -0.05361136035165305 0.11517509795014813 0.0569568053611415 0.047506760241441966 0.08279833096085068 -0.003506842440585164 -0.0735799858893814 -0.06153269130005125 0.0707622759717831 -0.1958199015648191 -0.10704273077979859 -0.0992930100777823 0.09418797593284026 0.07157069621908863 -0.1283437733792311 -0.0018943788862350718 0.06997418944835301 -0.1200495979523721 0.03967514052271194 0.10112968406802562 0.05309302344030846 -0.0014486082895044494 -0.20335034817892475 -0.16417567299945476 0.04752139406059924 -0.21509534478129716 0.007603396450962754 -0.029512591353063354 -0.05613564930579368 -0.0706612145393163 0.12028870774755872 0.08313282798403743 0.06138247360267248 0.13009610660396437 -0.014803748956443801 0.04927813943813773 -0.07495448668953214 0.09124016960075594 -0.20258267792679338 0.002665568107164509 -0.003124881943134114 0.01656860324932352 -0.1472383980506364 0.040616302743276024 0.12382791728540342 0.11321524398382439 -0.05457523794398596 -0.09668258803379655 0.08041307863469069 -0.0391326484214393 -0.07696478832167566 0.06946586083446894 0.1611323617303967 0.01350148327450967 0.04758544755804785 0.0620512604030481 -0.0010053706260971529 0.09206510066484853 0.062048763579011484 -0.11334347470402376 -0.08550582551477356 -0.11469879810871521 -0.08345049449292309 -0.09854444546662745 0.01634440483608358 0.12841196353805606 0.09117126581742487 -0.03354421243062296 -0.11233716799314925 0.0516404776982563 0.08305301924551074 0.06347332834993541 -0.22507322927216994 -0.06185081847984024 0.08746170568503238 0.13483091749407985 -0.15299664907914107 -0.11582331392711623 -0.05152128620043759 -0.12656890112962096 0.049108844622071574 -0.0507320320083586 -0.14006186328834358 -0.12463768213149666 0.08435390957348952 -0.18426354803211228 0.04500724569087107 0.04680757103805745 0.11773493517901047 -0.02518672823029184 0.04208730174865448 -0.04188737631382956 0.11662635457728152 -0.09522376508751723 0.06213047859673558 0.08711368390939261 0.007243156481296819 0.07149039053019769 0.12939162383447506 0.03357567198501777 -0.07392758277115981 -0.04572515023804618 0.005176987829866063 0.13051669958446405 0.06354545254374498 0.013596011846603232 -0.19340361768301195 0.058958256621230595 0.08706911698646623 -0.2093675382784529 -0.12043093870292257 -0.0677528945912462 0.008394280404496688 -0.023515535382515478 -0.13956746327936911 0.05984723367551616 -0.005227511905167392 -0.1422115989630941 -0.030943376334526828 -0.10176935692258511 -0.043888981087826434
