1024 128
0 0.21803584694862366 0.3853210508823395 -0.4202638268470764 0.0003950724785681814 0.17462313175201416 -0.3909204304218292 -0.13727860152721405 -0.0005849554436281323 0.022263629361987114 0.1732640564441681 -0.04065704345703125 -0.09204918146133423 0.137661412358284 0.12860116362571716 0.2857731282711029 -0.18221725523471832 0.15635742247104645 0.2815243899822235 0.3309384882450104 -0.11788788437843323 0.059739820659160614 0.46956154704093933 0.13446883857250214 0.015511217527091503 -0.21636779606342316 -0.16054758429527283 0.23540852963924408 -0.10674743354320526 -0.015270202420651913 0.05333307385444641 0.17958186566829681 0.3632444441318512 -0.2443217784166336 0.21745286881923676 0.350517213344574 0.4160444438457489 -0.21407854557037354 -0.5434193015098572 -0.13137252628803253 0.2146908938884735 0.4082907736301422 -0.20796015858650208 -0.1247272714972496 0.1448899805545807 0.1315905898809433 -0.014969959855079651 0.08556754887104034 0.07855287194252014 -0.09621277451515198 -0.1959538608789444 0.08661206811666489 0.023719007149338722 0.043095577508211136 0.1972951591014862 -0.2739217281341553 -0.04697052761912346 0.17767904698848724 0.12611024081707 -0.023620033636689186 0.5796366333961487 -0.07521563768386841 -0.028700660914182663 0.07767902314662933 -0.26170477271080017 0.1875755935907364 0.18098114430904388 -0.38897666335105896 0.15804757177829742 0.13215182721614838 -0.20602202415466309 0.137212872505188 0.19218774139881134 0.22275710105895996 -0.11550796777009964 0.2284969985485077 0.04313117265701294 0.26725369691848755 -0.20689599215984344 0.3468703031539917 -0.03152993321418762 -0.1718478500843048 -0.08655253052711487 0.4573154151439667 0.16022083163261414 -0.1616690754890442 0.03329658880829811 0.04584159329533577 -0.03849579766392708 0.004809773527085781 0.2522420585155487 -0.1281026005744934 -0.21315859258174896 0.06226186454296112 0.12246185541152954 -0.45344290137290955 -0.0006169751286506653 -0.44709885120391846 0.012594769708812237 0.7424191236495972 0.060615912079811096 0.138016015291214 -0.7808752059936523 0.08801285177469254 0.448095440864563 -0.015625445172190666 0.08871637284755707 0.08309155702590942 0.29310131072998047 0.3255394995212555 0.07780471444129944 -0.6249880194664001 -0.6241636276245117 -0.24264560639858246 -0.16251210868358612 -0.3082031309604645 0.21174274384975433 -0.49648815393447876 -0.08257832378149033 0.06144806370139122 0.1381046324968338 0.6204518675804138 -0.2206020951271057 -0.3235868513584137 -0.0861680805683136 0.1628206968307495 -0.2771793603897095 -0.30817803740501404 -0.19486352801322937
1 0.24679283797740936 0.37407010793685913 -0.49305427074432373 -0.0392012745141983 0.21507155895233154 -0.4490857720375061 -0.18732522428035736 -0.0744493380188942 -0.004636391997337341 0.22919218242168427 -0.09742244333028793 -0.07606583833694458 0.13971297442913055 0.18850401043891907 0.37518319487571716 -0.13470987975597382 0.19501934945583344 0.32249441742897034 0.42390531301498413 -0.1980738639831543 0.06405139714479446 0.5773788094520569 0.17381933331489563 0.09785100817680359 -0.23723763227462769 -0.16079503297805786 0.3832600712776184 -0.1872989535331726 0.002419507596641779 0.1198720782995224 0.27900493144989014 0.3979373872280121 -0.23937438428401947 0.2772075831890106 0.4824869632720947 0.5476930737495422 -0.2668960392475128 -0.6083277463912964 -0.2254873663187027 0.22644281387329102 0.5081942081451416 -0.13497260212898254 -0.15656355023384094 0.117497019469738 0.13997027277946472 -0.03013930469751358 0.206298366189003 0.1294204443693161 0.04430767893791199 -0.19045047461986542 0.04579026624560356 -0.025708338245749474 -0.01633775793015957 0.31295669078826904 -0.301241934299469 -0.12044175714254379 0.08689120411872864 0.08451792597770691 -0.003957347944378853 0.7103289365768433 -0.11517888307571411 0.022224996238946915 0.1299109309911728 -0.3575481176376343 0.22258202731609344 0.2916334271430969 -0.47278037667274475 0.2104763686656952 0.17607586085796356 -0.28203845024108887 0.21719545125961304 0.231683149933815 0.27056464552879333 -0.03184070065617561 0.216911181807518 0.021799899637699127 0.33666709065437317 -0.2127780020236969 0.44433796405792236 -0.0576486811041832 -0.13180406391620636 -0.14763958752155304 0.4557174742221832 0.23149462044239044 -0.21026961505413055 0.0396670401096344 0.016388079151511192 0.005527600646018982 0.008835677057504654 0.2984865605831146 -0.15219047665596008 -0.3424006998538971 -0.03537880629301071 0.06083608418703079 -0.532917320728302 0.05512643977999687 -0.38383790850639343 -0.0437653549015522 0.7899888753890991 0.1807919144630432 0.1445675939321518 -0.9042906761169434 0.15295442938804626 0.49303188920021057 0.0024406486190855503 0.10960950702428818 -0.027956409379839897 0.3903256058692932 0.4741135239601135 0.0315948911011219 -0.6966526508331299 -0.6671339869499207 -0.27623099088668823 -0.2294362485408783 -0.2762925922870636 0.09340870380401611 -0.5793132185935974 -0.2307226061820984 -0.03266413137316704 0.10906684398651123 0.672544002532959 -0.25095537304878235 -0.343096524477005 -0.12563420832157135 0.19634318351745605 -0.28527528047561646 -0.38563936948776245 -0.2920134961605072
2 0.18015825748443604 0.4871015250682831 -0.2961503863334656 0.02235783450305462 0.15277385711669922 -0.4406309425830841 -0.07945413887500763 0.08468716591596603 0.07354767620563507 0.12303148210048676 -0.06252752244472504 -0.10928985476493835 0.23439960181713104 0.01431272178888321 0.07811027020215988 -0.2609025835990906 0.1775098741054535 0.19668196141719818 0.23817873001098633 -0.04534829035401344 0.06601958721876144 0.43536388874053955 0.10866060853004456 -0.05771881714463234 -0.2539054751396179 -0.14329694211483002 0.11638323962688446 -0.05417325347661972 -0.039876461029052734 0.06890895217657089 0.04810169339179993 0.37874487042427063 -0.28970298171043396 0.19843727350234985 0.2295505553483963 0.2923353910446167 -0.1976013481616974 -0.5598737597465515 -0.058860138058662415 0.23380336165428162 0.32557299733161926 -0.3645566999912262 -0.046851079910993576 0.19891297817230225 0.17204180359840393 0.05016469210386276 -0.08679606765508652 0.07231125235557556 -0.2644163966178894 -0.23335470259189606 0.13186798989772797 0.09125811606645584 0.11356166750192642 0.010208305902779102 -0.2398000806570053 0.03890015929937363 0.2976982295513153 0.24757429957389832 -0.07273969054222107 0.5027921795845032 -0.029640793800354004 -0.054318249225616455 0.0021560564637184143 -0.17663723230361938 0.1794060915708542 0.07929794490337372 -0.3893025815486908 0.11954895406961441 0.09527067095041275 -0.16364030539989471 0.04043402895331383 0.1733390986919403 0.2503930330276489 -0.19517011940479279 0.25962430238723755 0.05136164650321007 0.1550769954919815 -0.2557654082775116 0.22894980013370514 0.028624415397644043 -0.2834988534450531 -0.07017744332551956 0.5524699091911316 0.12421809136867523 -0.09874067455530167 -0.004010647535324097 0.06482614576816559 -0.059767063707113266 -0.022951733320951462 0.2699102461338043 -0.11618079990148544 -0.03026540018618107 0.1891290545463562 0.23430286347866058 -0.428483784198761 -0.017037412151694298 -0.4933460056781769 -0.01347383577376604 0.8194999694824219 -0.11263066530227661 0.13883410394191742 -0.7857184410095215 0.013326471671462059 0.3917105495929718 -0.014431321062147617 0.10501762479543686 0.23349876701831818 0.18584081530570984 0.20727398991584778 0.20042456686496735 -0.6531598567962646 -0.6596378684043884 -0.23675237596035004 -0.13109628856182098 -0.4236610233783722 0.4311942160129547 -0.4501676559448242 0.10563574731349945 0.21041281521320343 0.21619799733161926 0.6554387807846069 -0.24190178513526917 -0.36432260274887085 -0.029181862249970436 0.11838924884796143 -0.35235708951950073 -0.28035828471183777 -0.12638609111309052
3 0.2631703019142151 0.5004986524581909 -0.49969571828842163 -0.004398368764668703 0.214359313249588 -0.5029749274253845 -0.15870773792266846 0.0038514742627739906 0.03452342376112938 0.21343226730823517 -0.0818144828081131 -0.1183699369430542 0.19217994809150696 0.14473147690296173 0.31312045454978943 -0.22993101179599762 0.20653095841407776 0.325616717338562 0.40198060870170593 -0.14710192382335663 0.07370373606681824 0.5883979797363281 0.16879190504550934 0.019362879917025566 -0.28278064727783203 -0.18650546669960022 0.30352261662483215 -0.14073152840137482 -0.014796656556427479 0.09720085561275482 0.2129869908094406 0.4493829607963562 -0.30768728256225586 0.2772919237613678 0.4356609582901001 0.5139455199241638 -0.26701879501342773 -0.6912599205970764 -0.1734294891357422 0.2653988003730774 0.49886512756347656 -0.26846209168434143 -0.14004357159137726 0.18274398148059845 0.17993712425231934 -0.004973893985152245 0.10472135245800018 0.10404793918132782 -0.12510813772678375 -0.24834638833999634 0.10900000482797623 0.03885738551616669 0.047020699828863144 0.22380897402763367 -0.3268240690231323 -0.05562267452478409 0.21642979979515076 0.1729862540960312 -0.03819452226161957 0.7205517888069153 -0.08929586410522461 -0.01992289163172245 0.0904272049665451 -0.31782546639442444 0.24528959393501282 0.2287086844444275 -0.499220073223114 0.19407333433628082 0.16515876352787018 -0.262513130903244 0.1609346568584442 0.23880085349082947 0.3027723729610443 -0.14336787164211273 0.2815876305103302 0.05289274826645851 0.3086256682872772 -0.25855541229248047 0.41403505206108093 -0.0324617363512516 -0.2290361076593399 -0.12078361958265305 0.5803893208503723 0.20058928430080414 -0.19819994270801544 0.025886446237564087 0.05403808876872063 -0.03327975794672966 -0.005465012975037098 0.3241117596626282 -0.1645262986421585 -0.24920156598091125 0.08320949971675873 0.16206960380077362 -0.5740467309951782 0.011712696403265 -0.5418545007705688 -0.0028292685747146606 0.9384657144546509 0.06441448628902435 0.1657508760690689 -0.9829712510108948 0.104843370616436 0.5459765791893005 -0.02389434725046158 0.11920753866434097 0.10008732974529266 0.3569542169570923 0.39920952916145325 0.11940870434045792 -0.7818731665611267 -0.7876413464546204 -0.3006581962108612 -0.20618605613708496 -0.38790062069892883 0.2845574617385864 -0.6055827736854553 -0.09184332191944122 0.09600377082824707 0.18970628082752228 0.776288628578186 -0.2857193052768707 -0.40811237692832947 -0.10724128782749176 0.19966553151607513 -0.36058712005615234 -0.386070191860199 -0.2502772808074951
4 0.2035340964794159 0.3932263255119324 -0.39331069588661194 -0.004791900981217623 0.17208796739578247 -0.40260303020477295 -0.12712451815605164 -0.0028248406015336514 0.027020329609513283 0.16966405510902405 -0.056636225432157516 -0.09472912549972534 0.1596178263425827 0.1115400567650795 0.248208686709404 -0.18880940973758698 0.1635517030954361 0.25618234276771545 0.31983277201652527 -0.10968407243490219 0.06397030502557755 0.46726828813552856 0.14470355212688446 0.015942871570587158 -0.22841599583625793 -0.15329575538635254 0.24335578083992004 -0.11379509419202805 -0.014309893362224102 0.07396445423364639 0.16565589606761932 0.3637513220310211 -0.24955235421657562 0.22877126932144165 0.3412531316280365 0.40328529477119446 -0.21634039282798767 -0.5453565120697021 -0.13730192184448242 0.2195110321044922 0.39572206139564514 -0.22720080614089966 -0.10377802699804306 0.14468885958194733 0.14090126752853394 -0.005034864880144596 0.07325315475463867 0.08973830193281174 -0.11130114644765854 -0.18857023119926453 0.084494948387146 0.03187864273786545 0.04355133697390556 0.17775973677635193 -0.26536184549331665 -0.04555964842438698 0.17641431093215942 0.13742700219154358 -0.024583235383033752 0.584169864654541 -0.07169739156961441 -0.01965494453907013 0.06841886788606644 -0.25972485542297363 0.19177642464637756 0.18281182646751404 -0.40323516726493835 0.15249662101268768 0.13665203750133514 -0.20946255326271057 0.12605583667755127 0.1913243681192398 0.24046683311462402 -0.11644801497459412 0.2328699678182602 0.04269447550177574 0.2527832090854645 -0.21833108365535736 0.33322396874427795 -0.01668783649802208 -0.18976819515228271 -0.09131544828414917 0.4733704924583435 0.1660165935754776 -0.15490524470806122 0.027372099459171295 0.03908998891711235 -0.02694726176559925 -0.0032755553256720304 0.26628541946411133 -0.12302418053150177 -0.1871897429227829 0.06810782104730606 0.13962973654270172 -0.45858392119407654 0.009377611801028252 -0.42861220240592957 -0.008651020005345345 0.7564813494682312 0.053506504744291306 0.13961263000965118 -0.790107250213623 0.08667654544115067 0.4247729480266571 -0.013247338123619556 0.09273742139339447 0.08961198478937149 0.285711407661438 0.31831562519073486 0.09143923223018646 -0.6316273808479309 -0.6232027411460876 -0.24999921023845673 -0.16683003306388855 -0.3206131160259247 0.227632075548172 -0.4908720850944519 -0.07011264562606812 0.06568339467048645 0.15030352771282196 0.6145349740982056 -0.2235480695962906 -0.3245668113231659 -0.07498769462108612 0.1660839319229126 -0.28367817401885986 -0.3134884536266327 -0.19329917430877686
5 0.1923249065876007 0.40455856919288635 -0.370901495218277 -0.00018861726857721806 0.17590855062007904 -0.4060383439064026 -0.12116797268390656 0.001857640454545617 0.030145321041345596 0.1664765328168869 -0.07663094252347946 -0.08384467661380768 0.17505645751953125 0.09250649064779282 0.21299825608730316 -0.18133491277694702 0.17545068264007568 0.23506449162960052 0.29603710770606995 -0.10397791117429733 0.051019564270973206 0.4659673869609833 0.1377876251935959 0.012169403955340385 -0.23416927456855774 -0.14084705710411072 0.22950391471385956 -0.11393962055444717 -0.016535889357328415 0.09424077719449997 0.1492597907781601 0.36790069937705994 -0.2548905611038208 0.21651318669319153 0.33175933361053467 0.38670265674591064 -0.20613813400268555 -0.5423032641410828 -0.12548089027404785 0.20582564175128937 0.3806789219379425 -0.23823955655097961 -0.09091176837682724 0.1563858836889267 0.15086500346660614 0.012576563283801079 0.04844401031732559 0.0881938710808754 -0.11535845696926117 -0.18983449041843414 0.08589418232440948 0.03457514941692352 0.057260945439338684 0.13317154347896576 -0.2533424198627472 -0.03192056715488434 0.18744201958179474 0.16087552905082703 -0.034426867961883545 0.5609254837036133 -0.06569094210863113 -0.014178749173879623 0.05938373878598213 -0.24610096216201782 0.18088418245315552 0.1597798764705658 -0.4048175811767578 0.15597443282604218 0.12629063427448273 -0.19922912120819092 0.12040354311466217 0.18675009906291962 0.24471905827522278 -0.10044290125370026 0.2293473780155182 0.03281180560588837 0.2189435362815857 -0.2226959615945816 0.3020932376384735 -0.00913560763001442 -0.18710938096046448 -0.1002645194530487 0.4688020944595337 0.15726692974567413 -0.14602258801460266 0.005021865013986826 0.029260633513331413 -0.02287229336798191 -0.006775073241442442 0.2689090669155121 -0.11932449042797089 -0.164841428399086 0.08459550887346268 0.1465625762939453 -0.4564603269100189 0.020149270072579384 -0.4042840898036957 -0.021837804466485977 0.7456896305084229 0.021046528592705727 0.12653549015522003 -0.7886500358581543 0.06996038556098938 0.4104989171028137 -0.009146932512521744 0.0948348119854927 0.1040128692984581 0.25499680638313293 0.3157607316970825 0.11679591238498688 -0.6276103258132935 -0.6152871251106262 -0.23291482031345367 -0.1680537909269333 -0.32464995980262756 0.25102394819259644 -0.4636242985725403 -0.047207243740558624 0.08238941431045532 0.15527859330177307 0.6049968600273132 -0.22067157924175262 -0.32802894711494446 -0.06554418802261353 0.1370501071214676 -0.2990465760231018 -0.30919408798217773 -0.18786148726940155
6 0.23558557033538818 0.4413270652294159 -0.4430374503135681 -0.016481850296258926 0.20560307800769806 -0.45475754141807556 -0.15451543033123016 -0.0038541490212082863 0.037287380546331406 0.20889391005039215 -0.07211525738239288 -0.10294735431671143 0.1803559511899948 0.1389523446559906 0.3011937439441681 -0.19878792762756348 0.19355720281600952 0.3012883961200714 0.3780054748058319 -0.13586822152137756 0.06247200071811676 0.5448142290115356 0.16457605361938477 0.03722483292222023 -0.25846609473228455 -0.16997182369232178 0.2872733771800995 -0.14007443189620972 -0.017489328980445862 0.09300487488508224 0.20971791446208954 0.4105447232723236 -0.2726718485355377 0.26307106018066406 0.4030980169773102 0.48266854882240295 -0.2480235993862152 -0.6301676034927368 -0.16273894906044006 0.2455594688653946 0.4646964967250824 -0.2411632388830185 -0.12908688187599182 0.16100336611270905 0.15836116671562195 -0.007664145901799202 0.09900400042533875 0.10640226304531097 -0.09786198288202286 -0.2229282557964325 0.09031910449266434 0.021674707531929016 0.038077302277088165 0.21907079219818115 -0.30162349343299866 -0.05921110138297081 0.18365594744682312 0.15816307067871094 -0.024446142837405205 0.6696571111679077 -0.08864936977624893 -0.01009098906069994 0.08027717471122742 -0.30067211389541626 0.22332707047462463 0.21283172070980072 -0.4616107642650604 0.18781758844852448 0.15117396414279938 -0.24104855954647064 0.16013303399085999 0.21854527294635773 0.2737702429294586 -0.11077401041984558 0.2540881037712097 0.04492553323507309 0.29215118288993835 -0.24155734479427338 0.3905099928379059 -0.022832980379462242 -0.20314109325408936 -0.11205970495939255 0.5238668918609619 0.2008550763130188 -0.17755691707134247 0.030879182741045952 0.047994621098041534 -0.026782432571053505 -0.0018389582401141524 0.3059936463832855 -0.14781193435192108 -0.2382878065109253 0.06092379614710808 0.14659953117370605 -0.5163014531135559 0.015233801677823067 -0.47486546635627747 -0.015096508897840977 0.8521159887313843 0.07769611477851868 0.15021170675754547 -0.9126325845718384 0.10782444477081299 0.4970925450325012 -0.01595267280936241 0.09947510063648224 0.07805293798446655 0.33438611030578613 0.3854235112667084 0.091600701212883 -0.7216554284095764 -0.7146166563034058 -0.27853643894195557 -0.1943499594926834 -0.3502364456653595 0.2378108948469162 -0.5591578483581543 -0.10707012563943863 0.07063791155815125 0.15760046243667603 0.7109069228172302 -0.25942912697792053 -0.37305325269699097 -0.09235018491744995 0.18106679618358612 -0.32135429978370667 -0.3607707917690277 -0.2319072037935257
7 0.2591148614883423 0.3834085464477539 -0.5422435998916626 -0.012828701175749302 0.20009735226631165 -0.4134121835231781 -0.18003544211387634 -0.04084884747862816 0.0004757476272061467 0.2293633222579956 -0.034882888197898865 -0.10865703970193863 0.09369762241840363 0.21144084632396698 0.43663349747657776 -0.16530151665210724 0.16064046323299408 0.3770884871482849 0.43006277084350586 -0.1742834448814392 0.07154285162687302 0.5447295308113098 0.18179355561733246 0.08034078776836395 -0.22643400728702545 -0.19569630920886993 0.3462830185890198 -0.15165270864963531 -0.010848111473023891 0.06481007486581802 0.2743317186832428 0.3946972191333771 -0.2540316581726074 0.26689612865448 0.46718427538871765 0.5439348816871643 -0.24672827124595642 -0.5976994633674622 -0.19427502155303955 0.23388320207595825 0.5141177177429199 -0.14209207892417908 -0.18533024191856384 0.13514618575572968 0.1324981451034546 -0.05718647316098213 0.21362634003162384 0.09650114178657532 -0.014026280492544174 -0.19674216210842133 0.06745105981826782 -0.001561419921927154 -0.005039673764258623 0.3293178975582123 -0.32640326023101807 -0.10519398748874664 0.1155593991279602 0.07779063284397125 0.013223066926002502 0.7005301117897034 -0.12006828188896179 -0.006418005563318729 0.133815199136734 -0.34238147735595703 0.23933176696300507 0.2641986608505249 -0.4426525831222534 0.2105853408575058 0.16971544921398163 -0.2548421323299408 0.1951344907283783 0.22001822292804718 0.2534814476966858 -0.08361591398715973 0.24041004478931427 0.03603348508477211 0.3519367277622223 -0.20261937379837036 0.464357852935791 -0.054818201810121536 -0.14431704580783844 -0.114938884973526 0.4634459316730499 0.20271483063697815 -0.21189339458942413 0.061195529997348785 0.046284448355436325 -0.04078551009297371 0.013672360219061375 0.27085843682289124 -0.15596716105937958 -0.33647650480270386 -0.016888007521629333 0.0803954228758812 -0.5205870866775513 0.01192527450621128 -0.47439488768577576 0.03128249943256378 0.7971727848052979 0.17990058660507202 0.16381408274173737 -0.8895487189292908 0.14624159038066864 0.5295648574829102 -0.01855943351984024 0.08399283140897751 -0.0043127951212227345 0.4036153256893158 0.43259671330451965 0.023422392085194588 -0.6916846632957458 -0.688713014125824 -0.27807578444480896 -0.20967239141464233 -0.2675600051879883 0.11680027842521667 -0.5832418203353882 -0.20435136556625366 -0.019201481714844704 0.11411477625370026 0.6800066828727722 -0.24334630370140076 -0.3385991156101227 -0.13941285014152527 0.22334128618240356 -0.2820946276187897 -0.3430086672306061 -0.2634856700897217
8 0.21487902104854584 0.4404718279838562 -0.3890734910964966 0.026948193088173866 0.1644521951675415 -0.41941598057746887 -0.10950813442468643 0.043538350611925125 0.04387914389371872 0.15079694986343384 -0.042764898389577866 -0.11197547614574432 0.18582342565059662 0.0941651239991188 0.21483391523361206 -0.2221858948469162 0.16153092682361603 0.2541435956954956 0.2938152253627777 -0.08105380833148956 0.06469769775867462 0.4627092182636261 0.1378476917743683 -0.006773093715310097 -0.23823295533657074 -0.16239657998085022 0.19901207089424133 -0.0899599939584732 -0.023024244233965874 0.05761732533574104 0.12916016578674316 0.3827248513698578 -0.26765453815460205 0.21916647255420685 0.3072986900806427 0.3727089762687683 -0.20728003978729248 -0.5617182850837708 -0.10026178508996964 0.22958198189735413 0.37717169523239136 -0.2824944257736206 -0.0910862386226654 0.17729999125003815 0.1522529572248459 0.0066957673989236355 0.022946173325181007 0.0727216973900795 -0.17603062093257904 -0.21955764293670654 0.11747850477695465 0.062201131135225296 0.07706727087497711 0.12402261793613434 -0.27913084626197815 -0.01754295825958252 0.2313050925731659 0.17836952209472656 -0.03647173196077347 0.5669683218002319 -0.06382466107606888 -0.036555446684360504 0.046659816056489944 -0.23591387271881104 0.1845577210187912 0.14416517317295074 -0.40705665946006775 0.14509636163711548 0.12461797893047333 -0.18496371805667877 0.10362984985113144 0.18727312982082367 0.253704309463501 -0.1536317616701126 0.24357226490974426 0.04473869502544403 0.23030315339565277 -0.2331446260213852 0.30134811997413635 -0.008553709834814072 -0.21973980963230133 -0.09537678956985474 0.5100353956222534 0.1462448686361313 -0.13952228426933289 0.02072586491703987 0.056454189121723175 -0.046543486416339874 -0.013388324528932571 0.27098020911216736 -0.12573190033435822 -0.13972581923007965 0.12285488843917847 0.18013973534107208 -0.4470793902873993 -0.017005741596221924 -0.4846993088722229 0.00660186680033803 0.7969883680343628 -0.0033331557642668486 0.14321300387382507 -0.801845133304596 0.06085735186934471 0.4398130178451538 -0.028959760442376137 0.10442560911178589 0.14656254649162292 0.26208144426345825 0.2716407775878906 0.1301657259464264 -0.6572505235671997 -0.6615992188453674 -0.24762652814388275 -0.16065549850463867 -0.36450180411338806 0.31755873560905457 -0.47999897599220276 -0.017019599676132202 0.11658420413732529 0.1746203601360321 0.6513015031814575 -0.23773761093616486 -0.3418724238872528 -0.07315685600042343 0.15344147384166718 -0.3102278709411621 -0.3078237473964691 -0.16656942665576935
9 0.18177741765975952 0.2665140628814697 -0.3733390271663666 -0.011770461685955524 0.14421801269054413 -0.2921393811702728 -0.12726576626300812 -0.03382332995533943 -0.003451182274147868 0.15723180770874023 -0.04038294032216072 -0.07116952538490295 0.07776473462581635 0.1465197205543518 0.2920236587524414 -0.09692031890153885 0.10978792607784271 0.24439522624015808 0.3065539002418518 -0.1207680031657219 0.048924755305051804 0.3866470754146576 0.12506535649299622 0.06713007390499115 -0.16252784430980682 -0.12526223063468933 0.24536913633346558 -0.10661730170249939 -0.0037467842921614647 0.05470409616827965 0.18798179924488068 0.2742041349411011 -0.1731363832950592 0.19350987672805786 0.3236679136753082 0.3883066773414612 -0.17359547317028046 -0.416005402803421 -0.138705313205719 0.14899764955043793 0.34613949060440063 -0.0857338011264801 -0.12398412823677063 0.08954057097434998 0.09528114646673203 -0.03981121629476547 0.1506502628326416 0.07721710950136185 0.0016688687028363347 -0.1347632259130478 0.04198060557246208 -0.014393681660294533 -0.002391339745372534 0.23240752518177032 -0.22978276014328003 -0.07633182406425476 0.07674360275268555 0.05398368462920189 0.014284541830420494 0.4875282645225525 -0.08146428316831589 -0.0022284770384430885 0.08966191858053207 -0.2388983964920044 0.16303351521492004 0.18775500357151031 -0.31145206093788147 0.148174449801445 0.12387250363826752 -0.18801434338092804 0.14415910840034485 0.16484715044498444 0.17759551107883453 -0.040368176996707916 0.1637173891067505 0.022192873060703278 0.25087156891822815 -0.14570768177509308 0.3077874481678009 -0.041454046964645386 -0.09363587945699692 -0.08852354437112808 0.32199689745903015 0.14495709538459778 -0.1514110118150711 0.043786659836769104 0.027894509956240654 -0.006491211708635092 0.015639599412679672 0.19687111675739288 -0.10724575817584991 -0.241891011595726 -0.011777618899941444 0.04007583111524582 -0.3564089238643646 0.02427619695663452 -0.308476060628891 -0.00206759013235569 0.5468644499778748 0.12173380702733994 0.10036226361989975 -0.6192492842674255 0.09856688231229782 0.36056485772132874 -0.012141724117100239 0.0688689574599266 -0.0203542597591877 0.280724436044693 0.3090055286884308 0.017870232462882996 -0.4864348769187927 -0.4686359763145447 -0.18963463604450226 -0.14227205514907837 -0.17887701094150543 0.07622284442186356 -0.40263593196868896 -0.15543292462825775 -0.012998825870454311 0.07186248898506165 0.4650433361530304 -0.17684060335159302 -0.23911480605602264 -0.09636494517326355 0.1473444402217865 -0.19752290844917297 -0.2518758177757263 -0.19305120408535004
10 0.23390373587608337 0.41449248790740967 -0.4541909694671631 -0.014067744836211205 0.1976773887872696 -0.4244151711463928 -0.15903854370117188 -0.01575784757733345 0.020205944776535034 0.1984737366437912 -0.06239527463912964 -0.08538394421339035 0.14675173163414001 0.13710086047649384 0.3125004470348358 -0.1882069855928421 0.1698279231786728 0.29803648591041565 0.36624810099601746 -0.13372984528541565 0.06452061980962753 0.5267815589904785 0.16309687495231628 0.04097532480955124 -0.24594123661518097 -0.16884112358093262 0.28207722306251526 -0.13479824364185333 -0.019342757761478424 0.08294084668159485 0.20700706541538239 0.3893544375896454 -0.25584572553634644 0.25101935863494873 0.40447157621383667 0.4742659330368042 -0.24163812398910522 -0.5990578532218933 -0.15660184621810913 0.23157911002635956 0.45372509956359863 -0.2173340767621994 -0.13410453498363495 0.14906340837478638 0.1514740288257599 -0.026516422629356384 0.1175212487578392 0.10482458770275116 -0.0688556656241417 -0.20479929447174072 0.08418584614992142 0.015015479177236557 0.027991553768515587 0.21934951841831207 -0.29797467589378357 -0.06271874904632568 0.16869103908538818 0.1373468041419983 -0.017362484708428383 0.6546684503555298 -0.09145531058311462 -0.008823012933135033 0.0945119857788086 -0.29730573296546936 0.2118135243654251 0.21318984031677246 -0.4442049264907837 0.1854223906993866 0.1578727811574936 -0.2362448275089264 0.15516050159931183 0.21250268816947937 0.2667316198348999 -0.09425284713506699 0.24151663482189178 0.03571609407663345 0.28580355644226074 -0.22079643607139587 0.37753352522850037 -0.03674246370792389 -0.17756938934326172 -0.11159612238407135 0.4930568337440491 0.19411879777908325 -0.18061168491840363 0.026423191651701927 0.03772157430648804 -0.027022739872336388 -0.001159683451987803 0.28167417645454407 -0.1336003541946411 -0.24745333194732666 0.05346649885177612 0.12727926671504974 -0.4989810585975647 0.01484554260969162 -0.44879814982414246 -0.010673039592802525 0.8004471063613892 0.09014248847961426 0.1475130170583725 -0.8698201775550842 0.10162180662155151 0.4731123149394989 -0.011421041563153267 0.09783490747213364 0.05804121866822243 0.3340702950954437 0.3757396340370178 0.08068481087684631 -0.6899803280830383 -0.677717387676239 -0.26948317885398865 -0.188667893409729 -0.3262523412704468 0.21297752857208252 -0.5433930158615112 -0.12069004029035568 0.05290363356471062 0.14725930988788605 0.6698713898658752 -0.240022674202919 -0.34971514344215393 -0.09899567067623138 0.18761056661605835 -0.30839359760284424 -0.33773326873779297 -0.22836105525493622
11 0.2833365201950073 0.4701302945613861 -0.539910614490509 -0.012974613346159458 0.23199079930782318 -0.5006403923034668 -0.1842777281999588 -0.025650514289736748 0.023725075647234917 0.24573783576488495 -0.0696219950914383 -0.10649599134922028 0.15976472198963165 0.18038217723369598 0.3778296411037445 -0.21038436889648438 0.20685090124607086 0.35844817757606506 0.4530966281890869 -0.17059586942195892 0.07882974296808243 0.62614506483078 0.18753492832183838 0.052498143166303635 -0.2822575569152832 -0.19675375521183014 0.3457705080509186 -0.16552653908729553 -0.02028651535511017 0.10216832160949707 0.24863246083259583 0.4610893726348877 -0.30624622106552124 0.2928413450717926 0.4900195598602295 0.5695056319236755 -0.28249630331993103 -0.7006838321685791 -0.20150326192378998 0.2653100788593292 0.5395050048828125 -0.2362920343875885 -0.1574827879667282 0.18100154399871826 0.17193971574306488 -0.02438308298587799 0.15802796185016632 0.11907653510570526 -0.07570987194776535 -0.24027769267559052 0.09466364234685898 0.004824636038392782 0.024786680936813354 0.2753118574619293 -0.3569560647010803 -0.09223379194736481 0.1802385449409485 0.13818375766277313 -0.01994677074253559 0.7671140432357788 -0.11488059163093567 -0.010000093840062618 0.1125485748052597 -0.35782358050346375 0.24827517569065094 0.2693875730037689 -0.511958122253418 0.2171047180891037 0.18476130068302155 -0.2828977108001709 0.19384534657001495 0.2567656934261322 0.31124189496040344 -0.10990550369024277 0.2833927571773529 0.04404956102371216 0.3422274887561798 -0.2575802206993103 0.4692705273628235 -0.04425354301929474 -0.19571250677108765 -0.12682725489139557 0.5587583184242249 0.22181262075901031 -0.21348543465137482 0.03639960661530495 0.0528007410466671 -0.021505190059542656 0.00701687578111887 0.3252004086971283 -0.16489525139331818 -0.2973535358905792 0.04751799255609512 0.1393410861492157 -0.5947558879852295 0.01984865590929985 -0.5227565765380859 -0.0055898744612932205 0.9415143132209778 0.11736935377120972 0.16970697045326233 -1.0182887315750122 0.1329927295446396 0.5684360861778259 -0.009660575538873672 0.10842784494161606 0.05323238670825958 0.4016464650630951 0.4587876498699188 0.0773911252617836 -0.8060553669929504 -0.7915515899658203 -0.3228396773338318 -0.23085235059261322 -0.3660648763179779 0.22851219773292542 -0.6435407996177673 -0.15666544437408447 0.04286235198378563 0.1608087122440338 0.7780069708824158 -0.28727981448173523 -0.402054101228714 -0.12073235958814621 0.22573170065879822 -0.3471619784832001 -0.4045208990573883 -0.27822986245155334
12 0.21505628526210785 0.4663027822971344 -0.38021329045295715 0.014421893283724785 0.16885080933570862 -0.425035685300827 -0.11425981670618057 0.05826108902692795 0.04868786036968231 0.16010887920856476 -0.045897483825683594 -0.12067598849534988 0.18923594057559967 0.08356689661741257 0.19986963272094727 -0.24143455922603607 0.16999180614948273 0.26632171869277954 0.29983043670654297 -0.07505352795124054 0.06482043117284775 0.4616377353668213 0.1271691769361496 -0.021200120449066162 -0.24854601919651031 -0.16509628295898438 0.17923912405967712 -0.08332070708274841 -0.03085966408252716 0.06115473061800003 0.11178920418024063 0.38499200344085693 -0.280080109834671 0.21463678777217865 0.30142855644226074 0.3781229257583618 -0.20379023253917694 -0.5798607468605042 -0.09414372593164444 0.24294590950012207 0.3794516324996948 -0.30654704570770264 -0.09078674018383026 0.18681523203849792 0.15556463599205017 0.0122862309217453 0.008097135461866856 0.08170340210199356 -0.20499493181705475 -0.2251209318637848 0.12261977046728134 0.07326507568359375 0.08284461498260498 0.10123779624700546 -0.28106778860092163 -0.00423031859099865 0.2623352110385895 0.19702453911304474 -0.04063848406076431 0.5723764896392822 -0.058913704007864 -0.04793568700551987 0.04587332159280777 -0.21653543412685394 0.19568978250026703 0.12776467204093933 -0.4085550904273987 0.14696718752384186 0.12211053818464279 -0.18556956946849823 0.08857990056276321 0.18916131556034088 0.2556792199611664 -0.17746251821517944 0.2660599946975708 0.06112523376941681 0.22818821668624878 -0.24097585678100586 0.3088338077068329 -0.0030618130695074797 -0.24986527860164642 -0.08259984105825424 0.5418908596038818 0.1435585916042328 -0.13261856138706207 0.00776364142075181 0.06433817744255066 -0.06667996942996979 -0.016691850498318672 0.2788754403591156 -0.13117671012878418 -0.12285101413726807 0.13782159984111786 0.19891870021820068 -0.46093758940696716 -0.02289864979684353 -0.514316201210022 0.010978911072015762 0.8248885869979858 -0.02611467055976391 0.14848321676254272 -0.8317674994468689 0.05720405653119087 0.45141687989234924 -0.028749000281095505 0.09944071620702744 0.1666567623615265 0.2572126090526581 0.26232585310935974 0.1469464749097824 -0.6788300275802612 -0.6944147348403931 -0.2545563280582428 -0.15711434185504913 -0.39082133769989014 0.3508872985839844 -0.4968433082103729 0.016729360446333885 0.14363880455493927 0.18903420865535736 0.6775009036064148 -0.2425730675458908 -0.3587166368961334 -0.06857750564813614 0.14866292476654053 -0.3305352032184601 -0.29990318417549133 -0.16760827600955963
13 0.20496726036071777 0.4357316493988037 -0.35658711194992065 0.028791259974241257 0.14383786916732788 -0.3919779658317566 -0.10324873775243759 0.0657723918557167 0.04900291934609413 0.14689293503761292 -0.01956658996641636 -0.11534351110458374 0.16986261308193207 0.0791044533252716 0.19375935196876526 -0.23297618329524994 0.14942538738250732 0.26054278016090393 0.281889408826828 -0.06358681619167328 0.06244150921702385 0.4260825216770172 0.12621904909610748 -0.025448095053434372 -0.23101146519184113 -0.1598578691482544 0.16696885228157043 -0.058114200830459595 -0.028599068522453308 0.043800219893455505 0.10251802951097488 0.3614428639411926 -0.26916855573654175 0.20209036767482758 0.2705392837524414 0.34613725543022156 -0.18609294295310974 -0.5390862822532654 -0.0767555758357048 0.225341796875 0.356947660446167 -0.290899395942688 -0.08678194135427475 0.17875543236732483 0.14812543988227844 0.010847074910998344 -0.0025148724671453238 0.06104664504528046 -0.21355344355106354 -0.22138437628746033 0.12027500569820404 0.07209508121013641 0.08049031347036362 0.1014428362250328 -0.2724751830101013 0.006805382203310728 0.2446233183145523 0.1880725622177124 -0.03994404897093773 0.527790904045105 -0.04577001929283142 -0.05205529183149338 0.03940241038799286 -0.20072095096111298 0.18055692315101624 0.10987913608551025 -0.37622129917144775 0.1319797784090042 0.11199840903282166 -0.15812207758426666 0.07098866254091263 0.17568260431289673 0.2285929024219513 -0.17599329352378845 0.24773505330085754 0.05950811505317688 0.21012043952941895 -0.22368940711021423 0.286384642124176 0.0011386998230591416 -0.2327689379453659 -0.06336050480604172 0.5173870325088501 0.1217695027589798 -0.11569923162460327 0.017754439264535904 0.06608819961547852 -0.06431327760219574 -0.015147457830607891 0.25079768896102905 -0.12443985044956207 -0.1180366650223732 0.14104190468788147 0.19168803095817566 -0.423904150724411 -0.03508664295077324 -0.502979576587677 0.028104348108172417 0.7799749374389648 -0.03230191022157669 0.143899068236351 -0.7713884711265564 0.039946455508470535 0.4341990351676941 -0.03347663953900337 0.08350060135126114 0.1719297468662262 0.23627713322639465 0.2388213723897934 0.14663492143154144 -0.6334070563316345 -0.6451992392539978 -0.23412278294563293 -0.1351652890443802 -0.3664804995059967 0.3368062674999237 -0.4641731381416321 0.02270921692252159 0.13614822924137115 0.17875485122203827 0.6352732181549072 -0.23006072640419006 -0.34258633852005005 -0.06047620251774788 0.14603541791439056 -0.3040054440498352 -0.268664687871933 -0.13561849296092987
14 0.22429315745830536 0.4020659327507019 -0.4261145293712616 -0.003637062618508935 0.1823636144399643 -0.4187774956226349 -0.13771246373653412 0.0051466613076627254 0.02877073548734188 0.18331816792488098 -0.046785615384578705 -0.10264561325311661 0.14910367131233215 0.13467462360858917 0.27901923656463623 -0.1927962601184845 0.1674954891204834 0.28521454334259033 0.34633123874664307 -0.12002752721309662 0.06549588590860367 0.5024240016937256 0.1494937539100647 0.020410966128110886 -0.22990043461322784 -0.1697411835193634 0.25873446464538574 -0.1119145005941391 -0.011839855462312698 0.077349454164505 0.19186261296272278 0.3795728385448456 -0.25712427496910095 0.2349676936864853 0.3665415942668915 0.4402148723602295 -0.22622305154800415 -0.5797310471534729 -0.13769331574440002 0.2229643315076828 0.42952674627304077 -0.21884405612945557 -0.12750735878944397 0.1583116203546524 0.14127185940742493 -0.012445778585970402 0.08924491703510284 0.09634312987327576 -0.11036735773086548 -0.20570099353790283 0.0878540650010109 0.03129884973168373 0.04508597031235695 0.20307621359825134 -0.2859167456626892 -0.05473880097270012 0.1841556429862976 0.13536494970321655 -0.019332559779286385 0.6100351214408875 -0.07835092395544052 -0.016819024458527565 0.07564616203308105 -0.27033624053001404 0.20622903108596802 0.19715017080307007 -0.4209592640399933 0.1664712131023407 0.13957232236862183 -0.21514824032783508 0.13472780585289001 0.19818468391895294 0.24600063264369965 -0.12307491898536682 0.24338074028491974 0.046309106051921844 0.2688087522983551 -0.2205953299999237 0.36080461740493774 -0.02374129742383957 -0.1985817849636078 -0.10455862432718277 0.4924226701259613 0.17124255001544952 -0.16134893894195557 0.026744691655039787 0.042947832494974136 -0.03501703962683678 -0.0006410592468455434 0.2660895586013794 -0.1354314088821411 -0.21200111508369446 0.06926015019416809 0.1425057351589203 -0.47290804982185364 1.0503081284696236e-05 -0.4642174243927002 0.0035130807664245367 0.7857872843742371 0.059745486825704575 0.14918898046016693 -0.825667142868042 0.09286506474018097 0.46686458587646484 -0.02336173690855503 0.09685055911540985 0.08636531233787537 0.3049226999282837 0.34531885385513306 0.085722416639328 -0.6648985743522644 -0.6614291667938232 -0.26202717423439026 -0.17333213984966278 -0.3165351152420044 0.23459719121456146 -0.5189374685287476 -0.08928897976875305 0.06807837635278702 0.14954690635204315 0.6545056104660034 -0.23907777667045593 -0.34163087606430054 -0.0986701026558876 0.1803646683692932 -0.2990306615829468 -0.32676491141319275 -0.21153530478477478
15 0.23647376894950867 0.3944770395755768 -0.48150351643562317 0.017178457230329514 0.15917108952999115 -0.3695860803127289 -0.14961011707782745 0.008990734815597534 0.010329301469027996 0.1875700056552887 -0.0020872585009783506 -0.10893385112285614 0.09841679781675339 0.16930164396762848 0.360355406999588 -0.19234062731266022 0.13352440297603607 0.3445793688297272 0.36927565932273865 -0.12027884274721146 0.06991646438837051 0.4721221923828125 0.1608327478170395 0.03796610236167908 -0.21642012894153595 -0.18915937840938568 0.26472151279449463 -0.10115029662847519 -0.018780814483761787 0.02217012643814087 0.19433079659938812 0.36521467566490173 -0.2570423185825348 0.2409193515777588 0.37442725896835327 0.45451244711875916 -0.21871650218963623 -0.5628734230995178 -0.13220348954200745 0.22364301979541779 0.4332727789878845 -0.1844923049211502 -0.15481363236904144 0.1547270268201828 0.12542225420475006 -0.04487878456711769 0.12942646443843842 0.06573760509490967 -0.10695672780275345 -0.2051403522491455 0.09812086820602417 0.04302310198545456 0.026714308187365532 0.2434590458869934 -0.31950873136520386 -0.060626834630966187 0.17421646416187286 0.10304388403892517 0.001066244556568563 0.6160268783569336 -0.10082037001848221 -0.03834812715649605 0.10675887018442154 -0.26879334449768066 0.206240713596344 0.19683986902236938 -0.3855813443660736 0.16779319941997528 0.1406887173652649 -0.21038521826267242 0.14068326354026794 0.20553387701511383 0.21991993486881256 -0.14133645594120026 0.25106772780418396 0.051007021218538284 0.30598917603492737 -0.2076137214899063 0.3918648362159729 -0.03307615593075752 -0.16876135766506195 -0.07980939745903015 0.46725696325302124 0.1549566239118576 -0.16732490062713623 0.045893166214227676 0.07374049723148346 -0.06322690099477768 0.0039701261557638645 0.24609602987766266 -0.1325887143611908 -0.24416221678256989 0.051485251635313034 0.11648806184530258 -0.4574267566204071 -0.023688456043601036 -0.5049373507499695 0.058378152549266815 0.7700920104980469 0.09491404891014099 0.15819063782691956 -0.8136900663375854 0.10015953332185745 0.5000284314155579 -0.026156965643167496 0.07743052393198013 0.06790923327207565 0.33308345079421997 0.32873666286468506 0.0666850134730339 -0.6597011089324951 -0.661470353603363 -0.2611110210418701 -0.17074571549892426 -0.29216593503952026 0.21007771790027618 -0.5184910893440247 -0.12342734634876251 0.03728891536593437 0.13276071846485138 0.6417739391326904 -0.2308230698108673 -0.33376312255859375 -0.12028893083333969 0.1991816610097885 -0.2702452838420868 -0.3012360632419586 -0.20074757933616638
16 0.1821509301662445 0.4556122422218323 -0.3103870749473572 0.018106337636709213 0.1515563279390335 -0.41320863366127014 -0.08846833556890488 0.08054564148187637 0.06566024571657181 0.13516250252723694 -0.05552644655108452 -0.11168269068002701 0.21418598294258118 0.03979604318737984 0.11464748531579971 -0.2470403015613556 0.17224735021591187 0.21586349606513977 0.24869169294834137 -0.04682907089591026 0.06276755034923553 0.4268363416194916 0.11210598051548004 -0.055006079375743866 -0.24033795297145844 -0.1442035287618637 0.13415689766407013 -0.060295771807432175 -0.03686153143644333 0.0667024552822113 0.07537558674812317 0.3742269277572632 -0.2815796434879303 0.1974669247865677 0.24055108428001404 0.30094245076179504 -0.18524427711963654 -0.5519706010818481 -0.0716213658452034 0.2222856879234314 0.33209583163261414 -0.33703112602233887 -0.05764591693878174 0.18975423276424408 0.16223560273647308 0.0312732495367527 -0.05786491557955742 0.06076390668749809 -0.2444360852241516 -0.22178198397159576 0.12998081743717194 0.08446498960256577 0.10051226615905762 0.03849397972226143 -0.25324228405952454 0.026450373232364655 0.27371305227279663 0.2225363403558731 -0.062224727123975754 0.5120037198066711 -0.03275785222649574 -0.05522844195365906 0.010806734673678875 -0.18029628694057465 0.17329871654510498 0.09306314587593079 -0.38250210881233215 0.1181505024433136 0.09804578125476837 -0.15958081185817719 0.052612658590078354 0.1786091923713684 0.24377460777759552 -0.17863643169403076 0.25024649500846863 0.05730714276432991 0.18070371448993683 -0.24147988855838776 0.24200357496738434 0.016567423939704895 -0.25451913475990295 -0.0680958479642868 0.5377818942070007 0.118338942527771 -0.11217731982469559 -0.008256337605416775 0.06195143982768059 -0.06153223663568497 -0.017138537019491196 0.25849664211273193 -0.12102387845516205 -0.06535235792398453 0.1684786081314087 0.22066615521907806 -0.4263514578342438 -0.02725972607731819 -0.4882895350456238 0.005748867057263851 0.7913341522216797 -0.08197960257530212 0.13603325188159943 -0.7731281518936157 0.023251598700881004 0.3949788808822632 -0.02715548314154148 0.1018565371632576 0.2138233631849289 0.20708635449409485 0.21541601419448853 0.17772190272808075 -0.6428040266036987 -0.6562710404396057 -0.23140399158000946 -0.13974586129188538 -0.4002247750759125 0.3861164152622223 -0.4474976658821106 0.06759101152420044 0.18346312642097473 0.19936788082122803 0.6287728548049927 -0.23461243510246277 -0.34596315026283264 -0.03891107812523842 0.12466245889663696 -0.33456024527549744 -0.27862682938575745 -0.13558942079544067
17 0.2164589911699295 0.38777950406074524 -0.434652179479599 -0.03233256936073303 0.1940721869468689 -0.42028287053108215 -0.14652590453624725 -0.024661362171173096 0.022749755531549454 0.19521407783031464 -0.07282983511686325 -0.09162446111440659 0.14759156107902527 0.13885663449764252 0.3001941740512848 -0.16613228619098663 0.170542374253273 0.28434833884239197 0.35396629571914673 -0.14921848475933075 0.05703059956431389 0.5118707418441772 0.15032917261123657 0.04415225610136986 -0.24055887758731842 -0.14957408607006073 0.28605014085769653 -0.13650529086589813 -0.015022357925772667 0.09744375944137573 0.21683143079280853 0.37754955887794495 -0.2466578334569931 0.24643699824810028 0.3986888527870178 0.46943819522857666 -0.2350652813911438 -0.569657564163208 -0.16658179461956024 0.21637731790542603 0.4407303035259247 -0.18889258801937103 -0.12582844495773315 0.13219615817070007 0.13352644443511963 -0.013324595056474209 0.12241727858781815 0.10971394181251526 -0.04432770982384682 -0.18721936643123627 0.07016574591398239 0.0057073840871453285 0.02028161659836769 0.23674379289150238 -0.27512699365615845 -0.07369057834148407 0.14333350956439972 0.12366127967834473 -0.019759584218263626 0.6311211585998535 -0.09342285245656967 0.0018536153947934508 0.08910299837589264 -0.29943084716796875 0.20196357369422913 0.22489072382450104 -0.42923498153686523 0.18667198717594147 0.14718560874462128 -0.23502813279628754 0.16065210103988647 0.20197133719921112 0.24956278502941132 -0.08584222197532654 0.224401593208313 0.024454696103930473 0.2833842635154724 -0.21407222747802734 0.37187594175338745 -0.03791127726435661 -0.15829676389694214 -0.11067435145378113 0.46160396933555603 0.19266389310359955 -0.17504404485225677 0.0365900881588459 0.02488883212208748 -0.016050642356276512 0.002983225043863058 0.2724955379962921 -0.13295122981071472 -0.24505789577960968 0.028176279738545418 0.10485722124576569 -0.4869377017021179 0.02815718948841095 -0.40707865357398987 -0.024193236604332924 0.7693339586257935 0.09584777057170868 0.13796572387218475 -0.8362489342689514 0.11742263287305832 0.44923123717308044 -0.011656029149889946 0.09978679567575455 0.0328562892973423 0.32781052589416504 0.3898233473300934 0.06146350875496864 -0.6568765640258789 -0.6384497284889221 -0.25472670793533325 -0.18376652896404266 -0.3001221716403961 0.17308028042316437 -0.5283224582672119 -0.13041755557060242 0.03481677547097206 0.1281297355890274 0.6303719878196716 -0.2410467118024826 -0.3339938819408417 -0.09055190533399582 0.17475837469100952 -0.28489017486572266 -0.34172967076301575 -0.24312366545200348
18 0.21849040687084198 0.4883579909801483 -0.39657461643218994 -0.017439039424061775 0.21471652388572693 -0.4992730915546417 -0.13960057497024536 0.0202778410166502 0.052159011363983154 0.18830180168151855 -0.10303717106580734 -0.108216293156147 0.221958190202713 0.08417046070098877 0.20552216470241547 -0.22832246124744415 0.21362988650798798 0.2597469687461853 0.32743993401527405 -0.11288026720285416 0.06865308433771133 0.5547581911087036 0.15051232278347015 -2.9450966394506395e-05 -0.2852657437324524 -0.15910102427005768 0.23723651468753815 -0.12368816882371902 -0.029160810634493828 0.12128154188394547 0.15442970395088196 0.4229785203933716 -0.29425737261772156 0.24329710006713867 0.35772988200187683 0.4383543133735657 -0.24993176758289337 -0.6367957592010498 -0.14533239603042603 0.25546419620513916 0.4329848289489746 -0.30792173743247986 -0.09274043887853622 0.18135221302509308 0.17740486562252045 0.02126263827085495 0.034625161439180374 0.10688193887472153 -0.1554907113313675 -0.22854934632778168 0.10952065140008926 0.034592121839523315 0.07177521288394928 0.13494955003261566 -0.28793099522590637 -0.034890104085206985 0.23235827684402466 0.19875037670135498 -0.052317894995212555 0.650562584400177 -0.0644126683473587 -0.024542465806007385 0.04906734451651573 -0.27238646149635315 0.21911866962909698 0.17749090492725372 -0.46569356322288513 0.17962731420993805 0.13554956018924713 -0.2308446317911148 0.1232970654964447 0.21583527326583862 0.30143433809280396 -0.14200030267238617 0.26650550961494446 0.038919154554605484 0.24881640076637268 -0.2610507905483246 0.3394121825695038 -0.0056885541416704655 -0.23995350301265717 -0.11964717507362366 0.5544067621231079 0.18810997903347015 -0.15911327302455902 0.005146069917827845 0.04589114338159561 -0.02881453186273575 -0.01521415263414383 0.321119487285614 -0.1345469355583191 -0.16822326183319092 0.11158280819654465 0.18089565634727478 -0.5305822491645813 0.01348035503178835 -0.4794877767562866 -0.0351334884762764 0.8866434097290039 0.010811124928295612 0.14335884153842926 -0.9263740181922913 0.08003653585910797 0.4597213566303253 -0.006673495750874281 0.11605332046747208 0.1310138702392578 0.30093368887901306 0.34850773215293884 0.14624656736850739 -0.7359678149223328 -0.7290029525756836 -0.2821044623851776 -0.185011625289917 -0.4111708402633667 0.32286810874938965 -0.5490639805793762 -0.023079074919223785 0.13355280458927155 0.1950024962425232 0.7176285982131958 -0.268893837928772 -0.38537710905075073 -0.06090004742145538 0.15709646046161652 -0.35153746604919434 -0.360040545463562 -0.21586744487285614
19 0.17982810735702515 0.38078272342681885 -0.34901031851768494 0.00968962162733078 0.15285982191562653 -0.3571676015853882 -0.10728800296783447 0.027769604697823524 0.03494985029101372 0.14636896550655365 -0.029636234045028687 -0.09781727939844131 0.1463163197040558 0.09571312367916107 0.21299661695957184 -0.18409673869609833 0.13513879477977753 0.24104753136634827 0.2728257179260254 -0.07226382195949554 0.05677773803472519 0.40571558475494385 0.12443052232265472 0.0023003951646387577 -0.20727182924747467 -0.14739802479743958 0.17926567792892456 -0.07974110543727875 -0.014105536043643951 0.057258106768131256 0.12225941568613052 0.3259669244289398 -0.2323254644870758 0.1942417025566101 0.29375022649765015 0.34534892439842224 -0.18404021859169006 -0.4890415370464325 -0.09271366149187088 0.20040078461170197 0.3403968811035156 -0.22491735219955444 -0.08858548104763031 0.15137499570846558 0.1256263554096222 -0.009143245406448841 0.038849279284477234 0.07136214524507523 -0.13904553651809692 -0.1876528114080429 0.08915095031261444 0.040356192737817764 0.05547086521983147 0.13445806503295898 -0.2476292997598648 -0.020378727465867996 0.1865561455488205 0.14624258875846863 -0.025633124634623528 0.5082745552062988 -0.056557800620794296 -0.038943879306316376 0.053567856550216675 -0.2146609127521515 0.1697015017271042 0.13066339492797852 -0.34739381074905396 0.13012857735157013 0.11407249420881271 -0.17173944413661957 0.0877082496881485 0.16924209892749786 0.20932528376579285 -0.12788759171962738 0.22461135685443878 0.049669548869132996 0.20640720427036285 -0.1946888566017151 0.29134905338287354 -0.011532209813594818 -0.18944725394248962 -0.06751499325037003 0.4427836835384369 0.13139985501766205 -0.13387785851955414 0.01715831086039543 0.053087156265974045 -0.04753575101494789 -0.014184911735355854 0.2258700579404831 -0.10863704234361649 -0.14289125800132751 0.08323795348405838 0.14592860639095306 -0.3976452052593231 -0.010973639786243439 -0.42055919766426086 0.01371825858950615 0.6864877939224243 0.015427644364535809 0.12669453024864197 -0.7106348872184753 0.06047172099351883 0.39555492997169495 -0.025187920778989792 0.08066496253013611 0.10598941147327423 0.23289081454277039 0.2521059215068817 0.10587131232023239 -0.5715669393539429 -0.5732706785202026 -0.22380070388317108 -0.13738605380058289 -0.30883878469467163 0.24761904776096344 -0.4341738224029541 -0.03427903726696968 0.08401147276163101 0.14973199367523193 0.5682039260864258 -0.20312319695949554 -0.30285412073135376 -0.05932245030999184 0.14955805242061615 -0.26784998178482056 -0.2620546221733093 -0.15116454660892487
20 0.2518301010131836 0.43395736813545227 -0.48956674337387085 0.008653095923364162 0.1852407455444336 -0.4171167016029358 -0.15663966536521912 0.008727431297302246 0.02669832669198513 0.19010543823242188 -0.023795906454324722 -0.10417970269918442 0.13949750363826752 0.1537020355463028 0.3385302424430847 -0.2032059133052826 0.1559484899044037 0.33805346488952637 0.39030659198760986 -0.12523041665554047 0.07384412735700607 0.5215831398963928 0.16003349423408508 0.028170758858323097 -0.2366834431886673 -0.19143247604370117 0.278462678194046 -0.11469551920890808 -0.02039984241127968 0.04738951846957207 0.20649853348731995 0.3982260823249817 -0.26996225118637085 0.2593700587749481 0.39248159527778625 0.4763288199901581 -0.23429548740386963 -0.6069393157958984 -0.14718638360500336 0.24176402390003204 0.46114447712898254 -0.22140419483184814 -0.14677728712558746 0.1731705218553543 0.14041414856910706 -0.042292870581150055 0.1130869910120964 0.08361358940601349 -0.11478683352470398 -0.22584332525730133 0.09592220932245255 0.03384377434849739 0.03638668358325958 0.23170645534992218 -0.3229382038116455 -0.05974539369344711 0.19395610690116882 0.13956046104431152 -0.01448830496519804 0.6540413498878479 -0.09553155303001404 -0.034163862466812134 0.09172530472278595 -0.2906966209411621 0.2178686559200287 0.19657781720161438 -0.4348267614841461 0.17765632271766663 0.14045508205890656 -0.2320985049009323 0.1435774564743042 0.2149360030889511 0.25201112031936646 -0.14255669713020325 0.2667222023010254 0.05201714113354683 0.3057747185230255 -0.2215990573167801 0.4041937589645386 -0.033068180084228516 -0.18899178504943848 -0.09964623302221298 0.5211805701255798 0.17207063734531403 -0.17100054025650024 0.04236863553524017 0.06718166172504425 -0.057698674499988556 0.002894208300858736 0.2809121310710907 -0.14142440259456635 -0.24916185438632965 0.0673636719584465 0.14151336252689362 -0.5035165548324585 -0.016556650400161743 -0.5251127481460571 0.033839061856269836 0.8397924304008484 0.0826881155371666 0.1587952971458435 -0.8722100257873535 0.09925329685211182 0.5120465755462646 -0.025772185996174812 0.09161118417978287 0.08177930861711502 0.33799904584884644 0.36001095175743103 0.08756564557552338 -0.7058550119400024 -0.711000382900238 -0.27877044677734375 -0.18494774401187897 -0.3270340859889984 0.2335638701915741 -0.5512994527816772 -0.11008312553167343 0.06353388726711273 0.15224315226078033 0.6931770443916321 -0.25432243943214417 -0.35627374053001404 -0.11101942509412766 0.20525750517845154 -0.30436021089553833 -0.32940760254859924 -0.21107248961925507
21 0.15987148880958557 0.25255104899406433 -0.34163370728492737 0.029135657474398613 0.09103363007307053 -0.2189943641424179 -0.09507788717746735 0.01527391280978918 0.006617548409849405 0.12349658459424973 0.03594335541129112 -0.08528468012809753 0.028854168951511383 0.13506250083446503 0.273652583360672 -0.12070709466934204 0.06721770763397217 0.25255969166755676 0.25655126571655273 -0.07222696393728256 0.04443904757499695 0.2812480032444 0.10481713712215424 0.022247379645705223 -0.12987998127937317 -0.12894614040851593 0.15944324433803558 -0.038307514041662216 -0.008043836802244186 -0.016697373241186142 0.1238834410905838 0.23565779626369476 -0.16134090721607208 0.15787972509860992 0.24500001966953278 0.2976771295070648 -0.12343743443489075 -0.35621386766433716 -0.07283540815114975 0.14791187644004822 0.2855257987976074 -0.11571332067251205 -0.11454373598098755 0.10173008590936661 0.0716518983244896 -0.047399505972862244 0.09391453117132187 0.03717001900076866 -0.08543703705072403 -0.13653229176998138 0.07653135061264038 0.027726320549845695 0.020454473793506622 0.17509910464286804 -0.2240130603313446 -0.0339927114546299 0.11349308490753174 0.05952752009034157 0.013900426216423512 0.403501957654953 -0.06544621288776398 -0.033890556544065475 0.08005265146493912 -0.17113174498081207 0.14171381294727325 0.12477996200323105 -0.23196469247341156 0.10546444356441498 0.08363217860460281 -0.12396285682916641 0.08247381448745728 0.13344721496105194 0.12633876502513885 -0.10560409724712372 0.1646410971879959 0.043890029191970825 0.2117568850517273 -0.12054763734340668 0.27557867765426636 -0.02657090499997139 -0.10542891174554825 -0.041411519050598145 0.30038052797317505 0.08674711734056473 -0.10748220235109329 0.04165065661072731 0.06213473901152611 -0.05388366058468819 0.009134510532021523 0.13670210540294647 -0.09817780554294586 -0.17665457725524902 0.03571661189198494 0.0754474401473999 -0.2848815321922302 -0.036809224635362625 -0.368685781955719 0.0694374069571495 0.4963264465332031 0.07412056624889374 0.10482382774353027 -0.5073729753494263 0.057444505393505096 0.3405822217464447 -0.037678107619285583 0.046732593327760696 0.04879666864871979 0.21895135939121246 0.1984499990940094 0.02976902388036251 -0.4231734871864319 -0.43598923087120056 -0.166530042886734 -0.09330277889966965 -0.17099076509475708 0.13114885985851288 -0.3347184658050537 -0.08875066787004471 0.02189011499285698 0.08439167588949203 0.4117202162742615 -0.1456819474697113 -0.20516082644462585 -0.09312079101800919 0.15392278134822845 -0.16323848068714142 -0.17368121445178986 -0.11112937331199646
22 0.19728170335292816 0.3313605487346649 -0.3753412961959839 0.017277076840400696 0.12986114621162415 -0.31911423802375793 -0.11863967031240463 0.007049848325550556 0.014935065060853958 0.14858801662921906 -0.00520388362929225 -0.09735450148582458 0.09841013699769974 0.12094687670469284 0.26999691128730774 -0.15549157559871674 0.11052755266427994 0.27488934993743896 0.29801976680755615 -0.09364020824432373 0.05046040937304497 0.38753193616867065 0.1245969608426094 0.01597229577600956 -0.17737813293933868 -0.15305165946483612 0.20766139030456543 -0.08230351656675339 -0.020621076226234436 0.023892756551504135 0.14338304102420807 0.3017229437828064 -0.2134280800819397 0.19937247037887573 0.2989591658115387 0.3573567867279053 -0.17825759947299957 -0.4656888246536255 -0.1131230965256691 0.19414043426513672 0.3478046655654907 -0.1781132072210312 -0.11883890628814697 0.13563379645347595 0.1016390472650528 -0.03006882593035698 0.09293666481971741 0.05673445388674736 -0.09814022481441498 -0.17263098061084747 0.08632226288318634 0.03925098478794098 0.030528124421834946 0.1753987818956375 -0.25796711444854736 -0.0398816242814064 0.1568910777568817 0.10002405941486359 0.0018945704214274883 0.5008952021598816 -0.07084155082702637 -0.03017570450901985 0.0695231556892395 -0.22195933759212494 0.17787902057170868 0.1428275853395462 -0.31797441840171814 0.1369558721780777 0.11389802396297455 -0.17335741221904755 0.11328374594449997 0.16751211881637573 0.18268738687038422 -0.11402593553066254 0.21339085698127747 0.03831535205245018 0.23783765733242035 -0.1742333620786667 0.3121780455112457 -0.02174955978989601 -0.14500020444393158 -0.07111059129238129 0.3948769271373749 0.1254601925611496 -0.13796366751194 0.03443213179707527 0.051648154854774475 -0.05466122552752495 0.002983361715450883 0.20916467905044556 -0.10715106129646301 -0.18643677234649658 0.052069325000047684 0.10186055302619934 -0.37517043948173523 -0.008441333658993244 -0.41609182953834534 0.04545468091964722 0.6364283561706543 0.06399688124656677 0.1228809729218483 -0.6634102463722229 0.06734347343444824 0.4007051885128021 -0.02705640159547329 0.06976231187582016 0.06598106026649475 0.2614234983921051 0.2651142477989197 0.06072093918919563 -0.5409976243972778 -0.5492794513702393 -0.2032221555709839 -0.13821129500865936 -0.2524372935295105 0.18182076513767242 -0.41843149065971375 -0.0746513158082962 0.03986731171607971 0.1148909255862236 0.5241923332214355 -0.19514663517475128 -0.2744038999080658 -0.08071140944957733 0.1547759771347046 -0.23240233957767487 -0.24470077455043793 -0.15652698278427124
23 0.2205522656440735 0.37395209074020386 -0.44324201345443726 -0.005864802747964859 0.17339128255844116 -0.37968412041664124 -0.15146112442016602 -0.012724604457616806 0.01602347195148468 0.19298768043518066 -0.04618269205093384 -0.09620163589715958 0.11872866004705429 0.1508338451385498 0.3294808864593506 -0.1682872474193573 0.14216193556785583 0.3065226972103119 0.3512387275695801 -0.13211770355701447 0.06514918059110641 0.48349419236183167 0.15025515854358673 0.04098394140601158 -0.2180873304605484 -0.16897369921207428 0.2678548991680145 -0.123712457716465 -0.003391460981220007 0.059718843549489975 0.2042357623577118 0.36463382840156555 -0.22837938368320465 0.23032918572425842 0.3763175904750824 0.4512801766395569 -0.21665439009666443 -0.5440407395362854 -0.1458752602338791 0.20567487180233002 0.42332419753074646 -0.17051413655281067 -0.13784223794937134 0.1356257200241089 0.12729521095752716 -0.03701956570148468 0.129022017121315 0.08983850479125977 -0.07105739414691925 -0.19248764216899872 0.0842457041144371 0.01856996677815914 0.02003832720220089 0.23652474582195282 -0.2864156663417816 -0.06544934213161469 0.15263120830059052 0.11045888811349869 -0.003744264366105199 0.6087190508842468 -0.09192930161952972 -0.015885673463344574 0.09822163730859756 -0.2742197811603546 0.19499537348747253 0.20607419312000275 -0.39597102999687195 0.1718548685312271 0.14620129764080048 -0.21381953358650208 0.15394340455532074 0.19912630319595337 0.22497610747814178 -0.10970544815063477 0.2190588414669037 0.04238291457295418 0.2805367410182953 -0.2014741599559784 0.36386629939079285 -0.0432993620634079 -0.15311649441719055 -0.09459150582551956 0.4528243839740753 0.17753344774246216 -0.17250120639801025 0.046409182250499725 0.05097503215074539 -0.034162770956754684 0.0020189504139125347 0.257009893655777 -0.13616712391376495 -0.24475730955600739 0.034122634679079056 0.10783060640096664 -0.45631006360054016 0.007835100404918194 -0.44655582308769226 0.019040152430534363 0.7413225769996643 0.10290555655956268 0.13678500056266785 -0.795452356338501 0.10720662772655487 0.4588480293750763 -0.024314777925610542 0.0810428336262703 0.04697524011135101 0.3138290345668793 0.35146233439445496 0.061879802495241165 -0.6239140033721924 -0.6308355331420898 -0.24978850781917572 -0.17337626218795776 -0.2793380618095398 0.17952342331409454 -0.5077313780784607 -0.12462228536605835 0.032378729432821274 0.11741086840629578 0.6189139485359192 -0.22410577535629272 -0.3119007349014282 -0.09916836768388748 0.18624916672706604 -0.27407771348953247 -0.31198182702064514 -0.21425418555736542
24 0.1944517344236374 0.47461825609207153 -0.3316340446472168 -0.000676968542393297 0.17708787322044373 -0.4622519314289093 -0.10576962679624557 0.05313009023666382 0.06423743069171906 0.15051831305027008 -0.08782147616147995 -0.09696297347545624 0.23746611177921295 0.042685169726610184 0.12396752089262009 -0.23690521717071533 0.19684027135372162 0.21131442487239838 0.2753176987171173 -0.07262222468852997 0.059473127126693726 0.484367311000824 0.1323624700307846 -0.02826833538711071 -0.26110130548477173 -0.14485037326812744 0.17714186012744904 -0.09289620816707611 -0.02660364843904972 0.09741336107254028 0.10072582960128784 0.4022667109966278 -0.28597813844680786 0.21190796792507172 0.28370264172554016 0.34982380270957947 -0.2186298370361328 -0.5921293497085571 -0.09499011188745499 0.23281227052211761 0.36999213695526123 -0.33145540952682495 -0.06329379975795746 0.19460836052894592 0.17373715341091156 0.04381902143359184 -0.03452342003583908 0.08329795300960541 -0.20853173732757568 -0.22234617173671722 0.10936246067285538 0.06268788129091263 0.08749572932720184 0.05820488929748535 -0.25714337825775146 0.009511908516287804 0.26574334502220154 0.22464796900749207 -0.06952909380197525 0.5625790953636169 -0.037344906479120255 -0.03136478736996651 0.019068893045186996 -0.21720024943351746 0.1818116307258606 0.1305721253156662 -0.42191025614738464 0.1355466991662979 0.1181384027004242 -0.19193287193775177 0.07697905600070953 0.18888843059539795 0.27561166882514954 -0.1578311026096344 0.25606080889701843 0.042302392423152924 0.18925702571868896 -0.2597825825214386 0.2698219120502472 0.005036129616200924 -0.2681032419204712 -0.09714841842651367 0.5440730452537537 0.15529823303222656 -0.13326892256736755 -0.004012551624327898 0.04847027361392975 -0.03005078062415123 -0.01940642111003399 0.2948433458805084 -0.12539303302764893 -0.09322210401296616 0.14761921763420105 0.21094322204589844 -0.46491894125938416 0.006624381523579359 -0.4656301736831665 -0.039246972650289536 0.8283617496490479 -0.0649263858795166 0.13774386048316956 -0.8292477130889893 0.04603894427418709 0.4079950749874115 -0.005722950212657452 0.11279106885194778 0.18522991240024567 0.2304432988166809 0.27343663573265076 0.17845357954502106 -0.675103485584259 -0.6775036454200745 -0.24639013409614563 -0.15396344661712646 -0.41028332710266113 0.3748387098312378 -0.4778335690498352 0.0416562594473362 0.17309999465942383 0.20623818039894104 0.6634008288383484 -0.2482064962387085 -0.36436033248901367 -0.03644374758005142 0.12355754524469376 -0.35188302397727966 -0.3170181214809418 -0.16377680003643036
25 0.18340861797332764 0.3584151268005371 -0.37245020270347595 0.01996498554944992 0.12964852154254913 -0.3255392909049988 -0.10416390746831894 0.04665207490324974 0.03363597393035889 0.14665073156356812 0.0020657656714320183 -0.10756386071443558 0.10966469347476959 0.11837907880544662 0.24911847710609436 -0.182217538356781 0.11856659501791 0.27076858282089233 0.2794214189052582 -0.07053979486227036 0.05045124888420105 0.38035258650779724 0.1228412613272667 -0.0036438526585698128 -0.1874392032623291 -0.15288153290748596 0.17569687962532043 -0.05987740680575371 -0.022097541019320488 0.016171500086784363 0.1275482326745987 0.314552366733551 -0.2286911904811859 0.19055844843387604 0.2775043845176697 0.34524455666542053 -0.174697145819664 -0.4712202250957489 -0.08455033600330353 0.2012559175491333 0.3450022041797638 -0.2087450623512268 -0.10255425423383713 0.14324714243412018 0.11317526549100876 -0.01761465147137642 0.04910888150334358 0.047803666442632675 -0.14804591238498688 -0.19085019826889038 0.09665492922067642 0.05744234099984169 0.05611163750290871 0.14933107793331146 -0.2637585401535034 -0.014989458955824375 0.18645749986171722 0.13730013370513916 -0.01345803588628769 0.49405884742736816 -0.05594780296087265 -0.04515525698661804 0.06459631025791168 -0.19839350879192352 0.17128820717334747 0.12391912192106247 -0.32402676343917847 0.12296435981988907 0.10523787140846252 -0.1535482257604599 0.08566814661026001 0.16197870671749115 0.18489743769168854 -0.14755192399024963 0.2231314480304718 0.04997387155890465 0.21856604516506195 -0.18537089228630066 0.292839378118515 -0.015691079199314117 -0.18304604291915894 -0.05787590891122818 0.43430039286613464 0.11125980317592621 -0.12431393563747406 0.02764349803328514 0.06807801872491837 -0.06616008281707764 -0.0030230730772018433 0.20583303272724152 -0.11501684784889221 -0.1542525738477707 0.08851737529039383 0.13857460021972656 -0.38378724455833435 -0.033052485436201096 -0.46233856678009033 0.04820084199309349 0.6776859164237976 0.01973610743880272 0.13172365725040436 -0.6794881224632263 0.05128835141658783 0.400255411863327 -0.023151138797402382 0.06883709877729416 0.10679268091917038 0.23994208872318268 0.23787027597427368 0.08726799488067627 -0.5630902051925659 -0.5692273378372192 -0.21361787617206573 -0.12300822138786316 -0.28471851348876953 0.24759431183338165 -0.43040257692337036 -0.029645666480064392 0.0796160101890564 0.13839378952980042 0.5554110407829285 -0.19676101207733154 -0.2906830608844757 -0.08287504315376282 0.15757212042808533 -0.25816407799720764 -0.2426270991563797 -0.1413963884115219
26 0.20673434436321259 0.3255722224712372 -0.43739596009254456 0.013678936287760735 0.1392235904932022 -0.31178808212280273 -0.13202734291553497 0.0003277943760622293 0.006138587836176157 0.1653304249048233 0.0031773997470736504 -0.10197189450263977 0.05941806361079216 0.1677088439464569 0.35399794578552246 -0.14553764462471008 0.10456093400716782 0.3209992051124573 0.3377528190612793 -0.1046016588807106 0.055158715695142746 0.40646088123321533 0.13869763910770416 0.04550343006849289 -0.17790749669075012 -0.16598856449127197 0.2513095736503601 -0.08485393226146698 -0.015869030728936195 0.008620535023510456 0.1902812272310257 0.31237325072288513 -0.21062952280044556 0.21302850544452667 0.35153627395629883 0.4208022356033325 -0.18701237440109253 -0.48315030336380005 -0.12231224030256271 0.1903941035270691 0.395576149225235 -0.13742488622665405 -0.14321070909500122 0.1195441335439682 0.09900756925344467 -0.05755455419421196 0.14418601989746094 0.06341714411973953 -0.06986207515001297 -0.1802247166633606 0.07498717308044434 0.026384931057691574 0.011702031828463078 0.24603019654750824 -0.2888014316558838 -0.06781186163425446 0.13283029198646545 0.0802060067653656 0.021773992106318474 0.5463077425956726 -0.08840730041265488 -0.03277136757969856 0.10349474847316742 -0.24605460464954376 0.18708930909633636 0.18122921884059906 -0.33742156624794006 0.15212254226207733 0.12633205950260162 -0.18326155841350555 0.1281590312719345 0.1798095554113388 0.18357661366462708 -0.10547419637441635 0.2181519865989685 0.04190484806895256 0.28255611658096313 -0.16970543563365936 0.36764779686927795 -0.04336920008063316 -0.12854838371276855 -0.07414907217025757 0.39205506443977356 0.1452326774597168 -0.1597035676240921 0.048908162862062454 0.05679665505886078 -0.055804938077926636 0.010972471907734871 0.19866590201854706 -0.12218724936246872 -0.24816511571407318 0.03172338008880615 0.08259814232587814 -0.397331178188324 -0.021943826228380203 -0.44417130947113037 0.06966457515954971 0.6581985950469971 0.11465581506490707 0.1339632123708725 -0.7005213499069214 0.09321644902229309 0.4486185908317566 -0.02396056428551674 0.0680447369813919 0.03219551220536232 0.30326539278030396 0.30878788232803345 0.029039112851023674 -0.5578474402427673 -0.5716679692268372 -0.2247460037469864 -0.15106722712516785 -0.229051873087883 0.14819879829883575 -0.45902296900749207 -0.13864320516586304 0.002841688459739089 0.10486407577991486 0.5436014533042908 -0.1904839724302292 -0.2816791534423828 -0.11322075128555298 0.19567522406578064 -0.2268945276737213 -0.2575848400592804 -0.18169459700584412
27 0.21247899532318115 0.43717440962791443 -0.40171003341674805 0.0033751875162124634 0.19063645601272583 -0.4390581250190735 -0.12934575974941254 0.01346128061413765 0.047865014523267746 0.16975830495357513 -0.08185224235057831 -0.09529455006122589 0.18771319091320038 0.104640431702137 0.2318265736103058 -0.2063073366880417 0.184270441532135 0.2577109634876251 0.3241828680038452 -0.11240541189908981 0.0650540143251419 0.5034154057502747 0.13984373211860657 0.012054461054503918 -0.25173115730285645 -0.1491517573595047 0.23562100529670715 -0.11849692463874817 -0.015037724748253822 0.0910997986793518 0.15823926031589508 0.39491716027259827 -0.26803043484687805 0.22386154532432556 0.34312382340431213 0.42055049538612366 -0.22785913944244385 -0.5946459770202637 -0.1416988968849182 0.22594617307186127 0.40924036502838135 -0.2702213525772095 -0.09755357354879379 0.16969913244247437 0.16426101326942444 0.008553107269108295 0.055096060037612915 0.0922505110502243 -0.1321508288383484 -0.21568074822425842 0.10480956733226776 0.04421617463231087 0.06395076960325241 0.15328335762023926 -0.2710095942020416 -0.03150901943445206 0.20551621913909912 0.17849551141262054 -0.03558911010622978 0.6082227230072021 -0.0663069635629654 -0.021962778642773628 0.06640895456075668 -0.2642846405506134 0.19833946228027344 0.1718367338180542 -0.4301888942718506 0.1681404560804367 0.12967251241207123 -0.21556136012077332 0.12911248207092285 0.2016928493976593 0.274067223072052 -0.1258559226989746 0.23745889961719513 0.04411841928958893 0.2455274909734726 -0.2367536425590515 0.3258260190486908 -0.011435030959546566 -0.2117898315191269 -0.10242947190999985 0.5182077884674072 0.17313124239444733 -0.15374308824539185 0.016077250242233276 0.04336855560541153 -0.03211326524615288 -0.007944028824567795 0.2897174060344696 -0.1345580816268921 -0.1716298609972 0.09496667236089706 0.15637390315532684 -0.48724162578582764 0.010584283620119095 -0.45848706364631653 -0.020553432404994965 0.8135524392127991 0.02455572783946991 0.13685517013072968 -0.8471964597702026 0.07878903299570084 0.45122313499450684 -0.012455940246582031 0.10996973514556885 0.1196506917476654 0.28938615322113037 0.32468661665916443 0.12823054194450378 -0.6746272444725037 -0.6729321479797363 -0.25327613949775696 -0.180268332362175 -0.35114845633506775 0.2836374342441559 -0.5125868320465088 -0.04728401452302933 0.0965135395526886 0.1619168519973755 0.6631589531898499 -0.24452738463878632 -0.35192978382110596 -0.06701889634132385 0.15614764392375946 -0.32613810896873474 -0.32971879839897156 -0.19982503354549408
28 0.21502277255058289 0.46012577414512634 -0.37962806224823 0.013635806739330292 0.1759275197982788 -0.4385737180709839 -0.11898504197597504 0.05133236572146416 0.05766364559531212 0.15550032258033752 -0.04299324005842209 -0.11301999539136887 0.19231157004833221 0.07971592247486115 0.20814375579357147 -0.24411435425281525 0.17505799233913422 0.26784926652908325 0.30425068736076355 -0.08157948404550552 0.06282959878444672 0.4750211834907532 0.14277741312980652 -0.016714151948690414 -0.2532156705856323 -0.1661960333585739 0.20327548682689667 -0.08214110136032104 -0.027323761954903603 0.06728557497262955 0.12757094204425812 0.3917396068572998 -0.2801932394504547 0.21911494433879852 0.30887314677238464 0.38170915842056274 -0.21272194385528564 -0.5874884724617004 -0.10341998934745789 0.24105806648731232 0.3909040093421936 -0.30671432614326477 -0.093143530189991 0.1866023689508438 0.16499993205070496 0.010131577961146832 0.012525275349617004 0.08131680637598038 -0.20746995508670807 -0.23290424048900604 0.1195351779460907 0.06444646418094635 0.08357207477092743 0.1152699664235115 -0.28696051239967346 -0.004465182777494192 0.24998921155929565 0.19941087067127228 -0.03881164640188217 0.582253098487854 -0.05932990089058876 -0.044837161898612976 0.04500330239534378 -0.2331979125738144 0.2021634727716446 0.13428734242916107 -0.42289525270462036 0.14312131702899933 0.12060096114873886 -0.19257977604866028 0.09190323948860168 0.19306959211826324 0.256651371717453 -0.17457887530326843 0.26625174283981323 0.057443976402282715 0.23606395721435547 -0.2408595085144043 0.3129848837852478 -0.003927608951926231 -0.2470630556344986 -0.09114766865968704 0.5421598553657532 0.15311162173748016 -0.13899844884872437 0.0157480388879776 0.05663726106286049 -0.06158323585987091 -0.015728047117590904 0.2734971046447754 -0.12412133067846298 -0.13567745685577393 0.13437116146087646 0.18995104730129242 -0.4737614691257477 -0.015027517452836037 -0.5153151750564575 0.00803536269813776 0.8349675536155701 -0.01863257773220539 0.1431635171175003 -0.8432548642158508 0.06169597804546356 0.4578799605369568 -0.022585779428482056 0.09600745141506195 0.16371846199035645 0.2652245759963989 0.27849578857421875 0.1530311107635498 -0.6867491602897644 -0.6964110732078552 -0.2606106400489807 -0.16043783724308014 -0.38905173540115356 0.34019583463668823 -0.5077387094497681 0.005838930606842041 0.13845348358154297 0.1942969709634781 0.6813037991523743 -0.2517918050289154 -0.3665991425514221 -0.07306620478630066 0.16179843246936798 -0.3347335755825043 -0.3066488802433014 -0.16733711957931519
29 0.1963900774717331 0.2967296540737152 -0.39728665351867676 -0.012378213927149773 0.14990362524986267 -0.3126330077648163 -0.12417104095220566 -0.017165275290608406 0.0036294497549533844 0.1649402529001236 -0.015239917673170567 -0.08438969403505325 0.07096678763628006 0.15179328620433807 0.3004070520401001 -0.1290181428194046 0.12258025258779526 0.2729423940181732 0.3161427974700928 -0.11308728158473969 0.04737748205661774 0.4003063440322876 0.12533506751060486 0.041707467287778854 -0.17245180904865265 -0.14087583124637604 0.2402162104845047 -0.10467567294836044 -0.011083750054240227 0.04083684831857681 0.18462182581424713 0.3000178039073944 -0.1887398511171341 0.19126713275909424 0.33831167221069336 0.38756296038627625 -0.1789672076702118 -0.443879634141922 -0.12882563471794128 0.175817608833313 0.3686921298503876 -0.12121506035327911 -0.1257532238960266 0.11188257485628128 0.09807467460632324 -0.04947990924119949 0.13431133329868317 0.062138546258211136 -0.04143620282411575 -0.1550108790397644 0.06667303293943405 0.004729163832962513 0.00626562861725688 0.2256704866886139 -0.2526366412639618 -0.07141437381505966 0.1128673180937767 0.06784547865390778 0.011699187569320202 0.5123171210289001 -0.08106516301631927 -0.01680660806596279 0.09571080654859543 -0.23816415667533875 0.16985681653022766 0.17712947726249695 -0.3170766830444336 0.14255255460739136 0.1184479147195816 -0.1774403154850006 0.14425577223300934 0.1667812317609787 0.18186405301094055 -0.08077730983495712 0.18671859800815582 0.039904333651065826 0.25297337770462036 -0.15531189739704132 0.3343346416950226 -0.04328817129135132 -0.11483371257781982 -0.08403097093105316 0.3550431728363037 0.14235837757587433 -0.1490137130022049 0.04652117192745209 0.043161530047655106 -0.03884200006723404 0.002384643303230405 0.19643056392669678 -0.10804862529039383 -0.2296634018421173 0.005723896902054548 0.067803293466568 -0.38496869802474976 0.003178792539983988 -0.37422940135002136 0.018878448754549026 0.5983142852783203 0.10876714438199997 0.12208233028650284 -0.666603684425354 0.09684676676988602 0.39665278792381287 -0.018409250304102898 0.07175294309854507 0.023502998054027557 0.2885333001613617 0.3011274039745331 0.029860258102416992 -0.5201498866081238 -0.5202378034591675 -0.21136128902435303 -0.1522529274225235 -0.21224373579025269 0.11496693640947342 -0.4372745752334595 -0.13037969172000885 0.008883324451744556 0.09556560963392258 0.5055035352706909 -0.18674629926681519 -0.26220473647117615 -0.09663209319114685 0.16475611925125122 -0.21430212259292603 -0.2500336170196533 -0.18603549897670746
30 0.22826039791107178 0.4481548070907593 -0.4180646240711212 -0.003927386831492186 0.18123053014278412 -0.43744415044784546 -0.13866405189037323 0.014980262145400047 0.04354849085211754 0.18443335592746735 -0.06256939470767975 -0.10559353977441788 0.17229412496089935 0.11450126767158508 0.25871437788009644 -0.2170127034187317 0.17373740673065186 0.2871689796447754 0.33802083134651184 -0.108555868268013 0.06841494888067245 0.50907963514328 0.1557648628950119 0.0116749107837677 -0.25151050090789795 -0.16871733963489532 0.24588707089424133 -0.10794168710708618 -0.027603473514318466 0.0709712877869606 0.1651383638381958 0.39776644110679626 -0.2739005386829376 0.24260450899600983 0.3604237139225006 0.43390050530433655 -0.23047566413879395 -0.6039737462997437 -0.1295263022184372 0.24016930162906647 0.42435887455940247 -0.2549913823604584 -0.11944258213043213 0.16975902020931244 0.15044012665748596 -0.005760933738201857 0.0632103756070137 0.09021039307117462 -0.1414152830839157 -0.22580891847610474 0.10189240425825119 0.03834763541817665 0.06159116327762604 0.16826216876506805 -0.2987867295742035 -0.029529228806495667 0.2086220234632492 0.1722072809934616 -0.0297930259257555 0.6260565519332886 -0.07498984038829803 -0.02458704635500908 0.06367049366235733 -0.27048712968826294 0.21410591900348663 0.1761172115802765 -0.4297899603843689 0.17167973518371582 0.13987159729003906 -0.21400505304336548 0.1255526840686798 0.2038828730583191 0.26616814732551575 -0.13770104944705963 0.2552250325679779 0.05340617895126343 0.26414403319358826 -0.23744572699069977 0.35311388969421387 -0.022100916132330894 -0.21442514657974243 -0.09702260792255402 0.519128143787384 0.17010711133480072 -0.15962713956832886 0.02559584006667137 0.05522779002785683 -0.05031873658299446 -0.004567438270896673 0.27882102131843567 -0.13301579654216766 -0.18974940478801727 0.0953778475522995 0.165324404835701 -0.48940202593803406 -0.001474449411034584 -0.49492132663726807 0.007871350273489952 0.8325999975204468 0.03357347846031189 0.14462564885616302 -0.86260586977005 0.08031459152698517 0.473092257976532 -0.01470946054905653 0.09780465811491013 0.11359112709760666 0.3030056357383728 0.3314102590084076 0.11207056045532227 -0.6884239315986633 -0.6891258955001831 -0.27082961797714233 -0.1745428442955017 -0.3625015318393707 0.2752382457256317 -0.530438244342804 -0.05751621723175049 0.10018905997276306 0.17326654493808746 0.6874722838401794 -0.2453957498073578 -0.35817214846611023 -0.08119053393602371 0.17540010809898376 -0.32524001598358154 -0.3315417468547821 -0.2063203901052475
31 0.2793273329734802 0.5246065855026245 -0.5170143246650696 -0.0007677605026401579 0.21746191382408142 -0.5127815008163452 -0.17323371767997742 0.010811434127390385 0.04060159996151924 0.21740038692951202 -0.06598781049251556 -0.12327168136835098 0.19989515841007233 0.14299602806568146 0.3203987777233124 -0.24118050932884216 0.20685848593711853 0.34584277868270874 0.41956475377082825 -0.14477762579917908 0.08003995567560196 0.6087570786476135 0.18513986468315125 0.01766210049390793 -0.2950412929058075 -0.1979328840970993 0.3040669858455658 -0.13368913531303406 -0.026925018057227135 0.0946054607629776 0.2122940570116043 0.4757576286792755 -0.33048543334007263 0.28483960032463074 0.4405251145362854 0.5305361747741699 -0.27069759368896484 -0.7184410691261292 -0.1739559769630432 0.2880265414714813 0.5177979469299316 -0.2908681631088257 -0.14223432540893555 0.20229007303714752 0.1805810034275055 -0.01260690949857235 0.08922258019447327 0.11378706246614456 -0.14990314841270447 -0.25838497281074524 0.12258616834878922 0.048273131251335144 0.05983279272913933 0.21446411311626434 -0.3542250394821167 -0.04799703508615494 0.23535947501659393 0.1897011697292328 -0.03243465721607208 0.7503604292869568 -0.09739074110984802 -0.028168875724077225 0.09334778040647507 -0.32813695073127747 0.24319514632225037 0.22628413140773773 -0.5218870043754578 0.19758479297161102 0.16958507895469666 -0.2563219666481018 0.1583147644996643 0.24689166247844696 0.3114545941352844 -0.15167954564094543 0.30515629053115845 0.05122208967804909 0.32169386744499207 -0.27372685074806213 0.4324667155742645 -0.027368096634745598 -0.24429672956466675 -0.1182427927851677 0.6116436123847961 0.21545648574829102 -0.19823668897151947 0.02472623996436596 0.05403058975934982 -0.04596519470214844 -0.007315510418266058 0.3422602117061615 -0.1581023633480072 -0.24759213626384735 0.09163928776979446 0.17632676661014557 -0.591259241104126 -0.004626049660146236 -0.5653486251831055 -0.003113891463726759 0.9801360368728638 0.06117252632975578 0.17393182218074799 -1.027298092842102 0.1045660451054573 0.5719093680381775 -0.013961494900286198 0.12117167562246323 0.11985848844051361 0.36393603682518005 0.4168756902217865 0.1314201056957245 -0.8194764256477356 -0.8263874650001526 -0.31743085384368896 -0.22218817472457886 -0.41323667764663696 0.31041619181632996 -0.6351908445358276 -0.09012628346681595 0.10556796193122864 0.1893087476491928 0.8098770976066589 -0.29945582151412964 -0.42742809653282166 -0.10593019425868988 0.20475001633167267 -0.38126206398010254 -0.3924944996833801 -0.24716289341449738
32 0.2406989485025406 0.4433211386203766 -0.4715745449066162 -0.008712983690202236 0.1988781839609146 -0.4432305693626404 -0.14557233452796936 0.015369470231235027 0.02686804160475731 0.19685563445091248 -0.04884309694170952 -0.1172337532043457 0.1544775515794754 0.14282606542110443 0.3116535246372223 -0.21388700604438782 0.17725218832492828 0.3276351988315582 0.3832645118236542 -0.1251387596130371 0.06109228357672691 0.538284182548523 0.15677762031555176 0.0252962876111269 -0.2581568658351898 -0.18575778603553772 0.2653962969779968 -0.11978986114263535 -0.021233899518847466 0.05692996457219124 0.190044566988945 0.40967628359794617 -0.28151363134384155 0.2562539279460907 0.39662107825279236 0.46858805418014526 -0.23357486724853516 -0.621927797794342 -0.14494924247264862 0.2534187138080597 0.4543377459049225 -0.24673250317573547 -0.1408856213092804 0.1737414300441742 0.15199865400791168 -0.022860044613480568 0.10086894035339355 0.08842862397432327 -0.1326715499162674 -0.23209942877292633 0.09830965101718903 0.03536711260676384 0.049529410898685455 0.20985303819179535 -0.32482287287712097 -0.05152453854680061 0.20203177630901337 0.14743483066558838 -0.01502046175301075 0.6640210151672363 -0.0871041938662529 -0.03481107950210571 0.08223243802785873 -0.2910458743572235 0.22055339813232422 0.19782617688179016 -0.4479409456253052 0.1803755909204483 0.14816249907016754 -0.2288285344839096 0.1472182720899582 0.22032225131988525 0.2647385001182556 -0.13858644664287567 0.26960957050323486 0.04444274678826332 0.2939172387123108 -0.23863647878170013 0.40003374218940735 -0.02447265014052391 -0.2025946080684662 -0.10340220481157303 0.5339154601097107 0.1771710216999054 -0.17568548023700714 0.03459281101822853 0.06687633693218231 -0.05501292273402214 -0.0010229352628812194 0.28657764196395874 -0.14732807874679565 -0.22715221345424652 0.07208674401044846 0.1536037176847458 -0.5089358687400818 -0.005229439120739698 -0.5176957845687866 0.016904450953006744 0.8546370267868042 0.06876334547996521 0.15630051493644714 -0.9003576636314392 0.09196015447378159 0.5130758881568909 -0.03275065869092941 0.09794428199529648 0.09634622931480408 0.33611229062080383 0.36183515191078186 0.09286780655384064 -0.7221428155899048 -0.725030243396759 -0.27949145436286926 -0.191062331199646 -0.3498501181602478 0.2655893564224243 -0.56641685962677 -0.08926345407962799 0.07546460628509521 0.16452088952064514 0.7095286846160889 -0.26221731305122375 -0.3675362765789032 -0.09720904380083084 0.19539114832878113 -0.31990113854408264 -0.3457578122615814 -0.22468315064907074
33 0.24693314731121063 0.5244075655937195 -0.43674618005752563 -0.012328429147601128 0.2220357209444046 -0.5457668900489807 -0.14720766246318817 0.008855152875185013 0.05234949663281441 0.20063169300556183 -0.11898266524076462 -0.10632951557636261 0.24591243267059326 0.09477586299180984 0.21573291718959808 -0.2421225607395172 0.22858844697475433 0.2719237804412842 0.36003419756889343 -0.13349686563014984 0.07381399720907211 0.6057764887809753 0.16643886268138885 0.007336075883358717 -0.3018079996109009 -0.17166349291801453 0.2761395275592804 -0.14629243314266205 -0.02734822779893875 0.1328231543302536 0.17565712332725525 0.4675735831260681 -0.31701982021331787 0.26733630895614624 0.3951243758201599 0.46693745255470276 -0.26086297631263733 -0.6920409202575684 -0.16491426527500153 0.2677338421344757 0.4745396673679352 -0.32493871450424194 -0.10157570987939835 0.19192734360694885 0.19567736983299255 0.024886108934879303 0.04120127111673355 0.11997926980257034 -0.15093877911567688 -0.23690731823444366 0.11107208579778671 0.04790682718157768 0.08102872967720032 0.1437402218580246 -0.29648032784461975 -0.041915133595466614 0.25236546993255615 0.2153981477022171 -0.05797822028398514 0.7074901461601257 -0.07559861987829208 -0.013836967758834362 0.057692546397447586 -0.30128350853919983 0.23083682358264923 0.20420217514038086 -0.5130422115325928 0.19022248685359955 0.1531263142824173 -0.2628067135810852 0.1447989046573639 0.24042901396751404 0.3192853033542633 -0.13956910371780396 0.2772656977176666 0.04189018905162811 0.2656475305557251 -0.28241726756095886 0.3589388430118561 -0.005839078221470118 -0.2625669836997986 -0.12694185972213745 0.6080906391143799 0.20689871907234192 -0.17810675501823425 0.01405443623661995 0.04138801619410515 -0.025155434384942055 -0.008462723344564438 0.35106638073921204 -0.14669549465179443 -0.19036021828651428 0.10805846005678177 0.20054224133491516 -0.56911301612854 0.02739320695400238 -0.5055265426635742 -0.05392279848456383 0.9572675228118896 0.01119473110884428 0.16074158251285553 -0.9958539009094238 0.08578187972307205 0.4989090859889984 -0.006518050096929073 0.1305818110704422 0.1477774977684021 0.3237907290458679 0.3827793598175049 0.1632077395915985 -0.7921596169471741 -0.7898641228675842 -0.2930918335914612 -0.2098311334848404 -0.4389849305152893 0.33671295642852783 -0.58951735496521 -0.035074688494205475 0.13703584671020508 0.20220164954662323 0.7729983329772949 -0.29662826657295227 -0.4167460501194 -0.06880612671375275 0.1591208428144455 -0.3880501985549927 -0.4005014896392822 -0.23406773805618286
34 0.19555702805519104 0.236476868391037 -0.4205414950847626 0.002925412030890584 0.11923909932374954 -0.24135778844356537 -0.13832204043865204 -0.03651662543416023 -0.01772235333919525 0.17269380390644073 0.018673846498131752 -0.08378338068723679 0.0021637696772813797 0.18912634253501892 0.39166730642318726 -0.09570510685443878 0.07617845386266708 0.3207055926322937 0.34196969866752625 -0.1250467151403427 0.040899842977523804 0.35519886016845703 0.12724798917770386 0.07141775637865067 -0.14049574732780457 -0.1609281599521637 0.26039353013038635 -0.0941774919629097 -0.00304700736887753 -0.004342270083725452 0.21022573113441467 0.2659904658794403 -0.16764594614505768 0.1999448984861374 0.35228031873703003 0.4126535952091217 -0.16781014204025269 -0.4122273027896881 -0.1385028064250946 0.1632736623287201 0.37701040506362915 -0.055524539202451706 -0.15878278017044067 0.09387423098087311 0.0669579729437828 -0.07960733771324158 0.19681821763515472 0.061728496104478836 -0.0027143084444105625 -0.14656545221805573 0.053680457174777985 -0.0020705799106508493 -0.02381163276731968 0.28990301489830017 -0.2700659930706024 -0.0940767303109169 0.06622382998466492 0.02433757670223713 0.03817647323012352 0.5094751715660095 -0.1075625866651535 -0.018468718975782394 0.11741922795772552 -0.24978378415107727 0.16975192725658417 0.19185388088226318 -0.2928414046764374 0.14715443551540375 0.12056105583906174 -0.17588967084884644 0.1509879231452942 0.16301053762435913 0.1436416357755661 -0.06953810900449753 0.1827394813299179 0.033898238092660904 0.2916039526462555 -0.1322697103023529 0.3644300103187561 -0.05534432455897331 -0.06656836718320847 -0.06345077604055405 0.3033831715583801 0.1348569542169571 -0.15279875695705414 0.05753979831933975 0.048074446618556976 -0.0462288074195385 0.025905326008796692 0.16946455836296082 -0.10974076390266418 -0.27935606241226196 -0.03195419907569885 0.024044368416070938 -0.34437429904937744 -0.006853623315691948 -0.36668509244918823 0.07423088699579239 0.5468490123748779 0.1590244472026825 0.11654786020517349 -0.6087897419929504 0.11444943398237228 0.41681456565856934 -0.024094602093100548 0.05305369198322296 -0.02968340925872326 0.3071941137313843 0.3036869168281555 -0.015349604189395905 -0.47939935326576233 -0.4745379388332367 -0.1942242830991745 -0.1363772600889206 -0.14857546985149384 0.04322034493088722 -0.4143981337547302 -0.1905253380537033 -0.04985775053501129 0.05930723994970322 0.45843595266342163 -0.16454313695430756 -0.22257761657238007 -0.1269560605287552 0.18917745351791382 -0.16848134994506836 -0.22745849192142487 -0.17845487594604492
35 0.22818361222743988 0.3936978578567505 -0.4613470733165741 0.018363436684012413 0.1509743630886078 -0.35988369584083557 -0.135354682803154 0.015349803492426872 0.02285625971853733 0.1814252734184265 0.001920376904308796 -0.11006158590316772 0.09976881742477417 0.15672090649604797 0.3391264081001282 -0.190149188041687 0.1337524801492691 0.32976236939430237 0.36249926686286926 -0.10210621356964111 0.061504993587732315 0.46031150221824646 0.15422596037387848 0.022781601175665855 -0.20968745648860931 -0.18691138923168182 0.24580955505371094 -0.09469743072986603 -0.022785978391766548 0.022088248282670975 0.17993398010730743 0.36587050557136536 -0.24991242587566376 0.237462118268013 0.3621048331260681 0.4255638122558594 -0.2045968621969223 -0.5461114645004272 -0.11776354163885117 0.21773038804531097 0.42085039615631104 -0.19689393043518066 -0.14981932938098907 0.16149581968784332 0.12756340205669403 -0.04486440122127533 0.11076504737138748 0.0736151859164238 -0.12804801762104034 -0.20752277970314026 0.09924892336130142 0.044050104916095734 0.036899372935295105 0.2211519032716751 -0.3060452938079834 -0.04239456728100777 0.18996316194534302 0.1153230145573616 -0.0021359024103730917 0.600209653377533 -0.0890425592660904 -0.044012557715177536 0.09569840878248215 -0.2560274600982666 0.20259255170822144 0.18445898592472076 -0.3859695494174957 0.15603101253509521 0.13858100771903992 -0.19556143879890442 0.13032740354537964 0.20108458399772644 0.2219943255186081 -0.14437466859817505 0.2461615353822708 0.054701823741197586 0.2940806746482849 -0.20929206907749176 0.37027430534362793 -0.031964048743247986 -0.17273743450641632 -0.07553450018167496 0.47826719284057617 0.14931528270244598 -0.15923140943050385 0.04614664986729622 0.07750582695007324 -0.07133518159389496 0.008580953814089298 0.24341921508312225 -0.13172301650047302 -0.22652801871299744 0.065005362033844 0.12810705602169037 -0.44780460000038147 -0.02357441745698452 -0.5114483833312988 0.059914734214544296 0.7635635137557983 0.06692112237215042 0.14447826147079468 -0.7905657291412354 0.08943139016628265 0.4787943363189697 -0.03202297165989876 0.08211477100849152 0.0890381708741188 0.31717649102211 0.3086044490337372 0.07158226519823074 -0.64764803647995 -0.6540248990058899 -0.2523662745952606 -0.1625521034002304 -0.2984316647052765 0.22056418657302856 -0.5128904581069946 -0.0940752774477005 0.05416147783398628 0.13848714530467987 0.636776864528656 -0.22961360216140747 -0.3300367295742035 -0.11235729604959488 0.20146800577640533 -0.27279484272003174 -0.28277650475502014 -0.18228794634342194
36 0.2715630531311035 0.5009860992431641 -0.5022592544555664 -0.007041503209620714 0.22569391131401062 -0.520537793636322 -0.17004108428955078 -0.0033669820986688137 0.04093117266893387 0.22102907299995422 -0.09568268060684204 -0.1143474206328392 0.19822612404823303 0.1427031308412552 0.3134349584579468 -0.2322305142879486 0.2241925746202469 0.33515065908432007 0.4127432703971863 -0.15601368248462677 0.08105132728815079 0.6278234124183655 0.18438056111335754 0.03318851813673973 -0.2947878837585449 -0.19272814691066742 0.3205450177192688 -0.1587797999382019 -0.027708929032087326 0.11938979476690292 0.2232593297958374 0.47544747591018677 -0.3144592344760895 0.2839674949645996 0.4504387378692627 0.5283157825469971 -0.2750709056854248 -0.7057798504829407 -0.18583157658576965 0.27848678827285767 0.5240646600723267 -0.2758500874042511 -0.13304394483566284 0.18385565280914307 0.1860908567905426 0.0015721811214461923 0.10924679785966873 0.12950748205184937 -0.11570841073989868 -0.2455817013978958 0.1075325459241867 0.029629966244101524 0.05430452525615692 0.2304605394601822 -0.3286346197128296 -0.0722215473651886 0.2130613774061203 0.18388886749744415 -0.03972827270627022 0.7572658658027649 -0.09338199347257614 -0.015459664165973663 0.08434241265058517 -0.33403143286705017 0.2460600882768631 0.24144047498703003 -0.5256397724151611 0.21155865490436554 0.16401444375514984 -0.281414270401001 0.17653429508209229 0.2492178976535797 0.3221459686756134 -0.12785494327545166 0.28617236018180847 0.04383302852511406 0.3151688873767853 -0.2741488814353943 0.4177885353565216 -0.03203398734331131 -0.229629248380661 -0.12535306811332703 0.5944620966911316 0.22035296261310577 -0.2055041640996933 0.023734480142593384 0.04018606245517731 -0.019654763862490654 -0.008344972506165504 0.34304025769233704 -0.16557718813419342 -0.25325679779052734 0.07149474322795868 0.16243673861026764 -0.5907346606254578 0.029685797169804573 -0.5406737327575684 -0.025455016642808914 0.9690446853637695 0.07338090240955353 0.16891159117221832 -1.029543399810791 0.1080673336982727 0.5478866696357727 -0.024131648242473602 0.12560342252254486 0.10244631767272949 0.37051627039909363 0.43633216619491577 0.12360887229442596 -0.8159928321838379 -0.8061904907226562 -0.3118688464164734 -0.21823088824748993 -0.3987676203250885 0.2767582833766937 -0.6229226589202881 -0.09836190938949585 0.08397147804498672 0.18321050703525543 0.791356086730957 -0.29130226373672485 -0.4192326068878174 -0.10546413064002991 0.20371730625629425 -0.3753422796726227 -0.4147031307220459 -0.2604488134384155
37 0.2414148598909378 0.4415399730205536 -0.45935115218162537 -0.004507893696427345 0.18676252663135529 -0.42981669306755066 -0.14790032804012299 0.015819335356354713 0.028160039335489273 0.20439359545707703 -0.038157373666763306 -0.10976120084524155 0.14571312069892883 0.14428791403770447 0.3149261474609375 -0.20765601098537445 0.16404233872890472 0.3215533494949341 0.3703308403491974 -0.12071038037538528 0.06559047102928162 0.5186082124710083 0.16545937955379486 0.026912204921245575 -0.2455003410577774 -0.17953521013259888 0.2672070562839508 -0.11994148790836334 -0.01378724630922079 0.053547073155641556 0.20015102624893188 0.4018940031528473 -0.27859580516815186 0.24961593747138977 0.39140039682388306 0.4665437340736389 -0.23344960808753967 -0.6117163300514221 -0.1373002976179123 0.24379558861255646 0.45760300755500793 -0.23687398433685303 -0.14042682945728302 0.16618122160434723 0.1466013789176941 -0.015103407204151154 0.10210833698511124 0.09179377555847168 -0.12406295537948608 -0.22755691409111023 0.10862332582473755 0.037731755524873734 0.04614806920289993 0.22132140398025513 -0.3207763433456421 -0.05155486240983009 0.20479527115821838 0.15282295644283295 -0.01685570739209652 0.6539408564567566 -0.08942846208810806 -0.035559240728616714 0.08988513797521591 -0.28699740767478943 0.2145649790763855 0.20246830582618713 -0.44071871042251587 0.174661323428154 0.1465829610824585 -0.23126552999019623 0.14683252573013306 0.2212735265493393 0.2563788592815399 -0.1383982002735138 0.26866036653518677 0.0545380562543869 0.29850685596466064 -0.23477822542190552 0.3862471580505371 -0.02285412698984146 -0.20116250216960907 -0.09859179705381393 0.5250132083892822 0.18021592497825623 -0.16800165176391602 0.03632940724492073 0.059979017823934555 -0.05452617257833481 -0.005917493719607592 0.2819202244281769 -0.14914381504058838 -0.22940248250961304 0.07623518258333206 0.15537793934345245 -0.5037162899971008 -0.001704485504887998 -0.5163756012916565 0.026244759559631348 0.8439538478851318 0.07133827358484268 0.1550332009792328 -0.8908496499061584 0.09473817050457001 0.5065119862556458 -0.02606181427836418 0.09673000127077103 0.08914543688297272 0.3254797160625458 0.3554343581199646 0.09808991849422455 -0.7119057178497314 -0.7127304673194885 -0.27563372254371643 -0.1845351755619049 -0.346844345331192 0.25658807158470154 -0.5578643679618835 -0.09467952698469162 0.06965572386980057 0.15813453495502472 0.7013938426971436 -0.24949206411838531 -0.36181795597076416 -0.1011912152171135 0.195105642080307 -0.3173624277114868 -0.3327619433403015 -0.2131081372499466
