1024 128
0 0.04625494401735767 -0.018470189748252916 -0.0028125449076648206 -0.037389266681982856 -0.011342539564667365 -0.05229357716828648 -0.025817737124765504 -0.015478746161439863 0.006843512942501359 -0.018410711053263494 0.0031381396993650445 -0.01597135712380852 -0.015628841800999216 0.02196419300186557 0.04985254440260072 0.008467033629310887 0.011377119202520899 -0.025623428524895533 -0.024639886669497044 -0.03231705851297742 -0.006366414936803084 -0.011236822564307827 -0.008228638561880778 -0.0007526497747736864 -0.013557116380925705 0.026333077729269676 -0.00935101795386701 -0.003761774184060347 -0.006416906383941878 -0.028260096051347605 0.027457703811031443 0.030686158278546462 -0.0643832932933611 -0.018121536476069833 0.03183569932932033 0.07158141151431657 0.022437840218893113 -0.004612851165695526 0.044581763257418416 0.003600694023940331 0.06409407836744249 -0.007763452819891335 -0.05289954433568403 0.04233915562755524 -0.027710317026622508 -0.049790698861944066 0.0013632499331293465 -0.056188413361698615 0.008490277152389196 0.007341437823818682 -0.00028143156762179826 0.019300541888137433 -0.011385372199078004 -0.040745538097502546 0.014103233481528057 0.03257888119817805 -0.014010370710065948 -0.010755479226196985 -0.008105203802598358 -0.009250863853305152 0.04031124052658181 -0.05999187473712252 0.010841024195015144 0.009166894901521613 0.004240445890137886 -0.08602132349604119 -0.033430248753288684 0.019598934952410402 0.052991926662344084 0.009031991474450553 -0.05047653149288602 -0.05274853732432923 0.014313237169055634 -0.0012504602475197533 -0.007550111777296041 0.02305847153960465 0.010875266823974437 -0.02671983146384278 -0.02526973484963008 -0.042577117398676555 -0.04973575481629521 -0.014199949123008657 0.030065442680487487 0.031169619437691417 0.019679542153933725 -0.00799668856516608 -0.032623964055422644 0.009424498364339385 0.02613484293097763 -0.03905827884523674 0.056112724500886696 -0.021340282999072303 -0.029143264476705913 0.03941738664950063 -0.06470114418542541 0.04620095795663604 0.022256637969230643 0.0034259754137817384 -0.006847118968418848 -0.013496609331651995 0.04836239289626387 -0.019457626744431578 -0.036352898393559874 0.01850208210024991 0.04575207272594648 0.006450979742465061 0.0031151690555022856 -0.03835388210183978 -0.02035412375563126 -0.04875417261356464 -0.010944759445646577 0.005718480509952055 0.013957788292683097 0.006050394897174096 0.009751850573712235 -0.00705866901123365 -0.010803995235880935 0.05463703887374 -0.043548139989098844 -0.024766929117300877 -0.04073255989710008 0.014842172531190124 -0.002504268607247644 0.013537401549008187 -0.006622872958895408 0.007547025826896339 -0.046225556620668365 -0.0014680540765077952
1 0.04239238444254158 -0.018205507826584384 0.02466480002757808 -0.02288893195421609 0.0035977217849472607 -0.008497572131478193 -0.010876805369944278 -0.006250340928509115 0.034557939876207186 -0.01783708674913752 -0.03234705054421978 0.022633223161971014 -0.03251556733502299 0.014635044410679062 0.03347326765099451 0.02569808218687289 0.003330080117315352 -0.007102546395249045 0.03594232589374374 0.04525889496619207 -0.01874960133202164 0.016258885085942705 0.009781374556459513 0.017193448793056045 -0.02569282142654897 -0.014828150342061024 -0.007507453766026602 0.007804981003441245 0.002959317062238016 -0.0467856873639649 -0.03926758190640728 0.02225794387170347 -0.032490888927064 0.020021854876029338 -0.02773055755741041 0.003965684648197478 -0.029213431344250678 -0.01479550913773012 0.030050874203093426 0.004792035743663754 0.015832029281974545 -0.0036327095861524153 -0.026680952160198453 0.00752473401733894 0.009895692590456391 -0.00419661748367481 -0.02826262624875663 -0.059108565516944093 -0.016079305466717743 -0.01591477885818064 -0.002115457952157513 0.04128727866822381 0.026226771949821908 -0.030277310531072694 0.015891910690650338 0.011042045019602398 0.02840744649138416 -0.06637081044565867 -0.0006937109806409002 -0.013174683186606919 0.03012184100944177 0.015356850277840988 0.02164114621599266 0.006104038933643639 0.003023920223845511 -0.02844913026021296 0.05098772575641664 -0.031044342745822063 -0.006411472487604194 0.014279839057949717 0.0657452960740445 -0.02209573953306155 -0.030313153424517906 0.035570401404341784 0.03394266471164801 -0.057567513793902146 0.019534147895594385 0.042100696882463075 0.019483313081538726 -0.035631824730829265 -0.006677499318508751 -0.01581606028431113 0.008069875987279729 0.029242473146013 -0.024359960244973985 -0.037477641341073134 -0.027908389232076863 0.011208446199661614 -0.04511052899506179 -0.009365511318567688 0.06577863502613138 0.01058938516104636 0.009237433765248885 0.03573845840243876 0.005785436382240019 -0.012901070511431289 -0.018246561487782732 -0.013561995759013307 -0.05077178475464571 -0.004064099760411008 0.037586738751409075 0.0012211867299569189 0.004200562872092056 0.01951765967677792 0.014879645964819624 0.011208761887413786 0.054057252751303006 0.0124332762987107 -0.01208189926365098 -0.011058483629367453 -0.03855535215095648 0.0506601021886735 0.047093221485943866 0.024755256574866984 -0.043467834752033245 0.028116996659933176 0.007977313964862226 0.08109234509185784 0.008858931850538227 -0.025385785651969247 -0.07265463785763336 -0.01361589258632394 0.0009118347230987784 0.05768205587450185 -0.013087376706180619 0.054433097550895024 -0.021349031507227167 -0.020832268310680378
2 0.03949510560660701 -0.020998657584042298 -0.007609708304989199 -0.012453895204500015 0.014813682432767 -0.0007144950637124849 0.0016918409403285377 0.041859858741324744 -0.0267397364064824 0.0036405479864116976 -0.00411947075097149 -0.01133609875306603 -0.004581300462990635 -0.021001997180250427 -0.009457374227699569 0.03787381535084627 -0.013454921501276512 0.03715639118714524 0.025410245777288665 -0.03603779625364413 -0.019325116230136507 0.05193763300658734 -0.015311818995433818 0.025521350876333775 0.020505835218415522 -0.046941163288936036 -0.03902599189541426 0.043601443828843775 -0.030315568376609023 0.05547393210999007 -0.011432728245080742 0.03248179712341915 -0.012524307954701948 -0.03185687007682383 -0.028587107522730314 0.015097140596961087 0.02079209407633874 -0.02094234299104473 0.008608792231303352 -0.03548296692982647 0.04119740500169642 -0.024981860476426705 -0.010582790916424412 0.010520281250513177 -0.0414690861969922 -0.01749793803279578 0.01826164658811428 -0.01664560462266088 0.0268021500008711 0.011724169383024957 0.032883697558398636 0.044382171920843295 -0.015425550933960462 -0.015044892103237586 0.003512018670133241 -0.03039373213805582 -0.04470870571187462 -0.007271784005022237 -0.0521589904745744 -0.034872691761002064 -0.03747148451805136 0.01720769781195461 0.02030627718017308 -0.012284379750401567 0.050183320367963614 -0.0029726703625801744 -0.02074580361106217 0.031318569030376435 0.013150078406386073 0.03434673819639474 0.029104651985075933 -0.013079640762902554 -0.03878708575265941 -0.04408189334767697 -0.007729822052025663 -0.05990738706859394 0.01843811693356343 0.02373795863596809 0.03264206016267827 0.01363580028138704 -0.02955116495496331 0.002940522563695375 -0.016389521978214742 -0.027112509903972033 -0.030803226777623503 0.027162815358112234 0.0028087902035139616 0.006162677574202232 -0.015304331330349613 -0.0009460471600425194 -0.039578430571594894 0.0033423912528423695 0.06247049079315247 0.0896611400142563 0.015889374342588348 -0.10165389528191196 0.037130821775762386 -0.004847785894575114 -0.027510898786730777 0.03932551609373129 -0.011215703635706434 -0.00729804072581528 -0.027037639127957657 -0.036103108212503135 -0.05917902580220573 -0.01085344440544149 0.0444539013669225 -0.019165032998309985 0.05604884684523302 -0.0018674010755903086 0.0040349841222476705 -0.014472228522064617 -0.049165920176271784 -0.026024674791428587 0.0036491844858157294 -0.012593465501940135 0.01003781911761889 -0.03898012469867293 -0.04553107843884876 0.010349959795831355 -0.06139882115278725 -0.014655524787521305 0.0070218300942703205 0.05181642596233744 0.028852753558183872 -0.004527724573089873 0.002174184604176853 0.03731888720349804
3 0.03414852260411695 -0.017404854478922635 -0.009936808808792368 -0.016787825033706478 0.004020471578081449 0.021618953751286817 0.007657770060036641 -0.021290726448682604 0.000139427094068383 -0.052740104762730375 0.023387366203372503 0.022703352988057868 0.01543554165960727 0.008619103934130318 0.006581642290857184 0.037057325034494555 -0.04554900181704079 -0.01016566060903802 -0.005413758357682252 -0.03416706346234582 0.009669216010008872 0.018883764615693605 -0.020664762791468165 0.010453366513992307 -0.009020055589340305 -0.021927596897262362 0.0059903961344081385 0.0021858628524972067 -0.005109636222583154 0.032233962542038225 0.008171965563113118 0.017173334688913574 -0.054947839607939086 -0.015316445725997288 0.025824941933736818 0.04430910442532139 0.021941293752235434 -0.012676006508934414 -0.004007878755588953 -0.025934993387748437 0.05201723048773795 -0.0005160277557865067 0.006268857765215726 -0.010550330776109952 -0.031822321806288634 -0.01770375960155552 0.039060245110001474 -0.05613930358327629 0.012510466276378978 0.034935769003094516 0.04245344186592055 -0.030027009684642097 -0.037141642260336 -0.03341816342316875 -0.031174385200344663 0.03068696710776037 -0.02643579404596726 0.06772527220976879 -0.03995398822870522 -0.07009869576655589 0.051273956098354966 -0.0065986480908751645 -0.05709105911322467 0.01248597565188521 0.02135271423550119 -0.025696408653937467 -0.05727938609047465 0.0010602356306744054 0.06320414228569664 -0.016185277525601872 -0.011251615256982726 0.04055683279424386 0.05283876294120463 0.006324619625982492 0.0326501490771103 -0.06451158173882535 0.02741653971597632 0.013040517024912627 0.06699763588877627 0.042739623406204665 -0.018569155051634062 -0.012089907349961182 0.023632858681572545 -0.01408853022251781 -0.0052945131066821334 0.04848351136542897 0.018184021465019438 -0.03442238647392956 -0.052520350876545906 -0.03730768130971684 0.020163923513637366 0.02406569002456685 0.03601708860981471 0.0505005188266149 -0.09506679173821377 0.0344681103050987 -0.004309644974395358 0.013674429759185517 -0.04904692336931646 -0.04175296280430026 0.004042836049117717 -0.0035743733911968063 0.02643828775569206 -0.0944226229264032 0.008725384374651141 -0.009236941468326314 -0.018526399069125128 -0.01610290195844501 -0.050641783471290065 0.06206469888795201 0.04230885506506408 -0.009381008275874462 -0.004489000108022941 -0.0020094394297995024 0.03234035320350617 0.011500687617040243 -0.04128537308490817 0.03292404252028993 -0.0024292757251892236 -0.032064292169224164 -0.027302856137760116 0.009576766869567219 -0.03889188016827086 0.00026229354034530624 -0.008267957824164679 0.021281881673400786 0.023668018187224357 0.04299550199362441
4 0.035905086162446434 -0.015941784652100187 -0.0166853097851528 -0.013510319708008514 -0.0249282516448439 0.03795737023433335 -0.022095432032886 -0.02093726250249815 -0.03478861116118185 0.024773305248680225 0.06067876273690375 -0.00881762206015228 -0.019688959676980942 -0.005096395293748447 0.04434158650924728 0.0030228921577187813 0.005087276899855749 0.027520451653652567 0.04419708823424248 -0.05588431628631377 0.02835917269143694 -0.0016862751573318243 0.013812906509045176 -0.012668793027889062 0.02194466198323916 0.0020674605696601417 -0.012685038592291843 -0.0029026134305521097 -0.027983431361432783 -0.010801303859926526 0.005228144973029297 0.0021286257153282024 -0.04303036673766402 0.0459862562830908 -0.013750766200750043 0.011008704706918816 0.03559422879081939 0.0633203517853356 0.03551176295400028 0.05018868590650766 0.07041978088906754 0.025612299855318703 -0.00875389549833377 0.02906943250728334 -0.08506439801825008 -0.02261979700299948 -0.02945768137878389 0.009294559160808112 -0.022618908525003527 -0.00963700273113292 0.027809407157369886 0.019353908021573017 -0.057389809879034276 0.02744517093760475 -0.02581740504042116 0.021601480669965745 -0.04766550603469671 -0.016245624543702923 0.004474521258261055 0.018014055905916256 -0.06236993587097697 -0.02065293672296623 0.022561070366766106 0.033505747321575685 0.005232633404860383 -0.0049687205592558415 0.028331594009927567 -0.024829213950613042 -0.023331574838396152 0.003198491077504735 -0.03047619550722737 -0.02394974503309002 0.018325239338373617 -0.06503176997818026 -0.04138225627188304 -0.008981139221937297 -0.007790246759483922 -0.019402757336701732 -0.04641683291506397 -0.02012484641955489 -0.0032349287099848246 -0.0692754136232843 0.0023180725823960125 -0.000340871540679015 -0.05588387553714992 -0.0127805490103883 0.008569751391652619 0.04017532241340761 0.03516937113084107 -0.03362723454399067 0.0181600704412289 0.029284939309629568 -0.019516837471250086 0.05982049433501041 -0.039843882277091784 -0.014968575389656343 0.04250471417128938 0.00474637495028147 -0.044180163903704196 -0.055304097409723356 -0.05017023865582541 -0.051585396441833145 -0.04578432138411082 0.021522988881469612 0.01893235492586544 0.012426753951085737 0.050393831356613954 -0.039164984622531575 0.004396804415992454 -0.01749715490793067 -0.015209012558745108 -0.006354369094541866 0.05089600333626454 0.018080546444612905 -0.05226828979090444 -0.0068126347323318555 0.020435754781863248 0.041263793354097245 -0.028439714021285218 -0.027120434118203297 -0.06169555338191886 0.0201619906324091 -0.026713336697575026 -0.010393490539881077 -0.0121487631193834 -0.013068021666644157 0.0022788989542974467 0.06182431799602715
5 0.03700302741515163 -0.017575384943154696 -0.023811132956176338 0.00948064352093254 0.02427871693132035 0.030033472628198787 -0.006874504622694476 -0.04345121507150581 -0.0239805857500519 -0.06168664891156606 0.008709339723378602 0.009405918371384544 -0.04319960232318251 0.006866195632235475 0.03656623551327754 0.00483470571706583 -0.009025944208828966 -0.009366563415414092 -0.009449925330185852 -0.011428218702533199 -0.026670985923600274 0.005348164767501454 -0.03465894466493423 -0.003781089973954614 -0.020205863115668913 -0.014596448247145689 0.02859401655206697 0.006677469047750561 0.03603774511106486 -0.06497225989175663 -0.010047605054809276 0.006075649542494266 -0.018251167957485166 0.021780998343584608 0.01897940274172076 0.03131935419283663 -0.03928136157530665 0.022685609929030074 0.02559331899799431 0.02223592248354742 0.010611993990658028 -0.03381855120379844 -0.05159905640844723 -0.019561411121694423 -0.008163579375674319 0.020277758280075935 -0.0070661370811046014 -0.030315632627610584 -0.003063978112241099 0.01527071233121843 -0.01930924480136665 0.006253138182659466 -0.023772514431888398 0.012217758469372347 -0.06567488437465752 0.008685427297329748 -0.0011183258242132624 -0.036302884482583626 0.05497994684124228 -0.004369542531889455 -0.05561102237328181 -0.006999760286942075 0.02830716138809746 0.06934041593934354 0.003927612832802354 -0.023165442969719827 -0.011041131293273044 0.04040088295255628 -0.05676634066889316 0.0054640342084839606 0.009833655871706653 -0.004005678048409771 -0.01708216812840159 0.040509331683869006 0.021428960429266498 -0.013804967118295068 0.04057664948678465 -0.0024083644763506747 0.026052586380185504 0.015416023611622628 0.04628042836279144 -0.02533120217874033 0.0466599926585533 0.015758020364753773 -0.013249651874714307 -0.07068379606814076 -0.003681106480576045 0.023794639689377454 0.006542394333028292 -0.012336781846942575 0.03456832550164194 0.001559276285634477 -0.06243742983604539 0.03294139162184452 -0.006265958061661939 0.03988008405523752 0.01316288756895135 0.01456788569850549 0.03138194764536096 0.019370073701330648 -0.01880155853793418 -0.009916649122440077 -0.0256754770283799 0.028454675503804268 -0.025932216777720257 -0.0005953072364033518 0.006053191867700825 0.015873637789182354 0.02365387384086555 0.018178227103476042 0.019251697149189548 -0.025696075727835006 0.03408737324095337 -0.005037590862748847 -0.02864450304464088 0.07159224989017604 -0.031029016790759884 0.010423281421685441 0.004487814821615004 0.01139373419228807 -0.0057889628721564754 -0.020686331673355266 0.06290496156929684 0.0359104652272887 -0.011116490543450968 0.012048216482827034 -0.0487843476632078 -0.005616515925167398
6 0.031425945768149076 -0.016540570074744132 -0.015376398000326271 -0.028375888323785528 0.027702146554573762 0.022935527298594247 0.009806824998011093 -0.03798197718108577 -0.015513480285873741 -0.0372412191263431 -0.011536956216384325 -0.0069103265942955985 -0.03287571285491116 0.009248566497114846 0.042666826280988744 -0.020759468242318512 -0.010053050626719946 0.027946387206060717 0.002125287306533273 0.0060888394062995465 0.01951111372622401 -0.045990775268261286 0.03871567713550117 -0.025921545160503975 -0.017047556222887783 -0.006648780506645381 -0.03498984490238938 -0.04371226489382775 0.007219980545886501 -0.08375800415092712 -0.005922163073077192 0.0486876999056122 -0.03915365390836391 0.023944168023117714 -0.03198176900883823 0.008982410402828133 0.02585117040641986 0.031713462963931675 0.020410271689286306 -0.015738657735529526 0.05044131846821518 0.006331934985008212 -0.006179398156199204 0.006606140237866751 0.013234599844130836 -0.006040051636608923 -0.039901438839100765 -0.05227408031256101 0.016214451467528583 -0.025315877447542746 0.02606273374127761 0.0011538137929278847 0.018579288548682654 0.00971509143052816 -0.03791541431481431 0.039289986078296146 -0.0084545738462147 0.002611406397060864 0.019813719260894744 -0.0012960365504580205 -0.009303849093047717 -0.025195757591445614 0.05564049890905041 -0.02816939847933872 0.012371229287150096 0.007607756221745687 0.028508462854150558 -0.023864126450875864 -0.038304649724295106 0.05193757342596772 0.0129477757868269 -0.01736463824970343 0.05281081166581024 -0.01469533802893593 0.01792770926259937 -0.05692511616268733 0.014643848328818423 0.029876830421872707 0.0024643626883367998 -0.028693733445345388 0.06112915193823254 -0.03532037966956863 -0.019997122622001574 0.007244451604765194 -0.039912911233727186 0.026908960670396175 -0.04769588954089375 0.03034198851037449 0.0009397804812269707 0.04050253875826784 0.03327300012534939 0.025540268084608846 -0.06294683617947398 0.021295836654708026 -0.05218090904820506 -0.020868097599343112 0.0012100412188567674 0.016360720606981325 -0.03981365732143349 -0.07384227339294439 0.008028197652494792 0.027932050339591008 9.164028513561611e-05 -0.035168882078727516 -0.0050048000072213375 -0.051864135981852674 0.0222777805740731 -0.007500070581542958 0.03729527058001616 0.019260772479162986 -0.032889131065359435 0.055550920056054824 0.019608233746509256 0.0319572849291773 -0.0346105114759002 0.020674343403079318 0.0081241204010748 0.027045486388611515 -0.035800714452196944 -0.011946809029175456 -0.03622981520361041 0.012442218519871099 0.02535829662634732 -0.024301080318389297 -0.032426895816253645 0.004215867949190141 0.01111983582926647 -0.006139616797960933
7 0.039183577641544155 -0.015688293963066913 0.011139268161257031 0.009660512563527193 -0.02283028022151352 -0.027244130781118373 0.012419296119917428 -0.011629741808103762 0.015430901438197229 -0.02609841068589281 -0.006212891736805881 -0.01419000044601372 -0.02657615351400142 0.011146127975303302 -0.0061409219634455114 0.0023729046684068233 0.011437336891765671 -0.014168470711276374 0.047273918601346034 -0.040155451898864915 -0.009537951804187959 -0.0539607683765422 -0.011962684378841664 0.015964386464603627 -0.031570713241808775 0.011780012549656205 0.010592875048894876 -0.015196462492997578 -0.008169982757382795 -0.02486274491396581 0.01524769719203888 -0.03999673047321706 -0.019218584863004855 -0.043842751523901415 -0.03321665903969629 -0.02684215081355764 0.036730636997010124 -0.022138333849566972 -0.0008411434460983102 -0.06418821944710208 0.013880972363340354 0.003156426848100898 -0.02136634994576649 0.0019282566793844692 -0.024425862070667697 -0.028252444990749588 -0.025523313190595566 -0.006895526286950784 -0.02596921968836136 -0.03163392948936342 -0.013285671848851358 -0.029309454780893085 -0.008257425030977776 0.014995658519407639 -0.05192280880835741 -0.022401601406488756 -0.015412826138894888 0.03415576143945674 0.009739399557306381 0.012749548700845931 -0.03871043393182122 0.04612825896727094 -0.03660969492934856 -0.05643075306380669 -0.03106429507633582 -0.02444950986723513 0.013797962643645283 -0.03260265557610104 -0.032293644364034556 -0.02722634619443519 -0.02114272773182488 0.03428871573402143 0.026479196375179908 0.030555075022046806 -0.02351966834353864 -0.0023481503107693107 -0.027541499349160826 0.017822739716806514 0.02729985891559687 -0.010748574002289514 0.038040106826190634 -0.010789264337718868 0.02203768800663244 -0.05553006394196388 -0.002210641888792099 0.04929968910678643 -0.00941214394448941 0.016364063746376757 0.020110008631896492 0.036594916460041094 0.013634043696614449 0.01747113678810724 0.007594072290941645 0.007615488807785579 -0.07443352114072621 -0.031827846388185844 0.00048685432865850167 -0.009540662593058809 -0.009417213714662944 -0.022097413444318623 -0.021707246388263973 -0.04313444600315974 0.061573041764404486 -0.01913227221636351 0.04062787548469372 -0.03830875678740349 0.0026171334386993696 -0.028719774211306424 -0.04456991989221962 0.039779428978269894 0.020677625909892226 0.009068485103332559 -0.015734540181156637 0.0231450529474525 0.03479541115033841 -0.07382146209149382 -0.042667645653113526 -0.0032495540625937696 -0.010688249980596016 0.005951147106702388 -0.008455496967209446 0.02379357388942006 -0.026707023433281126 -0.020064987000964412 -0.022723486397414554 -0.036109644787006706 -0.003133198238831321 0.031292320416383856
8 0.04108232563885699 -0.017482333658849214 0.00715853808769732 -0.029785001755551693 -0.0012913989904497277 -0.03860593933271997 -0.00489920845240482 0.009099399493251314 0.03960452174319077 -0.006051497441613666 -0.04080230848206353 0.008744931923211427 -0.002156656925367875 -0.00672506918826228 0.011079722268746442 0.011907430850811127 0.057544097803847484 -0.01294758983875588 -0.020807831856455856 0.021339110923855032 0.01020145274678178 -0.008537170688860946 -0.001853984825385235 0.0017816992325569848 0.00302902142007607 -0.01059316897235014 -0.011635276974795942 0.0007438907728051452 -0.029565810535794153 -0.014366127268396745 0.02454754595795263 -0.013580316742714487 0.05083170902794519 0.029052554749002975 -0.042286064949295224 -0.009441458966582722 -0.003299210091401579 -0.045710373412676746 0.017453055409072674 -0.044300627547090646 0.0315618887722391 -0.023901495379310935 0.017149157875081995 0.03726253212469446 0.08458534053181434 -0.011565628475024958 -0.03567985906984942 -0.022562600119374627 -0.03286080158721713 -0.03373996405724109 0.003928772293206733 0.060795103552961194 0.0007906283189563792 0.02178851135844886 -0.014120175772528082 -0.011058220934195697 -0.04808628510863394 0.024763023241910338 -0.002055869935154319 0.02072639513959575 -0.003694143500554704 -0.01508882936351172 0.015487691786896338 -0.018903620836657108 -0.06389489784308816 -0.027748766274303886 0.03690717619260718 -0.0010123675271746003 -0.059366560717147285 0.030879292386916345 0.011380799214138222 0.02661197443403708 -0.03215883141284913 0.03680855842042661 0.02769686460275943 0.005454854989272305 -0.008824796614185173 -0.015395428265301785 0.03803858832805678 -0.0010167492255226855 0.03294259238092319 0.0016346863824508915 0.02097959341304484 -0.002036401976682932 -0.016812184657634864 -0.021224488620348897 0.007681476391488397 -0.054805172229350455 -0.04593634933635234 -0.014967473733859184 0.010543237053512844 -0.025756664375622733 0.0140930699123673 0.028341057199584 -0.009080047544212155 0.029807776504789156 -0.019504212297560313 -0.038452177431966265 0.0056386671328450995 0.03478792515173943 -0.017648348508440607 0.011274306545024633 0.04034652547160732 -0.025772776282412806 -0.0019866108730663477 0.032168971980290874 0.04094910212417493 -0.007649594334544148 -0.04346503513336754 -0.017292654591499076 0.011119546495647685 -0.014614504285856839 0.03850173280056475 -0.031412117964711495 -0.038085947061311326 0.04189019263570945 -0.003486555977042646 0.0037475648213346315 -0.03435734398851438 -0.00012223211325948274 0.0391578483799786 -0.04547093034311246 -0.06691687543877335 0.0006834638091144963 0.0032165094301366717 -0.017884471335029507 -0.04896083568691963 0.030305756879537894
9 0.04170369592584086 -0.013657498882994085 0.02770684570815067 -0.023593225797212018 -0.0042506140311248655 -0.020400596961887438 -0.01657808900730261 0.003973316614956533 0.030701141424299853 -0.013190383055609552 -0.0629878196619228 -0.03193658131813294 0.03670853631130766 -0.0016016731322662434 0.032059421934118405 -0.006971827330342882 0.007011625639121941 0.0005279661823381877 -0.03117305747252821 0.017908296995674616 -0.018520183221884465 -0.0011555120198596905 -0.017111222137565187 -0.030502595850324485 -0.01864776455860459 0.012311175040924752 -0.013246830231314453 0.03198964621400545 0.026474083311172757 0.021712978153480167 0.03742263173759766 -0.016389205899507084 0.005734641093765122 -0.05559103784446173 0.03901917328453751 0.020873263161533144 -0.0041979804863832605 -0.023018155941081912 0.010155079742098975 -0.024592297331458044 -0.010155772875646528 -0.0259031085288453 -0.005580455388296319 0.010843234053961284 0.008397428961537367 -0.032511851433758156 0.009599663076389665 -0.018254352056107582 0.01666188587412988 -0.026799064659099255 0.008669588860067452 0.06906089050481264 0.004028708935421356 -0.04794346101181414 -0.008074182860537751 -0.031286402233360565 0.034999620829603735 -0.009147814333364755 0.05879002774021385 0.034524432157308424 0.022803901786541816 0.007770255434537004 0.028286518665118214 -0.039504551759332804 0.04522358207053929 0.013319421223374263 -0.012431081005672967 -0.029042100348203745 0.003442917776930938 0.026253801709690338 -0.020452228216525863 0.0350619036759213 0.0009511923128611022 0.001578433663917666 0.032414033169093866 -0.08882476499640272 0.07488199264966015 0.050879220164355185 -0.03777363786726583 -0.0308321425094985 0.029366451690755094 -0.02895734911098128 0.02147309266111189 0.019591302854903916 0.02259657722062437 0.07088513393518475 -0.059206064191071356 -0.04415591910234521 0.0018156698159707777 0.008691193564444116 0.033148548404186434 -0.004325073934704965 -0.02042825024069902 -0.034008601719524655 0.0098568411299011 -0.04157799183356262 -0.03378840778165724 0.00940785561985903 0.01867710110193972 -0.03788424257912816 -0.0109939545326279 -0.05339129008609645 0.03262410897532179 -0.0018829691184821396 0.034249618584824615 0.04809308431540821 0.01576967303466366 0.0071142357590583665 0.03591354099315824 0.004646910852939245 0.03905068107153053 -0.0071935618028882405 -0.0359733605589095 0.033621259485643464 -0.02754032811635816 0.0002919597673095494 0.026441759473609782 0.005212397034982868 -0.01779307087604971 0.002708490308393411 0.04090487151106692 0.0052895600587054585 0.012914843151346469 0.011327374778171731 0.030008514198637412 0.01776170335303508 -0.03801214108458309 0.019895643025558397
10 0.0346109464935399 -0.014984381546453835 -0.017732961036287128 -0.00644295528414855 -0.011102906624637152 -0.006959822633201245 -0.004618362890973895 -0.032218879884338296 -0.04173816560389198 -0.02026835512529485 -0.0383643044987563 -0.033803775869683916 -0.008699048999982202 0.01168375463608247 0.03458384495401386 0.02093979642879452 -0.009431507535270698 0.028285031986434905 -0.026148714310014056 -0.0021205214864016423 -0.0113611619899609 -0.028092920312468177 0.018721330777345637 0.008548852139052387 -0.0561079516214783 0.04065466556221772 0.020141545025145376 0.025551456672485276 0.02335893240357068 -0.043634182317068976 0.0047873190483207415 0.05578806512842777 0.00625640740367758 0.0025126823150846147 0.041795164468769026 0.008030055213694069 -0.03772375784516739 -0.023144605063540838 0.04328971878375806 -0.05004389092992804 -0.02283668108255822 -0.05015223114304042 -0.000719843172062383 0.008803879060544147 0.02621242718443627 -0.022350186390091384 0.002918212650636963 -0.03010383344653924 0.028209025653077917 -0.04930092534068991 0.027902926283367227 -0.011170394034179328 0.032674077108627984 -0.027524729917149836 -0.010249308174810614 -0.004740089229713572 0.05135647136051283 -0.031057857489969976 0.04397699536105188 0.01249123968714745 0.02759351462533057 0.0064636294692462385 0.023516752698464784 0.007820105908282774 0.02239846385710895 0.025092180245484427 -0.02862610484270485 -0.007768126214303244 -0.02850441482956226 0.0165994885028322 0.026829810793649714 0.0396903922167906 -0.01769946690424393 -0.014665916030987436 -0.011865182032702705 -0.03630403909603294 0.03553962942141903 0.008947032835783188 -0.024680795947680745 -0.0066728339482139305 0.01081931869576227 -0.0038922504310367314 0.00027829587776726335 0.029344798477595427 0.009540849328519892 -0.020278749386070195 0.014511281225623065 0.008427038096667873 0.02760252329528142 -0.025638508156922986 -0.0006161874606133371 0.022580988792115377 -0.002231407065942357 0.012198973160898595 -0.010564899642989976 -0.0533809087474033 0.012849536362053481 0.042777817598885236 -0.06576237983723464 -0.041023125379893347 -0.01773870755526554 -0.04815436395263586 -0.027000470617627177 0.0359107387566713 -0.016482006343357527 0.005323055602875189 0.004832562615277582 0.08307768745257198 0.014258272743611262 0.0008044148871259792 -0.018504631226659213 0.051815390208821574 0.057354793178590935 0.05046973677270379 -0.05186077314784186 0.04509576426319343 -0.014099034008619542 -0.007223458299989888 0.046096086309271006 0.03503519812619456 0.022314691151557903 -0.013785711612764399 0.06937034591393398 -0.0034686374229520346 -0.001963900320817634 -0.04147120686322462 -0.0068628725436193925 0.019444360153719704
11 0.031466464506421085 -0.019268123696349723 0.028381544976578344 -0.02756482141692174 -0.03082924772907448 -0.026974445156146817 -0.03687035988766972 -0.014044141106472065 0.010334692694711106 -0.03051453131835631 -0.004165022940419557 -0.06805084983162389 -0.03690005348163132 -0.013393407918408574 -0.00043969577702448456 0.025811489544623593 0.0009593689608400908 0.004405988286526545 -0.0034169821509547173 -0.020675375125336598 0.0028449814094672447 0.011166798388589768 -0.03587347664419596 0.04412246152138861 -0.054449305990804366 0.0331031899136319 0.056807453069617125 -0.021374839258173385 0.03052141147491081 -0.03484435406679314 0.02685348746179327 0.038708281683785206 0.018226482904190704 -0.0012414395200002425 0.04405044031839494 -0.0056604822329636905 -0.00558631256751508 -0.009484740074471738 0.01422987796805324 -0.0376942441030041 0.009744149175624777 0.008359142522186449 0.04151106173822363 -0.006519769793565157 -0.0007154428392384958 -0.0035951258361029853 -0.015575418656980408 -0.06405751197109194 0.02889464204398209 -0.01891036970696626 -0.0017173092025299192 0.008674204301928707 0.01122362463590876 -0.03623780286881564 -0.004379121796244797 -0.016208385084376074 -0.002180602420653666 0.026195065676055767 -0.014787967529309293 0.018282420344854444 -0.013042409678758343 -0.013346780342417994 -0.029982391333587273 -0.0046187090137835085 -0.008962238852268238 -0.021063849652468866 -0.034562574906305495 0.06547638386509937 -0.06209725497853114 0.028352620339155497 0.026652296828841543 -0.011251464390358868 -0.03593997428515632 0.002042608338271159 -0.024368665600541843 -0.01986618941148436 -0.03565045478187896 -0.010812980035418264 -0.0006325753165132007 -0.027453418853682025 -0.031243425684892547 0.03491486710443472 0.07852595740102394 0.003960619475345352 0.030246429763205962 -0.005667490501363767 0.054696873601838905 -0.03761434617042127 0.06549957299819806 -0.05395475192920825 0.05399699562174902 0.00876792370618947 -0.014114308111051624 0.005436487320267768 -0.0094799808246777 0.004654920200261601 -0.04250208875170549 -0.015187225772967975 -0.01243940419464708 -0.006497258981583422 -0.002497226538091137 0.04743079966357146 -0.052542958921506296 0.018027615150321637 0.007385301088037112 0.06520678553568965 -0.010553509783923158 0.003242122191887705 -0.05509462530100103 -0.011123589376301882 -0.02108164224462098 0.006961301401860815 -0.0006024719825472992 -0.029163146738055427 -0.043269593169981406 0.01982112011105542 -0.04791491921448705 0.05391934867203679 0.05487391035874367 -0.0222063859932034 -0.0020134576686122578 0.017623673017009022 0.029716325830933175 -0.01635982876380508 0.024236759354838742 -0.033486518239297 -0.0435923701849228 0.01999798291862533
12 0.028527305124715168 -0.014032329823969424 0.02837617598153919 -0.04886791890261544 -0.01906808984325065 -0.04321448914235264 -0.03427862903414906 -0.015665368737891143 0.08396061809885165 0.024396157902475173 -0.03279060754954173 -0.020906498361806657 -0.03767729149192879 -0.013542281572090656 -0.01578273483250866 0.01973689195607183 0.0146649933096529 0.016215964874300957 -0.040122220813689526 0.017211338012475128 0.007502905304610739 0.012335597325259948 -0.012724707407843374 0.056486307323588315 -0.0048699980429691755 0.012704318617532469 0.011580264493692222 0.01358390417764614 0.027875607544693724 0.03320395226045929 -0.025037594736239944 -0.032978453185523116 -0.03977319148667558 -0.010715440921567329 0.05489327811127721 0.004142117389464726 -0.014124856693633893 0.02818279470928007 0.048813211743193606 -0.036644752587295985 0.04345945080493528 -0.015679898755769008 -0.0022272919397287603 0.0051614923249654115 -0.025783792934688472 -0.038756840665195656 0.04366357059687663 -0.0287401768162952 0.019721979837309327 -0.008361729794234225 0.01885357321031453 -0.023752250565319606 -0.03089880455116016 -0.017214186851847915 0.04158918665118111 -0.06334252244930871 0.0392878631788282 0.038552251532182946 0.04683697428894378 -0.033375882576253194 0.03286727306765707 -0.0431924575569027 -0.034303747340279425 -0.006047249126885612 -0.04398074957923739 -0.0023028809296263397 -0.018224577885029493 0.03644073060573735 -0.009207639892514542 0.05303118563790872 0.04012567058526504 -0.0024514474456733292 0.003498131229300962 0.0016788920902564102 0.007804703349032744 0.037875816895573 0.023796822550116864 0.0009117699019066495 -0.0011776968699678762 -0.08157945418035427 -0.09514842686723098 -0.02452211699668324 0.011136793511280961 0.011296726081878369 0.03978323343048833 0.022476451079385673 -0.0020818160953106307 -0.032327899938736485 -0.026046773420286894 -0.024481681897884293 0.032383257598891185 0.0031987458375242164 0.019002104380596657 0.01997914175365183 -0.056306034571316124 0.022276320883653555 0.047501663753889645 -0.0052174214590135996 -0.019833732066066864 0.006041190885167371 0.019143812925401092 0.0005027057315330164 -0.025341272893689516 0.009115010517201606 -0.004939882974356812 0.021281802872333725 -0.009489014674082289 0.015098176668588325 -0.03140507978755864 0.01862288018498849 -0.037611143054338686 -0.004273641903657098 0.07104688565406307 -0.018249653546923462 0.025278747159059554 0.020228286111174394 -0.041253585455904455 0.03754779940864132 -0.027713627007113065 -0.05578977646650398 0.006148988859539343 -0.011424046937960793 0.048563835947522484 -0.059456121646072946 -0.012311777862675503 0.007087732555324245 0.019310992181877727 0.028601959476046813
13 0.03841143960570535 -0.010614013706538132 -0.010055537248919489 -0.012761149223445435 0.005463096418056098 0.031098124292910475 -0.005330400203555083 0.000626608174936228 0.015050719898340403 -0.00420686286495567 -0.02563498274614074 0.015870298415940228 -0.034377987770233605 -0.01386576853859015 -0.008011306325930768 0.04798461504319911 0.05575137489252219 -0.017331433648959754 0.004322843747143748 0.03679084564692137 -0.001514480938550366 -0.05730775598839001 0.004992561104252727 0.02778594993491904 0.013408989292776088 -0.006173818578610603 0.011582219821345196 0.016309405159063584 0.022913811332394566 -0.01089307358651461 -0.009483513149750376 0.024837044618781952 -0.00390660685192864 -0.018933122591369964 0.05315075799936988 0.045713211160903544 -0.019455377184461088 0.012354287113388252 0.019862708036405576 0.07081828852510291 0.03777946415987285 0.020156117423526302 -0.05803564099497373 0.055080783463750047 0.07583194936816265 -0.0007520645259308949 -0.03293805877658073 0.011642425987564983 -0.017447861451894014 -0.0023347768163575248 -0.001722609453131784 -0.0588459455991584 0.02774522221221238 -0.014999455087537883 0.04055280394866953 -0.043921581299383186 0.08114607998023368 -0.0020804757790388023 0.040172129631494226 -0.04203510572671504 -0.029529312075190068 0.004042931026906483 -0.036483410895133656 -0.04081512043990534 -0.002886946696075627 0.029966132105231 0.03934523366742099 0.007461943598891044 0.02205968385580876 0.014631010613906455 0.014218628819581167 -0.016363296952186253 0.01272527572704203 0.04407955270414574 -0.03617423008320875 0.001981240568642329 0.010717795818279146 -0.03929421277495479 0.0038322264424693977 -0.00737072420682468 -0.06321436204909081 -0.025170430262285142 -0.002212029348454951 0.020316301413102214 -0.009776441619093761 -0.06741751982462642 0.004746599078821922 0.008755619318048148 -0.04465587606933581 -0.046009905772182606 -0.007148590625425365 -0.054001119017282335 0.016251363365887374 -0.018820428583479036 -0.0290707691351136 -0.021651759748640968 0.01720684828899891 -0.009485199239011616 0.005683676057616479 -0.0005089547234452088 -0.016104264137193836 -0.03662976137864365 -0.016463442327181135 0.027401617558765086 -0.02855570127345121 -0.04834961933709146 0.01590713812836622 -0.033325477023627585 -0.06134852699870906 -0.055462720481790746 -0.039836662182132304 0.0010733244936882423 -0.03700249419606262 -0.024883290062295227 0.0616374365488215 -0.022386427233727458 -0.01152888217724119 0.05969862467026571 -0.02101896684272842 -0.04461665145942885 -0.06844403886381621 -0.027344148524843882 0.0197908190189609 -0.03745882299867294 0.021614789751675367 -0.025172085429721935 0.04835791935468332 -0.005717093513902851
14 0.03516416439004103 -0.010791377167936222 -0.03721070264455475 -0.00785399991029124 0.027431613306185366 0.03237244072415417 0.004216972965971913 0.01611992051402003 0.005484840096518143 -0.005842921281218594 -0.017540339559570132 0.012697407756788091 0.0184984144820466 0.0033497237740515566 -0.016401366307143218 0.024739449491158298 -0.010139419617700419 0.015443306262682576 0.05023386985218141 0.017478098092016642 -0.025384859355906796 0.015132116064359796 0.028507253957281074 0.02025151717977531 0.037333388857071124 -0.015603894845905414 0.005821373102306498 0.01199481208726857 -0.03975223045972066 -0.021478624007255434 0.029868600506122497 0.036154659235401024 0.010384712752001955 0.024195880471216926 -0.04415922597025673 0.05183669574270514 -0.03899426545969854 0.020791275852760003 -0.008087548631875642 0.02668116319173765 0.012878236318396267 -0.0038707529897285217 -0.04384579191132859 0.01603752740609708 -0.007808389807530633 0.01194868731258518 -0.02153841953286104 0.02239837917743043 -0.003722170472098495 0.032360761168657985 0.011015915852494163 0.038023804446839615 0.00335723143192859 0.02476032157275044 -0.024249995321015197 -0.018579672941043332 0.029339392622506233 -0.0046143098958836976 -0.022447847505614335 0.0011505546864995057 -0.0038988882935345032 0.0033175270018656116 -0.003644524031049877 0.04089629064516019 0.0033385082469925844 -0.016836548076281026 -0.02568707821326595 0.038050191809647034 0.0652462499001062 0.021339548543293074 0.005070634052600807 -0.006306882097512689 0.009496988684473366 0.003864732858456094 0.012505878630955947 0.003421638688264786 0.03242584508155614 -0.008811496097060872 -0.002105447688865991 -0.005993978607935016 -0.04087006869473361 -0.001589477647850144 -0.01043852086243487 0.011897360191907078 -0.011346469706804087 -0.043381235842943545 -0.007391719388015482 -0.009364471304243062 0.02357372383872694 -0.034263109627444534 -0.025849865503845555 0.024785067415921465 -0.04393812687099991 -0.018865618617523238 -0.008646048778217954 -0.0390105410060352 0.057184285471537595 -0.029366100751929674 0.027522695395191258 0.0009536894177970948 -0.025488511148321333 0.04031229645129016 -0.06062424630782674 0.01389822554937589 -0.020797919490316792 0.017096320875941925 -0.01402093123871553 -0.01538149352893062 0.031188689161293612 -0.007372599230605218 -0.013705765686923409 0.014069398066981221 -0.06792293039878676 0.023919633920446402 0.016955415985580865 0.008476491915406585 0.045183809322062986 -0.01552954297018809 -0.0406619187424781 0.01478443694632466 -0.024891945574944663 -0.015421240768147448 0.02105531447531051 -8.035184473020468e-05 0.003730803919038628 0.05409985274499027 -0.026087054081782895 -0.006395835367322182
15 0.02667728389760908 -0.01153569857683338 -0.004516672816302051 -0.01848296999118477 0.013908694673358767 -0.032383142677337454 -0.0059917651170248425 0.055117156008445564 -0.05196377403471784 0.0036501753627793602 0.01204800411099703 0.00933756372354677 0.07546059297113976 -0.0051538641110941315 -0.008266147247259709 0.027192838768862575 0.007726203862907758 0.02210939653333802 -0.02280443742105505 -0.0354875362830565 -0.02783476667838514 0.039522656027444585 0.03862158644992537 -0.007039155938215241 0.07821144769552973 -0.00024479081128008385 -0.0018538778159652635 -0.0029491482338039068 0.013196151756912746 -0.0385107951430668 -0.03818444862962235 0.01713355456024731 -0.029408008457612936 0.03077796006844794 -0.02317484343807936 0.0045186485848889065 -0.031142145453704778 -0.038471996860091943 0.014481610437995474 0.0009625272038756566 -0.01639156642112714 -0.004144955928754839 0.013919393651214135 -0.0024627646396477867 -0.018411049933558805 0.02221647934463924 0.049096217509914504 0.023140717716387333 -0.013084282069599771 -0.019761517954781583 0.04332667524459636 -0.007459087696089405 -0.023438701253029704 0.05713237726152649 0.05501934425500128 -0.011954377673565093 -0.004878454149004778 0.008423238534625625 -0.004985651721467011 0.028396958259743043 0.020003306611133042 0.02112777791719394 0.0005569871126325938 0.019965751008821673 0.06069743056787216 0.010783712166272575 -0.02496935943820294 0.007119763186344047 0.010398663343790809 -0.01270594401297083 0.005410988999573719 -0.007048662939291173 0.027922769089714392 -0.03727704545215821 -0.061044851086643925 -0.012634182837095663 0.01954402834961185 0.010673190631823471 0.010461349591745954 -0.0279121101769102 -0.03955765124141235 -0.002590292739084255 0.024673555772030814 0.0053703424660191245 -0.0545317864948077 0.02861022697190272 0.007331477414625714 0.00935299129141803 0.03512440639335765 0.0009937577766528122 0.0565728967791422 0.002150597356527727 0.011502598588680442 0.028718624190917717 -0.01669767727599179 -0.0495707822817119 0.05451378218275532 -0.0069409769364665716 -0.017175937039246112 0.0823906365776098 -0.04078249037364515 -0.016360964401867156 -0.07046948249420852 0.024052060432783268 -0.05270808453282233 -0.01313860599003399 0.07346910688602289 -0.08279550599818615 -0.0017697893305331455 0.041011277551368935 0.040991575367866885 0.008365019161667143 -2.1572851060579282e-05 0.012520938219613897 -0.017020686849273423 0.013605977735296077 0.032771357157875165 -0.05833481444275327 -0.02318277329737999 0.061331393793091035 -0.04974130552665607 0.022729812872754135 0.017404678982433117 0.00796041171012754 -0.01976495639734906 0.01728349820319605 0.002011376438651581 0.0020225935517120923
16 0.03263376668689583 -0.014525315256321608 -0.0044973006606044245 -0.013176803715683829 0.02515884259371581 -0.04872792514164963 0.010759516342652169 0.029939002479196678 0.015886655687169193 0.00022322054216895182 -0.03257883651792919 0.002330992693138898 0.04376100093230896 0.023855986397958 0.04326394286941243 0.03332322267652005 0.0437079570224386 0.04308025390066631 -0.021115466849458215 0.008796979619506925 -0.01959382062465349 0.03914106340058604 0.003947504950989767 0.0251329663038407 0.017744141903499207 0.01277332108698703 0.019940399655040093 -0.0063085526018845555 -0.017335424047871112 0.026078388912967116 0.019308657940760057 0.002559259463330287 0.04422427678678321 -0.017301885792435075 -0.011225346501435559 0.010397106905965629 0.011284646463537435 -0.0077270112249143656 -0.009895240810780016 0.04163312283410285 0.009643217123572283 0.007116789274721964 -0.02199783829963894 0.046603821172409736 0.049240068879246965 0.008968836797120532 -0.011560128958987491 0.06728719543765148 0.020254903841996578 -0.032156855885932915 0.05231603119246024 0.019778243185300217 0.04926175631596045 -0.008169258261868248 0.031097970577008686 0.04727692994856327 0.014292702519868281 -0.03701801741178771 0.015600083184631235 -0.01643116921008269 -0.021651692534560157 -0.014720622067221883 -0.0004799755018288956 -0.05489627726634971 0.024513989730035674 0.05496044848037419 0.009374686379830669 -0.006740872629798941 -0.003485727904368111 0.025930498407694947 -0.00688319588707391 -0.006657654769604443 0.03887162873106253 -0.01836687983075077 -0.02148967786414083 -0.03381729408704554 0.00012790826319217043 -0.01917089057139279 -0.03406128435211138 0.04161364308850442 -0.07367746071350346 -0.025658423342150856 0.026252526415559068 0.038035761710676595 0.012393772367208481 0.015493586311070352 -0.007034573214130846 0.06867175785676467 -0.025802031211977026 0.0022952521061723455 0.02172410306502227 -0.012406766969347229 -0.0438234244694555 0.04405579801879023 -0.02399648363275592 -0.026327016093238734 0.016712442965645793 -0.001490688333834396 -0.024137303026533517 -0.0101257573205124 -0.03576030943151113 -0.037990073219338595 -0.004920187411107533 -0.02969674045442049 -0.0073054434713869494 -0.020271910797768015 0.03985210962215738 -0.04237353772861845 -0.06783724899818473 -0.030496488422562088 0.02382417886450823 0.019215175704675538 -0.05144992752297702 -0.004123150483456718 0.036436312379822824 0.011823993414492456 0.052386455484015534 0.04621582445111914 -0.007048570895940697 0.015009349587083817 0.00899897678327362 0.0034650919734668076 -0.005668817797889829 -0.005697836935380617 0.05960914864701085 0.021632049030066134 0.016627274609386254 -0.026709362603224325
17 0.03994437783851032 -0.013174809654463339 -0.0030491402211102656 0.016667202121113292 -0.007619423468121832 -0.013402005403831905 0.0037392577169549643 0.01759874878758448 0.0159507462281629 -0.01662740401328707 -0.036375190934419654 0.009816752983129094 0.01220873974939008 0.04609957846546569 0.03266767599211524 0.03953040168093006 -0.017694439469100317 -0.017160848948953793 -0.01872462402191041 -0.01960453820858761 0.01620937049522102 -0.014256913946551006 0.0007797133921209685 -0.026374020580075024 -0.02169512549285613 0.034635843420948116 0.03899084308384315 0.01318025082494254 0.007406543286347407 -0.00031615083154513246 0.05892139651276741 0.046756323405517185 -0.0013964645442869812 0.07774521069771688 -0.018811297788974373 0.04148954834202956 0.0035795624029923566 0.014573628908407294 -0.010543739405919588 0.028400563020714215 0.0426695147417292 0.05119043622981649 0.002439296150087261 0.04730338184848729 0.020554140733357474 0.018401358147769508 -0.028406579213746452 0.0340094582975855 -0.05794662954419117 -0.029692419833669024 -0.039387292914238814 0.012096513099463864 0.04386022883357542 0.03853648438832753 -0.004340151471056121 0.02608296627548219 -0.025345192227616314 -0.01556566969218662 0.06397277130177666 -0.018808894778586865 -0.02219961520598103 -0.0013571649657359774 -0.0022329343396970715 -0.01411126608990348 0.030238498165756533 0.054110716412236894 -0.05117191682380643 -0.016430830689558883 0.07205627926485315 0.0031220356017472774 -0.04789378807299333 0.05003486952427173 0.020500331151034435 0.03799435008234011 -0.014544896182193975 -0.013719433265899927 -0.03254300552245342 0.02841665044940446 0.029540139983906574 -0.032209048380372154 -0.05643279279799321 -0.03454617910752589 -0.0012491377956035435 0.03296467053285198 0.015437573875766731 0.03914329889676634 0.02168397922450988 0.0072845816571662945 -0.03975113184555097 -0.014459381654191458 -0.002846167413914844 0.062069614929639104 0.004355073284549475 0.0034256891321321945 -0.025999299919410458 0.009676014354505522 0.023859441480372855 -0.026866559041824396 -0.030177147346090324 -0.0006320171662793127 -0.005349409501316289 0.00874426917954833 -0.057928799482125974 -0.06337458475617606 0.010697524655263491 -0.07351775988378244 -0.0016637653264422094 -0.0519786526475799 -0.06725650467057719 0.026619418663617545 0.023038054948525972 -0.0019518330067036917 -0.022486431149474084 -0.0710874309780901 0.025774027012339714 -0.007339971723429672 0.005387498082585141 0.04107312452825172 -0.018029428520308227 0.012920876121544305 -0.0020348181034026687 0.006892345317320789 -0.03605090445591927 -0.03383686614567205 0.03413396927572529 -0.03510768706744182 -0.024408625200928565 0.0631191388872172
18 -0.029938972993687134 -0.01849390395652677 -0.0024715632072886662 0.014464844834076703 -0.0048116604499329136 -0.013667563715082159 -0.00958364039134974 0.03318316028976061 0.01820302920903336 -0.05009146399554206 -0.052574302035587744 -0.021387485453327647 0.014577223345964143 -0.0167306334026009 0.05806248761950508 0.0536105486605998 -0.023115801577103297 0.012785222964476829 0.0046799043574146625 -0.006825922413041771 0.08649269048332725 -0.018728404320530526 -0.019535122910427444 0.005978120867086267 -0.03164397277250161 -0.03270032964568345 0.05018842809812848 -0.002966400057223006 0.036436680199640935 -0.004599589548308928 -0.022771739905837182 -0.0036068483760347972 0.018331065300822645 0.0030146520296472873 0.013037329066059873 -0.005341105771469959 -0.03317465560860515 -0.017656587397703143 -0.02908026678675127 0.03406951885271324 0.031765506997533735 0.04346076275935206 0.021325052077378327 0.022783234724914378 -0.014990771097942588 0.025013613970323628 0.04717255629791803 0.023597356198781207 -0.016271198265871915 -0.012970011234185537 -0.025063561690535145 -0.04534204558414364 -0.018454811294884858 0.005029495722062069 -0.04318553948922341 0.007698822292565908 -0.045258898035994324 -0.02020989414141508 0.012385300565959833 0.07591628004518462 -0.025193729686912747 0.021726888515294005 -0.032418885951189136 0.007655386108860949 0.026802058789863737 -0.03826115046371646 0.006102241664666761 -0.05971608801880868 0.013675674490039503 0.02248762897631912 0.036189658675391305 0.03022863308192876 -0.057898839575436206 -0.016591752507491637 -0.005554370223665734 -0.01182948692470446 -0.01836817406791631 -0.0005384161905242076 0.011789942817567307 0.014440948817984998 0.021788906353178466 -0.05164057309923862 0.01706910432992504 -0.015859658618076276 0.051739772812463024 0.008465862009232689 0.03447809449314882 -0.010571101458694696 0.0139011344494872 -0.03144163166564336 0.012124016560959123 -0.031136352335065287 0.02301550488852006 0.0037518049985667515 0.008201144579792766 -0.005640984587524222 0.011082302877149485 -0.020214716057712075 -0.04007193709621955 0.03910604476723918 0.037605547396593726 0.0012193188026232622 -0.029713390249005704 0.02067813590950486 0.07530046211114062 -0.019601396118229468 0.012190767752768322 -0.04722638022806796 -0.01102540910650102 -0.012617274723476322 0.04775663983401463 -0.0368579333976173 -0.0027734738042532675 -0.05625389325853935 -0.05618317221607216 0.03901981623971947 -0.027015315021966375 0.02891623121076647 0.011320722413308521 -0.03226473353473065 -0.03346555400274971 0.06051812260412187 0.03566337856277044 -0.017011237720076126 0.04605585930763457 0.012734733139228896 0.012413147672752539 -0.0032742085043713344
19 -0.03215676535878156 -0.028169198069863902 -0.008804873800030644 -0.007791567120148214 0.04391003303860427 0.03345210639788197 0.013880674074143614 0.05638575162191695 -0.040151024868559884 -0.028387124791734115 -0.0016316355771193176 -0.03400481058547215 -0.007504321433962968 0.0031086230067358675 -0.00012789733288731293 -0.04343661103773971 -0.021965809709313392 -0.017546330079399087 -0.059963504465276915 -0.014660494115546352 -0.06911697233685331 -0.020590189522358714 0.003002534746795472 0.012944242915013953 -0.021604900487476833 -0.04827034113638128 0.014677568115653752 -0.06187098719303849 0.025973908009722577 -0.0017494044483239166 -0.013317169525226415 -0.02571452350383987 0.05524457386318425 -0.017795472978432016 0.011196407128073283 0.047707596866195565 -0.001323173782462777 0.04368692440489499 -0.042924245825841756 0.004690881979973689 0.008239843066083555 0.021855444336711397 -0.05523973969911089 0.024158815786122428 -0.00862277709608988 0.009755270212955913 0.053918206349060756 -0.026534614664889405 -0.029376833997828176 -0.011858808112760029 -0.01592404866535071 -0.005783041673114086 -0.028208227099862055 -0.047322312947484936 -0.06427271428780401 0.024260261732194262 -0.026129656976401995 -0.024706209910942946 0.1092651948295557 -0.0034248873373713853 -0.04988354562092101 0.009517190388691333 -0.0015910692812230553 0.02888456442280698 0.010007494790106 -0.008746670314661571 0.04591830000426735 -0.015411656299862535 -0.00888552253378923 -0.022433888588602742 0.03352690159038898 0.04850184404623094 0.004764081056158089 0.01238751387715724 -0.022968277236846715 -0.0010470937975828227 0.033367168036158364 -0.03222481020866631 0.05387068387739771 0.009690247931845081 -0.010012570302086365 -0.005016904360476295 -0.025298108712025858 0.02934585852742411 0.03486386142249933 -0.020808783966825728 0.05140835403192701 -0.04900075440372083 0.013351111019288826 0.052666764557610546 4.2925726491713806e-05 -0.08851391207724009 0.0011066072969085513 0.056297773095859774 -0.005401470320413756 0.013595389044108865 0.04837188606472226 0.01689950257630377 -0.009094813079899847 0.04698484972166175 0.0016601783737354159 -0.015712859295945715 -0.02530589211082419 -0.01521723275661621 0.008450716337698887 -0.00941284481085702 0.03182821433519421 0.03779471200213997 -0.017143565527909705 0.013255775697489243 0.04579391393941179 -0.029785709303259477 -0.043337137517981385 -0.009400533202509774 -0.007432805905214577 -0.02586965207935963 -0.06899910456635532 0.05423460439940821 -0.001488849134182894 0.0009524828893222926 -0.03205536470046629 -0.01508511934850602 -0.001031088815643384 0.03116974838669994 0.028498668536033882 0.062091062193788564 0.015905394017138873 0.012517753381255327
20 -0.0387343401226013 -0.032197452900219234 0.0020468655672167785 -0.01768511478754037 0.050852006149801406 0.024284340109194485 -0.006989813414395797 0.007672319439050809 -0.042326500560490934 0.018293789569391667 -0.017820545752058794 0.02476437385518942 -0.0073093686159167864 -0.017123845748490105 -0.014117937772134248 0.003562935225164032 0.0034427969015706004 0.023354093089836398 -0.012296951107066403 -0.04717895104848502 -0.007222035534468909 -0.014772848428434194 0.009009978793641939 0.023841028775508415 0.014500437316734312 -0.021797049377463698 -0.017160357395359066 0.01760692388399645 0.02756956100746565 0.04491285062270936 0.04370071660451739 0.051152132392151876 0.022026069645596252 0.05069895949363267 -0.026816605076395588 0.05432756501321832 -0.01649352365063718 0.007266624809414482 0.021414803132762596 -0.009703415043520115 -0.013747871807798531 0.03006749481839117 -0.053638960290955065 -0.042566867099966675 -0.06807845907936594 -0.03739755816729529 0.06605892311736206 -0.012211256048971601 0.019892116270097817 -0.022589614298651136 0.023733718060141334 0.04724743849252768 -0.008268212768218198 -0.06957660759298533 0.04185332704867312 0.014537650343306343 -0.0026229766396641332 -0.008809918360966874 0.039079028011771245 -0.000430598924476503 -0.001548543757429929 0.07290456706711836 0.026110741275230887 -0.0022778148785199096 0.019704338680027873 -0.006326581881531265 0.03086628410635017 -0.03189946783237525 -0.04870346635456297 0.027259303341116512 -0.010175230284916112 -0.023282973434228256 0.014791667861719579 -0.021484672098809172 0.001929295738279011 0.032387053955689415 0.026230331275571808 -0.004590290546022198 0.018235669907614497 -0.018240495862147214 0.022842318342582265 -0.006719980823437333 -0.03898737578232359 -0.013124016452298706 0.019093947646270384 -0.03835351805768223 0.040887853659855165 -0.007178462974357272 0.06553246144248667 0.07513269548022551 0.024016395195593475 -0.03456741806450486 -0.027254371548264003 0.020292963131695953 -0.028502275855401948 0.02123034003457012 0.02334905281743744 -0.03400139107567933 0.02261506666128298 -0.020733170852534375 -0.008883566650423008 0.041067545407421115 -0.01824435119830533 0.00364221155602687 0.007563253201561625 -0.01778095909862114 -0.036665942601038205 0.017076102022156273 -0.02312711956615839 -0.04464437332737796 0.030089634895517907 -0.008834990251690867 -0.06211248725548521 -0.0678612837212935 0.04558366299836038 -0.024066474996859086 -0.039841146956324604 -0.00804065720726535 0.02762703605992451 0.0071449796949289626 -0.012447924068306172 -0.014270817705347568 -0.0029023746152524728 0.023260619311154425 0.030473111309288398 -0.01844800697522784 -0.015424811773461257 0.021296925164770164
21 -0.038639613996585 -0.02574336382219075 0.020241313763908666 -0.0058218455536174175 0.05847674293502029 0.026361083976169368 -0.024993388425937825 -0.037896612592956874 -0.015128733126293767 -0.011912668691508699 0.028681214544697933 -0.012000597971356016 -0.018483963220298015 -0.0027379528786042047 0.017701273428154477 -0.030070605438117043 0.02666833208907452 -0.012684835481653377 0.025840622178196153 -0.01578651220154482 0.0035350648541299413 0.01824030912533571 0.012150249579443089 -0.021756745370870776 0.009318227696256794 0.02762945630047548 -0.02567283194349235 -0.051378238985540434 -0.02562164460173108 -0.017102434981481746 -0.0041927566897162335 -0.06219933536438213 0.021767033828540058 0.04622772614075903 -0.008756854869899841 0.06430803819804191 0.03254762868872103 0.018820847416733934 0.028081031646749806 0.02387254203638866 -0.023973684413891447 0.01156470358816054 -0.03872786366435189 -0.019886672269729195 0.0038152381052944974 -0.07741759875716515 0.05689349029716897 0.014179647457703387 0.04106283505155401 -0.010742667715747101 0.011122931962041583 0.02497864121029443 -0.05624899583454273 -0.009547706776552143 0.055294426011083496 0.029549537084115663 0.023539572427369728 -0.03746395164608042 0.0091373521109421 0.01275689705769854 -0.01132802307516603 0.018624819750761606 -0.016608422715047862 -0.029206970874085848 -0.0372177289655022 0.03371957189651373 -0.0029315974274981265 -0.04434192656624542 -0.014459423676508347 0.014118352354376772 0.00661642764055758 -0.013718122526830245 -0.08259786630977606 -0.002463462339357134 -0.009628699934672273 -0.014123926498273482 -0.0017999556750161174 -0.009358763844857686 0.02788669104683407 0.004244981130544585 0.00267597409313023 -0.01841355847920399 -0.0069470588547232955 -0.006057491541639236 0.06968227176949125 -0.01752867125562924 0.023640707313417 -0.003874001219550883 -0.026208620710511204 0.01716459671175581 0.03163857949160665 -0.05691593815245572 0.01332499452816526 -0.006056045907021054 -0.007110981321629954 0.032700075906635345 -0.03815076446216238 -0.04293961531793719 -0.024240854913279243 -0.05303465033484276 -0.05987316505342969 0.06226090777793388 -0.002700406103651629 -0.0022080123136457757 0.0033075826844077665 -0.02023783703741854 0.03367293739020389 -0.03921595725828645 0.039471371407875606 0.0343192681255895 0.009710604263870815 -0.022227888355086732 -0.0005774120612619178 -0.03446774117665167 -0.021391050881405613 -0.01344517679347595 -0.03837364994431095 -0.020568517841408153 0.05229870717673063 0.023141124341226223 -0.020933522927953467 -0.028924343497979687 -0.015120746085398751 0.03279995557512295 -0.013951018750424688 0.0011126081952161054 -0.03570888175165584 -0.00790757761659498
22 -0.039236780798374817 -0.030054242934947913 0.03320768744013094 -0.014216177979780276 0.01423573960178227 0.020213449359546637 -0.013616323219112806 -0.0350953693777031 0.010328577661275321 -0.012838912528383806 0.0024050855412105897 -0.005467100243961272 0.018063839839113853 0.024775065552007893 0.005968097177786034 -0.04955181346451703 -0.029497128582249104 -0.030276975872695944 -0.0029764830019513417 0.022682170718160154 -0.027208124710491936 0.02956343696932481 -0.04315735596275267 -0.037655564966670343 -0.005633493654995504 -0.029452079817981328 0.001461301437055821 -0.04683096362665394 0.005797948762681575 0.01103368995265838 -0.028735002699137518 -0.0116614380886909 -0.012831344518284871 0.02295407907395249 -0.01650697931336529 0.02261395878567897 0.04290854136966941 0.02292085723957785 -0.0008603133816379325 0.03232576832389506 0.007320483883902213 -0.005543371098421708 -0.0137211611778839 -0.022461374686250916 0.04294293479759101 -0.0091589278720592 0.025017070412150014 -0.021093227780377543 0.014469851747692126 0.036574679873699986 -0.02010169536530229 0.027620689460639947 -0.01571377185599045 0.01852671609795785 -0.011937016445982348 -0.022766214904082215 0.03651496154847176 0.02114918049757807 -0.004522181404071142 -0.010252031758920272 -0.00046096889713214724 -0.02247487382622064 0.041652700194721594 0.011929600851816779 -0.01032526309779132 0.010883488273962677 0.0072770606574327976 0.035282492707687525 -0.04449992961873011 0.009585510792931682 -0.06224738895689859 0.009777118388889876 -0.04558811469346251 -0.03966683276760473 -0.049111748517604636 -0.028199928308722484 -0.06463591938758505 0.052239737492055904 0.010874607856234616 0.06622151618474395 -0.0990222152494244 -0.005464659952812848 -0.0019847643963915545 0.0034605627934414227 -0.004746145789418862 -0.038886303198264 0.042285003342133407 -0.032758182760730496 0.007901373789531724 -0.004854427863082258 0.010193305462733336 0.02261883608156699 -0.001912969194443914 0.011392009141969606 0.0047782886721738785 -0.03527029104297441 0.0012819229855560407 0.024072808235011702 -0.03635626219846487 0.006789064044462466 0.04024147822907837 0.0031400124817398444 0.0636752967532945 0.0009302056325282998 -0.04656600522815743 -0.050003690570793624 0.0272678866559063 0.005630034358442881 0.02458626503730832 0.009618955028735466 -0.07016295367223449 0.04098136405668677 0.00544507609387867 0.02599725656480706 -0.03636842871047368 0.025620951929186217 -0.014766376964953882 -0.05157125141047277 0.03826093053766096 -0.02279209119187419 0.03429959468142172 -0.039893079039652043 -0.015863448356657782 0.0048166921291028335 -0.017995057050227282 -0.03977021888707471 -0.02284744632073656 -0.0504881430678244
23 -0.04169415352282585 -0.030478250291418228 0.02977596319149093 0.03084483445145406 -0.021328763935758235 -0.005547100571430378 -0.0022273822297268963 -0.003415029310029874 0.014475054621280828 -0.048565920281421864 -0.0015546302499221294 -0.0382246606019991 0.028068484092003704 0.014753195277033233 -0.015638097823172353 0.03711737469958909 0.005715761795887296 -0.06965012559085207 0.01978302400327756 -0.013530475776258963 -0.010995472246175786 0.005095860789097552 -0.0011518735829268607 -0.015198953881647527 -0.04691307999958033 -0.019220159141812018 -0.01114342302112705 -4.554291352790505e-05 0.002225114688084951 0.010165394794790126 -0.03752954936856735 0.024235637303624033 0.0613969019738139 -0.05153481615682907 0.007399189531527405 -0.027259268065839646 0.05204047677882144 0.0213998379640507 0.013147488653858189 0.025188095710075437 0.03417057141841563 -0.016357906762549744 0.030464972333664384 -0.002680446793102926 0.04372362881417558 0.027482641963765448 0.006408084650520335 -0.012262999861628024 -0.03806208462283494 0.03661619252555884 -0.049085363328676856 0.0007874774863891046 0.0030249608016553182 0.04648367015432 -0.0417517627508038 0.03351795825777091 0.007220127907523508 0.002924853479741146 -0.010756335237813308 0.0215519151112222 -0.01449815135912547 -0.011093399353518815 -0.009173371453579273 0.04411224320509531 -0.027794381316879252 -0.05408902929335185 0.028978103454451197 0.01563381493415013 -0.011466335752270218 0.029833586429345787 -0.024292890965094405 0.05430841943054942 -0.029975637965015862 -0.004444262079614293 -0.0583649116984495 -0.07411012695441145 0.022059385003819203 0.035136979934026716 -0.038030403632585606 0.02555889005153475 -0.05945016748110588 -0.018107204753566586 0.04005001695170473 0.07664447652972531 -0.01736614117470185 0.010360814966079487 0.016483693454217286 -0.028362878930999678 0.013106491254474613 0.012255995532550752 -0.020628633910179876 -0.01491135060963611 -0.05345081814144063 0.0053237879879724425 -0.00186072869187543 -0.0009306200942802224 0.020356000104136875 0.03138395776639539 -0.0005058536782931671 -0.01090222164601184 0.02582543080674573 0.007474294079420579 -0.0030368244230597886 -0.0192999178614334 -0.04545547694568377 0.01834768565327492 0.010748743443012382 -0.0013994816953589648 0.04566530828352494 0.04374906570477264 0.018582119623198293 -0.007821753680165433 -0.010397064740784804 0.0012456012518465346 -0.03752731784821023 -0.03890860989447983 -0.039466447227911094 -0.013692136880203334 -0.03586975965422 0.02745990655252335 0.015750431048436913 -0.045046068398407746 0.010258227468355979 -0.011155694073821916 0.06573000172354265 0.04661778830267965 0.05231130129303988 0.013916917591632777
24 -0.03608882537131692 -0.028728012947009753 -0.008593203026746241 0.025106684640619388 -0.07199539245092026 0.010487501523803925 0.03743548086642367 -0.024098998080308152 0.017600309771467343 0.002198841588222102 0.011552274434887027 0.01795317793566295 -0.004173260275549308 -0.014527537537335846 -0.0720104578877506 -0.04022112661167803 0.03587116513287144 -0.02065878842675943 -0.03469360397708386 0.03340166768525368 -0.003214805180514399 0.004153629372953039 -0.017118240935888047 -0.020104411570393724 0.002248534208665753 0.047004724034618764 -0.03388083200239593 -0.02286830449909074 0.013106814441687023 -0.020299426302183655 0.00220166185666616 0.046689773619719745 -0.012419397480311345 -0.04096010336573441 -0.041585741774551425 0.02542338168703824 0.030091868136435378 0.03462113038624337 -0.05359299694077598 0.02598877734815009 0.005599844155563865 -0.0056347399932637435 0.028193497942765308 -0.04533318962276124 -0.023746079682537703 0.014328346337889441 -0.08778612328020238 0.035255439594228416 0.006650078302004914 -0.018332182996428192 -0.014853110486277778 -0.03455487292807921 0.015688354281963936 0.00859115039310112 0.024081099877715402 -0.0150457207530382 0.005209525419459342 -0.0011760064338385751 -0.017056080898578733 0.013167564368815415 0.008745723564058991 0.03293302493975415 -0.002860864640052309 -0.03638886667157277 0.04811334880480668 -0.0316329887428383 0.004377097435304795 -0.024340101824403257 -0.007417264946369377 0.017855804731755114 -0.03666525470895443 0.0248762709446037 -0.04294889919509055 0.033312296615499545 -0.0072682008682548 -0.010451344258768409 0.004814713843819816 -0.0007364338469577831 0.04720296844165406 0.07018433908523214 -0.021064096388047744 0.00019487802060225355 9.086583845776332e-05 0.01938963321829648 0.037594086433332355 0.04190767014920513 -0.0055669497661907374 0.02108835281285037 0.018874087537431045 0.022355916327889375 -0.016413506328766692 0.023462038031390905 0.021073250046464535 0.04109096008877014 -0.02436951374557978 -0.011544666911024877 0.023152286337912786 0.03651018215768657 0.029692899647146463 0.0032265058787255873 0.06986459626218536 -0.04702764897282537 -0.07551383797561047 0.013963387134382063 0.030591514479890825 0.06019159146942116 -0.0009561037316925568 0.03632575146275379 0.0652214752112473 -0.027376608701149076 0.043958998700359325 0.010372305420563721 0.010876328541086751 -0.02161021842674666 0.03413855215300263 0.06196520438072027 -0.002559865428080134 0.03879488696684684 -0.029957141119681546 0.011859436456482804 0.01704207340400308 0.01581265180137842 -0.0020264953357848007 0.015494451672697437 -0.014568751164465883 -0.00409692706080622 -0.00916090768521925 0.0032292244795408803
25 -0.03722081270241453 -0.028033227708102647 -0.03440869867151772 0.009380945927672487 -0.04956493948534092 -0.017818511939952247 0.015833822349603836 0.022871502164474797 0.024388859223668385 -0.02084274206392231 -0.025389523600122015 0.023859079073190466 -0.07696115151040862 -0.020759639926552203 0.001233469312816903 -0.04958330415160395 0.03391359257110919 0.0834747586979046 -0.007132617526746034 0.06314799710329995 0.025372247826788208 0.022914672490977013 0.019736945185091746 -0.007669587656067156 0.02558054216172379 0.06484418580077562 -0.03351901506367553 -0.014158918875564325 0.05179788364886503 -0.0662269609208586 -0.023675621143234935 -0.008951934766368646 -0.05423453448305561 -0.011012552548607576 0.057061212235805105 -0.02988820736581283 -0.01099295751076209 0.006890099163237494 -0.009821029220997724 -0.007180809413548973 0.02426502070686084 -0.011840077656615223 0.03124608169015922 -0.07530130692724704 -0.013461951476406829 -0.02299293491247494 0.0194347102430194 0.03079607237108895 -0.052803508773980976 0.0030333942186614375 -0.019959136478914733 0.060797217162407734 0.015668562129821168 0.008632080175467743 0.015080304047607369 -0.022317982260436308 0.007932751428279717 -0.007852981145106647 0.010302181390037758 0.020766515434887257 0.020156739236540225 0.001234123116628544 -0.015529040669943558 -0.01967168993687393 0.04262880089035612 -0.012717310674552588 -0.0012838600645053433 -0.010770100720498912 -0.003821645809257292 -0.022024248774030232 -0.03743716681783725 0.044551895825278985 0.0020199018031474975 0.020479096880882543 -0.009728367643152986 0.016702934469985335 -0.03323203147390297 -0.008618736830985269 0.03665803724122722 0.06439273334838905 -0.05645000882529215 -0.05205568982072836 -0.051739693191436176 -0.014953493465789914 0.009743768220279874 -0.0009970154784232483 -0.01028304588579717 0.022327269757399196 -0.003006430901688186 -0.034855091037312186 0.05275444916947306 -0.006366929648591564 0.003085669718609603 0.01366089879830849 0.012660671995988236 -0.027693792107273643 -0.02081569988545806 -0.001560963830434093 0.019775321693921863 0.036988155164875545 -0.009410709679413954 0.04082925522505802 -0.0519922576991683 -0.03479156117461939 -0.019589464141679568 -0.0012709790372466047 -0.02373093151411195 0.015863677602179528 0.05592729838445852 0.012937046172793301 0.022495379632948787 0.0006148089060848786 -0.0393146591938437 0.022614456727164393 0.0051335332359070465 0.03258079273815287 -0.008254249377860545 -0.00416739890272729 0.0012909865355132872 -0.023186876732625327 0.00809198781947659 -0.04101211808587169 0.04284143035858157 0.051394402243434854 0.010842575851806441 -0.018638566612649187 0.029516374027716747 0.057872801931420935
26 -0.03738176334424499 -0.027530298432434975 0.024112616029162204 -0.00041859612548567597 -0.023224927834350637 -0.007685118028851806 0.021745071885770906 -0.03933641418670245 0.0020497169972429163 -0.0034450865836035266 -0.04511243156805858 -0.0446952318440892 -0.004776588123108884 -0.009011134480141948 -0.01437697754165286 0.018825030956659994 0.012903621444571644 0.05214649167879824 0.027893045861040126 0.044466233506251285 0.0064135856377443776 0.01598477767621851 -0.022739005449168546 0.04565013193575266 0.017781169685225546 -0.007581212885487103 0.03736330704323226 -0.02216416335940291 0.0391668124342785 0.011439468699599496 0.05732556850570209 0.024176599599168992 -0.016391329709425376 0.026467382075710966 -0.07169910871158836 -0.012827902226758127 -0.00879389902303179 0.030301200824344503 0.0420548446850989 0.0011779095405771121 0.06535483971368096 -0.0030604416108545233 -0.02124758227746101 -0.052660343441518855 0.026124890023674015 0.0012741851802008646 -0.014068998894887028 0.04295236074470899 -0.022569292887491887 -0.021223435560472778 0.03390163849849237 -0.04832803311125804 -0.004323746853053781 -0.0385969285863464 0.021138192667210738 0.005543942880138211 -0.03620498465516227 -0.015575423407497542 -0.0368509163547824 0.01264154549887992 0.018741186520617216 -0.023546788875780267 -0.032664377076455274 -0.012307512993398424 0.0572431819488385 0.029623020951513347 -0.010554793240304597 0.05120119463369116 -0.05424716454164641 -0.018415446857972216 -0.02956384977060784 -0.0035752040884135757 -0.010112986503592226 -0.030953894351883535 -0.019238953562604938 -0.0025987778013299174 0.004497422449431866 0.022973378929480138 -0.01070000944659492 -0.007992334524664298 -0.03489561227780764 0.009350487721617937 0.06981072766208239 -0.01636073251348099 0.04823626472111371 0.03285951384894258 -0.006130574576590742 0.004013465433410302 0.007347938712028604 0.027046580773246752 -0.006152488984652185 -0.021021545470686995 -0.029504447395273786 0.002514830799441871 -0.03389941305756442 0.005095753212418848 0.025816338233990148 0.0413322373912234 0.012901654070982694 -0.016979604263344123 -0.011530715840778657 0.02661021455380749 0.0014261058343863224 0.006428323502862473 -0.05025049839902932 -0.005334048505962224 0.027126028812434973 0.05008420843178882 0.03342198244761203 0.024036116710647502 -0.0037252720558721875 -0.004971886982217274 0.011566319419944116 0.014212917515343454 -0.027974476814270528 -0.010210342490741193 -0.019565128298886243 -0.02081431136781952 0.04370748070667653 -0.04810855203934946 -0.00032056877273275606 -0.03573772251233416 -0.056908793288350114 -0.023439761525030082 0.007145116411753026 -0.01636768682849706 -0.012759651473327478 -0.013364095390382412
27 -0.03915171038493928 -0.02696210653946431 -0.007827901259954893 -0.010759534399716999 -0.001974922942306882 -0.0058199019198679255 -0.03653830587499988 0.0087985901900241 0.02397655241996891 -0.04012426238308852 -0.04846800842184819 0.04026817017788014 0.012976476739767472 -0.013242178650742308 0.016745875460018485 0.043178155221206625 -0.008004075249181652 -0.013562339099003715 -0.004602811041176005 -0.04774182341194198 0.06091070930978004 -0.006461782565800694 -0.00382013473753495 -0.031266501508761695 0.003766230969637127 0.00872533954159807 0.03482855512563932 0.01196750578505169 -0.05228237576655471 0.038196765113652116 0.02221650535900485 0.008720949078935546 0.016572523581759382 -0.014304559879706281 -0.01855279330934443 -0.06665825035264074 0.031174804602325027 -0.017002377459441914 -0.01956360388685876 0.005798415939125241 -0.027254561978210023 -0.029755483487030797 -0.015505614315128747 0.01956081964965815 0.025436875410981517 0.019722118223407276 -0.002648404737401726 0.092665717000547 0.04135742339230802 0.05539255823645696 0.0025390528863554153 0.00014273215216598436 0.021449404374109148 -0.016089728270431276 -0.008231348777929038 0.02636976608565249 -0.033803994542385175 -0.041725677146379224 -0.043266801851085085 0.026635682727216437 0.03492623820968075 -0.039615825303668376 -0.04506547797771808 -0.061909630317814116 0.06287312296216929 0.0009099601772004791 0.03180703294650637 -0.002507928373881148 -0.025335237289696583 0.05910542219953246 -0.012642680442557121 0.009673017457855945 0.053828619718452486 0.00928188371184947 -0.028337907942299845 -0.004935777956236277 0.037549473525522896 0.003850413746915866 -0.010279557771007374 0.04893527646515176 -0.012358221037340975 -0.0049630802705621395 -0.0037165985148887677 0.004401822284214681 0.006393215502256448 0.01829102377693776 -0.007195062694257447 0.055112955058495686 -0.001976767083990478 -0.035404741642807235 0.06805653107552337 -0.003222069227211319 0.02492364115471917 0.018903214175472766 -0.014179034705340711 -0.05795481780024871 0.009782873531173818 0.03652434555103211 -0.047683983734507746 -0.0045290572378169575 -0.02850293793244532 0.03226589376255335 0.04130552309107279 0.02883606296762248 -0.042939851323681145 -0.018765876522285795 -0.004230461395638609 -0.0016192637905628022 -0.04406213504216162 -0.013808130053513662 -0.01964872076134729 -0.012174526825255631 0.002763568203977413 0.026081917146463584 -0.001746105568074716 0.03138042962724706 0.04110508121053097 0.0030653025034971105 0.045758612418798056 -0.027847855862355404 -0.034354477070215265 -0.03781407579402419 -0.011500990093463845 -0.023880802072685718 0.0088735691859863 0.01065784372432552 -0.0060022889259132755 -0.03226082199346639
28 -0.034024366446557354 -0.03206790341819904 -0.04023649214754533 0.020153543599120062 -0.040634561894228365 0.008206500661318266 -0.014793687679126156 0.011570286774424886 0.06107873181093519 -0.0050061261461504265 0.004273058502070002 -0.007174102204723001 -0.04250122871960214 -0.017312010383196453 0.026533516956977764 0.003944670530100489 0.0017635287018274257 -0.013204576890146187 -0.0016468537390511477 0.018211337837667565 0.05698948448961684 -0.020249757977111277 -0.031670358339532335 -0.03250337472438647 -0.0011259155233242322 0.03244822245873891 -0.05079597578949743 0.018372304873300584 -0.036574861628000714 0.0024459484225102888 -0.0038734053535745103 -0.017496575384242652 0.005155724202312943 0.015791110253121323 0.027241783920644694 -0.0026170362464589575 -0.04689805462308538 -0.0006746733023006674 -0.07701655900109569 -0.03154158115108082 0.006731334066518284 0.02340617620529471 0.02577557244125956 0.016321859648451096 0.02538289969568657 0.00802694240490541 -0.01569174713366407 0.041899583642538894 0.0005862767698223797 -0.012580115532068427 0.005156986240679361 -0.04257233905243626 0.014614272796222074 0.0007355002811456665 0.02041002198776145 -0.019741751670849635 -0.022371193416971153 -0.0062209892921351205 -0.050399066801045396 0.010972495561294275 0.021382566715326966 -0.03395190106476788 -0.051779561967932194 -0.023129379561512307 0.02670674581901043 -0.017123806903060253 0.04129704454735005 -0.0119269107578916 -0.013070000160979771 0.025211589827984535 0.027642388650993735 0.026540864307382766 0.03561073481321076 -0.006596249390428884 -0.018807726031178494 0.0007272583721343695 0.02027747583753438 0.009229079987607565 -0.0015751860034553208 0.055886600438486596 -0.05803396526485811 0.02375185378780056 -0.015103505155193634 0.011274384821211098 -0.01734238412188267 0.01575292642632535 -0.00817884975320657 0.014813287060075587 0.0348228322578956 -0.03082008092127013 0.04300569418386834 -0.0558354406934213 0.02253153465238098 0.0743880758544152 0.022407542310077768 0.012037141020532289 -0.056369105940594494 -0.055327618379608375 -0.005625090096545919 -0.04859103618020727 -0.046360917230502355 0.036595184983278406 0.03686979319412886 0.07439539819117816 0.03259569759511492 -0.08900468694316176 0.014313069350312096 -0.02939294737605089 0.004237761339252802 0.01972830979805359 -0.05021864159438391 0.0043013042492305005 -0.03300642197336848 -0.035692075454845096 -0.0344599006943241 -0.024277946618245196 -0.026355404704720767 -0.008418925581051189 0.009167322514313915 -0.00280611724353597 0.009787459991093653 0.03926269258950432 0.020589969729119074 -0.05577654975762309 -0.05180082527262221 0.03112945367063395 -0.014680263243402658 -0.035711196978069445
29 -0.0017622693241713218 0.0279570687103295 -0.006370125272618902 0.04676191605677911 -0.04065642791920778 0.06020357648891428 0.035885861243465905 -0.015413119041335176 0.0526043251423126 0.04744300674926572 0.0010154463644896652 -0.06137022060951202 0.007271341051539962 0.02577484244633111 0.022756306822453845 -0.005136491914551134 -0.035763919598680895 0.022973272809975756 -0.05422671246552113 -0.03759714272727294 0.05375861345611347 -0.025128430706367236 -0.026652134228804643 -0.0023377217133669238 -0.07227176942153088 -0.02713699623033995 -0.03195279048845737 -0.021856253277580243 -0.005366528105063049 0.0027691266516017663 0.03923553581442049 -0.02603214855823146 0.005682452389146247 0.062908860649088 0.01312082991402283 0.007008344986750059 -0.017580668588890253 -0.04509818820937856 -0.06268085938335223 -0.03286305691008794 0.11131040038820161 0.05619288865323417 -0.007751135588395267 -0.015618782370285383 -0.005333108538385009 0.003670922852243867 0.025874330103103218 0.05189653554634319 -0.022706170045226712 -0.00016846141640579118 0.009642962044894733 -0.05545939929242313 0.04774414387493171 0.036005603139579866 0.01437324818020959 -0.009315311248746372 0.04596144884589947 -0.016178419923377513 -0.05157360962141759 0.05011759180924215 -0.02647141314128415 0.039308033035823094 -0.0264228243659632 0.0040678000063630385 0.027475744090067495 -0.006610463749442255 0.0013560468878712352 -0.04207444375559831 0.01615619299938817 0.02690103518548205 -0.002066368593308959 -0.054143816462239966 0.02451223746217146 0.015689607304671307 -0.006315757512764188 -0.024286221764933055 0.025059466019068107 -0.0026072871041944216 0.02838343375624293 0.003129830976242787 -0.015246864235956871 0.047869317024113955 -0.02849973152368575 -0.0039819595303283465 0.006684529450783399 -0.008375469089014757 -0.021699381752556642 -0.03627305057458973 0.00798394023735921 -0.033401006120527155 -0.014440386843307779 0.004461586213416749 0.010065542907337254 0.020149271097573182 0.0024037711068001454 0.026858134914297248 -0.04462421884096973 0.022696134730208293 -0.012182333089692854 0.016989135339587236 -0.01131070565274794 -0.0030392566420531825 -0.02310076935800361 -0.02311454895248761 -0.0036760936859851602 0.013015212123548272 0.012912411000023152 0.025322816183934657 0.007332300468166314 -0.0044018894205098795 -0.010731287866380635 0.008578242895334652 -0.012947977372359672 0.06556045565244709 0.01986022000266985 0.04453745043555412 0.05051197984952414 -0.05614403168275298 0.01047570278896002 0.024400737587296384 0.029420772443864297 0.01141538276219751 0.0501624404324258 -0.04780552730505094 -0.006924261248478833 0.028755054796709357 0.03221535150892034 -0.08623676669418834
30 -0.0373034264168763 -0.020436441179554222 0.0363173574291808 0.017978908897649727 -0.0025027059701025183 0.013820322007356034 -0.009496497546237137 -0.0595926346565855 0.07255224876208304 0.027972020183399747 -0.028900419059033417 -0.02219719495662909 0.04816517489954419 -0.028102473401801453 0.04062874470400508 -0.013476048038958462 0.008085102362219864 0.02115573903932851 -0.004550724229908856 0.005220069543139764 0.03662166718204611 0.014761897682177049 -0.057049014864125586 0.056966593919894226 0.003065025810763423 -0.015610474374168933 -0.015015092319630398 0.0183922548780415 0.016488228839122487 0.0065392350622406805 -0.008555840778651841 0.007260345711831997 -0.016589670385415693 0.025532689438877904 -0.014951986309683262 -0.028034542874289227 -0.009957485050789335 -0.04053906500730002 -0.008047486518240046 -0.00814192390283601 0.007639759692859073 0.006391395488801549 0.009533613920727428 0.025369955297913364 -0.004114704087388681 0.027153582027113016 0.0006367427407388222 0.014935857424242024 -0.022846991818312203 -0.003160248008378534 -0.0003025788256823454 -0.07138727256679044 -0.021510338643709936 0.0012189437266736229 0.022964141545905658 0.0031539843726908615 -0.018065189022500875 -0.0027464930173458774 -0.06605922038148931 -0.029798505136442305 -0.03234127398644187 0.030455255647797035 -0.018836696373888483 -0.017202372608946092 0.05368601107906964 0.04759140014173041 0.01319687273766812 0.006532673198746163 -0.007595654677729116 -0.039300264508037884 -0.016984317350589154 -0.030381636772479133 0.04145643192706328 0.0005575513749312169 -0.004213388382215877 -0.003493802742273303 0.03726272951414328 0.05448119602139722 0.03921912451929416 -0.036165512866764116 -0.04941804394361713 0.06752449302674166 -0.011906644496370375 -0.017698529092408464 0.016666529463675854 -0.04316413971141391 -0.026924604458559327 -0.008081284409802702 0.005025921494240334 0.039608273388869325 -0.04862072033417158 0.0038196283752945943 -0.0516146267115592 0.016759344482251304 -0.025874070205479965 0.014883361566609726 0.044412279046877313 -0.03642077651404014 -0.0561471357647581 -0.007430105946044263 -0.016536391430765515 -0.04189486847377187 0.02967994028557565 -0.004701259784664977 -0.016229191261489907 0.047199855366607514 0.04409634017502925 0.029637927640567906 0.03215246917819829 -0.021546059020652094 1.3226771109097131e-05 -0.02652516119669737 0.016969821414915143 0.022459838815392465 0.03963430224931818 0.005058023440010464 0.00016027701618893584 -0.0026427524707451377 -0.016833460976718364 -0.03150007602466773 -0.02828539366778187 -0.009039835278170143 -0.0020388907869022363 0.10684595788639029 -0.00034876797723398307 0.010840568289147413 0.01665380688322077 -0.044423564155622056
31 -0.037667269947543824 -0.02227049579974742 0.027677033902236532 0.017148483864034572 0.040749254173363184 0.03157674843435639 0.032490882119778346 -0.038616317957753665 -0.009528611570779734 0.023396875286663215 0.0023632110271514036 -0.03801714147018743 0.05009331337143143 0.007164293385997336 -0.022996635726566177 -0.02421322859422207 0.03767245930254032 -0.017199353791305383 -0.023447645513712066 0.007257496600876112 0.009158796946174028 -0.03995637578592333 -0.0014177771255643253 0.054097449564581575 -0.000935917113917903 -0.004048333078423818 0.00824990221799292 0.07313520507274891 -0.013258284958235899 -0.048654560714769944 -0.006022900236230594 -0.0370820451909985 -0.047650907209696614 -0.016133776228916163 -0.02001659770715208 0.00670721516204872 0.035478441365132285 0.006377351629713828 -0.01155168128055606 0.015867262904074034 -0.03348379226625368 0.06794622840274472 -0.009449160670474513 -0.031374147136867314 0.012073434023743532 -0.019064503651439624 -0.006805242186988762 0.016271204769726905 -0.001681420476508258 0.022132580732712858 0.0019646393261555607 -0.01612677407271548 -0.05540959320451535 -0.008575172300649013 -0.02407062810036238 0.014120543323911125 -0.017823422852024484 0.004991067336363253 -0.00764627827962338 0.006292588225833126 0.03475546247749739 -0.023628285122137594 0.027358806806206365 -0.021717839404214314 0.012791201385239964 0.025531859457522038 -0.02812038970794555 0.02662536610841895 -0.09554841383096363 -0.024289352807490325 0.01142106002775181 -0.02206326757618245 0.04863887599139706 -0.009229757128223375 -0.011672714479156158 0.04632782328231758 0.03808149154389206 -0.029093503260599913 0.025866858701647292 0.02347664400316723 -0.04152193865958335 -0.007693256542540808 0.0015683891691029446 0.03336845579500149 0.04992121536182889 0.046544019660638085 -0.060221768715536 -0.010800711064654958 -0.04649219398541415 0.011325825538261976 -0.037725596157443614 0.01095602353731163 0.026888369655340544 -0.02013146381728533 0.03745736634392226 -0.017126608562093814 0.03156198603741016 -0.014303262921302056 0.03078564974503181 -0.01989963176900403 0.017602326216286792 -0.015985285590399623 0.020584331049235485 -0.02018540437526677 0.014042037010210746 0.023454509958085967 -0.031307868145049204 -0.002366393327854328 -0.05497834215948657 -0.050058401474507026 0.01614208497430299 0.017975421166543493 0.05860197368308416 0.030021661723459842 -0.0325511116307494 0.011285318866296527 0.04864316760364688 -0.037087721589275764 -0.02513684284335423 0.013130520441664241 0.0034750781786967093 -0.030398187732659232 -0.04605860664942397 0.019726891947968377 0.004787879728882307 -0.014400596670311275 0.023760306772183215 0.00014658890299676556
32 -0.03562960304502997 -0.028516943746745023 -0.007997886843392666 -0.023633414776025038 -0.009555518057823042 -0.008726950047038965 0.010792727420337564 0.02156518447563562 0.009725332138313362 -0.02586010072816305 0.05484509774072738 -0.016771494641687607 -0.005490192108467365 0.04627013730951866 -0.012804132273153378 -0.03514196181872117 -0.00893481766976676 -0.0006735247594726157 0.019036878217961208 0.017358585685131146 0.03154815388597572 -0.007646173439489095 0.007782076885135772 -0.005548376805626103 0.02047204572027265 0.06554724207829647 -0.007154004959451138 -0.021712354369906702 0.016723532245793298 -0.05701602299288525 0.0064567513528139475 0.0008477591447049182 0.024780734353247437 -0.02385028932705157 -0.014223796005778378 0.026795599628570983 0.03391505402479853 0.05713802248056087 0.023876303593345256 0.0009841554653307598 0.0032812266065848457 -0.006587851446693824 0.01280331015502701 -0.014658825045662419 -0.0030821592464432067 -0.022111208930220266 -0.019267134681953874 -0.01930936418272819 -0.00363911854249121 0.0055623696982495755 -0.04778569513729768 -0.009045082268535188 -0.002718030653303288 -0.01076461815922818 -0.054798772444035304 0.015071257462528203 0.03349228249644699 -0.03878624541275444 -0.06681755655762843 0.010501204061360974 0.013474207471847873 -0.004168655183968445 -0.012483945799653926 -0.045016269983154264 0.05801772315751495 -0.012617157915588543 0.0011620702013781412 0.01260798822554458 -0.0142274047311755 0.019639908047699026 0.0013182666718334977 -0.07347252912184686 -0.03584424234412691 0.01910178033395112 0.023226891801026103 -0.019820226349327816 -0.029131621894230034 0.0024396474505583472 0.0103135194695039 -0.016977244275696964 0.05838157294397949 -0.023977333649791495 -0.07244084172010053 0.022154499535875314 -0.004812081277117957 0.03083319533764538 -0.07455106003892882 0.047497465691828944 -0.02532434014656767 0.04931651859785491 0.034915433844564955 -0.0013948696976831727 0.050920147046372516 -0.03795997764606532 -0.022460140819934138 -0.04587429923989613 0.005525582373629306 0.017409758999908518 -0.011624245425309114 -0.001441473778073382 -0.018971637272837415 -0.019742438971402477 -0.006545383620449815 -0.05840299709664758 0.047826817003347274 0.0132032008536145 -0.02571421693892973 -0.03405044520243883 -0.018870247039205642 -0.01795646537858726 0.017798162239622054 0.05156698010567875 0.03623946401838567 -0.010195359979690963 0.05862367854102858 0.0448133483193543 0.02345859328317987 0.0330475534709822 -0.02319274163431042 0.04553486494364685 0.0008091195198121671 0.031612883429799475 0.02534436456383235 -0.041657614735744364 0.005333708242694081 -0.02074850683865527 0.024953557360879577 -0.018291865091893948
33 -0.040516809132925206 -0.01986859364815048 0.022738128862206376 -0.031495084562600244 0.022553397412818813 -0.009137052746400587 -0.051258222789239465 0.004225056354440529 0.01989492782670756 -0.011207664140029654 0.03450046482761199 0.027478211193094345 -0.0069897248290300105 -0.005406192224263271 0.05576889477041884 0.024583409250839756 -0.04027029344536565 0.0011122269946247894 0.05598289117541522 -0.0016399688235565855 -0.009579404316605184 0.012222519843294987 0.0033378793287052347 -0.05281652891182562 -0.0017004422758612886 -0.01662400575790644 0.013240257576453373 -0.033010357647745556 0.00028684463195422947 -0.02866248109580017 -0.04998883000324566 -0.02237843987166887 0.01363515494629343 0.007716488886750135 -0.04159226933716811 0.014796481004119885 0.006216291060590621 -0.013732030942833866 0.019949655447025722 -0.0002668668632441394 0.007765203080516368 -0.04315247753993941 -0.05406078243095304 0.03484066162350508 0.02663560481253877 -0.06625872481943532 0.01716396795102036 0.035554916321728955 0.07835559691505778 -0.010448715678857003 -0.014747825343155645 -0.03203979123851626 -0.04683315429253632 -0.013707851429620489 0.02881971134006281 0.03618377586107282 0.08477676232918645 -0.019607330824844556 -0.0034098075916113146 -0.0309176123535985 0.039583626579215575 0.02819121244250059 0.0011153388207674933 -0.023783931060754188 -0.02387686901007925 -0.021036698131670792 -0.013466024124205335 0.007133777855150266 -0.003766542718389905 -0.0005977179396955565 -0.0700701146171621 -0.035004607628445865 -0.07027530634025962 0.031603281234805415 0.03561383652500999 -0.004867322463755106 -0.037126872214598775 -0.023730809956309287 0.02375519483345943 0.006162515719086964 0.020599752116821187 0.014794446795432006 0.030818465497274523 0.06556156671915957 0.03309225144047935 0.026678284246781574 -0.03522718592899208 0.02435708390782247 0.020174448172930435 0.038978661121393005 -0.004909192597783825 -0.009903043477577103 0.014771071791680317 -0.046456795214803635 -0.01950890977715118 0.03152652203692156 -0.016068613460342857 -0.04506236041902595 0.0020378393912493845 -0.021180262165521595 -0.08846013098730839 0.020574177998288368 -0.015825394806062227 -0.02539368166282014 0.009993727810056937 -0.013951654942038665 0.04987738497128286 0.03646773387562042 0.033257116521393605 -0.002917702508786613 0.03950293410169612 -0.05989983118023132 -0.01440202355783358 -0.027928934237043058 0.022063826575139375 0.012726866013022383 0.004599124858303442 0.019702405223874026 0.012804642189647537 0.02077218786631125 0.00813991282195614 0.004747411282963643 0.01786051022300135 -0.018735216391477176 0.04167965853818802 0.016271878474512322 0.01729309622274274 0.04772696538908996
34 -0.0023283885486605374 0.04758133621435267 -0.017255831422879793 -0.009817562380735221 -0.020478613080812294 -0.02635850289453713 -0.04633677733646947 -0.012768598706257643 -0.05816759612062666 0.03169360791177824 -0.003357529155084441 0.0038536741142065722 0.011656399450015384 -0.049091665370279924 0.008415502011566843 -0.01039097161933558 -0.042779970139578724 -0.013763838286525382 0.09165819736480804 0.02416560267218601 -0.003584949532885643 0.032427796169845216 0.016773317551886307 -0.0023196388255479947 0.012924127038796439 -0.05799739116613338 -0.05875636498487441 -0.005924630458640732 0.01909283256134023 -0.0017532926725069584 0.004742158439291949 -0.05735282910294221 0.015859834112564978 0.025869786780053534 0.026292313575800363 -0.010115735247948076 0.020130601902787353 -0.05817742310630012 -0.005083682852559946 0.004656736199413458 -0.03267777609006361 -0.002445775709233904 -0.0005674746220828662 0.01636360438344269 -0.003030065127372423 -0.00465188897690058 -0.014736098961818968 -0.04458394532069719 0.02742891796654428 -0.025002709716841442 -0.04954648864578156 -0.04674796659698994 9.209979040959406e-05 -0.033490624227410296 0.04349044479861789 -0.022989837535575024 0.01045652675431731 -0.07112234824547307 0.03840229185071623 -0.014814880124397665 0.013000792201932272 0.052356469880121596 0.008447852481711626 -0.034827619621654454 -0.019938803899945456 -0.0019765245382948157 -0.013403984072609431 0.06146938966806595 0.008825719107738042 0.01092063161594157 -0.010384952136947272 0.031583756486046506 0.0028565268487133607 -0.022983262196002916 -0.003627576993821539 0.013351315288806242 -0.06522779403604269 0.012246603375145338 0.025310315015810225 0.028838368940179788 0.01986005868548705 0.027405092789415216 0.0371210677717666 0.06358199283237101 -0.00735011417981027 0.06193223238388156 -0.03896498938418919 0.020294831635797123 -0.021013123627690866 -0.01716193056501468 0.05063969692028857 -0.0122727584976622 -0.005936869789463775 0.024260184633044028 -0.027482487792523914 0.007342640099060535 -0.013758176454988946 0.04434783744100523 -0.023580638055830414 0.04069822232762763 -0.02205235538528537 0.05127208841104046 -0.012282401192414477 -0.036526882409551646 -0.023067503323127604 -0.04177574467395581 -0.03560190031004706 0.027730901110132305 -0.006143127988048626 -0.015802792524163528 0.04554333968068582 -0.06175924008390785 0.036705160998493275 -0.01375068524136999 0.021013919363929774 0.010348494943818958 0.022795007646626828 0.028010992092173812 0.023675592123652976 0.010939425870847104 -0.002288456034845608 0.02535458556970351 0.0028770440260964445 -0.06526405868670929 0.040838010285714925 -0.031050725313306153 0.05240089789576946 0.022101450325383982
35 -0.0072302157835525535 0.05056248392882756 -0.027078179181632904 -0.0003246530224900308 0.08090395217787526 -0.037207262364603 0.03148496796296143 -0.019267343545995696 -0.034049060071442386 0.027686636589152318 -0.015491073112629861 0.024354361182115473 -0.04960291973982138 -0.05781208104678 0.06384699471161691 -0.02691813145605698 0.023660565914854267 -0.02659301725875406 0.0469181630928237 0.03907066255275408 -0.0532021977039658 0.059352734664891584 -0.05004222687976047 -0.06671084487723267 0.06879994076090745 0.019853536626203743 0.035475302220148636 0.0005629667156088823 0.007083285925608536 0.04289922592169762 0.018586189434709317 0.051488696689668725 0.005374257758648759 -0.03360566249975849 0.013596323582255668 -0.047232025105287886 0.05057847540479683 0.030288540670646288 -0.023753048461031153 0.010082203663291055 0.019565133692315603 -0.026287166402191548 -0.0019479994080712126 0.004727227686592863 0.0004077842831045821 0.043742735076400675 0.04340371662525484 -0.031249882559745222 -0.0181668311498289 -0.06769949010218095 -0.04666374889661744 -0.01582928816956094 0.011934886409805529 0.05402063048393446 0.001681717426258532 -0.006285337375774074 0.004376022534429272 -0.04096135598123895 -0.010742658783578884 0.0044308771265414056 0.01415392533387407 0.011150531613332005 0.001279578357463308 -0.01846363219795823 -0.02326169444763787 0.01067648036133981 -0.0008502847510726061 -0.037928741483634426 0.008613635492116785 -0.004213760940948105 0.024158777229949017 -0.05005707353310374 0.028061799009280946 0.042818466103562554 -0.011009893902798294 0.01313819806176247 0.0009770827102071852 0.016575047858150234 0.015737251640190703 -0.013552563701615271 -0.01402785999600615 0.02886190448234208 0.004901646345499408 0.05810562743559267 0.036147172629501255 0.04703898151673541 0.008379207370053493 -0.05648987727352105 -0.006831259085978878 0.011446512770355338 0.024912780157329156 0.026287613129297116 -0.008990916753118118 0.0314534196252219 0.02116461283444488 0.005380907266617907 -0.052016221698025784 0.03588397776373415 -0.04242477589093536 -0.09038604326128295 0.0316441491356407 -0.0128354690841293 -0.010966266653736631 -0.03368470532359508 -0.033708959021620105 -0.007100804320070149 -0.004866029652774552 0.01559980910405136 -0.013628365349314733 -0.011105221793214923 -0.013999895578981566 -0.048674029293442354 0.040062898989328 0.02460284891618077 -0.03557622354235432 0.0012904569711648813 -0.021584040393928996 0.07490183663007106 0.04657679641024944 0.014338142522106058 0.053579266240673766 0.04779487436874077 0.01927073675362704 -0.003947114294117799 0.014947945604718373 -0.0027293403558729342 0.05589020101096966 0.03141450062647678
